tree
version=v4
num_class=1
num_tree_per_iteration=1
label_index=0
max_feature_idx=39
objective=regression
feature_names=rsi ema_fast ema_slow bb_middle bb_upper bb_lower macd macd_signal atr range range_pct body body_pct upper_shadow lower_shadow is_bullish rsi_normalized rsi_overbought rsi_oversold rsi_divergence ema_cross ema_cross_pct ema_cross_signal price_ema_fast_dist price_ema_slow_dist bb_width bb_position bb_position_normalized price_bb_upper_dist price_bb_lower_dist bb_breakout_upper bb_breakout_lower macd_hist macd_hist_change macd_cross_signal macd_strength atr_normalized atr_ma atr_ratio signal_convergence
feature_infos=[0:99.999992774566991] [139.84172317124145:161.9044463934776] [139.985622134078:161.8633237416141] [0:161.88062500000001] [0:163.46980690478767] [0:161.79437304114759] [-0.81371595198632463:0.5970017482619312] [-0.71071676355148927:0.57046413909616056] [0:1.1185000000000032] [0:3.0139999999999816] [0:0.019088400286395583] [0:2.7609999999999957] [0:0.017392783349291913] [0:1.1620000000000061] [0:1.3590000000000089] [0:1] [-1:0.99999985549133985] [0:1] [0:1] [-89.854942239242206:87.39492126263913] [-1.0350786189282246:0.79769146520030176] [-0.006549151847441992:0.0054000600139474395] [0:1] [-0.014331159141718369:0.0093718883724765341] [-0.017546516855659215:0.012454695205154643] [0:0.040499613571001979] [-0.43688158368442731:1.4336560662958788] [-1.8737631673688546:1.8673121325917577] [-0.0052970182941306683:0.036124521721180282] [-0.0076876891014397734:0.023272312637101344] [0:1] [0:1] [-0.39438439545005155:0.22667986490852632] [-0.22179621176243974:0.13953656655988411] [0:1] [-0.33719861601597845:0.18761226476060436] [0:0.0071150494268520962] [0:0.79457500000000281] [0:5.222190663820645] [0:3]
tree_sizes=1511 1246 1145 1145 1214 1288 1333 1210 1140

Tree=0
num_leaves=14
num_cat=0
split_feature=2 25 4 38 21 0 29 25 7 28 24 37 23
split_gain=6.08081e-06 1.06462e-05 1.7646e-05 1.58297e-05 3.62214e-06 6.15906e-06 5.01472e-06 3.32341e-06 1.6827e-05 2.77014e-06 8.19646e-08 1.41493e-08 7.09738e-07
threshold=157.26542796134086 0.0039990262312426554 160.47067047621084 1.1504029571128864 0.00017705521856313541 77.332055940166882 0.00082676469721687008 0.0024351754010196671 -0.070972531330080108 0.00045810267021789442 0.00065522874440280458 0.10512750000000105 4.9628040288163864e-05
decision_type=2 2 2 2 2 2 2 2 2 2 2 2 2
left_child=4 11 3 -3 7 6 -6 9 -9 -1 -7 12 -2
right_child=1 2 -4 -5 5 10 -8 8 -10 -11 -12 -13 -14
leaf_value=2.8855772141851433e-06 1.5628140562678943e-06 2.8855772141851433e-06 2.8855772141851433e-06 -2.0961501857441666e-05 2.8855772141851433e-06 2.8855772141851433e-06 5.6202870541565131e-06 3.3122007325365745e-06 -8.0311185106159612e-07 3.901606909723475e-06 2.5767357386861539e-06 2.8855772141851433e-06 2.8855772141851433e-06
leaf_weight=5433 1034 101 70 219 1202 957 5052 2886 3632 7123 2148 578 919
leaf_count=5433 1034 101 70 219 1202 957 5052 2886 3632 7123 2148 578 919
internal_value=2.88558e-06 6.64794e-07 -7.36655e-06 -1.3418e-05 3.05274e-06 3.91145e-06 4.89476e-06 2.88558e-06 1.78605e-06 3.07023e-06 2.88558e-06 2.88558e-06 2.75101e-06
internal_weight=0 2921 390 320 28433 9359 6254 19074 6518 12556 3105 2531 1953
internal_count=31354 2921 390 320 28433 9359 6254 19074 6518 12556 3105 2531 1953
is_linear=0
shrinkage=1


Tree=1
num_leaves=13
num_cat=0
split_feature=4 35 10 12 24 25 38 21 28 7 1 5
split_gain=1.38577e-05 9.36321e-06 1.41513e-05 7.57459e-06 4.33266e-06 3.93963e-06 9.69453e-06 1.42556e-05 2.46695e-06 2.01312e-06 1.28994e-06 5.06205e-09
threshold=147.8297220063948 0.018261710605074113 0.0017050241631439494 0.00080179021083569713 -0.0010665954317879611 0.0025673130430584187 1.1395605690667463 -0.00090957681447103786 0.0008442833815179375 0.01762888044765705 155.50202541204905 153.35003611597048
decision_type=2 2 2 2 2 2 2 2 2 2 2 2
left_child=1 2 4 -4 -1 8 11 -8 9 -2 -10 -7
right_child=5 -3 3 -5 -6 6 7 -9 10 -11 -12 -13
leaf_value=0 -1.0066233820777838e-06 0 0 1.6522551398556953e-05 1.9743799383015183e-06 -6.6856012181550015e-08 0 -5.2137338186920524e-06 1.3573150508177532e-06 0 0 0
leaf_weight=639 8226 899 102 359 3964 2831 841 2920 3305 3770 1394 2126
leaf_count=639 8226 899 102 359 3964 2831 841 2920 3305 3770 1394 2126
internal_value=0 2.04695e-06 3.09127e-06 1.30989e-05 1.00202e-06 -6.16477e-07 -1.49583e-06 -3.41026e-06 0 -5.24711e-07 7.80746e-07 0
internal_weight=0 5963 5064 461 4603 25413 8718 3761 16695 11996 4699 4957
internal_count=31376 5963 5064 461 4603 25413 8718 3761 16695 11996 4699 4957
is_linear=0
shrinkage=0.05


Tree=2
num_leaves=12
num_cat=0
split_feature=7 2 9 35 19 37 35 25 38 25 24
split_gain=9.84351e-06 2.19271e-05 1.63676e-05 2.73044e-05 1.36977e-05 1.53582e-05 7.11005e-06 3.6945e-06 1.11849e-05 5.45766e-06 1.61538e-07
threshold=0.14152927466722084 146.87549983748696 0.14150000000000776 0.021106398911471907 5.0673573841922819 0.14698750000000035 -0.033222874381414531 0.0025673130430584187 1.29165925054829 0.0011584178095714712 -0.00048559162275736576
decision_type=2 2 2 2 2 2 2 2 2 2 2
left_child=1 2 10 -4 5 -2 -7 9 -9 -3 -1
right_child=4 7 3 -5 -6 6 -8 8 -10 -11 -12
leaf_value=0 0 -6.2945263561212e-07 1.1558456825183986e-05 0 0 0 -1.6576877770674625e-05 0 -3.8342330289601411e-06 1.022473810886549e-06 5.122080137293392e-07
leaf_weight=510 160 8445 1226 325 94 49 416 6214 2584 9850 1539
leaf_count=510 160 8445 1226 325 94 49 416 6214 2584 9850 1539
internal_value=0 1.42988e-07 3.8961e-06 7.84898e-06 -5.77405e-06 -9.64967e-06 -1.44102e-05 -1.712e-07 -1.06772e-06 0 0
internal_weight=0 30693 3600 1551 719 625 465 27093 8798 18295 2049
internal_count=31412 30693 3600 1551 719 625 465 27093 8798 18295 2049
is_linear=0
shrinkage=0.05


Tree=3
num_leaves=12
num_cat=0
split_feature=2 13 12 25 37 19 25 38 16 20 13
split_gain=5.71749e-06 2.05409e-05 1.60444e-05 1.2555e-05 7.89449e-06 7.37539e-06 6.19304e-06 5.95944e-06 3.21546e-06 6.55376e-07 1.4733e-07
threshold=142.92288614344798 0.013999999999995795 0.00030330092515396413 0.0024969294576321593 0.12138000000000114 -5.1660449927787893 0.0011343361943190993 1.8689297019371247 0.48048203580572707 -0.022278583266242432 0.038499999999999097
decision_type=2 2 2 2 2 2 2 2 2 2 2
left_child=1 -1 -3 6 -4 10 9 -7 -8 -2 -5
right_child=3 2 4 5 -6 7 8 -9 -10 -11 -12
leaf_value=0 0 0 0 4.362558641284131e-07 2.0817175563296896e-05 -2.7163951076490865e-06 1.7973796811737909e-06 0 0 -4.6596351975671438e-07 0
leaf_weight=210 893 230 30 1935 288 8296 8529 450 2004 7692 875
leaf_count=210 893 230 30 1935 288 8296 8529 450 2004 7692 875
internal_value=0 4.25618e-06 1.08954e-05 -1.34766e-07 1.81798e-05 -1.55323e-06 4.61112e-07 -2.30125e-06 1.36117e-06 -6.07913e-08 0
internal_weight=0 758 548 30674 318 11556 19118 8746 10533 8585 2810
internal_count=31432 758 548 30674 318 11556 19118 8746 10533 8585 2810
is_linear=0
shrinkage=0.05


Tree=4
num_leaves=13
num_cat=0
split_feature=2 25 38 38 12 10 5 7 20 4 37 37
split_gain=1.15079e-05 2.19103e-05 1.27879e-05 1.55418e-05 4.869e-06 6.26149e-06 1.17868e-05 4.37451e-06 3.18147e-06 4.92777e-06 9.86678e-09 4.66979e-07
threshold=157.26542796134086 0.0040876839424936343 1.1504029571128864 2.0575286262233572 0.0011174146176288018 0.0013663205389764139 144.48458562678016 0.001795813259194998 -0.3441223831558346 147.71050916822449 0.10297750000000372 0.053500000000002088
decision_type=2 2 2 2 2 2 2 2 2 2 2 2
left_child=4 10 -3 -4 5 7 -7 -1 -6 -10 11 -2
right_child=1 2 3 -5 8 6 -8 -9 9 -11 -12 -13
leaf_value=0 0 0 -2.8075485039885316e-05 0 0 0 -5.5160008112135394e-06 1.0819680177085266e-06 8.625356069560177e-06 0 0 -8.7577338802453534e-07
leaf_weight=12331 399 119 190 51 72 301 1344 12980 494 1024 629 1554
leaf_count=12331 399 119 190 51 72 301 1344 12980 494 1024 629 1554
internal_value=0 -2.87976e-06 -1.4824e-05 -2.14619e-05 3.91227e-07 3.87816e-08 -2.63632e-06 4.1021e-07 3.22121e-06 4.01332e-06 0 -1.12376e-07
internal_weight=0 2942 360 241 28546 26956 1645 25311 1590 1518 2582 1953
internal_count=31488 2942 360 241 28546 26956 1645 25311 1590 1518 2582 1953
is_linear=0
shrinkage=0.05


Tree=5
num_leaves=13
num_cat=0
split_feature=2 36 4 36 21 21 36 20 23 19 37 37
split_gain=7.29445e-06 9.62164e-06 1.01295e-05 6.75915e-06 1.40075e-05 1.57818e-05 6.59607e-06 5.19499e-06 2.93003e-06 1.59787e-06 5.91489e-07 7.69958e-07
threshold=157.26542796134086 0.0012911728386038538 160.47067047621084 0.0012629813027265901 -0.00074127819199700678 -0.0022813225000132818 0.00092961990708649068 0.024390095208204347 3.162143020520556e-05 -1.0000000180025095e-35 0.10741500000000224 0.041637500000000223
decision_type=2 2 2 2 2 2 2 2 2 2 2 2
left_child=3 10 -3 6 5 -5 8 -8 -1 -6 11 -2
right_child=1 2 -4 4 9 -7 7 -9 -10 -11 -12 -13
leaf_value=8.5260008350431334e-07 0 -2.3090236845386349e-05 0 0 -1.6614242981160072e-06 9.3905030166979933e-06 -3.3459488560841233e-06 0 -7.4853587071442121e-08 1.0428173424164582e-06 0 -1.3047624782114959e-06
leaf_weight=10813 151 126 30 191 974 1039 2580 1789 9786 1200 653 1999
leaf_count=10813 151 126 30 191 974 1039 2580 1789 9786 1200 653 1999
internal_value=0 -2.46355e-06 -1.63953e-05 9.86226e-08 2.24605e-06 6.51326e-06 0 -1.90762e-06 1.69272e-07 0 0 -8.29266e-07
internal_weight=0 2959 156 28372 3404 1230 24968 4369 20599 2174 2803 2150
internal_count=31331 2959 156 28372 3404 1230 24968 4369 20599 2174 2803 2150
is_linear=0
shrinkage=0.05


Tree=6
num_leaves=14
num_cat=0
split_feature=35 25 36 16 4 13 9 19 25 5 14 14 25
split_gain=6.68176e-06 2.074e-05 1.4771e-05 1.76261e-05 1.24212e-05 1.34365e-05 8.60727e-06 1.74033e-06 7.38962e-06 1.33967e-06 6.67315e-07 2.06888e-06 2.61716e-09
threshold=0.019886693146148871 0.0082404312909015402 0.0014921028649926358 0.82075342050668343 147.80353479700884 0.018499999999988862 0.12850000000000253 0.67227334063811395 0.0026550433883427153 155.47251210047639 0.039500000000003872 0.11549999999999729 0.0033390340461727577
decision_type=2 2 2 2 2 2 2 2 2 2 2 2 2
left_child=4 10 -3 -4 5 -1 -7 9 -9 -6 12 -12 -2
right_child=1 2 3 -5 7 6 -8 8 -10 -11 11 -13 -14
leaf_value=0 0 0 -2.466218758496363e-05 0 5.2462883555217444e-07 0 8.1583616233012472e-06 0 -2.898105551078255e-06 -2.669597135876494e-07 -2.8463919543740152e-06 0 7.5948909303820714e-08
leaf_weight=2243 524 120 243 41 11405 1429 1317 6226 2723 2981 844 124 1134
leaf_count=2243 524 120 243 41 11405 1429 1317 6226 2723 2981 844 124 1134
internal_value=0 -2.23508e-06 -1.2872e-05 -1.91184e-05 2.35156e-07 2.55493e-06 4.90821e-06 -4.65697e-08 -7.01103e-07 1.30445e-08 0 -1.31259e-06 0
internal_weight=0 3030 404 284 28324 4989 2746 23335 8949 14386 2626 968 1658
internal_count=31354 3030 404 284 28324 4989 2746 23335 8949 14386 2626 968 1658
is_linear=0
shrinkage=0.05


Tree=7
num_leaves=13
num_cat=0
split_feature=2 25 38 38 37 28 27 36 14 38 37 8
split_gain=7.98816e-06 7.6643e-06 1.13756e-05 1.65397e-05 5.57234e-06 8.09735e-06 9.42353e-06 5.33117e-06 5.79109e-06 2.91648e-06 2.76757e-07 6.60032e-07
threshold=157.26542796134086 0.0036877086809471637 1.1755487499258037 2.0575286262233572 0.21520250000000021 0.0021267961456563457 -0.61343284387496666 0.00091294263245516791 0.039500000000003872 0.79780546455423795 0.10353249999999913 0.11689999999999685
decision_type=2 2 2 2 2 2 2 2 2 2 2 2
left_child=4 10 -3 -4 7 -6 -7 9 -9 -1 11 -2
right_child=1 2 3 -5 5 6 -8 8 -10 -11 -12 -13
leaf_value=0 -1.1256534675503882e-06 0 -2.0818864206011928e-05 0 0 0 8.7059663320657564e-06 0 -2.797583728888726e-06 9.3735799072090803e-07 0 0
leaf_weight=6513 1848 168 246 53 849 239 790 3508 2945 13709 574 106
leaf_count=6513 1848 168 246 53 849 239 790 3508 2945 13709 574 106
internal_value=0 -2.438e-06 -8.89392e-06 -1.47825e-05 2.75476e-07 2.92752e-06 5.94193e-06 0 -1.15263e-06 4.84875e-07 0 -5.95009e-07
internal_weight=0 2995 467 299 28553 1878 1029 26675 6453 20222 2528 1954
internal_count=31548 2995 467 299 28553 1878 1029 26675 6453 20222 2528 1954
is_linear=0
shrinkage=0.05


Tree=8
num_leaves=12
num_cat=0
split_feature=5 9 7 13 36 7 11 2 28 25 7
split_gain=6.80891e-06 1.96979e-05 1.47361e-05 1.55643e-05 7.17614e-06 1.05492e-05 7.8574e-06 5.24333e-06 2.86063e-06 3.13626e-06 1.29127e-07
threshold=144.48458562678016 0.21150000000000094 -0.20610275809468684 0.015500000000002958 0.00091294263245516791 -0.09651777545046554 0.18099999999999741 147.46759996122628 0.0008442833815179375 0.0024969294576321593 0.016851748364355473
decision_type=2 2 2 2 2 2 2 2 2 2 2
left_child=1 -1 -3 -4 8 7 -7 -6 10 -10 -2
right_child=4 2 3 -5 5 6 -8 -9 9 -11 -12
leaf_value=0 -1.8524432239457761e-07 0 0 1.9721853907941321e-05 0 -3.4915917464860428e-06 0 3.3019249925069667e-06 1.9150512310504869e-06 0 3.079423468604273e-10
leaf_weight=1381 9407 44 89 365 215 5089 744 1202 4609 2989 5486
leaf_count=1381 9407 44 89 365 215 5089 744 1202 4609 2989 5486
internal_value=0 3.01544e-06 1.15377e-05 1.507e-05 0 -1.48685e-06 -2.69608e-06 0 2.91566e-07 1.09217e-06 0
internal_weight=0 1879 498 454 29741 7250 5833 1417 22491 7598 14893
internal_count=31620 1879 498 454 29741 7250 5833 1417 22491 7598 14893
is_linear=0
shrinkage=0.05


end of trees

feature_importances:
bb_width=13
atr_ma=9
atr_ratio=9
ema_slow=7
macd_signal=7
atr_normalized=6
bb_upper=5
bb_lower=4
upper_shadow=4
rsi_divergence=4
ema_cross_pct=4
price_bb_upper_dist=4
macd_strength=4
range=3
body_pct=3
lower_shadow=3
ema_cross=3
price_ema_slow_dist=3
range_pct=2
rsi_normalized=2
price_ema_fast_dist=2
rsi=1
ema_fast=1
atr=1
body=1
bb_position_normalized=1
price_bb_lower_dist=1

parameters:
[boosting: gbdt]
[objective: regression]
[metric: rmse]
[tree_learner: serial]
[device_type: cpu]
[data: ]
[valid: ]
[num_iterations: 800]
[learning_rate: 0.05]
[num_leaves: 16]
[num_threads: 8]
[deterministic: 0]
[force_col_wise: 0]
[force_row_wise: 0]
[histogram_pool_size: -1]
[max_depth: 4]
[min_data_in_leaf: 30]
[min_sum_hessian_in_leaf: 0.001]
[bagging_fraction: 0.8]
[pos_bagging_fraction: 1]
[neg_bagging_fraction: 1]
[bagging_freq: 1]
[bagging_seed: 9057]
[feature_fraction: 0.9]
[feature_fraction_bynode: 1]
[feature_fraction_seed: 15199]
[extra_trees: 0]
[extra_seed: 31159]
[early_stopping_round: 0]
[first_metric_only: 0]
[max_delta_step: 0]
[lambda_l1: 0.1]
[lambda_l2: 0.3]
[linear_lambda: 0]
[min_gain_to_split: 0]
[drop_rate: 0.1]
[max_drop: 50]
[skip_drop: 0.5]
[xgboost_dart_mode: 0]
[uniform_drop: 0]
[drop_seed: 20727]
[top_rate: 0.2]
[other_rate: 0.1]
[min_data_per_group: 100]
[max_cat_threshold: 32]
[cat_l2: 10]
[cat_smooth: 10]
[max_cat_to_onehot: 4]
[top_k: 20]
[monotone_constraints: ]
[monotone_constraints_method: basic]
[monotone_penalty: 0]
[feature_contri: ]
[forcedsplits_filename: ]
[refit_decay_rate: 0.9]
[cegb_tradeoff: 1]
[cegb_penalty_split: 0]
[cegb_penalty_feature_lazy: ]
[cegb_penalty_feature_coupled: ]
[path_smooth: 0]
[interaction_constraints: ]
[verbosity: 1]
[saved_feature_importance_type: 0]
[linear_tree: 0]
[max_bin: 255]
[max_bin_by_feature: ]
[min_data_in_bin: 3]
[bin_construct_sample_cnt: 200000]
[data_random_seed: 218]
[is_enable_sparse: 1]
[enable_bundle: 1]
[use_missing: 1]
[zero_as_missing: 0]
[feature_pre_filter: 1]
[pre_partition: 0]
[two_round: 0]
[header: 0]
[label_column: ]
[weight_column: ]
[group_column: ]
[ignore_column: ]
[categorical_feature: ]
[forcedbins_filename: ]
[precise_float_parser: 0]
[parser_config_file: ]
[objective_seed: 19100]
[num_class: 1]
[is_unbalance: 0]
[scale_pos_weight: 1]
[sigmoid: 1]
[boost_from_average: 1]
[reg_sqrt: 0]
[alpha: 0.9]
[fair_c: 1]
[poisson_max_delta_step: 0.7]
[tweedie_variance_power: 1.5]
[lambdarank_truncation_level: 30]
[lambdarank_norm: 1]
[label_gain: ]
[lambdarank_position_bias_regularization: 0]
[eval_at: ]
[multi_error_top_k: 1]
[auc_mu_weights: ]
[num_machines: 1]
[local_listen_port: 12400]
[time_out: 120]
[machine_list_filename: ]
[machines: ]
[gpu_platform_id: -1]
[gpu_device_id: -1]
[gpu_use_dp: 0]
[num_gpu: 1]

end of parameters

pandas_categorical:[]
