tree
version=v4
num_class=1
num_tree_per_iteration=1
label_index=0
max_feature_idx=20
objective=regression
feature_names=bb_middle bb_upper bb_lower momentum_10 momentum_20 range range_pct body body_pct upper_shadow lower_shadow is_bullish bb_width bb_position bb_position_normalized price_bb_upper_dist price_bb_lower_dist bb_breakout_upper bb_breakout_lower momentum_ratio momentum_convergence
feature_infos=[0:161.88062500000001] [0:163.46980690478767] [0:161.79437304114759] [-3.7750000000000057:2.1870000000000118] [-3.688999999999993:3.0160000000000196] [0:3.0139999999999816] [0:0.019088400286395583] [0:2.7609999999999957] [0:0.017392783349291913] [0:1.1620000000000061] [0:1.3590000000000089] [0:1] [0:0.040499613571001979] [-0.43688158368442731:1.4336560662958788] [-1.8737631673688546:1.8673121325917577] [-0.0052970182941306683:0.036124521721180282] [-0.0076876891014397734:0.023272312637101344] [0:1] [0:1] [-12700000.000000956:20400000.000000771] [-2.1870000000000118:3.7750000000000057]
tree_sizes=1800 1577 1761 1099 1897 1505 1419 1573 1640 1093 1343 1415 1641 1410 1178 1396 1651 1510 1585

Tree=0
num_leaves=17
num_cat=0
split_feature=0 0 4 4 15 12 12 12 12 12 5 0 15 0 12 7
split_gain=3.55132e-05 1.49914e-05 2.87776e-05 4.63451e-05 1.49543e-05 1.32579e-05 5.11332e-06 4.40713e-06 2.32174e-05 1.03823e-05 3.12484e-06 2.81721e-06 2.59196e-06 2.56388e-06 3.17315e-06 5.57461e-07
threshold=157.28071875000003 147.50993750000001 0.32550000000000529 -0.26000000000000506 -8.5570463309385102e-05 0.00070340977730726575 0.00062740282587946323 0.0024966055924485271 0.0045413521767738753 0.0010331774299239429 0.025499999999993864 148.59293750000003 0.0057969559311303346 156.66534375000001 0.0026084944679104233 0.00099999999999056421
decision_type=2 2 2 2 2 2 2 2 2 2 2 2 2 2 2 2
left_child=1 2 3 -1 -5 -6 -2 9 13 -3 -8 -11 15 14 -9 -12
right_child=6 7 -4 4 5 -7 10 8 -10 11 12 -13 -14 -15 -16 -17
leaf_value=7.6252981068255304e-06 7.6252981068255304e-06 7.6252981068255304e-06 7.6252981068255304e-06 7.6252981068255304e-06 7.6252981068255304e-06 1.7162188829322569e-05 7.6252981068255304e-06 7.6252981068255304e-06 7.6252981068255304e-06 7.6252981068255304e-06 7.6252981068255304e-06 9.9653824312835797e-06 7.6252981068255304e-06 7.6252981068255304e-06 3.3461962265481725e-06 1.1402270747951381e-06
leaf_weight=894 117 6310 665 102 255 3344 120 431 2930 2007 28 6710 76 329 4350 2589
leaf_count=894 117 6310 665 102 255 3344 120 431 2930 2007 28 6710 76 329 4350 2589
internal_value=7.6253e-06 8.16842e-06 1.05771e-05 1.26879e-05 1.55704e-05 1.63028e-05 2.38634e-06 7.6253e-06 6.67434e-06 8.12463e-06 1.86926e-06 9.47119e-06 1.50086e-06 4.05025e-06 3.75219e-06 1.21642e-06
internal_weight=0 28327 5260 4595 3701 3599 2930 23067 8040 15027 2813 8717 2693 5110 4781 2617
internal_count=31257 28327 5260 4595 3701 3599 2930 23067 8040 15027 2813 8717 2693 5110 4781 2617
is_linear=0
shrinkage=1


Tree=1
num_leaves=18
num_cat=0
split_feature=1 3 4 0 15 2 16 7 15 4 1 1 1 15 2 15 2
split_gain=2.94004e-05 1.78113e-05 2.14154e-05 1.40995e-05 7.55106e-06 6.52186e-06 6.48897e-06 1.7556e-06 1.01882e-06 9.58449e-07 6.00896e-06 5.31435e-06 5.03303e-06 4.07933e-06 3.66503e-06 1.78287e-06 8.59785e-07
threshold=147.77091793910532 0.23550000000000185 -0.29650000000000881 157.28071875000003 3.3135466019903812e-05 147.2868273945692 3.1411195936324187e-05 0.00099999999999056421 0.0057969559311303346 0.067499999999995466 156.70218333616825 148.37267065300509 150.05119969994101 0.00094549944098758535 155.35963516585289 0.0030000922286711833 156.9301937906491
decision_type=2 2 2 2 2 2 2 2 2 2 2 2 2 2 2 2 2
left_child=1 2 -1 9 -4 6 -6 -5 16 10 12 -11 -2 -14 15 -13 -9
right_child=3 -3 4 7 5 -7 -8 8 -10 11 -12 14 13 -15 -16 -17 -18
leaf_value=0 0 0 0 0 0 0 8.047215996319903e-06 0 0 0 0 2.2769758013227748e-06 0 -2.9675669207028155e-06 0 0 -4.3029013775875488e-06
leaf_weight=721 5223 624 187 41 138 692 3320 21 75 827 978 5314 4477 4491 1197 111 2824
leaf_count=721 5223 624 187 41 138 692 3320 21 75 827 978 5314 4477 4491 1197 111 2824
internal_value=0 3.39627e-06 4.66483e-06 -5.57756e-07 6.1418e-06 6.63097e-06 7.58174e-06 -3.81973e-06 -4.03709e-06 0 -3.39569e-07 2.94709e-07 -1.08711e-06 -1.80917e-06 1.45049e-06 2.06325e-06 -4.19796e-06
internal_weight=0 5682 5058 25579 4337 4150 3458 2961 2920 22618 15169 7449 14191 8968 6622 5425 2845
internal_count=31261 5682 5058 25579 4337 4150 3458 2961 2920 22618 15169 7449 14191 8968 6622 5425 2845
is_linear=0
shrinkage=0.05


Tree=2
num_leaves=20
num_cat=0
split_feature=0 0 16 5 12 4 6 15 2 19 6 7 6 12 8 12 19 5 5
split_gain=2.07218e-05 9.51195e-06 1.34465e-05 1.38118e-05 1.12237e-05 1.98573e-05 3.70642e-05 1.5993e-05 8.68467e-06 8.12485e-06 8.31677e-06 7.6715e-06 6.96531e-06 6.51611e-06 5.58016e-06 3.40835e-06 3.14617e-06 9.62179e-07 3.59926e-07
threshold=157.23496875000004 144.80140625000004 0.007462473795199715 0.099000000000003766 0.0024966055924485271 -0.0079999999999955645 0.0012376991510780458 0.00045800232715176168 158.33694426205219 1.4572535773209649 0.00023452083276034657 0.0019999999999953393 0.0003989447487540402 0.0015958363502948515 0.00047177433815237031 0.0010223930012888268 -3.6683911800274971 0.20000000000000287 0.039000000000001485
decision_type=2 2 2 2 2 2 2 2 2 2 2 2 2 2 2 2 2 2 2
left_child=1 2 3 -1 7 6 12 -3 9 10 -2 -12 -6 -5 15 -9 -13 18 -7
right_child=8 4 -4 13 5 17 -8 14 -10 -11 11 16 -14 -15 -16 -17 -18 -19 -20
leaf_value=0 0 0 0 0 0 0 0 0 0 0 0 0 -7.7685388897267155e-06 9.1786438131893814e-06 0 3.7697155229371618e-06 -1.0528681943068107e-05 0 9.1576348930823422e-07
leaf_weight=416 189 8057 104 31 213 76 1557 1926 1239 263 31 48 2917 1314 1651 5219 1255 1018 3941
leaf_count=416 189 8057 104 31 213 76 1557 1926 1239 263 31 48 2917 1314 1651 5219 1255 1018 3941
internal_value=0 2.97106e-07 3.75426e-06 5.83204e-06 0 -1.29652e-06 -3.75201e-06 8.33791e-07 -4.03658e-06 -6.30477e-06 -7.74257e-06 -9.16632e-06 -7.11905e-06 8.37837e-06 2.42432e-06 3.03113e-06 -1.00367e-05 0 7.73804e-07
internal_weight=0 28440 1865 1761 26575 9722 4687 16853 3025 1786 1523 1334 3130 1345 8796 7145 1303 5035 4017
internal_count=31465 28440 1865 1761 26575 9722 4687 16853 3025 1786 1523 1334 3130 1345 8796 7145 1303 5035 4017
is_linear=0
shrinkage=0.05


Tree=3
num_leaves=12
num_cat=0
split_feature=1 3 20 6 6 15 15 15 8 20 2
split_gain=2.04029e-05 2.68122e-05 2.15153e-05 1.95129e-05 9.78052e-06 1.23744e-05 8.67199e-06 5.53664e-06 8.28342e-06 4.84531e-06 6.60123e-06
threshold=147.74224819008927 0.24099999999999969 0.26700000000001017 0.00034789269478606265 0.0005556084278807242 0.0068631515224707243 0.00079856243663263538 0.0003434203119144083 2.0432278916361985e-05 -0.31199999999999756 148.41087542877929
decision_type=2 2 2 2 2 2 2 2 2 2 2
left_child=1 2 3 -1 -2 6 -6 -5 -9 -8 -11
right_child=4 -3 -4 7 5 -7 9 8 -10 10 -12
leaf_value=0 0 0 0 0 0 0 0 0 8.468139538434585e-06 0 -4.6442763968454635e-06
leaf_weight=476 12929 622 389 736 4649 442 670 80 3269 1304 5860
leaf_count=476 12929 622 389 736 4649 442 670 80 3269 1304 5860
internal_value=0 2.33142e-06 4.43387e-06 5.7557e-06 -8.95195e-07 -1.86942e-06 -2.46914e-06 6.99492e-06 7.98834e-06 -3.53296e-06 -3.91662e-06
internal_weight=0 5572 4950 4561 25854 12925 12483 4085 3349 7834 7164
internal_count=31426 5572 4950 4561 25854 12925 12483 4085 3349 7834 7164
is_linear=0
shrinkage=0.05


Tree=4
num_leaves=22
num_cat=0
split_feature=0 1 3 4 15 12 15 5 19 5 19 2 12 2 0 1 1 12 8 1 12
split_gain=3.57673e-05 9.50501e-06 2.10224e-05 1.93592e-05 1.81843e-05 6.07889e-06 4.96321e-06 4.08452e-06 3.05068e-06 2.99e-06 2.88844e-06 1.6007e-06 3.75253e-06 3.73512e-06 2.31287e-06 1.73735e-06 1.12823e-06 8.67922e-07 6.35711e-07 4.0359e-07 1.54126e-08
threshold=157.23496875000004 147.74224819008927 0.24099999999999969 -0.29650000000000881 0.00043337944057848029 0.00062740282587946323 0.0057969559311303346 0.030499999999989317 -4.7142812244964931 0.025499999999993864 13.177084698361105 150.72757964326649 0.0025200236367554454 149.42472595548591 149.20371875000004 150.52704543583408 150.05119969994101 0.00038598399285830442 0.0014754616965605035 151.69858018542968 0.0077032015857599187
decision_type=2 2 2 2 2 2 2 2 2 2 2 2 2 2 2 2 2 2 2 2 2
left_child=1 2 3 -1 -5 -2 8 -6 -7 -10 -11 13 17 14 -3 -16 -15 -13 -19 -18 -14
right_child=5 11 -4 4 7 6 -8 -9 9 10 -12 12 20 16 15 -17 19 18 -20 -21 -22
leaf_value=0 0 0 0 0 0 0 0 7.9897090244871723e-06 0 -7.0028161090120304e-06 0 0 -9.4923505920306341e-08 0 2.6505281919131216e-06 0 -1.8131607641214663e-06 1.7134288916769609e-06 0 0 0
leaf_weight=717 123 5628 611 1185 62 80 78 3007 117 2605 31 62 4276 907 1441 50 4118 5712 20 28 510
leaf_count=717 123 5628 611 1185 62 80 78 3007 117 2605 31 62 4276 907 1441 50 4118 5712 20 28 510
internal_value=0 6.39396e-07 2.51632e-06 4.20499e-06 5.66024e-06 -5.06473e-06 -5.65291e-06 7.69539e-06 -6.10036e-06 -6.40826e-06 -6.76193e-06 0 5.85737e-07 -1.74765e-07 0 1.96908e-06 -1.38616e-06 1.49851e-06 1.62737e-06 -1.73839e-06 0
internal_weight=0 28334 5582 4971 4254 3034 2911 3069 2833 2753 2636 22752 10580 12172 7119 1491 5053 5794 5732 4146 4786
internal_count=31368 28334 5582 4971 4254 3034 2911 3069 2833 2753 2636 22752 10580 12172 7119 1491 5053 5794 5732 4146 4786
is_linear=0
shrinkage=0.05


Tree=5
num_leaves=17
num_cat=0
split_feature=0 3 20 12 5 12 7 2 5 12 2 0 3 4 0 4
split_gain=1.70816e-05 2.64549e-05 2.46121e-05 2.16699e-05 2.06166e-05 2.07978e-05 1.09028e-05 6.98967e-06 3.37813e-06 2.55843e-06 2.75944e-06 4.50314e-06 2.62417e-06 1.81452e-06 4.59744e-07 9.045e-08
threshold=146.78265625000003 0.28900000000000153 -0.0035000000000025007 0.0026084944679104233 0.087500000000005698 0.006701914616254378 0.14849999999999855 158.83308603720829 0.03799999999999671 0.0010331774299239429 155.35963516585289 147.17740625000002 0.057500000000004554 -0.034500000000008406 146.87903125000003 0.11549999999999729
decision_type=2 2 2 2 2 2 2 2 2 2 2 2 2 2 2 2
left_child=1 2 8 9 -5 6 7 -6 -1 13 11 -11 -13 -2 -15 -16
right_child=3 -3 -4 4 5 -7 -8 -9 -10 10 -12 12 -14 14 15 -17
leaf_value=0 0 0 0 0 -6.5929753135096055e-06 0 0 0 1.0503277899126995e-05 0 0 2.3779952232640757e-06 0 0 -1.0649027422058747e-06 0
leaf_weight=51 1839 423 1624 1931 4887 1259 1000 86 1530 271 3137 5482 2535 33 5311 34
leaf_count=51 1839 423 1624 1931 4887 1259 1000 86 1530 271 3137 5482 2535 33 5311 34
internal_value=0 3.00245e-06 5.5532e-06 -5.99581e-07 -2.64632e-06 -3.99992e-06 -5.29869e-06 -6.26116e-06 1.00708e-05 0 7.41669e-07 1.26119e-06 1.74601e-06 -1.24191e-07 -9.29593e-07 -1.04139e-06
internal_weight=0 3628 3205 27805 9163 7232 5973 4973 1581 18642 11425 8288 8017 7217 5378 5345
internal_count=31433 3628 3205 27805 9163 7232 5973 4973 1581 18642 11425 8288 8017 7217 5378 5345
is_linear=0
shrinkage=0.05


Tree=6
num_leaves=16
num_cat=0
split_feature=1 12 5 8 4 12 20 12 12 1 5 1 7 20 15
split_gain=1.89095e-05 4.04973e-05 2.71174e-05 2.10688e-05 1.16628e-05 9.83972e-06 6.62175e-06 6.60515e-06 5.56896e-06 5.48276e-06 4.77237e-06 4.67432e-06 4.05879e-06 4.08531e-06 3.38331e-06
threshold=145.90114223209963 0.0025664157461275368 0.095000000000013088 0.001152891467753528 0.49250000000000688 0.0010331774299239429 0.65950000000000852 0.0015958363502948515 0.014296111262698089 155.82131149607432 0.052000000000006714 146.4776807709284 0.0024999999999977267 0.65950000000000852 -8.5570463309385102e-05
decision_type=2 2 2 2 2 2 2 2 2 2 2 2 2 2 2
left_child=4 5 -3 6 7 -2 8 -1 -4 11 -9 -7 -12 -14 -13
right_child=1 2 3 -5 -6 9 -8 10 -10 -11 12 14 13 -15 -16
leaf_value=0 0 0 -6.392115475362207e-06 0 0 0 0 0 0 0 0 0 8.1973006660866082e-06 0 2.7140322990151747e-06
leaf_weight=228 7332 2543 6174 1094 198 165 164 68 77 2887 37 269 1818 39 8337
leaf_count=228 7332 2543 6174 1094 198 165 164 68 77 2887 37 269 1818 39 8337
internal_value=0 -3.24222e-07 -3.17501e-06 -4.74578e-06 4.30298e-06 3.94939e-07 -5.87993e-06 5.78803e-06 -6.17485e-06 1.53756e-06 6.76823e-06 2.16908e-06 7.33155e-06 7.76439e-06 2.48051e-06
internal_weight=0 29042 10052 7509 2388 18990 6415 2190 6251 11658 1962 8771 1894 1857 8606
internal_count=31430 29042 10052 7509 2388 18990 6415 2190 6251 11658 1962 8771 1894 1857 8606
is_linear=0
shrinkage=0.05


Tree=7
num_leaves=18
num_cat=0
split_feature=0 12 15 12 1 4 1 4 19 12 19 16 7 12 16 7 0
split_gain=1.33211e-05 6.82483e-06 1.53814e-05 1.26012e-05 2.38479e-05 6.44305e-06 6.00203e-06 5.759e-06 5.10997e-06 4.44229e-06 3.26307e-06 2.72538e-06 2.35673e-06 2.38637e-06 1.72953e-06 5.35472e-07 1.44287e-07
threshold=157.23496875000004 0.0026084944679104233 0.00043337944057848029 0.0037215331200145915 148.07447635133596 0.42349999999999005 155.82131149607432 -0.36700000000000438 1.2538117460645835 0.00062740282587946323 -2.631578947368244 0.007462473795199715 0.13400000000000037 0.00077222315610450741 0.0010252079903331299 0.00099999999999056421 157.19175000000004
decision_type=2 2 2 2 2 2 2 2 2 2 2 2 2 2 2 2 2
left_child=1 2 -1 4 -3 7 12 -6 9 -2 -11 14 13 -4 -5 -12 -16
right_child=8 3 6 11 5 -7 -8 -9 -10 10 15 -13 -14 -15 16 -17 -18
leaf_value=0 0 0 0 0 0 0 0 -6.4769392990952879e-06 0 0 0 0 0 3.2923832167815333e-06 1.5420525632548326e-06 -5.3487144016171628e-06 0
leaf_weight=7854 94 1060 858 1392 99 40 1021 2899 547 135 26 344 278 7714 4835 2287 20
leaf_count=7854 94 1060 858 1392 99 40 1021 2899 547 135 26 344 278 7714 4835 2287 20
internal_value=0 2.09159e-07 1.01622e-06 0 -2.77252e-06 -5.47643e-06 2.39789e-06 -5.98028e-06 -3.22144e-06 -4.19946e-06 -4.78003e-06 0 2.84756e-06 3.0098e-06 1.04433e-06 -5.26389e-06 1.51454e-06
internal_weight=0 28414 17725 10689 4098 3038 9871 2998 3089 2542 2448 6591 8850 8572 6247 2313 4855
internal_count=31503 28414 17725 10689 4098 3038 9871 2998 3089 2542 2448 6591 8850 8572 6247 2313 4855
is_linear=0
shrinkage=0.05


Tree=8
num_leaves=19
num_cat=0
split_feature=2 9 12 1 12 6 1 19 12 9 16 7 5 7 1 4 1 19
split_gain=2.10888e-05 6.80929e-06 5.04462e-06 4.74513e-06 1.08291e-05 1.11757e-05 2.31933e-05 1.40385e-05 8.42309e-06 7.61296e-06 7.26483e-06 6.2622e-06 4.93697e-06 4.40371e-06 3.91239e-06 3.16359e-06 2.52105e-06 2.4766e-06
threshold=157.08367057902868 0.0019999999999953393 0.00062740282587946323 145.55125773387809 0.0025664157461275368 0.00083146309128768385 156.70218333616825 1.8666664592591957 0.0011343361943190993 0.0064999999999884048 0.007462473795199715 0.0045000000000072768 0.049499999999994777 0.065000000000011951 157.34304147360669 -0.81049999999999034 147.34192679470436 13.177084698361105
decision_type=2 2 2 2 2 2 2 2 2 2 2 2 2 2 2 2 2 2
left_child=3 -2 -3 9 8 -6 7 -7 -5 -1 11 -11 -13 16 -4 -16 -10 -17
right_child=1 2 14 4 5 6 -8 -9 13 10 -12 12 -14 -15 15 17 -18 -19
leaf_value=0 0 0 0 0 0 -5.6037982067017762e-06 0 0 0 0 0 0 6.9586520885986276e-06 0 0 -6.7856003982386658e-06 2.6338386878809248e-06 0
leaf_weight=334 394 109 64 7804 3989 4604 369 423 469 73 79 38 1591 2533 21 2307 6036 29
leaf_count=334 394 109 64 7804 3989 4604 369 423 469 73 79 38 1591 2533 21 2307 6036 29
internal_value=0 -4.24605e-06 -5.25014e-06 0 0 -1.58466e-06 -3.08948e-06 -4.66682e-06 4.56176e-07 2.36814e-06 4.16464e-06 5.36826e-06 6.30224e-06 1.64852e-06 -5.8321e-06 -6.25189e-06 2.3384e-06 -6.54391e-06
internal_weight=0 2924 2530 28342 26227 9385 5396 5027 16842 2115 1781 1702 1629 9038 2421 2357 6505 2336
internal_count=31266 2924 2530 28342 26227 9385 5396 5027 16842 2115 1781 1702 1629 9038 2421 2357 6505 2336
is_linear=0
shrinkage=0.05


Tree=9
num_leaves=12
num_cat=0
split_feature=0 4 4 15 7 15 20 4 20 6 2
split_gain=9.43102e-06 2.49761e-05 1.72851e-05 1.38719e-05 7.58844e-06 1.58707e-05 7.08389e-06 6.58906e-06 6.95808e-06 5.88006e-06 5.6806e-06
threshold=147.50993750000001 0.32550000000000529 -0.22849999999999679 -8.5570463309385102e-05 0.059000000000011717 0.0057969559311303346 0.35500000000000403 0.0040000000000048894 0.45449999999999596 0.00024913707396830752 149.30274648230352
decision_type=2 2 2 2 2 2 2 2 2 2 2
left_child=1 2 -1 -4 -2 7 9 8 10 -5 -6
right_child=4 -3 3 6 5 -7 -8 -9 -10 -11 -12
leaf_value=0 0 0 0 0 0 0 0 0 0 7.6443371682603576e-06 -6.8100040406829706e-06
leaf_weight=1019 18125 672 102 171 1077 466 94 3689 134 3252 2436
leaf_count=1019 18125 672 102 171 1077 466 94 3689 134 3252 2436
internal_value=0 1.80538e-06 4.14651e-06 5.82871e-06 -4.91726e-07 -1.7986e-06 6.69468e-06 -2.97468e-06 -4.72388e-06 7.15701e-06 -5.30258e-06
internal_weight=0 5310 4638 3619 25927 7802 3517 7336 3647 3423 3513
internal_count=31237 5310 4638 3619 25927 7802 3517 7336 3647 3423 3513
is_linear=0
shrinkage=0.05


Tree=10
num_leaves=15
num_cat=0
split_feature=1 12 8 8 20 20 12 8 12 2 1 20 0 1
split_gain=7.43703e-06 1.3531e-05 8.88445e-06 1.17633e-05 9.28409e-06 6.10381e-06 4.20463e-06 6.93357e-06 1.90596e-06 2.0476e-06 2.41723e-06 2.15773e-06 7.13841e-07 1.37788e-10
threshold=145.55125773387809 0.0025885152672514376 0.0015559599535631967 0.00036904908700897244 0.65950000000000852 -0.78249999999999875 0.014296111262698089 0.00012188785095437449 0.0010331774299239429 147.01212702098641 155.82131149607432 0.19749999999999093 144.80140625000004 147.51202330521593
decision_type=2 2 2 2 2 2 2 2 2 2 2 2 2 2
left_child=6 8 3 -3 5 -5 7 -1 13 -10 11 -11 -9 -2
right_child=1 2 -4 4 -6 -7 -8 12 9 10 -12 -13 -14 -15
leaf_value=0 0 0 0 0 0 -5.2673897500308287e-06 0 5.4900819938274881e-06 0 1.6268186770985694e-06 0 0 0 -7.124048660129698e-09
leaf_weight=338 536 4809 538 62 104 4535 44 1536 734 8056 2873 137 208 6787
leaf_count=338 536 4809 538 62 104 4535 44 1536 734 8056 2873 137 208 6787
internal_value=0 -2.56353e-07 -1.88607e-06 -2.4686e-06 -4.31079e-06 -4.90428e-06 2.80045e-06 3.61335e-06 0 6.35449e-07 9.45068e-07 1.39424e-06 5.0521e-06 0
internal_weight=0 29171 10048 9510 4701 4597 2126 2082 19123 11800 11066 8193 1744 7323
internal_count=31297 29171 10048 9510 4701 4597 2126 2082 19123 11800 11066 8193 1744 7323
is_linear=0
shrinkage=0.05


Tree=11
num_leaves=16
num_cat=0
split_feature=2 15 16 4 12 12 20 6 19 4 20 2 2 9 12
split_gain=8.89724e-06 1.68383e-05 1.5142e-05 1.27213e-05 1.03814e-05 2.28608e-05 1.2597e-05 1.5332e-05 8.34719e-06 9.82996e-06 7.65877e-06 2.85321e-06 1.18821e-05 4.23201e-06 5.60288e-06
threshold=149.42472595548591 0.00045800232715176168 0.0061948612279900048 0.013499999999993408 0.0025885152672514376 0.006701914616254378 0.40449999999998459 0.00044396893716066015 -2.2096859530449096 -0.22849999999999679 -0.61449999999999239 150.72757964326649 157.14263052459731 0.10999999999999945 0.0013648239495463209
decision_type=2 2 2 2 2 2 2 2 2 2 2 2 2 2 2
left_child=1 -1 8 4 -2 6 7 -6 -3 -10 -11 -5 13 14 -13
right_child=3 2 -4 11 5 -7 -8 -9 9 10 -12 12 -14 -15 -16
leaf_value=0 0 0 0 0 0 0 0 -9.1946053356810869e-06 0 0 5.1620927302778029e-06 0 0 0 3.914176530666653e-06
leaf_weight=3988 6406 509 240 2258 242 613 161 2197 1612 38 6220 1216 1415 110 4009
leaf_count=3988 6406 509 240 2258 242 613 161 2197 1612 38 6220 1216 1415 110 4009
internal_value=0 1.29715e-06 2.71017e-06 -2.35155e-07 -1.84751e-06 -4.27725e-06 -6.67733e-06 -7.77432e-06 3.47463e-06 3.93768e-06 4.84004e-06 0 1.02796e-06 2.62767e-06 3.01244e-06
internal_weight=0 12607 8619 18627 9619 3213 2600 2439 8379 7870 6258 9008 6750 5335 5225
internal_count=31234 12607 8619 18627 9619 3213 2600 2439 8379 7870 6258 9008 6750 5335 5225
is_linear=0
shrinkage=0.05


Tree=12
num_leaves=19
num_cat=0
split_feature=0 0 3 12 5 19 12 15 12 0 3 20 1 9 19 3 1 16
split_gain=1.16449e-05 8.60491e-06 6.7199e-06 1.29535e-05 1.77005e-05 1.25077e-05 2.73282e-06 1.16898e-05 8.84856e-06 1.09097e-05 7.95916e-06 5.43652e-06 3.57219e-06 2.01874e-06 2.05427e-06 1.58274e-06 5.48914e-06 6.123e-07
threshold=157.28071875000003 159.13756250000003 -0.58749999999999136 0.0028277943276951954 0.063000000000002401 1.6293307272688888 0.0025885152672514376 0.00043954055666627821 0.0037215331200145915 148.59293750000003 0.19849999999999571 -0.22550000000001089 155.82131149607432 0.0014999999999929516 2.1986853973465301 0.26000000000000517 154.79198511604798 -0.00031937360396067121
decision_type=2 2 2 2 2 2 2 2 2 2 2 2 2 2 2 2 2 2
left_child=6 2 -2 -4 -5 -6 7 -1 9 -8 11 -11 13 -9 -15 16 17 -10
right_child=1 -3 3 4 5 -7 8 12 15 10 -12 -13 -14 14 -16 -17 -18 -19
leaf_value=0 0 0 0 0 -2.0497549329392823e-05 0 0 0 0 0 0 -6.3288661740034161e-06 0 2.8345783394637055e-06 0 0 0 2.1889424403407289e-06
leaf_weight=7876 32 1090 1243 80 417 27 1427 1014 142 287 461 2069 1054 6866 741 1366 1066 4009
leaf_count=7876 32 1090 1243 80 417 27 1427 1014 142 287 461 2069 1054 6866 741 1366 1066 4009
internal_value=0 -3.17425e-06 -5.3043e-06 -6.17665e-06 -1.37973e-05 -1.80066e-05 0 6.23909e-07 0 -2.28299e-06 -4.18724e-06 -5.42289e-06 1.93046e-06 2.28432e-06 2.56458e-06 0 8.70866e-07 2.06369e-06
internal_weight=0 2889 1799 1767 524 444 28378 17551 10827 4244 2817 2356 9675 8621 7607 6583 5217 4151
internal_count=31267 2889 1799 1767 524 444 28378 17551 10827 4244 2817 2356 9675 8621 7607 6583 5217 4151
is_linear=0
shrinkage=0.05


Tree=13
num_leaves=16
num_cat=0
split_feature=1 4 12 4 12 20 8 3 4 2 3 12 2 2 8
split_gain=8.64189e-06 2.24266e-05 1.76494e-05 1.66118e-05 1.23659e-05 1.12685e-05 1.16048e-05 7.26511e-06 7.86647e-06 4.69429e-06 4.38887e-06 3.57897e-06 4.87875e-06 5.8098e-06 2.59334e-06
threshold=147.74224819008927 0.29700000000001131 0.0025885152672514376 -0.29650000000000881 0.0015958363502948515 0.65950000000000852 0.00015939980666692389 -0.6805000000000091 0.39999999999999153 147.31484314157754 0.54749999999998533 0.00098143321697273782 150.5159964039066 157.32644370283236 4.4982376551685629e-05
decision_type=2 2 2 2 2 2 2 2 2 2 2 2 2 2 2
left_child=1 3 11 -1 -5 6 -4 -8 -9 10 -6 -2 -13 14 -14
right_child=2 -3 5 4 9 -7 7 8 -10 -11 -12 12 13 -15 -16
leaf_value=0 0 0 0 0 8.2696916830483887e-06 0 0 -5.1450520594303909e-06 0 0 0 0 0 0 3.1888334185476235e-06
leaf_weight=730 6094 709 2000 1555 2488 192 161 5356 1010 46 24 4867 611 1445 4145
leaf_count=730 6094 709 2000 1555 2488 192 161 5356 1010 46 24 4867 611 1445 4145
internal_value=0 1.84746e-06 -3.20235e-07 3.93559e-06 5.32298e-06 -2.31621e-06 -2.96467e-06 -3.99087e-06 -4.37982e-06 7.59213e-06 7.96035e-06 0 8.99101e-07 1.84653e-06 2.73848e-06
internal_weight=0 5552 25881 4843 4113 8719 8527 6527 6366 2558 2512 17162 11068 6201 4756
internal_count=31433 5552 25881 4843 4113 8719 8527 6527 6366 2558 2512 17162 11068 6201 4756
is_linear=0
shrinkage=0.05


Tree=14
num_leaves=13
num_cat=0
split_feature=1 12 8 4 4 5 3 5 12 20 4 4
split_gain=1.05819e-05 8.0523e-06 1.5063e-05 9.0859e-06 1.01887e-05 7.74054e-06 4.85634e-06 4.6047e-06 7.40612e-06 1.08134e-05 5.6416e-08 2.46457e-08
threshold=155.82131149607432 0.0012920443785474336 0.00046600629999593379 -0.22849999999999679 0.23849999999998775 0.24850000000000708 -0.6805000000000091 0.087000000000003311 0.0024738750683467726 0.28350000000000369 -0.031499999999994081 0.15099999999999628
decision_type=2 2 2 2 2 2 2 2 2 2 2 2
left_child=1 10 3 -3 5 -5 -2 -8 -9 -10 -1 -12
right_child=6 2 -4 4 -6 -7 7 8 9 -11 11 -13
leaf_value=0 0 0 0 4.3779674296837171e-06 0 0 0 0 -8.0229202309947028e-06 0 -1.8251911848629887e-07 0
leaf_weight=2647 78 1476 6341 6924 1724 52 3421 1087 1371 267 6083 25
leaf_count=2647 78 1476 6341 6924 1724 52 3421 1087 1371 267 6083 25
internal_value=0 5.40727e-07 1.29079e-06 2.53078e-06 3.1784e-06 4.03111e-06 -1.75016e-06 -2.25328e-06 -3.95912e-06 -6.1136e-06 0 -1.51954e-07
internal_weight=0 25272 16517 10176 8700 6976 6224 6146 2725 1638 8755 6108
internal_count=31496 25272 16517 10176 8700 6976 6224 6146 2725 1638 8755 6108
is_linear=0
shrinkage=0.05


Tree=15
num_leaves=16
num_cat=0
split_feature=0 2 6 20 13 1 12 10 7 19 19 1 12 2 10
split_gain=1.15794e-05 5.8456e-06 3.75473e-06 3.59335e-06 1.16763e-05 8.3596e-06 4.52288e-06 3.56344e-06 2.31846e-06 5.10477e-06 1.60303e-06 8.47393e-07 4.40291e-06 1.48699e-05 8.32117e-06
threshold=157.23496875000004 157.86057051036633 0.00023452083276034657 -0.11650000000000203 0.64500398051055041 154.95842309167156 0.0015367829397752617 0.25750000000000745 0.0019999999999953393 1.2538117460645835 -4.7142812244964931 156.70218333616825 0.0024966055924485271 142.20776518415337 0.0050000000000096642
decision_type=2 2 2 2 2 2 2 2 2 2 2 2 2 2 2
left_child=3 2 -2 4 5 6 -1 -8 -4 10 -10 12 -5 -14 -15
right_child=1 -3 8 11 -6 -7 7 -9 9 -11 -12 -13 13 14 -16
leaf_value=0 0 0 0 0 0 0 7.0018150706572301e-06 0 0 0 -8.6540927783787624e-06 0 0 0 -3.5866443851396021e-06
leaf_weight=95 164 1607 36 15277 3012 408 1617 24 33 229 1008 1184 361 913 5527
leaf_count=95 164 1607 36 15277 3012 408 1617 24 33 229 1008 1184 361 913 5527
internal_value=0 -3.0671e-06 -5.44319e-06 0 1.31993e-06 4.21931e-06 5.83287e-06 6.54834e-06 -6.36662e-06 -6.80039e-06 -8.28681e-06 0 -3.09763e-07 -1.3892e-06 -2.79468e-06
internal_weight=0 3077 1470 28418 5156 2144 1736 1641 1306 1270 1041 23262 22078 6801 6440
internal_count=31495 3077 1470 28418 5156 2144 1736 1641 1306 1270 1041 23262 22078 6801 6440
is_linear=0
shrinkage=0.05


Tree=16
num_leaves=19
num_cat=0
split_feature=0 20 9 2 6 3 9 12 19 19 12 2 0 12 15 15 7 7
split_gain=1.41543e-05 7.21389e-06 1.99021e-05 1.54507e-05 5.8095e-06 5.71109e-06 4.07601e-06 3.44957e-06 3.31523e-06 2.10235e-06 1.79716e-06 6.77209e-06 7.57797e-06 4.84289e-06 3.50135e-06 2.28878e-06 1.25737e-06 9.51251e-07
threshold=157.19175000000004 -0.075500000000005216 0.053999999999987842 155.35963516585289 0.00029734488272363725 -0.58749999999999136 0.0019999999999953393 0.00062740282587946323 -6.7979804642530715 13.177084698361105 0.0024966055924485271 142.20776518415337 156.45409375000003 0.0090431710741725544 0.00043954055666627821 0.0020937351338505559 0.00099999999999056421 0.0045000000000072768
decision_type=2 2 2 2 2 2 2 2 2 2 2 2 2 2 2 2 2 2
left_child=1 2 3 4 -1 -2 -7 -8 -9 -10 14 -12 13 -13 -3 17 -6 -16
right_child=5 10 -4 -5 16 6 7 8 9 -11 11 12 -14 -15 15 -17 -18 -19
leaf_value=0 0 0 0 0 0 0 0 0 -5.6583703492680366e-06 0 0 -3.0469460242096708e-06 0 0 0 0 5.1333958472885618e-06 1.5822045998111898e-06
leaf_weight=371 42 6979 1273 752 33 403 91 54 2538 35 338 5652 313 389 575 224 4737 6732
leaf_count=371 42 6979 1273 752 33 403 91 54 2538 35 338 5652 313 389 575 224 4737 6732
internal_value=0 1.62839e-07 1.61913e-06 3.41036e-06 4.5656e-06 -3.30886e-06 -3.95855e-06 -4.66283e-06 -5.07715e-06 -5.435e-06 0 -8.19362e-07 -1.83615e-06 -2.58496e-06 0 1.07808e-06 5.05079e-06 1.40746e-06
internal_weight=0 28368 7166 5893 5141 3163 3121 2718 2627 2573 21202 6692 6354 6041 14510 7531 4770 7307
internal_count=31531 28368 7166 5893 5141 3163 3121 2718 2627 2573 21202 6692 6354 6041 14510 7531 4770 7307
is_linear=0
shrinkage=0.05


Tree=17
num_leaves=17
num_cat=0
split_feature=12 0 12 8 8 4 12 0 8 4 12 8 4 4 4 12
split_gain=4.54611e-06 1.96798e-05 1.51321e-05 8.79658e-06 7.43027e-06 1.21026e-05 6.92869e-06 3.40035e-06 3.23208e-06 2.51698e-06 2.28187e-06 1.08976e-06 7.83829e-07 1.73335e-07 3.36518e-07 4.22441e-08
threshold=0.0024966055924485271 144.80140625000004 0.0013648239495463209 0.0014754616965605035 0.00021935436717603174 -0.59450000000001058 0.014296111262698089 161.24434375000001 0.00095270732230635544 0.17800000000001151 0.014296111262698089 2.0432278916361985e-05 -0.25249999999999767 -0.033000000000001244 0.093500000000005926 0.0025664157461275368
decision_type=2 2 2 2 2 2 2 2 2 2 2 2 2 2 2 2
left_child=2 10 13 4 -3 -6 -7 8 9 12 11 -2 -4 -1 -15 -13
right_child=1 3 7 -5 5 6 -8 -9 -10 -11 -12 15 -14 14 -16 -17
leaf_value=0 0 0 0 0 0 -4.8307305150468248e-06 0 0 0 0 0 0 3.1194964018286395e-06 -4.3138950511186272e-07 0 2.4506874606144101e-06
leaf_weight=3228 29 3281 89 646 454 6188 59 125 403 800 57 21 6879 6849 781 1424
leaf_count=3228 29 3281 89 646 454 6188 59 125 403 800 57 21 6879 6849 781 1424
internal_value=0 -7.63305e-07 4.7275e-07 -2.30083e-06 -2.79991e-06 -3.80127e-06 -4.51031e-06 2.25297e-06 2.48875e-06 2.7487e-06 1.12779e-07 1.97044e-06 3.05381e-06 0 -2.3831e-07 2.41775e-06
internal_weight=0 12159 19154 10628 9982 6701 6247 8296 8171 7768 1531 1474 6968 10858 7630 1445
internal_count=31313 12159 19154 10628 9982 6701 6247 8296 8171 7768 1531 1474 6968 10858 7630 1445
is_linear=0
shrinkage=0.05


Tree=18
num_leaves=18
num_cat=0
split_feature=0 12 9 12 7 7 15 0 20 12 15 1 9 3 1 1 12
split_gain=2.28225e-05 1.68704e-05 1.56456e-05 2.17431e-05 1.55875e-05 9.81002e-06 1.15579e-05 7.80356e-06 8.0472e-06 7.09872e-06 6.13252e-06 9.43491e-06 2.28846e-06 2.90082e-06 2.04908e-07 2.01648e-06 1.57605e-07
threshold=144.80140625000004 0.0025885152672514376 0.016500000000007734 0.014296111262698089 0.0035000000000025015 0.16849999999999457 0.00073866671203710497 159.13756250000003 0.65950000000000852 0.0015958363502948515 0.00045253178362468694 155.82131149607432 0.0019999999999953393 0.062500000000000014 154.90332998756708 146.96918021167761 0.0025430692565960862
decision_type=2 2 2 2 2 2 2 2 2 2 2 2 2 2 2 2 2
left_child=2 10 -1 4 -4 6 -3 8 -8 -6 14 12 -12 -14 15 -2 -17
right_child=1 5 3 -5 9 -7 7 -9 -10 -11 11 -13 13 -15 -16 16 -18
leaf_value=0 0 0 0 0 0 0 -4.4893596497360414e-06 0 0 1.3432704457528052e-05 0 0 2.835302185310831e-06 0 0 -9.4911617998712571e-07 0
leaf_weight=606 432 1880 41 44 30 1187 6765 166 160 1142 1075 2334 6455 668 1785 6602 33
leaf_count=606 432 1880 41 44 30 1187 6765 166 160 1142 1075 2334 6455 668 1785 6602 33
internal_value=0 -1.95541e-07 5.47858e-06 8.69431e-06 1.10966e-05 -2.06467e-06 -2.74966e-06 -3.6932e-06 -4.09679e-06 1.2676e-05 1.01551e-08 1.20658e-06 2.17885e-06 2.5034e-06 0 -2.6923e-07 -9.14855e-07
internal_weight=0 29542 1863 1257 1213 10158 8971 7091 6925 1172 19384 10532 8198 7123 8852 7067 6635
internal_count=31405 29542 1863 1257 1213 10158 8971 7091 6925 1172 19384 10532 8198 7123 8852 7067 6635
is_linear=0
shrinkage=0.05


end of trees

feature_importances:
bb_width=55
bb_upper=30
momentum_20=29
bb_middle=26
bb_lower=22
price_bb_upper_dist=22
momentum_convergence=18
body=15
momentum_ratio=15
range=14
body_pct=14
momentum_10=13
range_pct=10
upper_shadow=8
price_bb_lower_dist=7
lower_shadow=2
bb_position=1

parameters:
[boosting: gbdt]
[objective: regression]
[metric: rmse]
[tree_learner: serial]
[device_type: cpu]
[data: ]
[valid: ]
[num_iterations: 500]
[learning_rate: 0.05]
[num_leaves: 31]
[num_threads: 8]
[deterministic: 0]
[force_col_wise: 0]
[force_row_wise: 0]
[histogram_pool_size: -1]
[max_depth: 6]
[min_data_in_leaf: 20]
[min_sum_hessian_in_leaf: 0.001]
[bagging_fraction: 0.8]
[pos_bagging_fraction: 1]
[neg_bagging_fraction: 1]
[bagging_freq: 1]
[bagging_seed: 400]
[feature_fraction: 0.8]
[feature_fraction_bynode: 1]
[feature_fraction_seed: 30056]
[extra_trees: 0]
[extra_seed: 12879]
[early_stopping_round: 0]
[first_metric_only: 0]
[max_delta_step: 0]
[lambda_l1: 0.3]
[lambda_l2: 0.3]
[linear_lambda: 0]
[min_gain_to_split: 0]
[drop_rate: 0.1]
[max_drop: 50]
[skip_drop: 0.5]
[xgboost_dart_mode: 0]
[uniform_drop: 0]
[drop_seed: 17869]
[top_rate: 0.2]
[other_rate: 0.1]
[min_data_per_group: 100]
[max_cat_threshold: 32]
[cat_l2: 10]
[cat_smooth: 10]
[max_cat_to_onehot: 4]
[top_k: 20]
[monotone_constraints: ]
[monotone_constraints_method: basic]
[monotone_penalty: 0]
[feature_contri: ]
[forcedsplits_filename: ]
[refit_decay_rate: 0.9]
[cegb_tradeoff: 1]
[cegb_penalty_split: 0]
[cegb_penalty_feature_lazy: ]
[cegb_penalty_feature_coupled: ]
[path_smooth: 0]
[interaction_constraints: ]
[verbosity: -1]
[saved_feature_importance_type: 0]
[linear_tree: 0]
[max_bin: 255]
[max_bin_by_feature: ]
[min_data_in_bin: 3]
[bin_construct_sample_cnt: 200000]
[data_random_seed: 175]
[is_enable_sparse: 1]
[enable_bundle: 1]
[use_missing: 1]
[zero_as_missing: 0]
[feature_pre_filter: 1]
[pre_partition: 0]
[two_round: 0]
[header: 0]
[label_column: ]
[weight_column: ]
[group_column: ]
[ignore_column: ]
[categorical_feature: ]
[forcedbins_filename: ]
[precise_float_parser: 0]
[parser_config_file: ]
[objective_seed: 16083]
[num_class: 1]
[is_unbalance: 0]
[scale_pos_weight: 1]
[sigmoid: 1]
[boost_from_average: 1]
[reg_sqrt: 0]
[alpha: 0.9]
[fair_c: 1]
[poisson_max_delta_step: 0.7]
[tweedie_variance_power: 1.5]
[lambdarank_truncation_level: 30]
[lambdarank_norm: 1]
[label_gain: ]
[lambdarank_position_bias_regularization: 0]
[eval_at: ]
[multi_error_top_k: 1]
[auc_mu_weights: ]
[num_machines: 1]
[local_listen_port: 12400]
[time_out: 120]
[machine_list_filename: ]
[machines: ]
[gpu_platform_id: -1]
[gpu_device_id: -1]
[gpu_use_dp: 0]
[num_gpu: 1]

end of parameters

pandas_categorical:[]
