tree
version=v4
num_class=1
num_tree_per_iteration=1
label_index=0
max_feature_idx=24
objective=regression
feature_names=ema_fast ema_slow macd macd_signal atr range range_pct body body_pct upper_shadow lower_shadow is_bullish ema_cross ema_cross_pct ema_cross_signal price_ema_fast_dist price_ema_slow_dist macd_hist macd_hist_change macd_cross_signal macd_strength atr_normalized atr_ma atr_ratio signal_convergence
feature_infos=[139.84172317124145:161.9044463934776] [139.985622134078:161.8633237416141] [-0.81371595198632463:0.5970017482619312] [-0.71071676355148927:0.57046413909616056] [0:1.1185000000000032] [0:3.0139999999999816] [0:0.019088400286395583] [0:2.7609999999999957] [0:0.017392783349291913] [0:1.1620000000000061] [0:1.3590000000000089] [0:1] [-1.0350786189282246:0.79769146520030176] [-0.006549151847441992:0.0054000600139474395] [0:1] [-0.014331159141718369:0.0093718883724765341] [-0.017546516855659215:0.012454695205154643] [-0.39438439545005155:0.22667986490852632] [-0.22179621176243974:0.13953656655988411] [0:1] [-0.33719861601597845:0.18761226476060436] [0:0.0071150494268520962] [0:0.79457500000000281] [0:5.222190663820645] [0:2]
tree_sizes=813 483 407 798 701 477 331 407 615 642 635 408 564 333 782 408 409 867 780 716 623 630 783 631 868 483 543 794 956 332 566 777 405 561 332 554 311 406 311 707 704 636 407 311 781 384 547 785 311 777 406 384 486 785 711 694 700 632 332 398 783 387 313 545 559 537 625 391 332 699 388 782 549 705 414 779 631 548 555 621 332 387 617 386 463 402 332 561 311 310 557 311 779 310 389 779 313 309 698 541 387 311 540 312 702 403 539 383 545 333 555 631 468 311 312 389 332 391 638 534 541 631 706 312 311 711 312 479 479 790 481 785 532 403 387 707 387 539 547 392 485 313 312 311 312 388 547 311 383 391 555 632 404 312 556 536 538 382 543 542 531 312 482 393 312 471 382 311 385 706 478 470 468 335 311 311 479 385 391 394 385 531 638 385 384 706 312 385 716 309 461 500 377 544

Tree=0
num_leaves=7
num_cat=0
split_feature=1 3 3 3 3 1
split_gain=3.51592e-06 1.39832e-05 2.77125e-05 6.64703e-06 1.46429e-05 3.45537e-06
threshold=147.51248935389609 -0.15974607527746162 0.10960302461290507 -0.11200515761230627 -0.012631562302483117 148.08960812525055
decision_type=2 2 2 2 2 2
left_child=1 -1 -3 -2 5 -5
right_child=3 2 -4 4 -6 -7
leaf_value=7.6252981068255304e-06 7.6252981068255304e-06 1.0510946011621902e-05 7.6252981068255304e-06 7.6252981068255304e-06 7.6252981068255304e-06 5.6928714409039458e-06
leaf_weight=194 1156 4755 421 888 17678 6257
leaf_count=194 1156 4755 421 888 17678 6257
internal_value=7.6253e-06 8.24607e-06 9.3079e-06 7.42e-06 7.09134e-06 5.94157e-06
internal_weight=0 5370 5176 25979 24823 7145
internal_count=31349 5370 5176 25979 24823 7145
is_linear=0
shrinkage=1


Tree=1
num_leaves=4
num_cat=0
split_feature=1 1 0
split_gain=1.07063e-05 8.23243e-07 8.79405e-08
threshold=147.51248935389609 149.86016741433426 149.90491165730762
decision_type=2 2 2
left_child=-1 -2 -3
right_child=1 2 -4
leaf_value=1.2398322111122844e-06 0 0 -3.5399037422534495e-07
leaf_weight=5328 7799 167 18079
leaf_count=5328 7799 167 18079
internal_value=0 -2.35577e-07 -3.46157e-07
internal_weight=0 26045 18246
internal_count=31373 26045 18246
is_linear=0
shrinkage=0.03


Tree=2
num_leaves=3
num_cat=0
split_feature=0 0
split_gain=3.24057e-06 2.86892e-07
threshold=147.36291571608322 155.85954132056145
decision_type=2 2
left_child=-1 -2
right_child=1 -3
leaf_value=6.1607958444326957e-07 0 -4.836447436105026e-07
leaf_weight=4913 20895 5600
leaf_count=4913 20895 5600
internal_value=0 -1.99237e-07
internal_weight=0 26495
internal_count=31408 26495
is_linear=0
shrinkage=0.03


Tree=3
num_leaves=8
num_cat=0
split_feature=1 17 3 3 3 5 17
split_gain=1.65239e-06 9.91982e-06 4.28367e-06 2.94991e-06 6.76704e-06 2.57706e-06 1.52102e-06
threshold=149.80517898460735 0.021311766805824372 -0.066147343621020191 -0.1348239924103658 -0.0032451174698603508 0.049499999999994777 -0.069203633956094149
decision_type=2 2 2 2 2 2 2
left_child=1 2 -1 -2 6 -4 -5
right_child=3 -3 5 4 -6 -7 -8
leaf_value=0 0 0 0 0 0 1.2924349683517712e-06 -1.2948045912095063e-06
leaf_weight=1192 646 1358 1433 66 10772 9042 6919
leaf_count=1192 646 1358 1433 66 10772 9042 6919
internal_value=0 1.00828e-08 8.7483e-07 -2.84144e-07 -4.82895e-07 1.10475e-06 -1.21025e-06
internal_weight=0 13025 11667 18403 17757 10475 6985
internal_count=31428 13025 11667 18403 17757 10475 6985
is_linear=0
shrinkage=0.03


Tree=4
num_leaves=7
num_cat=0
split_feature=1 3 3 3 3 0
split_gain=2.11228e-06 1.3866e-05 2.37858e-05 1.61246e-06 8.95738e-06 5.49251e-06
threshold=147.55525502264501 -0.10013695755559808 0.10960302461290507 -0.11200515761230627 -0.002894912413346567 149.6573889607524
decision_type=2 2 2 2 2 2
left_child=1 -1 -3 -2 5 -5
right_child=3 2 -4 4 -6 -7
leaf_value=0 0 2.8134844763426382e-06 0 0 0 -1.4521748905086236e-06
leaf_weight=593 1126 4521 386 3246 14757 6855
leaf_count=593 1126 4521 386 3246 14757 6855
internal_value=0 5.87911e-07 1.71188e-06 0 -2.41619e-07 -9.70445e-07
internal_weight=0 5500 4907 25984 24858 10101
internal_count=31484 5500 4907 25984 24858 10101
is_linear=0
shrinkage=0.03


Tree=5
num_leaves=4
num_cat=0
split_feature=1 0 1
split_gain=2.85961e-06 7.47156e-07 1.56385e-06
threshold=149.74115071230139 146.92349002971176 146.95088568512338
decision_type=2 2 2
left_child=1 2 -1
right_child=-2 -3 -4
leaf_value=8.1468072547142314e-07 -3.3318035001724228e-07 0 0
leaf_weight=3931 18417 8929 52
leaf_count=3931 18417 8929 52
internal_value=0 2.02443e-07 5.49254e-07
internal_weight=0 12912 3983
internal_count=31329 12912 3983
is_linear=0
shrinkage=0.03


Tree=6
num_leaves=2
num_cat=0
split_feature=0
split_gain=2.77507e-06
threshold=155.85954132056145
decision_type=2
left_child=-1
right_child=-2
leaf_value=1.1119589894730483e-07 -6.2609559601140132e-07
leaf_weight=25784 5558
leaf_count=25784 5558
internal_value=0
internal_weight=0
internal_count=31342
is_linear=0
shrinkage=0.03


Tree=7
num_leaves=3
num_cat=0
split_feature=0 1
split_gain=1.91557e-06 3.20009e-07
threshold=155.85954132056145 147.51248935389609
decision_type=2 2
left_child=1 -1
right_child=-2 -3
leaf_value=3.6504058496860636e-07 -4.8328332073706049e-07 0
leaf_weight=5371 5550 20627
leaf_count=5371 5550 20627
internal_value=0 1.28265e-07
internal_weight=0 25998
internal_count=31548 25998
is_linear=0
shrinkage=0.03


Tree=8
num_leaves=6
num_cat=0
split_feature=1 23 23 23 17
split_gain=4.01614e-06 9.34722e-06 2.57052e-06 1.23748e-05 1.36102e-07
threshold=144.80409874510858 1.738029806589972 1.8286426055833358 1.2242441120611358 0.086571931295999965
decision_type=2 2 2 2 2
left_child=1 4 3 -2 -1
right_child=2 -3 -4 -5 -6
leaf_value=2.6051984688253997e-06 0 0 0 -1.48994612578007e-06 0
leaf_weight=1790 22841 66 848 6059 20
leaf_count=1790 22841 66 848 6059 20
internal_value=0 1.38803e-06 0 -2.82932e-07 2.57767e-06
internal_weight=0 1876 29748 28900 1810
internal_count=31624 1876 29748 28900 1810
is_linear=0
shrinkage=0.03


Tree=9
num_leaves=6
num_cat=0
split_feature=1 17 0 17 17
split_gain=6.54219e-07 1.37279e-05 1.69139e-06 1.19445e-07 1.07562e-07
threshold=149.80517898460735 0.021311766805824372 147.40962592188743 -0.058460370210394214 0.057155185151547432
decision_type=2 2 2 2 2
left_child=1 2 -1 -2 -5
right_child=3 -3 -4 4 -6
leaf_value=1.8412163228911477e-06 0 0 0 -1.092369829807722e-07 0
leaf_weight=4264 226 1366 7364 18006 182
leaf_count=4264 226 1366 7364 18006 182
internal_value=0 2.10951e-07 1.05463e-06 -2.39427e-08 -8.05658e-08
internal_weight=0 12994 11628 18414 18188
internal_count=31408 12994 11628 18414 18188
is_linear=0
shrinkage=0.03


Tree=10
num_leaves=6
num_cat=0
split_feature=0 7 7 7 7
split_gain=4.40798e-06 2.60986e-06 1.34268e-06 6.6335e-07 7.12662e-07
threshold=155.85954132056145 0.068500000000000241 0.0090000000000003428 1.0000000180025095e-35 0.47350000000000142
decision_type=2 2 2 2 2
left_child=1 2 -1 -2 -5
right_child=3 -3 -4 4 -6
leaf_value=0 0 0 5.5727916538065953e-07 -8.7255224563240582e-07 0
leaf_weight=3523 67 7420 14941 5415 21
leaf_count=3523 67 7420 14941 5415 21
internal_value=0 2.04532e-07 4.31112e-07 -7.23971e-07 -8.00261e-07
internal_weight=0 25884 18464 5503 5436
internal_count=31387 25884 18464 5503 5436
is_linear=0
shrinkage=0.03


Tree=11
num_leaves=3
num_cat=0
split_feature=1 1
split_gain=4.79676e-06 1.20302e-06
threshold=147.51248935389609 157.22748201287658
decision_type=2 2
left_child=-1 -2
right_child=1 -3
leaf_value=7.187459791909563e-07 0 -9.3264630177259422e-07
leaf_weight=5327 22865 3044
leaf_count=5327 22865 3044
internal_value=0 -2.45781e-07
internal_weight=0 25909
internal_count=31236 25909
is_linear=0
shrinkage=0.03


Tree=12
num_leaves=5
num_cat=0
split_feature=0 17 17 17
split_gain=4.04683e-06 3.03219e-05 5.86563e-07 1.11603e-07
threshold=147.36291571608322 0.025460422356931803 0.057155185151547432 -0.069203633956094149
decision_type=2 2 2 2
left_child=1 -1 3 -2
right_child=2 -3 -4 -5
leaf_value=2.6175031722336557e-06 0 0 0 -2.7765236372686909e-07
leaf_weight=4315 165 667 234 25892
leaf_count=4315 165 667 234 25892
internal_value=0 6.75666e-07 -2.28082e-07 -2.69718e-07
internal_weight=0 4982 26291 26057
internal_count=31273 4982 26291 26057
is_linear=0
shrinkage=0.03


Tree=13
num_leaves=2
num_cat=0
split_feature=1
split_gain=8.6329e-07
threshold=149.74115071230139
decision_type=2
left_child=-1
right_child=-2
leaf_value=1.0710357530080859e-07 -1.8472431178663261e-07
leaf_weight=12890 18436
leaf_count=12890 18436
internal_value=0
internal_weight=0
internal_count=31326
is_linear=0
shrinkage=0.03


Tree=14
num_leaves=8
num_cat=0
split_feature=0 3 3 1 17 7 17
split_gain=2.28272e-06 3.59821e-06 2.33932e-06 1.82037e-06 2.48809e-06 8.49584e-07 6.92387e-07
threshold=155.85954132056145 0.0029002120944386766 -0.10758690612775271 155.55679376037219 0.023284781550556428 0.0014999999999929516 -0.058460370210394214
decision_type=2 2 2 2 2 2 2
left_child=1 -1 -2 4 -3 -4 -7
right_child=2 3 5 -5 -6 6 -8
leaf_value=0 0 7.9844541790912253e-07 0 0 0 0 -1.0462378910209452e-06
leaf_weight=13367 227 11162 187 336 1060 49 5068
leaf_count=13367 227 11162 187 336 1060 49 5068
internal_value=0 0 -6.09456e-07 5.07812e-07 6.31671e-07 -8.85589e-07 -9.80997e-07
internal_weight=0 25925 5531 12558 12222 5304 5117
internal_count=31456 25925 5531 12558 12222 5304 5117
is_linear=0
shrinkage=0.03


Tree=15
num_leaves=3
num_cat=0
split_feature=0 0
split_gain=9.67525e-06 4.70155e-07
threshold=155.85954132056145 147.36291571608322
decision_type=2 2
left_child=1 -1
right_child=-2 -3
leaf_value=6.1950495484699529e-07 -1.1396887950325131e-06 0
leaf_weight=4967 5562 20886
leaf_count=4967 5562 20886
internal_value=0 2.39518e-07
internal_weight=0 25853
internal_count=31415 25853
is_linear=0
shrinkage=0.03


Tree=16
num_leaves=3
num_cat=0
split_feature=1 1
split_gain=2.40582e-06 2.54155e-07
threshold=157.26542796134086 150.03101331640224
decision_type=2 2
left_child=1 -1
right_child=-2 -3
leaf_value=1.838726372684158e-07 -8.0709458107117322e-07 0
leaf_weight=14046 2946 14447
leaf_count=14046 2946 14447
internal_value=0 9.29454e-08
internal_weight=0 28493
internal_count=31439 28493
is_linear=0
shrinkage=0.03


Tree=17
num_leaves=9
num_cat=0
split_feature=0 7 8 7 7 7 0 0
split_gain=4.15745e-06 9.56452e-06 2.50654e-06 1.0052e-06 6.1591e-07 5.62231e-07 3.48425e-09 8.63045e-07
threshold=157.23048464037296 0.052000000000006714 1.3352650172662249e-05 0.3384999999999963 0.0019999999999953393 1.0000000180025095e-35 144.80305233364348 156.65746689870258
decision_type=2 2 2 2 2 2 2 2
left_child=1 2 -1 5 -4 -2 -3 -8
right_child=3 6 4 -5 -6 -7 7 -9
leaf_value=0 0 0 0 0 8.5823288969261543e-07 -1.2354918801721174e-06 -2.864707214756033e-07 0
leaf_weight=962 31 1057 51 22 16228 3025 9503 392
leaf_count=962 31 1057 51 22 16228 3025 9503 392
internal_value=0 1.37724e-07 7.28212e-07 -1.02071e-06 8.36783e-07 -1.15991e-06 0 -1.78019e-08
internal_weight=0 28193 17241 3078 16279 3056 10952 9895
internal_count=31271 28193 17241 3078 16279 3056 10952 9895
is_linear=0
shrinkage=0.03


Tree=18
num_leaves=8
num_cat=0
split_feature=1 17 3 3 3 3 17
split_gain=1.03842e-06 2.07237e-05 2.19536e-05 1.55294e-05 1.95211e-06 9.66312e-06 2.7158e-07
threshold=147.51248935389609 0.026352796065206279 -0.081013824192150655 0.10960302461290507 -0.10758690612775271 0.001795813259194998 -0.086611781908479776
decision_type=2 2 2 2 2 2 2
left_child=1 2 -1 -4 -2 6 -6
right_child=4 -3 3 -5 5 -7 -8
leaf_value=0 0 0 3.8136884163318369e-06 0 0 0 -9.6095711265076721e-07
leaf_weight=692 1268 657 3666 295 20 13307 11585
leaf_count=692 1268 657 3666 295 20 13307 11585
internal_value=0 4.19523e-07 2.05164e-06 3.15161e-06 0 -2.65563e-07 -9.49097e-07
internal_weight=0 5310 4653 3961 26180 24912 11605
internal_count=31490 5310 4653 3961 26180 24912 11605
is_linear=0
shrinkage=0.03


Tree=19
num_leaves=7
num_cat=0
split_feature=7 0 0 7 7 7
split_gain=4.56896e-07 5.41624e-06 4.96167e-06 3.94264e-06 2.44165e-06 8.04287e-09
threshold=0.052500000000009102 144.80305233364348 157.23048464037296 0.47350000000000142 0.0090000000000003428 0.052000000000006714
decision_type=2 2 2 2 2 2
left_child=2 -2 4 -3 -1 -6
right_child=1 3 -4 -5 5 -7
leaf_value=0 0 -9.1324709305752438e-07 0 0 7.0298887032109457e-07 0
leaf_weight=3868 1067 10581 2209 85 13516 47
leaf_count=3868 1067 10581 2209 85 13516 47
internal_value=0 -1.85069e-07 2.18071e-08 -7.03346e-07 5.06671e-07 7.01389e-07
internal_weight=0 11733 19640 10666 17431 13563
internal_count=31373 11733 19640 10666 17431 13563
is_linear=0
shrinkage=0.03


Tree=20
num_leaves=6
num_cat=0
split_feature=0 3 3 1 3
split_gain=2.30278e-06 3.4977e-06 2.82978e-06 9.09189e-07 1.04474e-06
threshold=155.85954132056145 -0.10758690612775271 -0.039858073900622702 155.64948493183098 0.14971633497029216
decision_type=2 2 2 2 2
left_child=2 -2 -1 4 -4
right_child=1 -3 3 -5 -6
leaf_value=0 0 -9.8891695417651685e-07 4.6037897702347832e-07 0 0
leaf_weight=4591 224 5338 20313 308 514
leaf_count=4591 224 5338 20313 308 514
internal_value=0 -6.10419e-07 0 3.47133e-07 4.0196e-07
internal_weight=0 5562 25726 21135 20827
internal_count=31288 5562 25726 21135 20827
is_linear=0
shrinkage=0.03


Tree=21
num_leaves=6
num_cat=0
split_feature=17 0 17 0 0
split_gain=8.65399e-08 1.20726e-05 5.71854e-06 2.97351e-06 1.12026e-06
threshold=0.013278494177322247 147.45759108472197 0.0091106641311640337 142.63513381453683 159.61254919162982
decision_type=2 2 2 2 2
left_child=1 2 -1 -2 -5
right_child=3 -3 -4 4 -6
leaf_value=2.122298885225958e-06 0 0 0 -8.613067822308844e-07 0
leaf_weight=3561 216 22192 328 5034 117
leaf_count=3561 216 22192 328 5034 117
internal_value=0 3.26113e-08 1.67359e-06 -9.6663e-08 -7.27508e-07
internal_weight=0 26081 3889 5367 5151
internal_count=31448 26081 3889 5367 5151
is_linear=0
shrinkage=0.03


Tree=22
num_leaves=8
num_cat=0
split_feature=1 3 22 22 3 3 4
split_gain=1.11831e-06 3.78386e-06 1.70856e-05 2.57004e-06 5.88256e-07 4.2138e-06 3.26047e-06
threshold=149.74115071230139 0.0039077514629537761 0.18128749999999744 0.037664999999997027 -0.20610275809468684 0.10960302461290507 0.054000000000000631
decision_type=2 2 2 2 2 2 2
left_child=4 2 3 -2 -1 6 -6
right_child=1 -3 -4 -5 5 -7 -8
leaf_value=0 0 0 0 -1.6838564548602315e-06 0 0 8.0721675679026785e-07
leaf_weight=155 436 9224 1000 7795 1030 551 11136
leaf_count=155 436 9224 1000 7795 1030 551 11136
internal_value=0 -2.33531e-07 -6.91335e-07 -1.55054e-06 0 2.04038e-07 5.96018e-07
internal_weight=0 18455 9231 8231 12872 12717 12166
internal_count=31327 18455 9231 8231 12872 12717 12166
is_linear=0
shrinkage=0.03


Tree=23
num_leaves=6
num_cat=0
split_feature=1 7 7 7 7
split_gain=4.31997e-06 1.08665e-05 5.84383e-06 1.39231e-06 1.90919e-07
threshold=144.80409874510858 0.052000000000006714 0.47350000000000142 0.0024999999999977267 0.42450000000000904
decision_type=2 2 2 2 2
left_child=3 -2 -3 -1 -5
right_child=1 2 -4 4 -6
leaf_value=0 0 -1.2484992812732965e-06 0 1.4379789048527176e-06 0
leaf_weight=38 18750 10674 80 1796 27
leaf_count=38 18750 10674 80 1796 27
internal_value=0 -2.32795e-07 -1.02864e-06 1.10903e-06 1.39388e-06
internal_weight=0 29504 10754 1861 1823
internal_count=31365 29504 10754 1861 1823
is_linear=0
shrinkage=0.03


Tree=24
num_leaves=9
num_cat=0
split_feature=17 0 1 8 8 1 17 17
split_gain=1.16954e-06 1.158e-05 9.48614e-06 4.94396e-06 3.6474e-06 2.00227e-06 1.64895e-07 4.24141e-07
threshold=0.013643809088325473 149.36898725758107 142.92288614344798 9.3078298798722315e-05 6.3397470532603213e-05 159.1136154483477 0.0051540609353309058 -0.069203633956094149
decision_type=2 2 2 2 2 2 2 2
left_child=1 4 -2 -4 -1 -5 7 -3
right_child=2 6 3 5 -6 -7 -8 -9
leaf_value=0 0 0 0 -1.9308680720695755e-06 1.2701344275280776e-06 0 0 -2.0000152591754375e-07
leaf_weight=1340 283 158 703 4249 8495 101 2951 13253
leaf_count=1340 283 158 703 4249 8495 101 2951 13253
internal_value=0 0 -4.44137e-07 -1.37763e-06 1.0294e-06 -1.79651e-06 0 -1.05194e-07
internal_weight=0 26197 5336 5053 9835 4350 16362 13411
internal_count=31533 26197 5336 5053 9835 4350 16362 13411
is_linear=0
shrinkage=0.03


Tree=25
num_leaves=4
num_cat=0
split_feature=8 8 8
split_gain=1.06192e-08 2.13605e-06 1.00594e-06
threshold=0.00037636407861243011 0.0014754616965605035 7.5187670765780468e-05
decision_type=2 2 2
left_child=2 -2 -1
right_child=1 -3 -4
leaf_value=0 -4.3989485139081123e-07 0 2.4703651649004872e-07
leaf_weight=5780 9984 842 14835
leaf_count=5780 9984 842 14835
internal_value=0 -2.9712e-08 0
internal_weight=0 10826 20615
internal_count=31441 10826 20615
is_linear=0
shrinkage=0.03


Tree=26
num_leaves=5
num_cat=0
split_feature=1 18 3 3
split_gain=6.7724e-07 4.33936e-06 9.61974e-07 9.99219e-07
threshold=157.26542796134086 0.0045706968378467589 -0.025573183302263131 0.16078290515848873
decision_type=2 2 2 2
left_child=1 2 -1 -4
right_child=-2 -3 3 -5
leaf_value=0 0 0 5.8025179109173071e-07 0
leaf_weight=4330 2979 4997 18652 394
leaf_count=4330 2979 4997 18652 394
internal_value=0 1.46568e-07 4.39481e-07 5.31517e-07
internal_weight=0 28373 23376 19046
internal_count=31352 28373 23376 19046
is_linear=0
shrinkage=0.03


Tree=27
num_leaves=8
num_cat=0
split_feature=1 17 8 13 3 3 0
split_gain=6.50861e-06 1.62595e-05 8.1787e-06 7.18546e-06 2.59465e-06 1.03139e-05 2.1335e-06
threshold=149.80517898460735 0.023940908468545529 7.3769804744832802e-05 -0.0022813225000132818 -0.002894912413346567 -0.12255420929837856 149.96306143365385
decision_type=2 2 2 2 2 2 2
left_child=1 2 -1 -4 5 -2 -7
right_child=4 -3 3 -5 -6 6 -8
leaf_value=0 0 0 0 1.8533450003510654e-06 0 0 -1.4508747209909127e-06
leaf_weight=1773 811 1160 75 9979 10696 377 6451
leaf_count=1773 811 1160 75 9979 10696 377 6451
internal_value=0 6.69188e-07 1.31492e-06 1.66315e-06 -4.78337e-08 -5.57835e-07 -1.30675e-06
internal_weight=0 12987 11827 10054 18335 7639 6828
internal_count=31322 12987 11827 10054 18335 7639 6828
is_linear=0
shrinkage=0.03


Tree=28
num_leaves=10
num_cat=0
split_feature=17 0 1 5 8 3 8 3 3
split_gain=2.60986e-06 1.29771e-05 6.36503e-06 8.09232e-06 4.36581e-06 3.92358e-06 3.33089e-06 1.94502e-08 1.10717e-06
threshold=0.013643809088325473 149.60477857145477 142.92288614344798 0.11800000000000922 6.0871477008927252e-05 -0.24134130100428289 9.3078298798722315e-05 -0.0018841022297610816 -0.11200515761230627
decision_type=2 2 2 2 2 2 2 2 2
left_child=1 4 -2 -4 -1 -6 -5 8 -3
right_child=2 7 3 6 5 -7 -8 -9 -10
leaf_value=0 0 0 0 0 0 1.5099669641433493e-06 -2.5603666466482597e-06 0 -4.0928127543783799e-07
leaf_weight=1353 281 605 2171 181 55 8870 2635 9236 6053
leaf_count=1353 281 605 2171 181 55 8870 2635 9236 6053
internal_value=0 2.03511e-07 -4.90009e-07 -1.18419e-06 1.11436e-06 1.36759e-06 -2.25158e-06 0 -5.12753e-08
internal_weight=0 26172 5268 4987 10278 8925 2816 15894 6658
internal_count=31440 26172 5268 4987 10278 8925 2816 15894 6658
is_linear=0
shrinkage=0.03


Tree=29
num_leaves=2
num_cat=0
split_feature=0
split_gain=1.29719e-07
threshold=155.85954132056145
decision_type=2
left_child=-1
right_child=-2
leaf_value=6.4783502586265887e-08 -3.8971829510248996e-08
leaf_weight=25824 5508
leaf_count=25824 5508
internal_value=0
internal_weight=0
internal_count=31332
is_linear=0
shrinkage=0.03


Tree=30
num_leaves=5
num_cat=0
split_feature=1 7 8 7
split_gain=1.34124e-07 2.83938e-06 1.76559e-06 1.46135e-07
threshold=157.26542796134086 0.059000000000011717 2.7226999503818534e-05 0.0019999999999953393
decision_type=2 2 2 2
left_child=1 2 -1 -2
right_child=3 -3 -4 -5
leaf_value=0 0 0 5.0222905913616033e-07 -2.3665435321158227e-07
leaf_weight=1984 124 9612 16797 2855
leaf_count=1984 124 9612 16797 2855
internal_value=0 5.70256e-08 3.75474e-07 -9.76018e-08
internal_weight=0 28393 18781 2979
internal_count=31372 28393 18781 2979
is_linear=0
shrinkage=0.03


Tree=31
num_leaves=8
num_cat=0
split_feature=0 5 5 6 5 8 7
split_gain=1.11365e-06 1.54317e-06 4.26986e-06 1.06689e-06 1.08289e-06 8.4983e-07 3.65144e-07
threshold=155.85954132056145 0.12049999999999274 0.049499999999994777 0.004601223213581653 0.025499999999993864 6.6028610215105439e-06 1.0000000180025095e-35
decision_type=2 2 2 2 2 2 2
left_child=1 2 -1 4 -2 -4 -6
right_child=3 -3 5 -5 6 -7 -8
leaf_value=0 0 0 0 0 0 7.0008017413988077e-07 -7.8577576905337424e-07
leaf_weight=4563 250 9022 146 32 48 12235 5289
leaf_count=4563 250 9022 146 32 48 12235 5289
internal_value=0 0 2.86298e-07 -4.22341e-07 -5.92666e-07 6.50044e-07 -7.41833e-07
internal_weight=0 25966 16944 5619 5587 12381 5337
internal_count=31585 25966 16944 5619 5587 12381 5337
is_linear=0
shrinkage=0.03


Tree=32
num_leaves=3
num_cat=0
split_feature=1 0
split_gain=1.67176e-06 7.64943e-08
threshold=147.51248935389609 147.50950013814989
decision_type=2 2
left_child=-1 -2
right_child=1 -3
leaf_value=7.1082453953436435e-08 0 -2.4376174240162737e-07
leaf_weight=5337 66 26026
leaf_count=5337 66 26026
internal_value=0 -2.37973e-07
internal_weight=0 26092
internal_count=31429 26092
is_linear=0
shrinkage=0.03


Tree=33
num_leaves=5
num_cat=0
split_feature=0 17 0 17
split_gain=1.02187e-07 9.93249e-06 5.21868e-08 3.52187e-07
threshold=147.40962592188743 0.017173800265856954 155.85954132056145 -0.051442616102023941
decision_type=2 2 2 2
left_child=1 -1 -2 -4
right_child=2 -3 3 -5
leaf_value=1.5014371378869734e-06 0 0 0 -2.6092305076143607e-07
leaf_weight=4002 20724 1025 87 5481
leaf_count=4002 20724 1025 87 5481
internal_value=0 1.28297e-07 -1.87279e-08 -1.00456e-07
internal_weight=0 5027 26292 5568
internal_count=31319 5027 26292 5568
is_linear=0
shrinkage=0.03


Tree=34
num_leaves=2
num_cat=0
split_feature=0
split_gain=2.25038e-06
threshold=155.85954132056145
decision_type=2
left_child=-1
right_child=-2
leaf_value=4.5349016200496348e-08 -5.9616764798468201e-07
leaf_weight=25821 5549
leaf_count=25821 5549
internal_value=0
internal_weight=0
internal_count=31370
is_linear=0
shrinkage=0.03


Tree=35
num_leaves=5
num_cat=0
split_feature=0 17 17 17
split_gain=2.60881e-07 3.45299e-06 2.92412e-07 1.24001e-08
threshold=157.23048464037296 0.023284781550556428 -0.020772586081897335 -0.069203633956094149
decision_type=2 2 2 2
left_child=1 2 -1 -2
right_child=3 -3 -4 -5
leaf_value=0 0 0 3.8419325215518008e-07 -2.8387488434127508e-07
leaf_weight=2839 20 2575 22837 3052
leaf_count=2839 20 2575 22837 3052
internal_value=0 0 3.479e-07 -2.76455e-07
internal_weight=0 28251 25676 3072
internal_count=31323 28251 25676 3072
is_linear=0
shrinkage=0.03


Tree=36
num_leaves=2
num_cat=0
split_feature=1
split_gain=2.27493e-06
threshold=157.26542796134086
decision_type=2
left_child=-1
right_child=-2
leaf_value=0 -8.3041129659636755e-07
leaf_weight=28372 2969
leaf_count=28372 2969
internal_value=0
internal_weight=0
internal_count=31341
is_linear=0
shrinkage=0.03


Tree=37
num_leaves=3
num_cat=0
split_feature=1 0
split_gain=5.06792e-06 2.85948e-08
threshold=157.26542796134086 157.23048464037296
decision_type=2 2
left_child=1 -1
right_child=-2 -3
leaf_value=3.1577377488416207e-08 -1.2481723884760664e-06 0
leaf_weight=28276 2926 166
leaf_count=28276 2926 166
internal_value=0 9.29944e-09
internal_weight=0 28442
internal_count=31368 28442
is_linear=0
shrinkage=0.03


Tree=38
num_leaves=2
num_cat=0
split_feature=1
split_gain=4.26277e-07
threshold=157.22748201287658
decision_type=2
left_child=-1
right_child=-2
leaf_value=0 -3.5431016699888041e-07
leaf_weight=28456 3056
leaf_count=28456 3056
internal_value=0
internal_weight=0
internal_count=31512
is_linear=0
shrinkage=0.03


Tree=39
num_leaves=7
num_cat=0
split_feature=1 23 23 0 23 23
split_gain=3.98803e-06 3.32712e-06 1.39677e-06 2.05833e-06 1.32817e-06 5.10091e-07
threshold=157.44772907243387 0.61124002785834264 1.2462810560896858 147.73215919631642 2.4314132344670454 1.0000000180025095e-35
decision_type=2 2 2 2 2 2
left_child=2 -2 3 5 -3 -1
right_child=1 4 -4 -5 -6 -7
leaf_value=0 0 -1.7553490236046479e-06 0 0 0 9.5683494204718122e-07
leaf_weight=20 289 2252 6099 17854 29 4815
leaf_count=20 289 2252 6099 17854 29 4815
internal_value=0 -1.03432e-06 1.70788e-07 3.03997e-07 -1.58684e-06 9.03769e-07
internal_weight=0 2570 28788 22689 2281 4835
internal_count=31358 2570 28788 22689 2281 4835
is_linear=0
shrinkage=0.03


Tree=40
num_leaves=7
num_cat=0
split_feature=1 3 3 3 7 3
split_gain=9.56279e-07 5.34919e-06 1.38951e-05 3.92521e-06 6.09807e-06 3.13097e-06
threshold=147.51248935389609 -0.15974607527746162 0.10960302461290507 -0.11200515761230627 0.059000000000011717 0.060312537059203149
decision_type=2 2 2 2 2 2
left_child=1 -1 -3 -2 -5 -6
right_child=3 2 -4 4 5 -7
leaf_value=0 0 1.9163770396872048e-06 0 0 -1.4541078476387356e-06 0
leaf_weight=198 1121 4716 385 17726 6006 1194
leaf_count=198 1121 4716 385 17726 6006 1194
internal_value=0 0 9.71479e-07 -1.81775e-07 -4.19827e-07 -1.17151e-06
internal_weight=0 5299 5101 26047 24926 7200
internal_count=31346 5299 5101 26047 24926 7200
is_linear=0
shrinkage=0.03


Tree=41
num_leaves=6
num_cat=0
split_feature=0 3 3 3 0
split_gain=2.3036e-06 4.87337e-06 4.29829e-06 2.29148e-06 2.5179e-06
threshold=155.85954132056145 0.0014284547803628061 -0.096419249030311821 0.14971633497029216 155.70432995907512
decision_type=2 2 2 2 2
left_child=1 -1 -2 4 -3
right_child=2 3 -4 -5 -6
leaf_value=0 0 8.4808550127930711e-07 -1.0560950080612348e-06 0 0
leaf_weight=12993 281 12155 5302 499 191
leaf_count=12993 281 12155 5302 499 191
internal_value=0 3.29614e-08 -6.05239e-07 5.86209e-07 7.24274e-07
internal_weight=0 25838 5583 12845 12346
internal_count=31421 25838 5583 12845 12346
is_linear=0
shrinkage=0.03


Tree=42
num_leaves=3
num_cat=0
split_feature=1 0
split_gain=1.06485e-07 2.16096e-08
threshold=149.86016741433426 149.90491165730762
decision_type=2 2
left_child=-1 -2
right_child=1 -3
leaf_value=7.3084627977497772e-08 0 -4.99673795067561e-08
leaf_weight=13163 179 18014
leaf_count=13163 179 18014
internal_value=0 -3.74588e-08
internal_weight=0 18193
internal_count=31356 18193
is_linear=0
shrinkage=0.03


Tree=43
num_leaves=2
num_cat=0
split_feature=1
split_gain=2.20321e-09
threshold=147.51248935389609
decision_type=2
left_child=-1
right_child=-2
leaf_value=0 -8.7135505316591089e-09
leaf_weight=5306 26116
leaf_count=5306 26116
internal_value=0
internal_weight=0
internal_count=31422
is_linear=0
shrinkage=0.03


Tree=44
num_leaves=8
num_cat=0
split_feature=1 23 22 22 22 22 23
split_gain=3.91134e-06 5.02986e-06 4.68072e-06 7.16056e-06 2.2483e-07 8.83989e-07 3.19087e-06
threshold=149.74115071230139 1.8286426055833358 0.2500850000000005 0.11288249999999907 0.052980000000005988 0.33721250000000441 1.2291212768637749
decision_type=2 2 2 2 2 2 2
left_child=4 2 3 -2 -1 6 -6
right_child=1 -3 -4 -5 5 -7 -8
leaf_value=0 0 0 0 -1.7563964012817369e-06 6.4505392030446716e-07 0 0
leaf_weight=749 11486 541 431 6063 9300 251 2589
leaf_count=749 11486 541 431 6063 9300 251 2589
internal_value=0 -4.35964e-07 -6.68995e-07 -8.3582e-07 0 1.29103e-07 2.89719e-07
internal_weight=0 18521 17980 17549 12889 12140 11889
internal_count=31410 18521 17980 17549 12889 12140 11889
is_linear=0
shrinkage=0.03


Tree=45
num_leaves=3
num_cat=0
split_feature=1 0
split_gain=1.20929e-07 1.37392e-07
threshold=157.26542796134086 157.23048464037296
decision_type=2 2
left_child=1 -1
right_child=-2 -3
leaf_value=9.0653398286543132e-08 0 0
leaf_weight=28290 2958 164
leaf_count=28290 2958 164
internal_value=0 6.18464e-08
internal_weight=0 28454
internal_count=31412 28454
is_linear=0
shrinkage=0.03


Tree=46
num_leaves=5
num_cat=0
split_feature=1 17 23 15
split_gain=5.35308e-07 4.59558e-06 2.2922e-06 4.56886e-06
threshold=157.26542796134086 0.017173800265856954 1.3175195846769927 -0.00071153613388424931
decision_type=2 2 2 2
left_child=1 2 3 -1
right_child=-2 -3 -4 -5
leaf_value=0 0 0 0 7.4629517876192153e-07
leaf_weight=1541 2940 3788 3756 19378
leaf_count=1541 2940 3788 3756 19378
internal_value=0 1.30101e-07 4.32602e-07 5.65122e-07
internal_weight=0 28463 24675 20919
internal_count=31403 28463 24675 20919
is_linear=0
shrinkage=0.03


Tree=47
num_leaves=8
num_cat=0
split_feature=3 8 0 2 12 12 0
split_gain=1.35187e-06 4.46121e-06 1.70418e-06 5.50877e-06 1.54385e-06 1.33295e-06 1.26395e-06
threshold=0.001795813259194998 0.0010885957633879199 157.23048464037296 0.15683813300871921 0.020976099992665812 -0.031628954783514011 142.38914915155195
decision_type=2 2 2 2 2 2 2
left_child=1 4 3 5 6 -2 -1
right_child=2 -3 -4 -5 -6 -7 -8
leaf_value=0 0 0 0 0 0 7.5639780309729004e-07 -7.428000182635657e-07
leaf_weight=223 45 1067 1872 569 110 13443 14062
leaf_count=223 45 1067 1872 569 110 13443 14062
internal_value=0 -2.80514e-07 0 3.30317e-07 -6.02861e-07 6.93749e-07 -6.80813e-07
internal_weight=0 15462 15929 14057 14395 13488 14285
internal_count=31391 15462 15929 14057 14395 13488 14285
is_linear=0
shrinkage=0.03


Tree=48
num_leaves=2
num_cat=0
split_feature=1
split_gain=4.10389e-07
threshold=144.80409874510858
decision_type=2
left_child=-1
right_child=-2
leaf_value=0 -1.1178996191288819e-07
leaf_weight=1849 29555
leaf_count=1849 29555
internal_value=0
internal_weight=0
internal_count=31404
is_linear=0
shrinkage=0.03


Tree=49
num_leaves=8
num_cat=0
split_feature=0 23 7 17 23 23 23
split_gain=5.56322e-07 5.19602e-06 1.22618e-06 1.21726e-06 3.46746e-06 2.65772e-06 9.97778e-07
threshold=155.85954132056145 0.68781855589995644 0.0014999999999929516 0.023940908468545529 1.3175195846769927 0.62639967911791072 2.4314132344670454
decision_type=2 2 2 2 2 2 2
left_child=3 -2 -3 4 5 -1 -4
right_child=1 2 6 -5 -6 -7 -8
leaf_value=0 0 0 -1.2728178145342658e-06 0 0 6.027319075561904e-07 0
leaf_weight=1832 989 131 4431 2236 3649 18190 40
leaf_count=1832 989 131 4431 2236 3649 18190 40
internal_value=0 -2.99251e-07 -1.06063e-06 0 2.15132e-07 4.5889e-07 -1.18521e-06
internal_weight=0 5591 4602 25907 23671 20022 4471
internal_count=31498 5591 4602 25907 23671 20022 4471
is_linear=0
shrinkage=0.03


Tree=50
num_leaves=3
num_cat=0
split_feature=1 0
split_gain=1.79987e-06 6.51947e-08
threshold=157.26542796134086 155.85954132056145
decision_type=2 2
left_child=1 -1
right_child=-2 -3
leaf_value=5.8303167269201212e-08 -7.30808782063592e-07 0
leaf_weight=25890 2978 2569
leaf_count=25890 2978 2569
internal_value=0 3.21041e-08
internal_weight=0 28459
internal_count=31437 28459
is_linear=0
shrinkage=0.03


Tree=51
num_leaves=3
num_cat=0
split_feature=1 0
split_gain=2.19323e-07 1.14241e-08
threshold=147.51248935389609 147.50950013814989
decision_type=2 2
left_child=-1 -2
right_child=1 -3
leaf_value=0 0 -8.9325772339597606e-08
leaf_weight=5336 62 26027
leaf_count=5336 62 26027
internal_value=0 -8.69829e-08
internal_weight=0 26089
internal_count=31425 26089
is_linear=0
shrinkage=0.03


Tree=52
num_leaves=4
num_cat=0
split_feature=3 3 3
split_gain=2.3768e-07 2.68915e-06 5.92353e-07
threshold=-0.025573183302263131 0.14971633497029216 -0.11200515761230627
decision_type=2 2 2
left_child=2 -2 -1
right_child=1 -3 -4
leaf_value=0 3.2509575201901649e-07 0 -3.4655348980452046e-07
leaf_weight=1635 23401 617 5779
leaf_count=1635 23401 617 5779
internal_value=0 4.69589e-08 -1.47338e-07
internal_weight=0 24018 7414
internal_count=31432 24018 7414
is_linear=0
shrinkage=0.03


Tree=53
num_leaves=8
num_cat=0
split_feature=1 3 3 23 23 23 23
split_gain=4.30567e-06 4.94403e-06 3.86906e-06 4.57152e-06 3.09295e-06 2.40026e-06 2.80744e-08
threshold=157.26542796134086 -0.025573183302263131 0.14971633497029216 1.2405846693389067 0.61124002785834264 2.4314132344670454 0.67197628851642965
decision_type=2 2 2 2 2 2 2
left_child=1 -1 3 -3 -2 6 -6
right_child=4 2 -4 -5 5 -7 -8
leaf_value=0 0 9.1565998812292967e-07 0 0 0 0 -1.6160894913469483e-06
leaf_weight=6805 315 17290 569 3873 175 33 2448
leaf_count=6805 315 17290 569 3873 175 33 2448
internal_value=0 2.93034e-07 5.63477e-07 7.00415e-07 -6.92463e-07 -1.25873e-06 -1.55816e-06
internal_weight=0 28537 21732 21163 2971 2656 2623
internal_count=31508 28537 21732 21163 2971 2656 2623
is_linear=0
shrinkage=0.03


Tree=54
num_leaves=7
num_cat=0
split_feature=7 1 7 1 8 7
split_gain=1.14379e-06 1.00525e-05 3.32149e-06 1.29781e-06 9.05675e-07 7.53658e-08
threshold=0.052000000000006714 144.80409874510858 0.27200000000000563 157.13197913007497 2.6778690943401669e-05 0.051500000000004327
decision_type=2 2 2 2 2 2
left_child=3 -2 -3 4 -1 -6
right_child=1 2 -4 -5 5 -7
leaf_value=0 0 -1.1238936804216252e-06 0 0 3.6682310199292487e-07 0
leaf_weight=1826 1067 10344 388 2327 15242 158
leaf_count=1826 1067 10344 388 2327 15242 158
internal_value=0 -2.95373e-07 -9.68983e-07 0 2.60395e-07 3.58851e-07
internal_weight=0 11799 10732 19553 17226 15400
internal_count=31352 11799 10732 19553 17226 15400
is_linear=0
shrinkage=0.03


Tree=55
num_leaves=7
num_cat=0
split_feature=17 0 0 23 23 23
split_gain=4.45619e-07 6.23059e-06 4.88927e-06 2.88745e-06 3.00323e-06 7.26923e-07
threshold=0.012970122860102963 147.36291571608322 142.89169451319287 1.765694928123178 0.47792142366787987 1.0000000180025095e-35
decision_type=2 2 2 2 2 2
left_child=1 5 -2 4 -4 -1
right_child=2 -3 3 -5 -6 -7
leaf_value=0 0 0 0 0 -1.4456647659243069e-06 1.3097725032142233e-06
leaf_weight=24 289 22255 80 310 4834 3650
leaf_count=24 289 22255 80 310 4834 3650
internal_value=0 0 -2.69715e-07 -9.5869e-07 -1.22715e-06 1.23541e-06
internal_weight=0 25929 5513 5224 4914 3674
internal_count=31442 25929 5513 5224 4914 3674
is_linear=0
shrinkage=0.03


Tree=56
num_leaves=7
num_cat=0
split_feature=1 7 7 7 0 7
split_gain=1.15199e-07 1.80267e-07 1.71363e-07 5.07105e-07 8.37345e-08 1.0739e-07
threshold=150.03101331640224 0.39899999999998675 0.076000000000007631 0.0019999999999953393 149.92905281529917 0.030999999999991704
decision_type=2 2 2 2 2 2
left_child=2 4 3 -1 -2 -6
right_child=1 -3 -4 -5 5 -7
leaf_value=0 0 0 0 2.5017714293425017e-07 0 -2.1940748140646753e-07
leaf_weight=347 21 79 3928 9756 8191 9097
leaf_count=347 21 79 3928 9756 8191 9097
internal_value=0 -7.72182e-08 0 1.23553e-07 -1.23947e-07 -1.40502e-07
internal_weight=0 17388 14031 10103 17309 17288
internal_count=31419 17388 14031 10103 17309 17288
is_linear=0
shrinkage=0.03


Tree=57
num_leaves=6
num_cat=0
split_feature=0 5 22 22 17
split_gain=1.63353e-06 6.9804e-06 7.2412e-06 1.06457e-05 1.71256e-06
threshold=146.92349002971176 0.086500000000000923 0.23243499999999936 0.077062499999998493 0.021311766805824372
decision_type=2 2 2 2 2
left_child=4 -2 3 -3 -1
right_child=1 2 -4 -5 -6
leaf_value=6.8664130231686541e-07 0 0 0 -1.4950884953062596e-06 0
leaf_weight=3269 13826 1918 854 10670 702
leaf_count=3269 13826 1918 854 10670 702
internal_value=0 -2.32197e-07 -7.59431e-07 -1.0647e-06 0
internal_weight=0 27268 13442 12588 3971
internal_count=31239 27268 13442 12588 3971
is_linear=0
shrinkage=0.03


Tree=58
num_leaves=2
num_cat=0
split_feature=1
split_gain=1.82757e-08
threshold=147.51248935389609
decision_type=2
left_child=-1
right_child=-2
leaf_value=9.8690369246668095e-09 -2.4687215098148894e-08
leaf_weight=5319 26138
leaf_count=5319 26138
internal_value=0
internal_weight=0
internal_count=31457
is_linear=0
shrinkage=0.03


Tree=59
num_leaves=3
num_cat=0
split_feature=1 1
split_gain=5.38706e-07 1.63732e-08
threshold=157.26542796134086 147.51248935389609
decision_type=2 2
left_child=1 -1
right_child=-2 -3
leaf_value=5.2481555728661496e-08 -4.0206993706857376e-07 0
leaf_weight=5350 2999 23238
leaf_count=5350 2999 23238
internal_value=0 0
internal_weight=0 28588
internal_count=31587 28588
is_linear=0
shrinkage=0.03


Tree=60
num_leaves=8
num_cat=0
split_feature=3 21 22 22 2 1 12
split_gain=1.26367e-06 9.31345e-06 4.10093e-06 4.83854e-06 1.11891e-06 6.53914e-06 6.38324e-06
threshold=-0.012206254546406241 0.0013769882469101167 0.2500850000000005 0.072255000000000472 0.15683813300871921 146.87549983748696 0.17076885223221441
decision_type=2 2 2 2 2 2 2
left_child=1 2 3 -1 5 6 -2
right_child=4 -3 -4 -5 -6 -7 -8
leaf_value=0 2.5054863828872983e-06 0 0 -1.6042379198653452e-06 0 0 0
leaf_weight=1771 2013 1636 174 6825 620 18155 107
leaf_count=1771 2013 1636 174 6825 620 18155 107
internal_value=0 -3.30593e-07 -1.04184e-06 -1.23967e-06 0 2.22863e-07 1.80303e-06
internal_weight=0 10406 8770 8596 20895 20275 2120
internal_count=31301 10406 8770 8596 20895 20275 2120
is_linear=0
shrinkage=0.03


Tree=61
num_leaves=3
num_cat=0
split_feature=1 17
split_gain=1.54086e-07 2.35239e-05
threshold=147.51248935389609 0.017663093768932964
decision_type=2 2
left_child=1 -1
right_child=-2 -3
leaf_value=2.2458204659496325e-06 0 0
leaf_weight=4225 25927 1099
leaf_count=4225 25927 1099
internal_value=0 1.61391e-07
internal_weight=0 5324
internal_count=31251 5324
is_linear=0
shrinkage=0.03


Tree=62
num_leaves=2
num_cat=0
split_feature=1
split_gain=8.71018e-07
threshold=149.80517898460735
decision_type=2
left_child=-1
right_child=-2
leaf_value=0 -2.0645197614413236e-07
leaf_weight=13023 18392
leaf_count=13023 18392
internal_value=0
internal_weight=0
internal_count=31415
is_linear=0
shrinkage=0.03


Tree=63
num_leaves=5
num_cat=0
split_feature=0 17 1 17
split_gain=4.89145e-07 1.01278e-05 5.03694e-06 3.42398e-07
threshold=146.92349002971176 0.021311766805824372 146.95088568512338 -0.058460370210394214
decision_type=2 2 2 2
left_child=1 2 -1 -2
right_child=3 -3 -4 -5
leaf_value=2.0565163678406593e-06 0 0 0 -1.6586795884821408e-07
leaf_weight=3227 278 726 39 27202
leaf_count=3227 278 726 39 27202
internal_value=0 0 1.67057e-06 -1.2657e-07
internal_weight=0 3992 3266 27480
internal_count=31472 3992 3266 27480
is_linear=0
shrinkage=0.03


Tree=64
num_leaves=5
num_cat=0
split_feature=1 8 8 8
split_gain=2.88242e-06 3.22296e-06 2.99226e-06 2.65694e-07
threshold=157.26542796134086 0.00037636407861243011 7.5187670765780468e-05 1.0000000180025095e-35
decision_type=2 2 2 2
left_child=1 2 -1 -2
right_child=3 -3 -4 -5
leaf_value=0 0 0 6.5008413564244228e-07 -9.8637788226404644e-07
leaf_weight=5086 29 10038 13236 2912
leaf_count=5086 29 10038 13236 2912
internal_value=0 0 3.97888e-07 -9.39172e-07
internal_weight=0 28360 18322 2941
internal_count=31301 28360 18322 2941
is_linear=0
shrinkage=0.03


Tree=65
num_leaves=5
num_cat=0
split_feature=1 7 7 1
split_gain=8.36031e-08 1.41222e-06 3.34635e-06 9.27942e-07
threshold=147.51248935389609 0.059000000000011717 0.23899999999999014 159.85990689370536
decision_type=2 2 2 2
left_child=-1 -2 3 -3
right_child=1 2 -4 -5
leaf_value=0 0 -8.4348818099771509e-07 0 0
leaf_weight=5311 18197 7299 423 151
leaf_count=5311 18197 7299 423 151
internal_value=0 -5.37231e-08 -4.13513e-07 -7.64822e-07
internal_weight=0 26070 7873 7450
internal_count=31381 26070 7873 7450
is_linear=0
shrinkage=0.03


Tree=66
num_leaves=6
num_cat=0
split_feature=0 7 7 7 7
split_gain=6.78991e-07 7.26739e-07 5.29123e-07 3.19721e-07 1.98448e-07
threshold=155.85954132056145 0.059000000000011717 0.0045000000000072768 1.0000000180025095e-35 0.47350000000000142
decision_type=2 2 2 2 2
left_child=1 2 -1 -2 -5
right_child=3 -3 -4 4 -6
leaf_value=0 0 0 2.7263611672478008e-07 -4.4581391939235638e-07 0
leaf_weight=1818 66 8707 15206 5421 20
leaf_count=1818 66 8707 15206 5421 20
internal_value=0 0 1.9601e-07 -3.33113e-07 -4.06442e-07
internal_weight=0 25731 17024 5507 5441
internal_count=31238 25731 17024 5507 5441
is_linear=0
shrinkage=0.03


Tree=67
num_leaves=3
num_cat=0
split_feature=0 1
split_gain=6.9091e-07 5.90388e-09
threshold=146.92349002971176 146.95088568512338
decision_type=2 2
left_child=1 -1
right_child=-2 -3
leaf_value=3.6863453505584132e-08 -1.5060974045273827e-07 0
leaf_weight=3910 27413 49
leaf_count=3910 27413 49
internal_value=0 0
internal_weight=0 3959
internal_count=31372 3959
is_linear=0
shrinkage=0.03


Tree=68
num_leaves=2
num_cat=0
split_feature=1
split_gain=3.82457e-07
threshold=147.51248935389609
decision_type=2
left_child=-1
right_child=-2
leaf_value=2.5253341442368201e-07 -1.1523924483369352e-08
leaf_weight=5343 26091
leaf_count=5343 26091
internal_value=0
internal_weight=0
internal_count=31434
is_linear=0
shrinkage=0.03


Tree=69
num_leaves=7
num_cat=0
split_feature=3 1 3 1 3 3
split_gain=5.27531e-07 3.30999e-06 2.89012e-06 1.85008e-06 9.7065e-07 2.01233e-07
threshold=-0.012206254546406241 145.01931706642185 -0.31962478102129582 155.7061751684968 0.001795813259194998 0.14971633497029216
decision_type=2 2 2 2 2 2
left_child=1 -1 -3 4 -2 -6
right_child=3 2 -4 -5 5 -7
leaf_value=0 0 0 -8.0015427215561331e-07 0 4.7595400269659511e-07 0
leaf_weight=849 4267 99 9457 4075 12006 502
leaf_count=849 4267 99 9457 4075 12006 502
internal_value=0 -2.1361e-07 -6.01182e-07 0 3.15053e-07 4.50512e-07
internal_weight=0 10405 9556 20850 16775 12508
internal_count=31255 10405 9556 20850 16775 12508
is_linear=0
shrinkage=0.03


Tree=70
num_leaves=3
num_cat=0
split_feature=1 0
split_gain=2.11498e-08 5.67752e-09
threshold=149.86016741433426 149.90491165730762
decision_type=2 2
left_child=-1 -2
right_child=1 -3
leaf_value=0 0 -3.6471895620877698e-08
leaf_weight=13220 174 18151
leaf_count=13220 174 18151
internal_value=0 -3.22293e-08
internal_weight=0 18325
internal_count=31545 18325
is_linear=0
shrinkage=0.03


Tree=71
num_leaves=8
num_cat=0
split_feature=7 1 7 1 8 7 0
split_gain=2.60191e-07 8.14445e-06 3.51429e-06 1.87792e-06 1.85018e-06 6.24016e-07 6.51397e-09
threshold=0.052000000000006714 144.80409874510858 0.47350000000000142 157.22748201287658 7.5187670765780468e-05 0.059000000000011717 157.23048464037296
decision_type=2 2 2 2 2 2 2
left_child=3 -2 5 4 -1 -3 -6
right_child=1 2 -4 -5 6 -7 -8
leaf_value=0 0 0 0 0 5.2181222486988018e-07 -1.1070450829857225e-06 0
leaf_weight=5062 1074 1363 78 2142 12344 9211 38
leaf_count=5062 1074 1363 78 2142 12344 9211 38
internal_value=0 -1.41316e-07 -8.42681e-07 0 3.11269e-07 -1.00721e-06 5.20556e-07
internal_weight=0 11726 10652 19586 17444 10574 12382
internal_count=31312 11726 10652 19586 17444 10574 12382
is_linear=0
shrinkage=0.03


Tree=72
num_leaves=5
num_cat=0
split_feature=1 6 21 21
split_gain=1.14286e-06 1.59251e-05 8.09733e-06 9.98557e-06
threshold=144.80409874510858 0.00083748342876524269 0.00061823348329823286 0.0013601567753080547
decision_type=2 2 2 2
left_child=-1 -2 -3 -4
right_child=1 2 3 -5
leaf_value=0 0 0 -2.3915716090602621e-06 0
leaf_weight=1873 21145 779 5531 2105
leaf_count=1873 21145 779 5531 2105
internal_value=0 -1.86537e-07 -1.35108e-06 -1.72221e-06
internal_weight=0 29560 8415 7636
internal_count=31433 29560 8415 7636
is_linear=0
shrinkage=0.03


Tree=73
num_leaves=7
num_cat=0
split_feature=3 22 7 22 3 7
split_gain=4.17342e-07 6.60916e-06 1.35084e-06 2.39655e-06 1.39984e-06 5.56085e-07
threshold=-0.025573183302263131 0.18869750000000177 0.059000000000011717 0.097449999999999357 0.14971633497029216 1.0000000180025095e-35
decision_type=2 2 2 2 2 2
left_child=1 5 3 -2 -5 -1
right_child=2 -3 -4 4 -6 -7
leaf_value=0 0 0 0 8.757615348043831e-07 0 -1.0833993792372644e-06
leaf_weight=38 10818 1543 6838 6040 279 5814
leaf_count=38 10818 1543 6838 6040 279 5814
internal_value=0 -2.2537e-07 0 2.66351e-07 7.30564e-07 -1.03952e-06
internal_weight=0 7395 23975 17137 6319 5852
internal_count=31370 7395 23975 17137 6319 5852
is_linear=0
shrinkage=0.03


Tree=74
num_leaves=3
num_cat=0
split_feature=17 17
split_gain=1.08982e-07 7.08553e-08
threshold=0.01957272156083727 -0.019739610230350119
decision_type=2 2
left_child=1 -1
right_child=-2 -3
leaf_value=0 -1.6363931290535296e-07 5.2190875959056162e-08
leaf_weight=3384 3545 24569
leaf_count=3384 3545 24569
internal_value=0 1.06218e-08
internal_weight=0 27953
internal_count=31498 27953
is_linear=0
shrinkage=0.03


Tree=75
num_leaves=8
num_cat=0
split_feature=1 17 8 5 5 5 7
split_gain=2.67242e-06 1.65398e-06 1.48096e-06 1.29899e-06 6.03417e-07 3.67134e-07 1.42835e-07
threshold=157.22748201287658 0.013278494177322247 7.3769804744832802e-05 0.025499999999993864 0.66149999999998965 0.035000000000010807 0.00099999999999056421
decision_type=2 2 2 2 2 2 2
left_child=1 2 -1 -2 6 -4 -5
right_child=3 -3 5 4 -6 -7 -8
leaf_value=0 0 0 0 0 0 4.1620444937186274e-07 -1.2116521139090415e-06
leaf_weight=4390 145 4895 888 35 25 18195 2892
leaf_count=4390 145 4895 888 35 25 18195 2892
internal_value=0 0 2.51827e-07 -8.81243e-07 -1.10034e-06 3.84513e-07 -1.18601e-06
internal_weight=0 28368 23473 3097 2952 19083 2927
internal_count=31465 28368 23473 3097 2952 19083 2927
is_linear=0
shrinkage=0.03


Tree=76
num_leaves=6
num_cat=0
split_feature=8 1 4 7 1
split_gain=1.71309e-06 8.79934e-06 6.16232e-06 5.97382e-06 4.86987e-08
threshold=0.00037636407861243011 142.66107813779567 0.084800000000004178 0.16199999999999196 157.22748201287658
decision_type=2 2 2 2 2
left_child=4 -2 -3 -4 -1
right_child=1 2 3 -5 -6
leaf_value=4.9098689373489509e-08 0 0 -1.6961667371581225e-06 0 0
leaf_weight=18181 348 1639 7085 1746 2321
leaf_count=18181 348 1639 7085 1746 2321
internal_value=0 -3.77516e-07 -9.50599e-07 -1.3036e-06 0
internal_weight=0 10818 10470 8831 20502
internal_count=31320 10818 10470 8831 20502
is_linear=0
shrinkage=0.03


Tree=77
num_leaves=5
num_cat=0
split_feature=1 17 18 7
split_gain=1.07159e-07 2.91678e-06 3.80485e-06 2.26583e-06
threshold=157.26542796134086 0.023284781550556428 0.0044360013901365439 0.0090000000000003428
decision_type=2 2 2 2
left_child=1 2 3 -1
right_child=-2 -3 -4 -5
leaf_value=0 0 0 0 6.7069380986739623e-07
leaf_weight=3554 2974 2625 4116 18196
leaf_count=3554 2974 2625 4116 18196
internal_value=0 5.81811e-08 3.24371e-07 5.31572e-07
internal_weight=0 28491 25866 21750
internal_count=31465 28491 25866 21750
is_linear=0
shrinkage=0.03


Tree=78
num_leaves=5
num_cat=0
split_feature=1 7 7 7
split_gain=1.36461e-07 1.29475e-06 2.58646e-07 2.24149e-07
threshold=157.26542796134086 0.059000000000011717 0.0024999999999977267 0.0014999999999929516
decision_type=2 2 2 2
left_child=1 2 -1 -2
right_child=3 -3 -4 -5
leaf_value=0 0 0 2.8099669880702681e-07 -3.4014619806577254e-07
leaf_weight=1169 103 9616 17706 2805
leaf_count=1169 103 9616 17706 2805
internal_value=0 0 2.48468e-07 -2.05504e-07
internal_weight=0 28491 18875 2908
internal_count=31399 28491 18875 2908
is_linear=0
shrinkage=0.03


Tree=79
num_leaves=6
num_cat=0
split_feature=17 1 1 1 17
split_gain=2.18063e-07 8.59318e-06 7.32843e-06 1.86146e-06 1.87653e-08
threshold=0.013643809088325473 147.55525502264501 142.92288614344798 159.1136154483477 0.0091106641311640337
decision_type=2 2 2 2 2
left_child=1 4 -2 -4 -1
right_child=2 -3 3 -5 -6
leaf_value=1.444786259262333e-06 0 0 -1.3226396975494514e-06 0 0
leaf_weight=3713 281 22102 4840 117 392
leaf_count=3713 281 22102 4840 117 392
internal_value=0 0 -1.93564e-07 -1.17052e-06 1.37258e-06
internal_weight=0 26207 5238 4957 4105
internal_count=31445 26207 5238 4957 4105
is_linear=0
shrinkage=0.03


Tree=80
num_leaves=2
num_cat=0
split_feature=1
split_gain=3.05369e-07
threshold=147.51248935389609
decision_type=2
left_child=-1
right_child=-2
leaf_value=1.3503218203245506e-07 -8.2776356114968663e-08
leaf_weight=5306 25990
leaf_count=5306 25990
internal_value=0
internal_weight=0
internal_count=31296
is_linear=0
shrinkage=0.03


Tree=81
num_leaves=3
num_cat=0
split_feature=1 0
split_gain=1.6154e-08 1.96868e-08
threshold=149.80517898460735 159.85528470655717
decision_type=2 2
left_child=-1 -2
right_child=1 -3
leaf_value=0 -4.2964809998105551e-08 0
leaf_weight=12995 17474 870
leaf_count=12995 17474 870
internal_value=0 -2.81523e-08
internal_weight=0 18344
internal_count=31339 18344
is_linear=0
shrinkage=0.03


Tree=82
num_leaves=6
num_cat=0
split_feature=17 1 1 1 1
split_gain=2.12582e-07 1.08077e-05 3.47348e-06 1.71782e-06 4.17005e-09
threshold=0.013643809088325473 147.51248935389609 142.66107813779567 159.1136154483477 142.92288614344798
decision_type=2 2 2 2 2
left_child=1 -1 -2 4 -4
right_child=2 -3 3 -5 -6
leaf_value=1.5650620421417211e-06 0 0 0 0 -1.0017666056520468e-06
leaf_weight=3971 226 22042 47 142 4850
leaf_count=3971 226 22042 47 142 4850
internal_value=0 0 -1.90626e-07 -8.11384e-07 -9.96563e-07
internal_weight=0 26013 5265 5039 4897
internal_count=31278 26013 5265 5039 4897
is_linear=0
shrinkage=0.03


Tree=83
num_leaves=3
num_cat=0
split_feature=0 1
split_gain=5.19349e-07 1.22101e-08
threshold=147.40962592188743 147.51248935389609
decision_type=2 2
left_child=-1 -2
right_child=1 -3
leaf_value=0 0 -1.3599240917976701e-07
leaf_weight=5070 258 25868
leaf_count=5070 258 25868
internal_value=0 -1.33756e-07
internal_weight=0 26126
internal_count=31196 26126
is_linear=0
shrinkage=0.03


Tree=84
num_leaves=4
num_cat=0
split_feature=0 17 0
split_gain=2.08891e-07 3.17242e-06 4.27694e-07
threshold=155.85954132056145 0.026352796065206279 155.75853406011683
decision_type=2 2 2
left_child=1 2 -1
right_child=-2 -3 -4
leaf_value=3.8045893582095043e-07 0 0 0
leaf_weight=23683 5554 1944 214
leaf_count=23683 5554 1944 214
internal_value=0 8.52954e-08 3.56855e-07
internal_weight=0 25841 23897
internal_count=31395 25841 23897
is_linear=0
shrinkage=0.03


Tree=85
num_leaves=3
num_cat=0
split_feature=0 1
split_gain=7.91723e-07 9.81513e-07
threshold=146.92349002971176 146.95088568512338
decision_type=2 2
left_child=1 -1
right_child=-2 -3
leaf_value=5.6085702961420877e-07 -1.1567379699382283e-07 0
leaf_weight=3905 27467 45
leaf_count=3905 27467 45
internal_value=0 2.95545e-07
internal_weight=0 3950
internal_count=31417 3950
is_linear=0
shrinkage=0.03


Tree=86
num_leaves=2
num_cat=0
split_feature=1
split_gain=2.39669e-06
threshold=144.80409874510858
decision_type=2
left_child=-1
right_child=-2
leaf_value=9.9990952598264407e-07 -9.9310363173075738e-08
leaf_weight=1866 29532
leaf_count=1866 29532
internal_value=0
internal_weight=0
internal_count=31398
is_linear=0
shrinkage=0.03


Tree=87
num_leaves=5
num_cat=0
split_feature=1 17 0 17
split_gain=4.72892e-07 6.18654e-06 1.41694e-06 1.87514e-08
threshold=157.22748201287658 0.023940908468545529 147.36291571608322 -0.051442616102023941
decision_type=2 2 2 2
left_child=1 2 -1 -2
right_child=3 -3 -4 -5
leaf_value=1.3035152702686539e-06 0 0 0 -9.9984581648872971e-08
leaf_weight=4270 57 2462 21605 3007
leaf_count=4270 57 2462 21605 3007
internal_value=0 1.2064e-07 4.80751e-07 -6.55988e-08
internal_weight=0 28337 25875 3064
internal_count=31401 28337 25875 3064
is_linear=0
shrinkage=0.03


Tree=88
num_leaves=2
num_cat=0
split_feature=0
split_gain=1.17205e-07
threshold=146.92349002971176
decision_type=2
left_child=-1
right_child=-2
leaf_value=0 -6.1899980605786898e-08
leaf_weight=3949 27530
leaf_count=3949 27530
internal_value=0
internal_weight=0
internal_count=31479
is_linear=0
shrinkage=0.03


Tree=89
num_leaves=2
num_cat=0
split_feature=0
split_gain=8.54535e-10
threshold=155.85954132056145
decision_type=2
left_child=-1
right_child=-2
leaf_value=5.4616884094925695e-09 0
leaf_weight=25782 5497
leaf_count=25782 5497
internal_value=0
internal_weight=0
internal_count=31279
is_linear=0
shrinkage=0.03


Tree=90
num_leaves=5
num_cat=0
split_feature=7 7 7 7
split_gain=9.98824e-10 7.73343e-07 3.91156e-07 5.81315e-08
threshold=0.052000000000006714 0.019499999999993637 0.39899999999998675 0.059000000000011717
decision_type=2 2 2 2
left_child=1 -1 3 -2
right_child=2 -3 -4 -5
leaf_value=0 0 2.6087677570883872e-07 0 -2.0040541866566581e-07
leaf_weight=9279 1517 10240 162 10068
leaf_count=9279 1517 10240 162 10068
internal_value=0 6.78634e-09 0 -1.7432e-07
internal_weight=0 19519 11747 11585
internal_count=31266 19519 11747 11585
is_linear=0
shrinkage=0.03


Tree=91
num_leaves=2
num_cat=0
split_feature=1
split_gain=4.13697e-07
threshold=157.26542796134086
decision_type=2
left_child=-1
right_child=-2
leaf_value=0 -3.5640772182533158e-07
leaf_weight=28562 2931
leaf_count=28562 2931
internal_value=0
internal_weight=0
internal_count=31493
is_linear=0
shrinkage=0.03


Tree=92
num_leaves=8
num_cat=0
split_feature=0 6 3 4 17 3 3
split_gain=4.22565e-07 5.3532e-06 1.15283e-05 1.1867e-05 5.99577e-07 6.54159e-06 4.19021e-06
threshold=146.92349002971176 0.00054405701868318653 -0.11200515761230627 0.13750000000000714 0.021311766805824372 -0.066147343621020191 0.14971633497029216
decision_type=2 2 2 2 2 2 2
left_child=4 -2 -3 -4 5 -1 -7
right_child=1 2 3 -5 -6 6 -8
leaf_value=0 0 0 0 -2.2836852212872838e-06 0 2.03894285101421e-06 0
leaf_weight=679 13115 1086 8196 5034 721 2453 105
leaf_count=679 13115 1086 8196 5034 721 2453 105
internal_value=0 -1.17746e-07 -6.02579e-07 -1.08496e-06 0 4.08287e-07 1.58507e-06
internal_weight=0 27431 14316 13230 3958 3237 2558
internal_count=31389 27431 14316 13230 3958 3237 2558
is_linear=0
shrinkage=0.03


Tree=93
num_leaves=2
num_cat=0
split_feature=1
split_gain=1.34078e-06
threshold=157.26542796134086
decision_type=2
left_child=-1
right_child=-2
leaf_value=0 -6.413007778771426e-07
leaf_weight=28387 2934
leaf_count=28387 2934
internal_value=0
internal_weight=0
internal_count=31321
is_linear=0
shrinkage=0.03


Tree=94
num_leaves=3
num_cat=0
split_feature=0 17
split_gain=7.97927e-08 2.98553e-06
threshold=157.23048464037296 0.013643809088325473
decision_type=2 2
left_child=1 -1
right_child=-2 -3
leaf_value=3.4240348467694151e-07 0 0
leaf_weight=23531 3029 4763
leaf_count=23531 3029 4763
internal_value=0 5.03796e-08
internal_weight=0 28294
internal_count=31323 28294
is_linear=0
shrinkage=0.03


Tree=95
num_leaves=8
num_cat=0
split_feature=7 1 7 1 0 0 7
split_gain=1.28973e-07 1.11544e-05 5.17875e-06 2.51005e-06 5.39642e-07 3.14405e-07 1.5025e-07
threshold=0.059000000000011717 144.80409874510858 0.47350000000000142 157.22748201287658 159.85528470655717 157.23048464037296 0.0024999999999977267
decision_type=2 2 2 2 2 2 2
left_child=3 -2 4 5 -3 6 -1
right_child=1 2 -4 -5 -6 -7 -8
leaf_value=0 0 -1.2987842023831605e-06 0 0 0 0 3.9067860864111588e-07
leaf_weight=1167 983 9071 85 2346 145 60 17541
leaf_count=1167 983 9071 85 2346 145 60 17541
internal_value=0 -1.06214e-07 -1.04489e-06 1.61691e-09 -1.26791e-06 3.46943e-07 3.6862e-07
internal_weight=0 10284 9301 21114 9216 18768 18708
internal_count=31398 10284 9301 21114 9216 18768 18708
is_linear=0
shrinkage=0.03


Tree=96
num_leaves=2
num_cat=0
split_feature=1
split_gain=7.91078e-08
threshold=149.74115071230139
decision_type=2
left_child=-1
right_child=-2
leaf_value=0 -6.1952363589124376e-08
leaf_weight=12893 18550
leaf_count=12893 18550
internal_value=0
internal_weight=0
internal_count=31443
is_linear=0
shrinkage=0.03


Tree=97
num_leaves=2
num_cat=0
split_feature=0
split_gain=2.854e-07
threshold=146.92349002971176
decision_type=2
left_child=-1
right_child=-2
leaf_value=0 -9.6805705443157012e-08
leaf_weight=3972 27409
leaf_count=3972 27409
internal_value=0
internal_weight=0
internal_count=31381
is_linear=0
shrinkage=0.03


Tree=98
num_leaves=7
num_cat=0
split_feature=7 1 7 0 1 1
split_gain=1.4759e-07 5.65471e-06 1.34278e-06 1.92097e-07 6.47484e-08 1.32362e-11
threshold=0.052000000000006714 144.80409874510858 0.47350000000000142 157.23048464037296 157.22748201287658 142.11835328752383
decision_type=2 2 2 2 2 2
left_child=3 -2 -3 4 5 -1
right_child=1 2 -4 -5 -6 -7
leaf_value=0 0 -7.7617453641938352e-07 0 0 0 1.1604670727895651e-07
leaf_weight=167 1061 10674 78 2207 27 17166
leaf_count=167 1061 10674 78 2207 27 17166
internal_value=0 -1.06039e-07 -6.96907e-07 0 9.97943e-08 1.15483e-07
internal_weight=0 11813 10752 19567 17360 17333
internal_count=31380 11813 10752 19567 17360 17333
is_linear=0
shrinkage=0.03


Tree=99
num_leaves=5
num_cat=0
split_feature=1 23 21 23
split_gain=2.84584e-07 4.36713e-06 1.69589e-05 2.01486e-06
threshold=144.80409874510858 1.8286426055833358 0.0008772279699278717 0.53327412538400354
decision_type=2 2 2 2
left_child=-1 2 -2 -4
right_child=1 -3 3 -5
leaf_value=0 0 0 0 -1.7085327736297546e-06
leaf_weight=1880 21406 816 65 7284
leaf_count=1880 21406 816 65 7284
internal_value=0 -9.30663e-08 -3.81566e-07 -1.62681e-06
internal_weight=0 29571 28755 7349
internal_count=31451 29571 28755 7349
is_linear=0
shrinkage=0.03


Tree=100
num_leaves=3
num_cat=0
split_feature=1 0
split_gain=9.36009e-07 3.06867e-07
threshold=144.80409874510858 159.85528470655717
decision_type=2 2
left_child=-1 -2
right_child=1 -3
leaf_value=0 -1.9792166849330921e-07 0
leaf_weight=1839 28555 841
leaf_count=1839 28555 841
internal_value=0 -1.69284e-07
internal_weight=0 29396
internal_count=31235 29396
is_linear=0
shrinkage=0.03


Tree=101
num_leaves=2
num_cat=0
split_feature=0
split_gain=4.52858e-08
threshold=155.85954132056145
decision_type=2
left_child=-1
right_child=-2
leaf_value=3.9714304226376694e-08 0
leaf_weight=25841 5535
leaf_count=25841 5535
internal_value=0
internal_weight=0
internal_count=31376
is_linear=0
shrinkage=0.03


Tree=102
num_leaves=5
num_cat=0
split_feature=1 17 0 3
split_gain=3.2755e-06 5.93213e-06 1.12493e-05 1.83089e-05
threshold=157.26542796134086 0.026352796065206279 147.40962592188743 -0.081013824192150655
decision_type=2 2 2 2
left_child=1 2 3 -1
right_child=-2 -3 -4 -5
leaf_value=0 0 0 0 3.0324368084177957e-06
leaf_weight=693 2958 2134 21723 3794
leaf_count=693 2958 2134 21723 3794
internal_value=0 3.22499e-07 5.62291e-07 2.02562e-06
internal_weight=0 28344 26210 4487
internal_count=31302 28344 26210 4487
is_linear=0
shrinkage=0.03


Tree=103
num_leaves=2
num_cat=0
split_feature=1
split_gain=9.90149e-08
threshold=144.80409874510858
decision_type=2
left_child=-1
right_child=-2
leaf_value=0 -5.4957007509155766e-08
leaf_weight=1849 29505
leaf_count=1849 29505
internal_value=0
internal_weight=0
internal_count=31354
is_linear=0
shrinkage=0.03


Tree=104
num_leaves=7
num_cat=0
split_feature=1 21 7 8 3 3
split_gain=2.66516e-06 9.06216e-06 4.44864e-06 1.96442e-06 5.66767e-07 2.63207e-06
threshold=144.80409874510858 0.00077290728993228226 0.47350000000000142 0.00019942366571435534 0.27344348277244318 -0.15974607527746162
decision_type=2 2 2 2 2 2
left_child=4 -2 3 -3 5 -1
right_child=1 2 -4 -5 -6 -7
leaf_value=0 0 0 0 -1.4428733798379132e-06 0 1.2888595303931173e-06
leaf_weight=96 19057 2510 79 7842 30 1733
leaf_count=96 19057 2510 79 7842 30 1733
internal_value=0 -2.85206e-07 -1.0059e-06 -1.18588e-06 0 5.28086e-07
internal_weight=0 29488 10431 10352 1859 1829
internal_count=31347 29488 10431 10352 1859 1829
is_linear=0
shrinkage=0.03


Tree=105
num_leaves=3
num_cat=0
split_feature=1 0
split_gain=5.64291e-07 1.0513e-07
threshold=157.26542796134086 157.28366245665651
decision_type=2 2
left_child=1 -1
right_child=-2 -3
leaf_value=1.072941541417325e-07 -3.0728696057158803e-07 0
leaf_weight=28055 2960 69
leaf_count=28055 2960 69
internal_value=0 9.01083e-08
internal_weight=0 28124
internal_count=31084 28124
is_linear=0
shrinkage=0.03


Tree=106
num_leaves=5
num_cat=0
split_feature=1 3 3 0
split_gain=5.98742e-07 4.36393e-06 2.55172e-06 8.40799e-07
threshold=157.26542796134086 -0.027060425920810271 0.14971633497029216 157.23048464037296
decision_type=2 2 2 2
left_child=1 -1 3 -3
right_child=-2 2 -4 -5
leaf_value=0 0 5.9614341215764769e-07 0 0
leaf_weight=6538 2996 21159 565 169
leaf_count=6538 2996 21159 565 169
internal_value=0 1.37672e-07 4.51674e-07 5.63108e-07
internal_weight=0 28431 21893 21328
internal_count=31427 28431 21893 21328
is_linear=0
shrinkage=0.03


Tree=107
num_leaves=3
num_cat=0
split_feature=0 1
split_gain=1.22799e-07 5.06703e-09
threshold=157.28366245665651 157.32570573314976
decision_type=2 2
left_child=1 -1
right_child=-2 -3
leaf_value=6.3671632465882525e-08 0 0
leaf_weight=28386 2965 29
leaf_count=28386 2965 29
internal_value=0 6.23655e-08
internal_weight=0 28415
internal_count=31380 28415
is_linear=0
shrinkage=0.03


Tree=108
num_leaves=5
num_cat=0
split_feature=1 8 8 1
split_gain=5.8889e-07 6.71341e-06 1.23737e-06 9.98365e-07
threshold=144.80409874510858 0.00035428932414581531 0.0029421468864753698 159.1136154483477
decision_type=2 2 2 2
left_child=-1 -2 3 -3
right_child=1 2 -4 -5
leaf_value=0 0 -9.176929494989931e-07 0 0
leaf_weight=1878 19103 10193 104 217
leaf_count=1878 19103 10193 104 217
internal_value=0 -1.33773e-07 -7.90615e-07 -8.59239e-07
internal_weight=0 29617 10514 10410
internal_count=31495 29617 10514 10410
is_linear=0
shrinkage=0.03


Tree=109
num_leaves=2
num_cat=0
split_feature=0
split_gain=4.92576e-08
threshold=155.85954132056145
decision_type=2
left_child=-1
right_child=-2
leaf_value=2.1517647314711906e-08 -7.6236428003590188e-08
leaf_weight=25928 5562
leaf_count=25928 5562
internal_value=0
internal_weight=0
internal_count=31490
is_linear=0
shrinkage=0.03


Tree=110
num_leaves=5
num_cat=0
split_feature=1 1 0 0
split_gain=1.63928e-07 1.29222e-07 1.91939e-07 2.08155e-07
threshold=157.26542796134086 150.85927057232769 150.88303853573908 157.28366245665651
decision_type=2 2 2 2
left_child=1 -1 -3 -4
right_child=-2 2 3 -5
leaf_value=0 -9.3856991746150567e-08 0 2.3852600455367665e-07 0
leaf_weight=17747 3004 38 10501 78
leaf_count=17747 3004 38 10501 78
internal_value=0 6.53336e-08 1.49524e-07 1.96893e-07
internal_weight=0 28364 10617 10579
internal_count=31368 28364 10617 10579
is_linear=0
shrinkage=0.03


Tree=111
num_leaves=6
num_cat=0
split_feature=0 3 3 3 3
split_gain=4.05032e-08 8.93899e-06 1.09454e-05 1.50748e-06 1.68912e-06
threshold=146.92349002971176 -0.10013695755559808 0.10960302461290507 -0.11200515761230627 0.0014284547803628061
decision_type=2 2 2 2 2
left_child=1 -1 -3 -2 -5
right_child=3 2 -4 4 -6
leaf_value=0 0 2.4014838791584696e-06 0 -4.8967690123936813e-07 0
leaf_weight=522 1196 3103 333 12150 14134
leaf_count=522 1196 3103 333 12150 14134
internal_value=0 0 1.53014e-06 -3.64214e-08 -2.30227e-07
internal_weight=0 3958 3436 27480 26284
internal_count=31438 3958 3436 27480 26284
is_linear=0
shrinkage=0.03


Tree=112
num_leaves=4
num_cat=0
split_feature=0 1 1
split_gain=1.15555e-06 1.63869e-06 4.6369e-08
threshold=146.92349002971176 146.95088568512338 157.26542796134086
decision_type=2 2 2
left_child=1 -1 -2
right_child=2 -3 -4
leaf_value=7.9931890013973637e-07 0 0 -1.1780434843374153e-07
leaf_weight=3936 24474 53 3007
leaf_count=3936 24474 53 3007
internal_value=0 5.10597e-07 0
internal_weight=0 3989 27481
internal_count=31470 3989 27481
is_linear=0
shrinkage=0.03


Tree=113
num_leaves=2
num_cat=0
split_feature=0
split_gain=1.69132e-07
threshold=146.92349002971176
decision_type=2
left_child=-1
right_child=-2
leaf_value=1.9566175522631495e-07 0
leaf_weight=3976 27349
leaf_count=3976 27349
internal_value=0
internal_weight=0
internal_count=31325
is_linear=0
shrinkage=0.03


Tree=114
num_leaves=2
num_cat=0
split_feature=1
split_gain=2.06139e-07
threshold=157.26542796134086
decision_type=2
left_child=-1
right_child=-2
leaf_value=0 -2.4863415574378059e-07
leaf_weight=28446 3001
leaf_count=28446 3001
internal_value=0
internal_weight=0
internal_count=31447
is_linear=0
shrinkage=0.03


Tree=115
num_leaves=3
num_cat=0
split_feature=1 1
split_gain=6.08049e-09 3.52162e-08
threshold=149.74115071230139 159.85990689370536
decision_type=2 2
left_child=-1 -2
right_child=1 -3
leaf_value=0 -4.5884757226130985e-08 0
leaf_weight=12949 17653 849
leaf_count=12949 17653 849
internal_value=0 -1.71981e-08
internal_weight=0 18502
internal_count=31451 18502
is_linear=0
shrinkage=0.03


Tree=116
num_leaves=2
num_cat=0
split_feature=0
split_gain=7.7186e-08
threshold=155.85954132056145
decision_type=2
left_child=-1
right_child=-2
leaf_value=3.0758509714865119e-08 -9.0476107197455305e-08
leaf_weight=25984 5483
leaf_count=25984 5483
internal_value=0
internal_weight=0
internal_count=31467
is_linear=0
shrinkage=0.03


Tree=117
num_leaves=3
num_cat=0
split_feature=1 1
split_gain=1.42859e-08 3.06868e-07
threshold=144.80409874510858 150.85927057232769
decision_type=2 2
left_child=-1 -2
right_child=1 -3
leaf_value=0 -1.3485282694540926e-07 0
leaf_weight=1891 15894 13694
leaf_count=1891 15894 13694
internal_value=0 -2.08457e-08
internal_weight=0 29588
internal_count=31479 29588
is_linear=0
shrinkage=0.03


Tree=118
num_leaves=6
num_cat=0
split_feature=0 3 3 1 3
split_gain=2.97637e-07 3.96979e-06 2.96716e-06 1.62494e-06 1.50515e-06
threshold=155.85954132056145 0.001795813259194998 0.14971633497029216 155.59692028297857 -0.096419249030311821
decision_type=2 2 2 2 2
left_child=1 -1 3 -3 -2
right_child=4 2 -4 -5 -6
leaf_value=0 0 8.1092748749164599e-07 0 0 -5.3144833366707624e-07
leaf_weight=12977 275 11922 503 238 5269
leaf_count=12977 275 11922 503 238 5269
internal_value=0 7.23779e-08 5.41064e-07 7.24201e-07 -1.55209e-07
internal_weight=0 25640 12663 12160 5544
internal_count=31184 25640 12663 12160 5544
is_linear=0
shrinkage=0.03


Tree=119
num_leaves=5
num_cat=0
split_feature=1 17 1 3
split_gain=4.588e-07 4.2033e-06 1.53208e-06 6.05584e-07
threshold=144.80409874510858 0.013643809088325473 159.1136154483477 -0.31962478102129582
decision_type=2 2 2 2
left_child=-1 -2 3 -3
right_child=1 2 -4 -5
leaf_value=0 0 0 0 -1.1665462838269738e-06
leaf_weight=1860 24961 38 140 4497
leaf_count=1860 24961 38 140 4497
internal_value=0 -1.18038e-07 -9.47363e-07 -1.10871e-06
internal_weight=0 29636 4675 4535
internal_count=31496 29636 4675 4535
is_linear=0
shrinkage=0.03


Tree=120
num_leaves=5
num_cat=0
split_feature=1 7 7 3
split_gain=1.48558e-07 3.20698e-06 1.84765e-06 1.31988e-06
threshold=144.80409874510858 0.052000000000006714 0.47350000000000142 0.27344348277244318
decision_type=2 2 2 2
left_child=-1 -2 3 -3
right_child=1 2 -4 -5
leaf_value=0 0 -7.4416972948398848e-07 0 0
leaf_weight=1876 18768 10601 84 60
leaf_count=1876 18768 10601 84 60
internal_value=0 -6.73072e-08 -5.30148e-07 -6.62759e-07
internal_weight=0 29513 10745 10661
internal_count=31389 29513 10745 10661
is_linear=0
shrinkage=0.03


Tree=121
num_leaves=6
num_cat=0
split_feature=1 22 23 6 22
split_gain=1.89209e-06 1.68071e-05 1.67325e-05 1.15485e-05 2.07096e-07
threshold=144.80409874510858 0.11843999999999903 1.7129423891514177 0.00051792976030309845 0.12873499999999991
decision_type=2 2 2 2 2
left_child=4 -2 3 -3 -1
right_child=1 2 -4 -5 -6
leaf_value=0 0 0 0 -2.2747733199995117e-06 3.5789945838996268e-07
leaf_weight=419 18923 1809 466 8171 1455
leaf_count=419 18923 1809 466 8171 1455
internal_value=0 -2.40795e-07 -1.26928e-06 -1.78751e-06 0
internal_weight=0 29369 10446 9980 1874
internal_count=31243 29369 10446 9980 1874
is_linear=0
shrinkage=0.03


Tree=122
num_leaves=7
num_cat=0
split_feature=1 7 4 16 23 23
split_gain=2.63153e-06 6.13073e-06 6.35814e-06 6.51807e-06 8.20262e-08 5.21062e-07
threshold=157.26542796134086 0.068500000000000241 0.047000000000001312 -0.0013401083618178216 0.61124002785834264 2.4314132344670454
decision_type=2 2 2 2 2 2
left_child=1 2 -1 -4 -2 -6
right_child=4 -3 3 -5 5 -7
leaf_value=0 0 0 0 1.0884176623780837e-06 -4.5848502663842947e-07 0
leaf_weight=2846 324 8075 1045 16439 2582 30
leaf_count=2846 324 8075 1045 16439 2582 30
internal_value=0 2.88753e-07 6.22816e-07 8.82229e-07 0 -1.68113e-07
internal_weight=0 28405 20330 17484 2936 2612
internal_count=31341 28405 20330 17484 2936 2612
is_linear=0
shrinkage=0.03


Tree=123
num_leaves=2
num_cat=0
split_feature=0
split_gain=3.58237e-07
threshold=146.87628294159168
decision_type=2
left_child=-1
right_child=-2
leaf_value=0 -1.0797587847605734e-07
leaf_weight=3882 27654
leaf_count=3882 27654
internal_value=0
internal_weight=0
internal_count=31536
is_linear=0
shrinkage=0.03


Tree=124
num_leaves=2
num_cat=0
split_feature=1
split_gain=1.45747e-06
threshold=157.26542796134086
decision_type=2
left_child=-1
right_child=-2
leaf_value=2.1463626885976828e-07 0
leaf_weight=28473 2961
leaf_count=28473 2961
internal_value=0
internal_weight=0
internal_count=31434
is_linear=0
shrinkage=0.03


Tree=125
num_leaves=7
num_cat=0
split_feature=1 17 23 0 23 23
split_gain=1.65679e-06 4.02515e-06 6.06204e-06 4.01746e-06 1.82607e-06 9.59359e-07
threshold=157.26542796134086 0.023284781550556428 1.310545986334269 149.36898725758107 0.61124002785834264 2.4314132344670454
decision_type=2 2 2 2 2 2
left_child=1 2 3 -1 -2 -6
right_child=4 -3 -4 -5 5 -7
leaf_value=1.2382514916885651e-06 0 0 0 0 -1.0105981449648524e-06 0
leaf_weight=9140 317 2603 4116 12578 2622 29
leaf_count=9140 317 2603 4116 12578 2622 29
internal_value=0 2.15451e-07 4.37405e-07 6.91949e-07 -2.40084e-07 -8.27316e-07
internal_weight=0 28437 25834 21718 2968 2651
internal_count=31405 28437 25834 21718 2968 2651
is_linear=0
shrinkage=0.03


Tree=126
num_leaves=2
num_cat=0
split_feature=1
split_gain=1.18534e-07
threshold=144.80409874510858
decision_type=2
left_child=-1
right_child=-2
leaf_value=0 -6.0205918584769719e-08
leaf_weight=1867 29431
leaf_count=1867 29431
internal_value=0
internal_weight=0
internal_count=31298
is_linear=0
shrinkage=0.03


Tree=127
num_leaves=4
num_cat=0
split_feature=21 0 21
split_gain=3.08375e-08 4.74233e-06 6.95844e-07
threshold=0.0011849400575106399 157.32705547576288 0.00082594064153643806
decision_type=2 2 2
left_child=2 -2 -1
right_child=1 -3 -4
leaf_value=0 1.0124196014983265e-06 0 -3.1438807204592199e-07
leaf_weight=20776 4191 159 6336
leaf_count=20776 4191 159 6336
internal_value=0 7.9875e-08 0
internal_weight=0 4350 27112
internal_count=31462 4350 27112
is_linear=0
shrinkage=0.03


Tree=128
num_leaves=4
num_cat=0
split_feature=17 1 1
split_gain=2.20299e-07 2.25985e-06 1.92005e-06
threshold=-0.0018346146281928604 142.66107813779567 149.80517898460735
decision_type=2 2 2
left_child=2 -2 -1
right_child=1 -3 -4
leaf_value=5.5544484575753487e-07 0 -3.5971958900070461e-07 0
leaf_weight=5601 371 17250 8140
leaf_count=5601 371 17250 8140
internal_value=0 -1.06074e-07 0
internal_weight=0 17621 13741
internal_count=31362 17621 13741
is_linear=0
shrinkage=0.03


Tree=129
num_leaves=8
num_cat=0
split_feature=3 3 0 1 7 8 8
split_gain=7.78912e-07 4.38657e-06 6.965e-06 3.51741e-07 1.21812e-07 1.62614e-07 3.50808e-08
threshold=-0.012631562302483117 0.16078290515848873 146.92349002971176 150.85927057232769 0.13899999999999582 0.00036904908700897244 0.00093134614946210165
decision_type=2 2 2 2 2 2 2
left_child=4 2 -2 -4 5 -1 -7
right_child=1 -3 3 -5 -6 6 -8
leaf_value=0 2.2245785922214061e-06 0 0 1.8847017040234745e-07 0 -2.9376655146642065e-07 0
leaf_weight=5729 2206 498 9499 8912 1264 3332 24
leaf_count=5729 2206 498 9499 8912 1264 3332 24
internal_value=0 1.82209e-07 4.74857e-07 0 0 -1.0985e-07 -2.76178e-07
internal_weight=0 21115 20617 18411 10349 9085 3356
internal_count=31464 21115 20617 18411 10349 9085 3356
is_linear=0
shrinkage=0.03


Tree=130
num_leaves=4
num_cat=0
split_feature=17 1 1
split_gain=1.97976e-09 1.08262e-06 9.16017e-07
threshold=-0.0015177462925287978 154.41793986797214 142.92288614344798
decision_type=2 2 2
left_child=1 -1 -2
right_child=2 -3 -4
leaf_value=3.0756623143535983e-07 0 0 -2.2063478128362889e-07
leaf_weight=10300 435 3786 16972
leaf_count=10300 435 3786 16972
internal_value=0 0 -1.01173e-08
internal_weight=0 14086 17407
internal_count=31493 14086 17407
is_linear=0
shrinkage=0.03


Tree=131
num_leaves=8
num_cat=0
split_feature=6 4 4 3 3 4 3
split_gain=7.08635e-08 2.43755e-06 7.68448e-06 3.66473e-06 5.10868e-07 1.16474e-06 1.51319e-06
threshold=0.00085044763369654939 0.19100000000000394 0.10290000000000675 0.063015448735451299 0.0046293929601055111 0.042800000000008255 0.16078290515848873
decision_type=2 2 2 2 2 2 2
left_child=4 2 -2 -4 -1 -6 -7
right_child=1 -3 3 -5 5 6 -8
leaf_value=0 0 0 -1.7116249312258452e-06 0 0 5.3890235965443854e-07 0
leaf_weight=11109 1141 2985 4257 920 1066 9882 144
leaf_count=11109 1141 2985 4257 920 1066 9882 144
internal_value=0 -8.27978e-08 -5.97761e-07 -1.33115e-06 0 2.03596e-07 3.8783e-07
internal_weight=0 9303 6318 5177 22201 11092 10026
internal_count=31504 9303 6318 5177 22201 11092 10026
is_linear=0
shrinkage=0.03


Tree=132
num_leaves=5
num_cat=0
split_feature=0 1 1 0
split_gain=1.85066e-07 6.61555e-07 5.18296e-07 2.37746e-07
threshold=157.23048464037296 150.85927057232769 157.32570573314976 150.88303853573908
decision_type=2 2 2 2
left_child=1 -1 3 -3
right_child=-2 2 -4 -5
leaf_value=0 0 0 0 3.6980764989317109e-07
leaf_weight=17698 3077 40 23 10547
leaf_count=17698 3077 40 23 10547
internal_value=0 7.6706e-08 2.67982e-07 3.40632e-07
internal_weight=0 28308 10610 10587
internal_count=31385 28308 10610 10587
is_linear=0
shrinkage=0.03


Tree=133
num_leaves=3
num_cat=0
split_feature=1 0
split_gain=3.59949e-07 6.5209e-08
threshold=157.22748201287658 157.23048464037296
decision_type=2 2
left_child=1 -1
right_child=-2 -3
leaf_value=1.1501625102240008e-07 -5.141845071491318e-08 0
leaf_weight=28313 3062 93
leaf_count=28313 3062 93
internal_value=0 1.05449e-07
internal_weight=0 28406
internal_count=31468 28406
is_linear=0
shrinkage=0.03


Tree=134
num_leaves=3
num_cat=0
split_feature=0 1
split_gain=5.0893e-08 3.06756e-08
threshold=149.98091586752201 149.9810868885871
decision_type=2 2
left_child=-1 -2
right_child=1 -3
leaf_value=0 0 -6.4810930776824274e-08
leaf_weight=13768 106 17477
leaf_count=13768 106 17477
internal_value=0 -5.10391e-08
internal_weight=0 17583
internal_count=31351 17583
is_linear=0
shrinkage=0.03


Tree=135
num_leaves=7
num_cat=0
split_feature=17 1 0 15 0 1
split_gain=7.65232e-07 7.06861e-06 5.4065e-06 2.1597e-06 1.24136e-06 8.5569e-08
threshold=0.023940908468545529 142.92288614344798 157.23048464037296 0.0013446809000377672 151.58089143675019 157.32570573314976
decision_type=2 2 2 2 2 2
left_child=2 -2 3 5 -3 -1
right_child=1 4 -4 -5 -6 -7
leaf_value=5.4291962868996209e-07 0 -2.4915777055227522e-06 0 0 0 0
leaf_weight=25671 164 1206 2841 109 1284 21
leaf_count=25671 164 1206 2841 109 1284 21
internal_value=0 -5.64096e-08 1.54112e-07 4.63634e-07 -1.59944e-06 5.39929e-07
internal_weight=0 2654 28642 25801 2490 25692
internal_count=31296 2654 28642 25801 2490 25692
is_linear=0
shrinkage=0.03


Tree=136
num_leaves=3
num_cat=0
split_feature=0 1
split_gain=5.88711e-07 1.17678e-07
threshold=149.94654894205834 149.93456633989061
decision_type=2 2
left_child=-1 -2
right_child=1 -3
leaf_value=0 0 -1.8921572744477341e-07
leaf_weight=13543 65 17757
leaf_count=13543 65 17757
internal_value=0 -1.72422e-07
internal_weight=0 17822
internal_count=31365 17822
is_linear=0
shrinkage=0.03


Tree=137
num_leaves=5
num_cat=0
split_feature=1 3 3 0
split_gain=2.7294e-07 2.26242e-06 1.30612e-06 5.62976e-07
threshold=157.26542796134086 0.001795813259194998 0.14971633497029216 157.23048464037296
decision_type=2 2 2 2
left_child=1 -1 3 -3
right_child=-2 2 -4 -5
leaf_value=0 0 5.4137387823328825e-07 0 0
leaf_weight=14180 2955 13525 583 144
leaf_count=14180 2955 13525 583 144
internal_value=0 9.29502e-08 4.00131e-07 5.02922e-07
internal_weight=0 28432 14252 13669
internal_count=31387 28432 14252 13669
is_linear=0
shrinkage=0.03


Tree=138
num_leaves=5
num_cat=0
split_feature=1 6 23 21
split_gain=1.88255e-06 1.22475e-05 2.23667e-05 1.43679e-05
threshold=144.80409874510858 0.00081300486077797893 1.8286426055833358 0.00077290728993228226
decision_type=2 2 2 2
left_child=-1 -2 3 -3
right_child=1 2 -4 -5
leaf_value=0 0 0 0 -2.7135348802205774e-06
leaf_weight=1843 20737 2008 666 6217
leaf_count=1843 20737 2008 666 6217
internal_value=0 -2.39135e-07 -1.19596e-06 -1.99838e-06
internal_weight=0 29628 8891 8225
internal_count=31471 29628 8891 8225
is_linear=0
shrinkage=0.03


Tree=139
num_leaves=3
num_cat=0
split_feature=1 17
split_gain=1.68738e-07 8.41145e-06
threshold=149.80517898460735 0.021311766805824372
decision_type=2 2
left_child=1 -1
right_child=-2 -3
leaf_value=8.1331355053944228e-07 0 0
leaf_weight=11674 18342 1393
leaf_count=11674 18342 1393
internal_value=0 1.07805e-07
internal_weight=0 13067
internal_count=31409 13067
is_linear=0
shrinkage=0.03


Tree=140
num_leaves=4
num_cat=0
split_feature=1 1 0
split_gain=1.53472e-06 7.69857e-09 3.73117e-09
threshold=147.51248935389609 150.85927057232769 147.50950013814989
decision_type=2 2 2
left_child=-1 2 -2
right_child=1 -3 -4
leaf_value=5.0508042541113166e-07 0 0 -5.9887373886319092e-08
leaf_weight=5281 63 13749 12351
leaf_count=5281 63 13749 12351
internal_value=0 -3.60547e-08 -5.74264e-08
internal_weight=0 26163 12414
internal_count=31444 26163 12414
is_linear=0
shrinkage=0.03


Tree=141
num_leaves=2
num_cat=0
split_feature=1
split_gain=6.33515e-09
threshold=149.74115071230139
decision_type=2
left_child=-1
right_child=-2
leaf_value=2.1047078956188857e-08 0
leaf_weight=12871 18576
leaf_count=12871 18576
internal_value=0
internal_weight=0
internal_count=31447
is_linear=0
shrinkage=0.03


Tree=142
num_leaves=2
num_cat=0
split_feature=0
split_gain=2.83785e-09
threshold=155.85954132056145
decision_type=2
left_child=-1
right_child=-2
leaf_value=0 -2.1449958473642189e-08
leaf_weight=25761 5551
leaf_count=25761 5551
internal_value=0
internal_weight=0
internal_count=31312
is_linear=0
shrinkage=0.03


Tree=143
num_leaves=2
num_cat=0
split_feature=1
split_gain=1.03704e-08
threshold=157.26542796134086
decision_type=2
left_child=-1
right_child=-2
leaf_value=1.8107357419643984e-08 0
leaf_weight=28466 2977
leaf_count=28466 2977
internal_value=0
internal_weight=0
internal_count=31443
is_linear=0
shrinkage=0.03


Tree=144
num_leaves=2
num_cat=0
split_feature=1
split_gain=6.95379e-07
threshold=157.26542796134086
decision_type=2
left_child=-1
right_child=-2
leaf_value=0 -4.6012135164360332e-07
leaf_weight=28435 2956
leaf_count=28435 2956
internal_value=0
internal_weight=0
internal_count=31391
is_linear=0
shrinkage=0.03


Tree=145
num_leaves=3
num_cat=0
split_feature=1 1
split_gain=3.65544e-07 2.02405e-06
threshold=157.26542796134086 150.85927057232769
decision_type=2 2
left_child=1 -1
right_child=-2 -3
leaf_value=0 0 4.492455870288634e-07
leaf_weight=17698 2978 10656
leaf_count=17698 2978 10656
internal_value=0 1.07717e-07
internal_weight=0 28354
internal_count=31332 28354
is_linear=0
shrinkage=0.03


Tree=146
num_leaves=5
num_cat=0
split_feature=7 20 0 22
split_gain=1.26152e-06 7.50738e-06 8.79613e-06 1.17743e-05
threshold=0.052000000000006714 -0.034952435586593701 142.63513381453683 0.11603750000000014
decision_type=2 2 2 2
left_child=-1 -2 -3 -4
right_child=1 2 3 -5
leaf_value=0 0 0 0 -2.1429332444091848e-06
leaf_weight=19635 699 328 5083 5750
leaf_count=19635 699 328 5083 5750
internal_value=0 -3.09402e-07 -8.40892e-07 -1.20801e-06
internal_weight=0 11860 11161 10833
internal_count=31495 11860 11161 10833
is_linear=0
shrinkage=0.03


Tree=147
num_leaves=2
num_cat=0
split_feature=0
split_gain=5.93895e-08
threshold=155.85954132056145
decision_type=2
left_child=-1
right_child=-2
leaf_value=4.5396635722917553e-08 0
leaf_weight=25936 5524
leaf_count=25936 5524
internal_value=0
internal_weight=0
internal_count=31460
is_linear=0
shrinkage=0.03


Tree=148
num_leaves=3
num_cat=0
split_feature=1 0
split_gain=1.84272e-08 1.35403e-08
threshold=147.51248935389609 147.45759108472197
decision_type=2 2
left_child=-1 -2
right_child=1 -3
leaf_value=0 0 -3.3299594740595049e-08
leaf_weight=5366 25 25946
leaf_count=5366 25 25946
internal_value=0 -2.527e-08
internal_weight=0 25971
internal_count=31337 25971
is_linear=0
shrinkage=0.03


Tree=149
num_leaves=3
num_cat=0
split_feature=1 1
split_gain=1.16576e-09 2.90626e-08
threshold=144.80409874510858 150.85927057232769
decision_type=2 2
left_child=-1 -2
right_child=1 -3
leaf_value=0 -4.1376277862163237e-08 0
leaf_weight=1848 15891 13769
leaf_count=1848 15891 13769
internal_value=0 -5.94756e-09
internal_weight=0 29660
internal_count=31508 29660
is_linear=0
shrinkage=0.03


Tree=150
num_leaves=5
num_cat=0
split_feature=1 1 0 0
split_gain=4.41094e-08 2.26479e-08 9.10468e-08 1.02229e-07
threshold=157.26542796134086 150.85927057232769 150.88303853573908 157.28366245665651
decision_type=2 2 2 2
left_child=1 -1 -3 -4
right_child=-2 2 3 -5
leaf_value=0 -1.0638408158312397e-07 0 1.3763307612208512e-07 0
leaf_weight=17789 2938 42 10599 74
leaf_count=17789 2938 42 10599 74
internal_value=0 1.50384e-08 5.00388e-08 1.00951e-07
internal_weight=0 28504 10715 10673
internal_count=31442 28504 10715 10673
is_linear=0
shrinkage=0.03


Tree=151
num_leaves=6
num_cat=0
split_feature=1 22 23 22 22
split_gain=6.78005e-07 1.31327e-05 1.62514e-05 4.53243e-06 1.50262e-07
threshold=144.80409874510858 0.11843999999999903 1.8286426055833358 0.2432024999999963 0.093945000000000015
decision_type=2 2 2 2 2
left_child=-1 4 3 -3 -2
right_child=1 2 -4 -5 -6
leaf_value=0 0 -1.838122935607734e-06 0 0 1.6064826532805552e-07
leaf_weight=1866 13769 9215 316 964 5240
leaf_count=1866 13769 9215 316 964 5240
internal_value=0 -1.43812e-07 -1.08827e-06 -1.63033e-06 0
internal_weight=0 29504 10495 10179 19009
internal_count=31370 29504 10495 10179 19009
is_linear=0
shrinkage=0.03


Tree=152
num_leaves=3
num_cat=0
split_feature=1 0
split_gain=3.36616e-08 1.07148e-08
threshold=157.22748201287658 157.23048464037296
decision_type=2 2
left_child=1 -1
right_child=-2 -3
leaf_value=3.223445961295532e-08 -5.8711262853556345e-08 0
leaf_weight=28196 3087 81
leaf_count=28196 3087 81
internal_value=0 2.63639e-08
internal_weight=0 28277
internal_count=31364 28277
is_linear=0
shrinkage=0.03


Tree=153
num_leaves=2
num_cat=0
split_feature=1
split_gain=4.02842e-07
threshold=144.80409874510858
decision_type=2
left_child=-1
right_child=-2
leaf_value=0 -1.1084171976121797e-07
leaf_weight=1846 29510
leaf_count=1846 29510
internal_value=0
internal_weight=0
internal_count=31356
is_linear=0
shrinkage=0.03


Tree=154
num_leaves=5
num_cat=0
split_feature=17 20 20 20
split_gain=1.08948e-07 2.27654e-07 1.71429e-07 1.31054e-07
threshold=0.013643809088325473 0.02056230828371992 -0.01565412614243027 -0.016037504524972743
decision_type=2 2 2 2
left_child=1 2 -1 -2
right_child=3 -3 -4 -5
leaf_value=0 0 0 1.2871598575916408e-07 -2.0394596439829257e-07
leaf_weight=3953 48 424 21679 5193
leaf_count=3953 48 424 21679 5193
internal_value=0 0 8.94061e-08 -1.36779e-07
internal_weight=0 26056 25632 5241
internal_count=31297 26056 25632 5241
is_linear=0
shrinkage=0.03


Tree=155
num_leaves=5
num_cat=0
split_feature=1 3 2 0
split_gain=4.3901e-07 4.71105e-06 7.9203e-06 6.59198e-07
threshold=157.26542796134086 0.001795813259194998 0.15683813300871921 157.28366245665651
decision_type=2 2 2 2
left_child=1 -1 3 -3
right_child=-2 2 -4 -5
leaf_value=0 0 9.5109216795399166e-07 0 0
leaf_weight=14209 2971 13660 574 57
leaf_count=14209 2971 13660 574 57
internal_value=0 1.17743e-07 5.69501e-07 9.26049e-07
internal_weight=0 28500 14291 13717
internal_count=31471 28500 14291 13717
is_linear=0
shrinkage=0.03


Tree=156
num_leaves=5
num_cat=0
split_feature=1 2 13 0
split_gain=7.19262e-07 2.6801e-06 2.82596e-06 9.12927e-07
threshold=157.26542796134086 0.15683813300871921 0.00017705521856313541 157.23048464037296
decision_type=2 2 2 2
left_child=1 2 -1 -4
right_child=-2 -3 3 -5
leaf_value=0 0 0 8.6319791936471579e-07 0
leaf_weight=19191 2948 572 8622 110
leaf_count=19191 2948 572 8622 110
internal_value=0 1.50723e-07 3.31008e-07 8.01019e-07
internal_weight=0 28495 27923 8732
internal_count=31443 28495 27923 8732
is_linear=0
shrinkage=0.03


Tree=157
num_leaves=3
num_cat=0
split_feature=1 0
split_gain=4.26801e-08 5.31336e-08
threshold=157.26542796134086 157.28366245665651
decision_type=2 2
left_child=1 -1
right_child=-2 -3
leaf_value=5.519343394335922e-08 0 0
leaf_weight=28307 2938 73
leaf_count=28307 2938 73
internal_value=0 3.67898e-08
internal_weight=0 28380
internal_count=31318 28380
is_linear=0
shrinkage=0.03


Tree=158
num_leaves=5
num_cat=0
split_feature=1 22 23 22
split_gain=5.92309e-07 8.91938e-06 1.33214e-05 7.66882e-06
threshold=144.80409874510858 0.11790749999999896 1.8286426055833358 0.2432024999999963
decision_type=2 2 2 2
left_child=-1 -2 3 -3
right_child=1 2 -4 -5
leaf_value=0 0 -1.7139295820232565e-06 0 0
leaf_weight=1864 18930 9345 323 978
leaf_count=1864 18930 9345 323 978
internal_value=0 -1.34253e-07 -8.96716e-07 -1.41091e-06
internal_weight=0 29576 10646 10323
internal_count=31440 29576 10646 10323
is_linear=0
shrinkage=0.03


Tree=159
num_leaves=5
num_cat=0
split_feature=1 22 23 22
split_gain=7.18125e-07 8.57486e-06 1.35682e-05 5.1936e-06
threshold=144.80409874510858 0.11843999999999903 1.8286426055833358 0.46716000000000324
decision_type=2 2 2 2
left_child=-1 -2 3 -3
right_child=1 2 -4 -5
leaf_value=0 0 -1.5780661299315296e-06 0 0
leaf_weight=1881 19038 10139 282 70
leaf_count=1881 19038 10139 282 70
internal_value=0 -1.47944e-07 -8.9287e-07 -1.41964e-06
internal_weight=0 29529 10491 10209
internal_count=31410 29529 10491 10209
is_linear=0
shrinkage=0.03


Tree=160
num_leaves=5
num_cat=0
split_feature=1 1 0 0
split_gain=1.14219e-07 1.11602e-07 1.38611e-07 1.45533e-07
threshold=157.26542796134086 150.85927057232769 157.28366245665651 150.88303853573908
decision_type=2 2 2 2
left_child=1 -1 3 -3
right_child=-2 2 -4 -5
leaf_value=0 0 0 0 2.089521132892331e-07
leaf_weight=17782 2960 33 75 10512
leaf_count=17782 2960 33 75 10512
internal_value=0 6.0161e-08 1.38337e-07 1.76362e-07
internal_weight=0 28402 10620 10545
internal_count=31362 28402 10620 10545
is_linear=0
shrinkage=0.03


Tree=161
num_leaves=2
num_cat=0
split_feature=1
split_gain=3.63044e-07
threshold=147.51248935389609
decision_type=2
left_child=-1
right_child=-2
leaf_value=0 -1.1226620086992113e-07
leaf_weight=5316 25924
leaf_count=5316 25924
internal_value=0
internal_weight=0
internal_count=31240
is_linear=0
shrinkage=0.03


Tree=162
num_leaves=4
num_cat=0
split_feature=0 1 1
split_gain=3.05215e-07 4.20702e-07 1.65409e-07
threshold=146.87628294159168 146.95088568512338 150.85927057232769
decision_type=2 2 2
left_child=1 -1 -2
right_child=2 -3 -4
leaf_value=3.7913704520780515e-07 -1.3521914557157562e-07 0 0
leaf_weight=3813 13896 27 13667
leaf_count=3813 13896 27 13667
internal_value=0 2.10083e-07 -6.17828e-08
internal_weight=0 3840 27563
internal_count=31403 3840 27563
is_linear=0
shrinkage=0.03


Tree=163
num_leaves=3
num_cat=0
split_feature=0 1
split_gain=7.14555e-08 1.40714e-10
threshold=146.92349002971176 146.95088568512338
decision_type=2 2
left_child=1 -1
right_child=-2 -3
leaf_value=5.6860069318322097e-09 -4.8443028974836906e-08 0
leaf_weight=3917 27404 53
leaf_count=3917 27404 53
internal_value=0 0
internal_weight=0 3970
internal_count=31374 3970
is_linear=0
shrinkage=0.03


Tree=164
num_leaves=2
num_cat=0
split_feature=0
split_gain=1.40694e-08
threshold=146.92349002971176
decision_type=2
left_child=-1
right_child=-2
leaf_value=0 -2.1514890067963511e-08
leaf_weight=4002 27355
leaf_count=4002 27355
internal_value=0
internal_weight=0
internal_count=31357
is_linear=0
shrinkage=0.03


Tree=165
num_leaves=4
num_cat=0
split_feature=1 3 3
split_gain=8.72281e-07 9.93118e-07 1.26636e-06
threshold=145.01931706642185 0.0014284547803628061 -0.31962478102129582
decision_type=2 2 2
left_child=-1 2 -2
right_child=1 -3 -4
leaf_value=0 0 0 -4.4544438936160211e-07
leaf_weight=1951 102 15043 14205
leaf_count=1951 102 15043 14205
internal_value=0 -1.63548e-07 -3.42556e-07
internal_weight=0 29350 14307
internal_count=31301 29350 14307
is_linear=0
shrinkage=0.03


Tree=166
num_leaves=3
num_cat=0
split_feature=1 0
split_gain=4.18107e-09 9.27681e-09
threshold=157.22748201287658 157.23048464037296
decision_type=2 2
left_child=1 -1
right_child=-2 -3
leaf_value=2.0688595154830655e-08 0 0
leaf_weight=28298 3036 81
leaf_count=28298 3036 81
internal_value=0 1.1515e-08
internal_weight=0 28379
internal_count=31415 28379
is_linear=0
shrinkage=0.03


Tree=167
num_leaves=2
num_cat=0
split_feature=0
split_gain=5.01514e-08
threshold=155.85954132056145
decision_type=2
left_child=-1
right_child=-2
leaf_value=4.1894794904784156e-08 0
leaf_weight=25716 5543
leaf_count=25716 5543
internal_value=0
internal_weight=0
internal_count=31259
is_linear=0
shrinkage=0.03


Tree=168
num_leaves=3
num_cat=0
split_feature=1 0
split_gain=4.58614e-09 6.54961e-09
threshold=147.51248935389609 147.50950013814989
decision_type=2 2
left_child=-1 -2
right_child=1 -3
leaf_value=0 0 -1.9639358465452568e-08
leaf_weight=5277 65 25984
leaf_count=5277 65 25984
internal_value=0 -1.25878e-08
internal_weight=0 26049
internal_count=31326 26049
is_linear=0
shrinkage=0.03


Tree=169
num_leaves=7
num_cat=0
split_feature=1 3 3 21 3 3
split_gain=5.0543e-07 5.49219e-06 6.13229e-06 5.17865e-06 2.114e-06 1.42768e-05
threshold=147.51248935389609 -0.11200515761230627 0.0046293929601055111 0.0015515103396476966 -0.10013695755559808 0.10960302461290507
decision_type=2 2 2 2 2 2
left_child=4 -2 3 -3 -1 -6
right_child=1 2 -4 -5 5 -7
leaf_value=0 0 -1.1322077300582143e-06 0 0 1.8438339046740682e-06 0
leaf_weight=605 1156 12152 12486 327 4339 411
leaf_count=605 1156 12152 12486 327 4339 411
internal_value=0 -1.31964e-07 -4.6499e-07 -9.35316e-07 0 6.32881e-07
internal_weight=0 26121 24965 12479 5355 4750
internal_count=31476 26121 24965 12479 5355 4750
is_linear=0
shrinkage=0.03


Tree=170
num_leaves=4
num_cat=0
split_feature=3 3 3
split_gain=2.18715e-08 1.50499e-06 1.11356e-06
threshold=-0.025573183302263131 -0.10758690612775271 0.14971633497029216
decision_type=2 2 2
left_child=1 -1 -2
right_child=2 -3 -4
leaf_value=0 2.0698294337931864e-07 -4.9487639760824128e-07 0
leaf_weight=1743 23393 5611 628
leaf_count=1743 23393 5611 628
internal_value=0 -5.17364e-08 0
internal_weight=0 7354 24021
internal_count=31375 7354 24021
is_linear=0
shrinkage=0.03


Tree=171
num_leaves=4
num_cat=0
split_feature=17 1 1
split_gain=5.65904e-08 1.51799e-06 2.09114e-06
threshold=-0.0017257640292216078 142.66107813779567 149.27685438730282
decision_type=2 2 2
left_child=-1 -2 -3
right_child=1 2 -4
leaf_value=0 0 -7.358368853778473e-07 0
leaf_weight=13813 352 6093 11076
leaf_count=13813 352 6093 11076
internal_value=0 -5.39153e-08 -2.87296e-07
internal_weight=0 17521 17169
internal_count=31334 17521 17169
is_linear=0
shrinkage=0.03


Tree=172
num_leaves=4
num_cat=0
split_feature=1 17 0
split_gain=7.99256e-08 3.03816e-06 3.43045e-07
threshold=157.26542796134086 0.023284781550556428 149.60477857145477
decision_type=2 2 2
left_child=1 2 -1
right_child=-2 -3 -4
leaf_value=5.2275104874027427e-07 0 0 0
leaf_weight=11399 2994 2583 14449
leaf_count=11399 2994 2583 14449
internal_value=0 5.02999e-08 3.29497e-07
internal_weight=0 28431 25848
internal_count=31425 28431 25848
is_linear=0
shrinkage=0.03


Tree=173
num_leaves=2
num_cat=0
split_feature=1
split_gain=5.38074e-08
threshold=149.74115071230139
decision_type=2
left_child=-1
right_child=-2
leaf_value=2.1182074987634899e-08 -4.7938795328401113e-08
leaf_weight=12867 18560
leaf_count=12867 18560
internal_value=0
internal_weight=0
internal_count=31427
is_linear=0
shrinkage=0.03


Tree=174
num_leaves=2
num_cat=0
split_feature=1
split_gain=2.22169e-08
threshold=157.26542796134086
decision_type=2
left_child=-1
right_child=-2
leaf_value=0 -8.243934480967373e-08
leaf_weight=28437 2942
leaf_count=28437 2942
internal_value=0
internal_weight=0
internal_count=31379
is_linear=0
shrinkage=0.03


Tree=175
num_leaves=2
num_cat=0
split_feature=0
split_gain=3.12847e-07
threshold=155.85954132056145
decision_type=2
left_child=-1
right_child=-2
leaf_value=1.0423229261932887e-07 0
leaf_weight=25916 5496
leaf_count=25916 5496
internal_value=0
internal_weight=0
internal_count=31412
is_linear=0
shrinkage=0.03


Tree=176
num_leaves=4
num_cat=0
split_feature=3 3 3
split_gain=2.01422e-07 4.64449e-06 1.7818e-07
threshold=0.001795813259194998 0.14971633497029216 -0.11200515761230627
decision_type=2 2 2
left_child=2 -2 -1
right_child=1 -3 -4
leaf_value=0 5.3362321021707335e-07 0 -1.0816272630893183e-07
leaf_weight=1618 15316 606 13707
leaf_count=1618 15316 606 13707
internal_value=0 1.06702e-07 0
internal_weight=0 15922 15325
internal_count=31247 15922 15325
is_linear=0
shrinkage=0.03


Tree=177
num_leaves=3
num_cat=0
split_feature=1 0
split_gain=3.24086e-08 5.83655e-09
threshold=144.80409874510858 144.80305233364348
decision_type=2 2
left_child=-1 -2
right_child=1 -3
leaf_value=0 0 -3.4124304721465566e-08
leaf_weight=1852 23 29559
leaf_count=1852 23 29559
internal_value=0 -3.14005e-08
internal_weight=0 29582
internal_count=31434 29582
is_linear=0
shrinkage=0.03


Tree=178
num_leaves=3
num_cat=0
split_feature=1 1
split_gain=1.62457e-08 2.32221e-07
threshold=147.51248935389609 150.85927057232769
decision_type=2 2
left_child=-1 -2
right_child=1 -3
leaf_value=0 -1.3433846240724894e-07 0
leaf_weight=5352 12391 13632
leaf_count=5352 12391 13632
internal_value=0 -2.37034e-08
internal_weight=0 26023
internal_count=31375 26023
is_linear=0
shrinkage=0.03


Tree=179
num_leaves=3
num_cat=0
split_feature=17 17
split_gain=2.99937e-08 5.13914e-08
threshold=0.017173800265856954 -0.020772586081897335
decision_type=2 2
left_child=1 -1
right_child=-2 -3
leaf_value=0 0 5.5012102928528577e-08
leaf_weight=3122 4151 24203
leaf_count=3122 4151 24203
internal_value=0 3.14308e-08
internal_weight=0 27325
internal_count=31476 27325
is_linear=0
shrinkage=0.03


Tree=180
num_leaves=3
num_cat=0
split_feature=1 0
split_gain=1.93908e-08 2.46313e-08
threshold=157.26542796134086 157.23048464037296
decision_type=2 2
left_child=1 -1
right_child=-2 -3
leaf_value=3.7453537304139879e-08 0 0
leaf_weight=28244 2953 177
leaf_count=28244 2953 177
internal_value=0 2.47798e-08
internal_weight=0 28421
internal_count=31374 28421
is_linear=0
shrinkage=0.03


Tree=181
num_leaves=5
num_cat=0
split_feature=1 1 0 0
split_gain=2.24178e-08 7.47721e-07 3.4236e-07 3.24238e-07
threshold=157.26542796134086 150.85927057232769 150.88303853573908 157.28366245665651
decision_type=2 2 2 2
left_child=1 -1 -3 -4
right_child=-2 2 3 -5
leaf_value=0 0 0 3.4984287046159441e-07 0
leaf_weight=17875 2995 34 10565 75
leaf_count=17875 2995 34 10565 75
internal_value=0 2.65841e-08 2.54824e-07 3.0676e-07
internal_weight=0 28549 10674 10640
internal_count=31544 28549 10674 10640
is_linear=0
shrinkage=0.03


Tree=182
num_leaves=6
num_cat=0
split_feature=1 15 5 21 15
split_gain=9.35439e-07 1.12633e-06 1.54404e-06 5.71303e-07 3.59933e-07
threshold=149.74115071230139 -0.0029029168122611708 0.084499999999991374 0.0016662272748550291 0.00068460229183494811
decision_type=2 2 2 2 2
left_child=4 -2 -3 -4 -1
right_child=1 2 3 -5 -6
leaf_value=1.6666474493546487e-07 0 0 -6.7459119702499256e-07 0 0
leaf_weight=11662 69 9838 8261 522 1313
leaf_count=11662 69 9838 8261 522 1313
internal_value=0 -2.12238e-07 -3.15674e-07 -6.07854e-07 0
internal_weight=0 18690 18621 8783 12975
internal_count=31665 18690 18621 8783 12975
is_linear=0
shrinkage=0.03


Tree=183
num_leaves=3
num_cat=0
split_feature=0 1
split_gain=1.17283e-10 5.81758e-10
threshold=144.80305233364348 144.80409874510858
decision_type=2 2
left_child=-1 -2
right_child=1 -3
leaf_value=0 0 -4.6232494715851312e-09
leaf_weight=1843 26 29434
leaf_count=1843 26 29434
internal_value=0 -1.89288e-09
internal_weight=0 29460
internal_count=31303 29460
is_linear=0
shrinkage=0.03


Tree=184
num_leaves=3
num_cat=0
split_feature=1 0
split_gain=2.82089e-07 1.0883e-07
threshold=157.26542796134086 157.23048464037296
decision_type=2 2
left_child=1 -1
right_child=-2 -3
leaf_value=1.1164887128500305e-07 0 0
leaf_weight=28224 2979 180
leaf_count=28224 2979 180
internal_value=0 9.45417e-08
internal_weight=0 28404
internal_count=31383 28404
is_linear=0
shrinkage=0.03


Tree=185
num_leaves=7
num_cat=0
split_feature=1 0 1 0 1 0
split_gain=3.49445e-07 4.97734e-07 1.97742e-07 1.4902e-07 1.34666e-07 8.97609e-08
threshold=157.26542796134086 159.85528470655717 150.85927057232769 150.88303853573908 144.80409874510858 157.23048464037296
decision_type=2 2 2 2 2 2
left_child=2 -2 4 -4 -1 -5
right_child=1 -3 3 5 -6 -7
leaf_value=0 -6.0068765627446571e-07 0 0 1.9345949184504665e-07 -8.7178432667164647e-08 0
leaf_weight=1841 2113 850 37 10497 15947 168
leaf_count=1841 2113 850 37 10497 15947 168
internal_value=0 -3.2579e-07 0 1.28954e-07 0 1.71062e-07
internal_weight=0 2963 28490 10702 17788 10665
internal_count=31453 2963 28490 10702 17788 10665
is_linear=0
shrinkage=0.03


Tree=186
num_leaves=2
num_cat=0
split_feature=1
split_gain=5.5856e-08
threshold=149.86016741433426
decision_type=2
left_child=-1
right_child=-2
leaf_value=0 -5.248073491075507e-08
leaf_weight=13097 18252
leaf_count=13097 18252
internal_value=0
internal_weight=0
internal_count=31349
is_linear=0
shrinkage=0.03


Tree=187
num_leaves=3
num_cat=0
split_feature=1 0
split_gain=4.03922e-07 2.07106e-07
threshold=157.26542796134086 157.23048464037296
decision_type=2 2
left_child=1 -1
right_child=-2 -3
leaf_value=1.3939591843871016e-07 0 0
leaf_weight=28301 2977 167
leaf_count=28301 2977 167
internal_value=0 1.13003e-07
internal_weight=0 28468
internal_count=31445 28468
is_linear=0
shrinkage=0.03


Tree=188
num_leaves=7
num_cat=0
split_feature=1 3 3 3 3 3
split_gain=3.10114e-07 5.94055e-06 1.70054e-05 2.31986e-06 3.93863e-06 7.14233e-07
threshold=147.51248935389609 -0.10013695755559808 0.10960302461290507 -0.11200515761230627 0.0046293929601055111 -0.068327144675387447
decision_type=2 2 2 2 2 2
left_child=1 -1 5 -2 -5 -3
right_child=3 2 -4 4 -6 -7
leaf_value=0 0 0 0 -6.8913978369305051e-07 0 2.3009562645831621e-06
leaf_weight=582 1122 330 400 12447 12473 4022
leaf_count=582 1122 330 400 12447 12473 4022
internal_value=0 9.17609e-09 1.06074e-06 -1.03441e-07 -3.08163e-07 2.17836e-06
internal_weight=0 5334 4752 26042 24920 4352
internal_count=31376 5334 4752 26042 24920 4352
is_linear=0
shrinkage=0.03


Tree=189
num_leaves=2
num_cat=0
split_feature=0
split_gain=9.637e-08
threshold=155.85954132056145
decision_type=2
left_child=-1
right_child=-2
leaf_value=5.7833810162368771e-08 0
leaf_weight=25931 5559
leaf_count=25931 5559
internal_value=0
internal_weight=0
internal_count=31490
is_linear=0
shrinkage=0.03


Tree=190
num_leaves=4
num_cat=0
split_feature=1 17 0
split_gain=2.37863e-07 2.75187e-06 2.60601e-07
threshold=157.26542796134086 0.023284781550556428 157.28366245665651
decision_type=2 2 2
left_child=1 2 -1
right_child=-2 -3 -4
leaf_value=3.3629473968194118e-07 0 0 0
leaf_weight=25866 2968 2577 50
leaf_count=25866 2968 2577 50
internal_value=0 8.66791e-08 3.2222e-07
internal_weight=0 28493 25916
internal_count=31461 28493 25916
is_linear=0
shrinkage=0.03


Tree=191
num_leaves=4
num_cat=0
split_feature=1 1 1
split_gain=2.14421e-08 3.90338e-08 5.97683e-09
threshold=144.80409874510858 150.85927057232769 157.26542796134086
decision_type=2 2 2
left_child=-1 -2 -3
right_child=1 2 -4
leaf_value=0 -5.8776258399562547e-08 2.0545515549275629e-08 -1.6747335567129886e-08
leaf_weight=1834 15755 10771 2968
leaf_count=1834 15755 10771 2968
internal_value=0 -2.55792e-08 0
internal_weight=0 29494 13739
internal_count=31328 29494 13739
is_linear=0
shrinkage=0.03


Tree=192
num_leaves=3
num_cat=0
split_feature=0 1
split_gain=8.46026e-07 9.00999e-07
threshold=146.70375620995 146.7755330999405
decision_type=2 2
left_child=1 -1
right_child=-2 -3
leaf_value=6.7429818875246155e-07 0 0
leaf_weight=3458 27992 24
leaf_count=3458 27992 24
internal_value=0 4.67619e-07
internal_weight=0 3482
internal_count=31474 3482
is_linear=0
shrinkage=0.03


Tree=193
num_leaves=5
num_cat=0
split_feature=0 17 2 2
split_gain=1.18615e-06 7.35877e-06 2.04145e-06 5.91708e-07
threshold=157.23048464037296 0.023284781550556428 0.15683813300871921 -0.063641527312967114
decision_type=2 2 2 2
left_child=1 2 3 -1
right_child=-2 -3 -4 -5
leaf_value=0 0 0 0 6.7320424525620694e-07
leaf_weight=3228 3071 2612 313 22198
leaf_count=3228 3071 2612 313 22198
internal_value=0 1.94047e-07 5.46611e-07 6.12146e-07
internal_weight=0 28351 25739 25426
internal_count=31422 28351 25739 25426
is_linear=0
shrinkage=0.03


end of trees

feature_importances:
ema_slow=187
ema_fast=127
macd_signal=92
body=61
macd_hist=58
atr_ratio=33
body_pct=24
atr_ma=22
range=10
atr_normalized=10
atr=7
macd=6
range_pct=6
price_ema_fast_dist=4
macd_strength=4
ema_cross=3
ema_cross_pct=2
macd_hist_change=2
price_ema_slow_dist=1

parameters:
[boosting: gbdt]
[objective: regression]
