tree
version=v4
num_class=1
num_tree_per_iteration=1
label_index=0
max_feature_idx=25
objective=regression
feature_names=rsi ema_fast ema_slow macd macd_signal range range_pct body body_pct upper_shadow lower_shadow is_bullish rsi_normalized rsi_overbought rsi_oversold rsi_divergence ema_cross ema_cross_pct ema_cross_signal price_ema_fast_dist price_ema_slow_dist macd_hist macd_hist_change macd_cross_signal macd_strength signal_convergence
feature_infos=[0:99.999992774566991] [139.84172317124145:161.9044463934776] [139.985622134078:161.8633237416141] [-0.81371595198632463:0.5970017482619312] [-0.71071676355148927:0.57046413909616056] [0:3.0139999999999816] [0:0.019088400286395583] [0:2.7609999999999957] [0:0.017392783349291913] [0:1.1620000000000061] [0:1.3590000000000089] [0:1] [-1:0.99999985549133985] [0:1] [0:1] [-89.854942239242206:87.39492126263913] [-1.0350786189282246:0.79769146520030176] [-0.006549151847441992:0.0054000600139474395] [0:1] [-0.014331159141718369:0.0093718883724765341] [-0.017546516855659215:0.012454695205154643] [-0.39438439545005155:0.22667986490852632] [-0.22179621176243974:0.13953656655988411] [0:1] [-0.33719861601597845:0.18761226476060436] [0:3]
tree_sizes=1208 1049 1053 1051 1041 1058 1055 1059 1040 1053 1305 1062 1081 1045 1048

Tree=0
num_leaves=11
num_cat=0
split_feature=10 2 8 24 2 16 12 9 15 7
split_gain=4.9892e-06 5.38397e-06 6.729e-06 1.10682e-05 4.99419e-06 2.309e-06 5.19084e-06 1.66114e-06 1.63736e-06 1.40045e-06
threshold=0.064000000000007176 142.92288614344798 0.00027186833621447199 -0.046902564548075169 157.26542796134086 0.026215006172208181 0.56235308776771586 0.0019999999999953393 0.58588205180485187 0.0054999999999978408
decision_type=2 2 2 2 2 2 2 2 2 2
left_child=4 -2 -3 -4 5 8 -7 -6 -1 -9
right_child=1 2 3 -5 7 6 -8 9 -10 -11
leaf_value=3.003448021203666e-06 2.8855772141851433e-06 2.8855772141851433e-06 2.8855772141851433e-06 1.5073941342378323e-06 2.8855772141851433e-06 3.3374314698858348e-06 2.8855772141851433e-06 2.8855772141851433e-06 2.8018107176260334e-06 2.3284652063421755e-06
leaf_weight=8788 149 1298 139 1472 304 5026 2320 251 5934 1773
leaf_count=8788 149 1298 139 1472 304 5026 2320 251 5934 1773
internal_value=2.88558e-06 2.49023e-06 2.2945e-06 1.86161e-06 2.91488e-06 2.99745e-06 3.14831e-06 2.56173e-06 2.88558e-06 2.43536e-06
internal_weight=0 3058 2909 1611 24396 22068 7346 2328 14722 2024
internal_count=27454 3058 2909 1611 24396 22068 7346 2328 14722 2024
is_linear=0
shrinkage=1


Tree=1
num_leaves=11
num_cat=0
split_feature=2 24 7 3 2 19 9 9 10 21
split_gain=7.39425e-06 6.2387e-06 1.01884e-05 8.00168e-06 4.40022e-06 2.78521e-06 2.46478e-06 1.76891e-06 1.80853e-06 1.65976e-06
threshold=146.7755330999405 0.021106398911471907 0.010500000000007505 0.12116713880426745 157.26542796134086 1.4286277735096328e-05 0.01899999999999125 0.0024999999999977267 0.10500000000000399 -0.020772586081897335
decision_type=2 2 2 2 2 2 2 2 2 2
left_child=1 2 -1 -4 5 9 -7 -6 -9 -2
right_child=4 -3 3 -5 7 6 -8 8 -10 -11
leaf_value=0 0 0 1.1797018532871609e-06 0 0 0 -3.047125113614624e-07 -6.8882314478433702e-07 0 1.5029270686372217e-07
leaf_weight=322 1843 548 2139 116 398 5545 5226 2114 66 9108
leaf_count=322 1843 548 2139 116 398 5545 5226 2114 66 9108
internal_value=0 4.13408e-07 6.70321e-07 9.82488e-07 -9.19218e-08 0 -1.48886e-07 -5.00319e-07 -6.14131e-07 6.02527e-08
internal_weight=0 3125 2577 2255 24300 21722 10771 2578 2180 10951
internal_count=27425 3125 2577 2255 24300 21722 10771 2578 2180 10951
is_linear=0
shrinkage=0.01


Tree=2
num_leaves=11
num_cat=0
split_feature=4 2 4 15 24 24 10 19 3 2
split_gain=1.16785e-05 2.40105e-05 1.33188e-05 1.30993e-05 1.18194e-05 3.40567e-06 3.46389e-06 1.49274e-06 2.58174e-06 9.55888e-07
threshold=0.14152927466722084 146.87549983748696 -0.013940384003731305 4.8167116821873686 0.018786088784669929 -0.037094296052330118 0.0069999999999907922 2.0271748768400903e-05 0.022047476597848007 154.75461207805162
decision_type=2 2 2 2 2 2 2 2 2 2
left_child=1 2 -1 5 -4 -2 -7 9 -9 -3
right_child=3 7 4 -5 -6 6 -8 8 -10 -11
leaf_value=0 0 1.0240954234444289e-07 1.8287502219069507e-06 0 0 0 -2.6908117672602146e-06 -2.5866043640998386e-07 0 0
leaf_weight=1288 38 9115 1492 80 350 70 426 6155 5388 3077
leaf_count=1288 38 9115 1492 80 350 70 426 6155 5388 3077
internal_value=0 5.44223e-08 8.89444e-07 -1.33122e-06 1.4378e-06 -2.11901e-06 -2.3496e-06 -1.35659e-08 -1.15367e-07 7.96379e-10
internal_weight=0 26865 3130 614 1842 534 496 23735 11543 12192
internal_count=27479 26865 3130 614 1842 534 496 23735 11543 12192
is_linear=0
shrinkage=0.01


Tree=3
num_leaves=11
num_cat=0
split_feature=21 10 2 16 8 22 21 24 4 0
split_gain=7.01324e-06 8.99434e-06 8.59308e-06 7.64977e-06 6.36988e-06 9.32142e-06 6.30966e-06 2.0447e-06 4.77649e-06 1.49306e-06
threshold=0.022537369919812162 0.025499999999993864 142.92288614344798 0.39245003495311442 0.00084489627473743206 -0.031631861422665768 0.00048043563292416233 -0.01647470607585674 0.0014284547803628061 63.574757617020801
decision_type=2 2 2 2 2 2 2 2 2 2
left_child=4 -2 -3 -4 7 -6 -7 8 -1 -9
right_child=1 2 3 -5 5 6 -8 9 -10 -11
leaf_value=-6.3619084489858409e-07 0 0 -1.6253001581240836e-06 0 0 1.285521740228206e-06 0 1.1658101847205763e-07 0 0
leaf_weight=1593 1238 97 1189 41 80 1382 647 13732 980 6553
leaf_count=1593 1238 97 1189 41 80 1382 647 13732 980 6553
internal_value=0 -4.90608e-07 -1.0691e-06 -1.38985e-06 5.79745e-08 5.84642e-07 9.02591e-07 0 -2.54867e-07 4.28977e-08
internal_weight=0 2565 1327 1230 24967 2109 2029 22858 2573 20285
internal_count=27532 2565 1327 1230 24967 2109 2029 22858 2573 20285
is_linear=0
shrinkage=0.01


Tree=4
num_leaves=11
num_cat=0
split_feature=1 8 6 0 21 1 4 9 8 0
split_gain=4.45542e-06 6.13561e-06 8.13261e-06 8.23611e-06 5.91973e-06 5.62331e-06 3.94325e-06 1.28398e-06 9.09874e-07 4.01239e-07
threshold=157.28366245665651 0.0011174146176288018 0.0013663205389764139 34.342750198793652 0.057155185151547432 147.09950058948854 0.017241232233793192 0.0014999999999929516 3.4245410202979103e-05 13.157881752105341
decision_type=2 2 2 2 2 2 2 2 2 2
left_child=1 2 6 -4 5 -3 -1 -2 -9 -10
right_child=7 4 3 -5 -6 -7 -8 8 9 -11
leaf_value=0 0 2.1969757335976964e-06 0 -1.2759943096949331e-06 0 0 2.5899147916974814e-07 0 0 -5.5264031526300408e-07
leaf_weight=14665 292 386 495 938 94 910 7511 286 30 1995
leaf_count=14665 292 386 495 938 94 910 7511 286 30 1995
internal_value=0 6.18799e-08 0 -7.00771e-07 7.14311e-07 1.00199e-06 7.02673e-08 -3.66585e-07 -4.54886e-07 -5.30164e-07
internal_weight=0 24999 23609 1433 1390 1296 22176 2603 2311 2025
internal_count=27602 24999 23609 1433 1390 1296 22176 2603 2311 2025
is_linear=0
shrinkage=0.01


Tree=5
num_leaves=11
num_cat=0
split_feature=2 8 24 3 25 9 7 7 20 6
split_gain=4.74223e-06 8.61151e-06 4.80341e-06 3.4002e-06 3.0254e-06 3.56958e-06 3.16518e-06 1.69438e-06 5.02619e-06 2.22243e-06
threshold=157.26542796134086 0.0010885957633879199 0.028342014412761532 0.15683813300871921 1.0000000180025095e-35 0.0019999999999953393 0.0054999999999978408 0.046000000000006487 -0.00019320362641526596 0.0013061420467501649
decision_type=2 2 2 2 2 2 2 2 2 2
left_child=1 7 3 -3 -2 -6 -7 8 -1 -9
right_child=4 2 -4 -5 5 6 -8 9 -10 -11
leaf_value=3.9484207027048409e-07 0 1.1876394379257713e-06 0 0 0 0 -8.8364843019267641e-07 0 0 -4.6365236722803144e-07
leaf_weight=3887 342 1268 198 38 295 241 1720 7923 10245 1341
leaf_count=3887 342 1268 198 38 295 241 1720 7923 10245 1341
internal_value=0 6.55916e-08 8.02346e-07 1.05315e-06 -3.75891e-07 -5.44804e-07 -7.23519e-07 0 8.55296e-08 -8.44424e-08
internal_weight=0 24900 1504 1306 2598 2256 1961 23396 14132 9264
internal_count=27498 24900 1504 1306 2598 2256 1961 23396 14132 9264
is_linear=0
shrinkage=0.01


Tree=6
num_leaves=11
num_cat=0
split_feature=1 17 12 17 6 15 7 3 9 10
split_gain=7.07623e-06 3.23126e-06 5.11346e-06 3.3684e-06 2.60072e-06 2.58558e-06 2.36562e-06 2.11376e-06 1.4239e-06 7.54298e-07
threshold=157.28366245665651 0.00025325678185562683 0.61742106527910667 0.0014227806729777508 0.00039520487540664883 0.50063010772180061 0.03249999999999887 -0.01104797551731451 0.0019999999999953393 0.11100000000000422
decision_type=2 2 2 2 2 2 2 2 2 2
left_child=1 5 3 -3 -2 7 -7 -1 -6 -10
right_child=4 2 -4 -5 8 6 -8 -9 9 -11
leaf_value=2.3683526367019938e-07 0 5.2990392700952018e-07 0 0 0 0 -3.2383453516257812e-07 0 -9.3254800919556016e-07 0
leaf_weight=4999 1096 4407 1783 301 167 3274 4063 6011 1287 51
leaf_count=4999 1096 4407 1783 301 167 3274 4063 6011 1287 51
internal_value=0 5.16237e-08 2.44903e-07 4.3738e-07 -4.96588e-07 0 -1.60723e-07 7.91802e-08 -7.73928e-07 -8.83249e-07
internal_weight=0 24838 6491 4708 2601 18347 7337 11010 1505 1338
internal_count=27439 24838 6491 4708 2601 18347 7337 11010 1505 1338
is_linear=0
shrinkage=0.01


Tree=7
num_leaves=11
num_cat=0
split_feature=2 10 10 2 3 9 4 20 7 10
split_gain=5.92903e-06 2.9839e-06 3.42101e-06 2.95414e-06 6.18137e-06 2.10931e-06 2.00298e-06 1.97479e-06 1.63735e-06 9.35266e-07
threshold=157.26542796134086 0.068500000000000241 0.14249999999999832 146.87549983748696 0.1111431127396685 0.0019999999999953393 -0.11692911857420912 -0.00021923044211897468 0.0054999999999978408 0.11100000000000422
decision_type=2 2 2 2 2 2 2 2 2 2
left_child=1 3 6 4 -1 -2 -3 -5 -7 -10
right_child=5 2 -4 7 -6 8 -8 -9 9 -11
leaf_value=6.8745601572814244e-07 0 0 0 1.8623826452132613e-07 0 0 -5.6371572813120782e-07 0 -7.1391954657517616e-07 0
leaf_weight=2565 341 253 399 5839 260 276 1882 13765 1962 54
leaf_count=2565 341 253 399 5839 260 276 1882 13765 1962 54
internal_value=0 4.94531e-08 -1.48239e-07 1.16374e-07 4.58585e-07 -4.4943e-07 -4.31635e-07 1.60481e-08 -5.69265e-07 -6.70552e-07
internal_weight=0 24963 2534 22429 2825 2633 2135 19604 2292 2016
internal_count=27596 24963 2534 22429 2825 2633 2135 19604 2292 2016
is_linear=0
shrinkage=0.01


Tree=8
num_leaves=11
num_cat=0
split_feature=2 6 21 16 10 22 2 15 22 6
split_gain=5.33273e-06 1.32118e-05 1.40037e-05 8.46965e-06 3.68936e-06 5.21901e-06 4.38486e-06 4.09108e-06 2.99662e-06 1.92938e-06
threshold=144.80409874510858 0.0014559457041790919 0.057155185151547432 0.13571504130570136 0.064000000000007176 0.013555209461870726 157.26542796134086 10.933315157083578 0.00274118675381177 0.00025301402978995216
decision_type=2 2 2 2 2 2 2 2 2 2
left_child=1 -1 3 -3 6 7 8 -6 -2 -8
right_child=4 2 -4 -5 5 -7 9 -9 -10 -11
leaf_value=0 1.910496063482702e-07 3.5672491072457427e-06 0 0 -7.3389274906519584e-07 0 0 0 0 -4.3605297431121651e-07
leaf_weight=1223 16069 324 56 50 2363 192 440 174 4870 1955
leaf_count=1223 16069 324 56 50 2363 192 440 174 4870 1955
internal_value=0 5.79812e-07 2.089e-06 2.95981e-06 0 -3.53872e-07 3.41309e-08 -5.83447e-07 1.17046e-07 -2.73233e-07
internal_weight=0 1653 430 374 26063 2729 23334 2537 20939 2395
internal_count=27716 1653 430 374 26063 2729 23334 2537 20939 2395
is_linear=0
shrinkage=0.01


Tree=9
num_leaves=11
num_cat=0
split_feature=21 1 17 5 10 2 15 24 16 1
split_gain=4.51436e-06 1.39146e-05 8.56088e-06 1.06937e-05 6.1241e-06 6.2489e-06 6.14298e-06 2.05138e-06 4.36848e-06 6.42097e-07
threshold=0.015115885158113908 147.36291571608322 0.00079404734716550997 0.10500000000000399 0.025499999999993864 142.92288614344798 8.5497392829992283 -0.016035688781938513 -0.029005630711750992 155.60165050445082
decision_type=2 2 2 2 2 2 2 2 2 2
left_child=1 2 3 -1 -2 -6 -7 8 -3 -9
right_child=4 7 -4 -5 5 6 -8 9 -10 -11
leaf_value=0 0 -6.4678564319910474e-07 0 1.4172410702998123e-06 0 -1.1811142320936611e-06 0 6.8808946608487869e-08 0 0
leaf_weight=1253 2060 1533 300 1706 126 1572 390 13697 999 3754
leaf_count=1253 2060 1533 300 1706 126 1572 390 13697 999 3754
internal_value=0 6.87659e-08 6.78726e-07 8.92569e-07 -2.86939e-07 -6.75904e-07 -8.9703e-07 0 -2.84186e-07 6.06344e-09
internal_weight=0 23242 3259 2959 4148 2088 1962 19983 2532 17451
internal_count=27390 23242 3259 2959 4148 2088 1962 19983 2532 17451
is_linear=0
shrinkage=0.01


Tree=10
num_leaves=14
num_cat=0
split_feature=1 5 4 4 2 4 17 19 19 4 6 9 24
split_gain=6.37222e-06 1.25573e-05 9.17572e-06 7.22552e-06 2.99204e-06 2.15347e-06 5.19709e-06 1.41259e-06 2.78288e-06 2.40747e-06 1.08227e-06 2.04228e-07 9.61945e-08
threshold=146.92349002971176 0.36849999999999744 0.096032223910728506 -0.24134130100428289 157.18066086937378 -0.013940384003731305 0.0011324690470522225 -3.9260702354484109e-05 -0.00071132494329829803 0.018617159651496202 0.00058113878691575915 0.0019999999999953393 -0.034952435586593701
decision_type=2 2 2 2 2 2 2 2 2 2 2 2 2
left_child=1 5 3 -3 7 12 -7 8 -2 -9 -6 -12 -1
right_child=4 2 -4 -5 10 6 -8 9 -10 -11 11 -13 -14
leaf_value=0 0 0 0 5.0799063108722107e-06 0 6.5125112578067137e-07 0 -1.9889465635459325e-07 2.2590226529345312e-07 0 0 -7.1370673188618673e-07 -8.9791811199042688e-08
leaf_weight=110 1616 31 43 136 1760 1733 216 7145 7400 5084 118 881 1193
leaf_count=110 1616 31 43 136 1760 1733 216 7145 7400 5084 118 881 1193
internal_value=0 4.21904e-07 2.98497e-06 4.08583e-06 -2.9549e-08 0 3.32393e-07 0 1.04974e-07 -5.85387e-08 -3.40645e-07 -6.54809e-07 0
internal_weight=0 3462 210 167 24004 3252 1949 21245 9016 12229 2759 999 1303
internal_count=27466 3462 210 167 24004 3252 1949 21245 9016 12229 2759 999 1303
is_linear=0
shrinkage=0.01


Tree=11
num_leaves=11
num_cat=0
split_feature=24 1 8 3 10 20 7 4 8 10
split_gain=6.98721e-06 1.12291e-05 7.71293e-06 7.94595e-06 7.5018e-06 4.65239e-06 2.27189e-06 3.5239e-06 1.61984e-06 6.78715e-07
threshold=0.015508861916315567 147.40962592188743 0.00012654771276632404 0.12590097217996291 0.015500000000002958 0.0047619104469322328 0.046000000000006487 -0.081055068624736562 4.6476577784998706e-05 0.023000000000010349
decision_type=2 2 2 2 2 2 2 2 2 2
left_child=1 2 -1 -4 -2 8 9 -8 -6 -3
right_child=4 6 3 -5 5 -7 7 -9 -10 -11
leaf_value=0 0 0 1.0081931877714411e-06 0 0 0 0 -2.9331806096316226e-07 -9.938356936823239e-07 1.1921305137512812e-07
leaf_weight=780 1214 7723 2665 89 230 67 889 6772 2078 4800
leaf_count=780 1214 7723 2665 89 230 67 889 6772 2078 4800
internal_value=0 3.15204e-08 5.68716e-07 8.33722e-07 -4.3372e-07 -7.74672e-07 -1.29952e-08 -1.73363e-07 -9.05044e-07 5.25851e-09
internal_weight=0 23718 3534 2754 3589 2375 20184 7661 2308 12523
internal_count=27307 23718 3534 2754 3589 2375 20184 7661 2308 12523
is_linear=0
shrinkage=0.01


Tree=12
num_leaves=11
num_cat=0
split_feature=24 2 17 3 17 15 20 19 2 19
split_gain=6.41117e-06 1.41169e-05 1.39723e-05 1.15714e-05 3.36236e-06 4.37331e-06 2.17136e-06 1.27373e-06 1.86052e-06 1.80801e-06
threshold=0.019410780680945438 146.87549983748696 -0.00034137893860237517 0.15683813300871921 -0.00043634899487219551 4.8167116821873686 0.0047619104469322328 2.3295041508049449e-05 156.5122715858225 -0.00071132494329829803
decision_type=2 2 2 2 2 2 2 2 2 2
left_child=1 2 -1 -4 -2 6 -6 9 -9 -3
right_child=4 7 3 -5 5 -7 -8 8 -10 -11
leaf_value=0 0 -5.1253915031156532e-08 1.4814082865059886e-06 0 -9.6421183982853214e-07 0 0 -1.9343229627911882e-07 0 1.3423893211440959e-07
leaf_weight=890 447 1780 1833 52 1694 574 73 8219 1753 10101
leaf_count=890 447 1780 1833 52 1694 574 73 8219 1753 10101
internal_value=0 4.80275e-08 7.2744e-07 1.23296e-06 -4.57791e-07 -6.27065e-07 -8.76596e-07 0 -1.1037e-07 2.22811e-08
internal_weight=0 24628 2775 1885 2788 2341 1767 21853 9972 11881
internal_count=27416 24628 2775 1885 2788 2341 1767 21853 9972 11881
is_linear=0
shrinkage=0.01


Tree=13
num_leaves=11
num_cat=0
split_feature=2 5 21 4 24 7 15 4 5 5
split_gain=7.38345e-06 1.18685e-05 9.54519e-06 1.11919e-05 3.84986e-06 3.93413e-06 2.17082e-06 6.79999e-07 2.54294e-06 1.02849e-06
threshold=144.80409874510858 0.12649999999999298 0.045389152191847304 0.096032223910728506 0.015508861916315567 0.16849999999999457 14.508617416823215 -0.0012557492976406981 0.084999999999993761 0.20000000000000287
decision_type=2 2 2 2 2 2 2 2 2 2
left_child=1 -1 3 -3 7 6 -6 8 -2 -9
right_child=4 2 -4 -5 5 -7 -8 9 -10 -11
leaf_value=0 0 2.2692098833911448e-06 0 0 -6.1068499939559132e-07 0 0 1.1501865612299137e-07 -2.1683666086918893e-07 0
leaf_weight=631 4636 771 110 103 2745 285 174 11373 5842 732
leaf_count=631 4636 771 110 103 2745 285 174 11373 5842 732
internal_value=0 6.63061e-07 1.38837e-06 1.80614e-06 -3.31086e-08 -3.59133e-07 -5.25681e-07 0 -4.4114e-08 6.27134e-08
internal_weight=0 1615 984 874 25787 3204 2919 22583 10478 12105
internal_count=27402 1615 984 874 25787 3204 2919 22583 10478 12105
is_linear=0
shrinkage=0.01


Tree=14
num_leaves=11
num_cat=0
split_feature=2 1 9 5 10 2 15 9 8 15
split_gain=7.33167e-06 5.81251e-06 1.99309e-05 1.12715e-05 6.12553e-06 7.88222e-06 3.37997e-06 2.38086e-06 3.32591e-06 1.13731e-06
threshold=157.26542796134086 145.00486446509709 0.011499999999998069 0.13149999999998843 0.065000000000011951 149.20112248427577 -1.0000000180025095e-35 0.0019999999999953393 9.442361157332547e-05 9.1271929460463976
decision_type=2 2 2 2 2 2 2 2 2 2
left_child=1 2 -1 -4 6 -6 -3 -2 -9 -10
right_child=7 4 3 -5 5 -7 -8 8 9 -11
leaf_value=0 0 2.344930385404862e-07 0 2.2295013441978269e-06 -1.1745210641807385e-06 0 0 0 -9.9655703575683327e-07 0
leaf_weight=439 326 8488 540 767 922 1443 12347 684 1315 268
leaf_count=439 326 8488 540 767 922 1443 12347 684 1315 268
internal_value=0 6.68601e-08 6.29881e-07 1.43347e-06 0 -4.52287e-07 7.86061e-08 -4.89625e-07 -6.15811e-07 -8.67848e-07
internal_weight=0 24946 1746 1307 23200 2365 20835 2593 2267 1583
internal_count=27539 24946 1746 1307 23200 2365 20835 2593 2267 1583
is_linear=0
shrinkage=0.01


end of trees

feature_importances:
ema_slow=19
lower_shadow=13
macd_signal=12
macd_strength=11
upper_shadow=10
rsi_divergence=9
ema_fast=8
body=8
body_pct=8
macd=7
macd_hist=7
range=6
range_pct=6
ema_cross_pct=6
price_ema_fast_dist=6
ema_cross=4
price_ema_slow_dist=4
rsi=3
macd_hist_change=3
rsi_normalized=2
signal_convergence=1

parameters:
[boosting: gbdt]
[objective: regression]
[metric: rmse]
[tree_learner: serial]
[device_type: cpu]
[data: ]
[valid: ]
[num_iterations: 500]
[learning_rate: 0.01]
[num_leaves: 16]
[num_threads: 8]
[deterministic: 0]
[force_col_wise: 0]
[force_row_wise: 0]
[histogram_pool_size: -1]
[max_depth: 4]
[min_data_in_leaf: 30]
[min_sum_hessian_in_leaf: 0.001]
[bagging_fraction: 0.7]
[pos_bagging_fraction: 1]
[neg_bagging_fraction: 1]
[bagging_freq: 1]
[bagging_seed: 9057]
[feature_fraction: 0.9]
[feature_fraction_bynode: 1]
[feature_fraction_seed: 15199]
[extra_trees: 0]
[extra_seed: 31159]
[early_stopping_round: 0]
[first_metric_only: 0]
[max_delta_step: 0]
[lambda_l1: 0.1]
[lambda_l2: 0.1]
[linear_lambda: 0]
[min_gain_to_split: 0]
[drop_rate: 0.1]
[max_drop: 50]
[skip_drop: 0.5]
[xgboost_dart_mode: 0]
[uniform_drop: 0]
[drop_seed: 20727]
[top_rate: 0.2]
[other_rate: 0.1]
[min_data_per_group: 100]
[max_cat_threshold: 32]
[cat_l2: 10]
[cat_smooth: 10]
[max_cat_to_onehot: 4]
[top_k: 20]
[monotone_constraints: ]
[monotone_constraints_method: basic]
[monotone_penalty: 0]
[feature_contri: ]
[forcedsplits_filename: ]
[refit_decay_rate: 0.9]
[cegb_tradeoff: 1]
[cegb_penalty_split: 0]
[cegb_penalty_feature_lazy: ]
[cegb_penalty_feature_coupled: ]
[path_smooth: 0]
[interaction_constraints: ]
[verbosity: 1]
[saved_feature_importance_type: 0]
[linear_tree: 0]
[max_bin: 255]
[max_bin_by_feature: ]
[min_data_in_bin: 3]
[bin_construct_sample_cnt: 200000]
[data_random_seed: 218]
[is_enable_sparse: 1]
[enable_bundle: 1]
[use_missing: 1]
[zero_as_missing: 0]
[feature_pre_filter: 1]
[pre_partition: 0]
[two_round: 0]
[header: 0]
[label_column: ]
[weight_column: ]
[group_column: ]
[ignore_column: ]
[categorical_feature: ]
[forcedbins_filename: ]
[precise_float_parser: 0]
[parser_config_file: ]
[objective_seed: 19100]
[num_class: 1]
[is_unbalance: 0]
[scale_pos_weight: 1]
[sigmoid: 1]
[boost_from_average: 1]
[reg_sqrt: 0]
[alpha: 0.9]
[fair_c: 1]
[poisson_max_delta_step: 0.7]
[tweedie_variance_power: 1.5]
[lambdarank_truncation_level: 30]
[lambdarank_norm: 1]
[label_gain: ]
[lambdarank_position_bias_regularization: 0]
[eval_at: ]
[multi_error_top_k: 1]
[auc_mu_weights: ]
[num_machines: 1]
[local_listen_port: 12400]
[time_out: 120]
[machine_list_filename: ]
[machines: ]
[gpu_platform_id: -1]
[gpu_device_id: -1]
[gpu_use_dp: 0]
[num_gpu: 1]

end of parameters

pandas_categorical:[]
