tree
version=v4
num_class=1
num_tree_per_iteration=1
label_index=0
max_feature_idx=33
objective=regression
feature_names=rsi ema_fast ema_slow bb_middle bb_upper bb_lower atr range range_pct body body_pct upper_shadow lower_shadow is_bullish rsi_normalized rsi_overbought rsi_oversold rsi_divergence ema_cross ema_cross_pct ema_cross_signal price_ema_fast_dist price_ema_slow_dist bb_width bb_position bb_position_normalized price_bb_upper_dist price_bb_lower_dist bb_breakout_upper bb_breakout_lower atr_normalized atr_ma atr_ratio signal_convergence
feature_infos=[0:99.999992774566991] [139.84172317124145:161.9044463934776] [139.985622134078:161.8633237416141] [0:161.88062500000001] [0:163.46980690478767] [0:161.79437304114759] [0:1.1185000000000032] [0:3.0139999999999816] [0:0.019088400286395583] [0:2.7609999999999957] [0:0.017392783349291913] [0:1.1620000000000061] [0:1.3590000000000089] [0:1] [-1:0.99999985549133985] [0:1] [0:1] [-89.854942239242206:87.39492126263913] [-1.0350786189282246:0.79769146520030176] [-0.006549151847441992:0.0054000600139474395] [0:1] [-0.014331159141718369:0.0093718883724765341] [-0.017546516855659215:0.012454695205154643] [0:0.040499613571001979] [-0.43688158368442731:1.4336560662958788] [-1.8737631673688546:1.8673121325917577] [-0.0052970182941306683:0.036124521721180282] [-0.0076876891014397734:0.023272312637101344] [0:1] [0:1] [0:0.0071150494268520962] [0:0.79457500000000281] [0:5.222190663820645] [0:2]
tree_sizes=1326 1098 1393 702 1183 1083 715 1427 1103 872 861 734 876 1126 1025 1088 1014 1425 728 1094 637 1096 1108 1086 859 568 896 1087 785 1181 951 1087 402 875 1096 1090 587 943 723 1096 1176 585 872 930 1274 569 881 1348 879 1027 928 633 782 1241 1114 1103 1169 1101 872 1123 947 1102 1094 1381 1083 1083 1084 564 715 1092 1086 699 866 1431 1063 955 659 561 1092 1094 1026 1087 641 721 472 1079 396 417 774 1164

Tree=0
num_leaves=12
num_cat=0
split_feature=23 5 30 30 23 4 26 1 26 2 1
split_gain=1.15083e-06 1.01892e-05 9.88429e-06 2.15222e-06 1.6933e-06 1.9094e-06 2.08787e-06 1.23833e-06 1.08332e-06 2.11122e-07 1.68236e-07
threshold=0.0024967872100945753 144.27950611927272 0.00088654600315255742 0.003640781586452996 0.0011584178095714712 155.82131149607432 -8.5570463309385102e-05 142.14722473433781 0.0023489241526855665 161.22410411862589 144.63657042064196
decision_type=2 2 2 2 2 2 2 2 2 2 2
left_child=4 -2 -3 9 -1 6 -6 -8 -9 10 -4
right_child=1 2 3 -5 5 -7 7 8 -10 -11 -12
leaf_value=4.7848720581320742e-06 4.7848720581320742e-06 4.7848720581320742e-06 4.7848720581320742e-06 4.7848720581320742e-06 4.7848720581320742e-06 4.7848720581320742e-06 4.7848720581320742e-06 5.1340848403980019e-06 4.7848720581320742e-06 4.7848720581320742e-06 4.1357922136175682e-06
leaf_weight=7690 1350 3612 10.999999999999998 58 217 2176 39 6571 80 9.9999999999999982 5638
leaf_count=7690 1350 3612 11 58 217 2176 39 6571 80 10 5638
internal_value=4.78487e-06 4.68113e-06 4.43625e-06 4.17561e-06 4.7878e-06 4.92147e-06 5.0133e-06 5.07655e-06 5.10767e-06 4.14219e-06 4.13872e-06
internal_weight=0 10679 9329 5717 16773 9083 6907 6690 6651 5659 5649
internal_count=27452 10679 9329 5717 16773 9083 6907 6690 6651 5659 5649
is_linear=0
shrinkage=1


Tree=1
num_leaves=12
num_cat=0
split_feature=5 21 23 23 30 30 21 23 23 2 30
split_gain=5.40388e-06 4.29217e-06 3.41863e-06 2.32129e-06 5.35712e-06 5.6786e-06 3.26578e-06 1.52741e-06 1.44779e-06 4.76562e-07 2.36965e-07
threshold=149.42472595548591 0.00062848211078796992 0.0013648239495463209 0.0025888589069020394 0.00076828828003908231 0.0025039643051554534 0.002558861597799634 0.014296111262698089 0.0026788416564766924 149.70010094406797 0.00036046198960238931
decision_type=2 2 2 2 2 2 2 2 2 2 2
left_child=1 2 -1 -2 -5 6 8 9 -6 10 -4
right_child=3 -3 7 4 5 -7 -8 -9 -10 -11 -12
leaf_value=0 0 0 0 0 0 0 0 0 -7.5878862316434373e-07 0 4.394374339820441e-07
leaf_weight=3706 10683 1256 20 1670 112 81 29 71 3821 60 5916
leaf_count=3706 10683 1256 20 1670 112 81 29 71 3821 60 5916
internal_value=0 1.15563e-07 2.42875e-07 -1.54837e-07 -3.30806e-07 -5.35841e-07 -6.60538e-07 3.89056e-07 -7.22881e-07 4.22646e-07 4.34123e-07
internal_weight=0 11029 9773 16396 5713 4043 3962 6067 3933 5996 5936
internal_count=27425 11029 9773 16396 5713 4043 3962 6067 3933 5996 5936
is_linear=0
shrinkage=0.01


Tree=2
num_leaves=16
num_cat=0
split_feature=1 22 32 32 27 23 5 32 26 0 32 5 21 1 2
split_gain=4.7595e-06 1.57714e-05 5.69026e-06 3.69312e-06 3.51972e-06 3.49456e-06 7.07458e-07 2.77201e-06 3.08522e-06 2.17801e-06 1.99198e-06 3.70272e-07 7.91935e-07 1.40084e-06 2.86109e-07
threshold=147.36291571608322 0.0014905859901289487 0.7498301578757437 2.0575286262233572 0.005806645125721586 0.00078249983004418831 155.55721538926153 0.67197628851642965 0.0064910115348434617 16.048558019386487 2.0575286262233572 150.72757964326649 -0.0007866892106948455 156.52556449476597 150.85927057232769
decision_type=2 2 2 2 2 2 2 2 2 2 2 2 2 2 2
left_child=1 2 -1 4 5 -4 11 -8 9 -9 -11 -2 -13 14 -14
right_child=6 -3 3 -5 -6 -7 7 8 -10 10 -12 12 13 -15 -16
leaf_value=0 0 0 0 0 0 1.1901070433134726e-06 0 0 0 -5.1815142465666435e-07 0 0 0 0 2.1301131745343933e-07
leaf_weight=947 11192 485 155 47 27 2607 789 102 68 3998 38 665 65 14.999999999999998 6279
leaf_count=947 11192 485 155 47 27 2607 789 102 68 3998 38 665 65 15 6279
internal_value=0 3.33928e-07 7.36663e-07 9.61502e-07 1.0356e-06 1.10017e-06 0 -1.19006e-07 -2.87611e-07 -3.98287e-07 -4.65405e-07 0 7.26037e-08 1.35188e-07 2.00996e-07
internal_weight=0 4268 3783 2836 2789 2762 23211 4995 4206 4138 4036 18216 7024 6359 6344
internal_count=27479 4268 3783 2836 2789 2762 23211 4995 4206 4138 4036 18216 7024 6359 6344
is_linear=0
shrinkage=0.01


Tree=3
num_leaves=7
num_cat=0
split_feature=21 4 4 30 0 14
split_gain=3.26724e-07 1.76581e-06 1.07731e-06 1.04406e-06 1.05146e-07 4.9644e-08
threshold=2.3293973331330707e-05 155.05870772668973 146.13696968353338 0.00034663773874485138 35.533115474701489 0.5801608671026891
decision_type=2 2 2 2 2 2
left_child=1 3 -2 -1 -4 -5
right_child=2 -3 4 5 -6 -7
leaf_value=0 0 0 0 1.8659379628177735e-07 -9.9112207801169916e-08 0
leaf_weight=1708 1103 3084 375 9151 12037 71
leaf_count=1708 1103 3084 375 9151 12037 71
internal_value=0 4.82842e-08 0 1.38363e-07 -9.3163e-08 1.8442e-07
internal_weight=0 14014 13515 10930 12412 9222
internal_count=27529 14014 13515 10930 12412 9222
is_linear=0
shrinkage=0.01


Tree=4
num_leaves=13
num_cat=0
split_feature=4 19 19 26 10 32 23 17 19 7 19 23
split_gain=9.89495e-07 9.52756e-06 9.72478e-06 6.93235e-06 6.29237e-06 5.01271e-06 1.72063e-06 6.70773e-06 6.53609e-06 6.16863e-06 8.77945e-06 5.02085e-07
threshold=147.77091793910532 0.0011879602929002254 -0.00098496394654796777 0.00040896495108855697 2.0432278916361985e-05 1.918658413559041 0.0025888589069020394 -4.0393280844125234 0.00054102248790583298 0.090999999999993988 -0.0011110888125698678 0.0011343361943190993
decision_type=2 2 2 2 2 2 2 2 2 2 2 2
left_child=1 2 -1 -4 -5 -6 11 -8 9 -9 -11 -2
right_child=6 -3 3 4 5 -7 7 8 -10 10 -12 -13
leaf_value=0 0 0 0 0 1.1478883593834097e-06 0 0 0 0 0 -1.1257524020776259e-06 7.7329404327249274e-08
leaf_weight=480 6619 244 1205 95 2920 61 2143 877 1550 652 2360 8396
leaf_count=480 6619 244 1205 95 2920 61 2143 877 1550 652 2360 8396
internal_value=0 1.40602e-07 4.69985e-07 6.87602e-07 9.39862e-07 1.0595e-06 0 -1.50641e-07 -3.93641e-07 -6.2029e-07 -8.37591e-07 0
internal_weight=0 5005 4761 4281 3076 2981 22597 7582 5439 3889 3012 15015
internal_count=27602 5005 4761 4281 3076 2981 22597 7582 5439 3889 3012 15015
is_linear=0
shrinkage=0.01


Tree=5
num_leaves=12
num_cat=0
split_feature=5 26 0 26 4 26 21 0 26 14 4
split_gain=5.33925e-06 1.00732e-05 3.49801e-06 3.39034e-06 8.96416e-07 7.97522e-07 4.32481e-07 2.60061e-07 2.01427e-07 6.46531e-08 6.48333e-08
threshold=149.42472595548591 0.00043963501278749861 93.421911157743565 0.012284446318865425 150.62947069383884 0.0057923555891620489 0.002558861597799634 10.256390532582325 0.00045255651689645392 0.99999822218868528 149.60921850184343
decision_type=2 2 2 2 2 2 2 2 2 2 2
left_child=1 -1 3 4 8 6 7 -2 -3 10 -9
right_child=5 2 -4 -5 -6 -7 -8 9 -10 -11 -12
leaf_value=0 0 0 0 0 0 0 0 0 5.520705201606259e-07 0 -1.309571202669871e-07
leaf_weight=3430 567 78 191 47 28 452 38 33 7357 145 15128
leaf_count=3430 567 78 191 47 28 452 38 33 7357 145 15128
internal_value=0 1.98009e-07 4.32977e-07 4.88684e-07 5.3455e-07 -7.71878e-08 -1.05544e-07 -1.17859e-07 5.46695e-07 -1.26903e-07 -1.2917e-07
internal_weight=0 11131 7701 7510 7463 16363 15911 15873 7435 15306 15161
internal_count=27494 11131 7701 7510 7463 16363 15911 15873 7435 15306 15161
is_linear=0
shrinkage=0.01


Tree=6
num_leaves=7
num_cat=0
split_feature=2 32 21 21 32 2
split_gain=2.47809e-06 3.73597e-06 2.62859e-06 1.66364e-06 1.05258e-06 1.76968e-06
threshold=157.26542796134086 0.74648863364088747 -0.0029029168122611708 0.00044224186028447339 0.61124002785834264 155.55679376037219
decision_type=2 2 2 2 2 2
left_child=3 -2 -3 4 -1 -6
right_child=1 2 -4 -5 5 -7
leaf_value=0 0 0 -6.7035232255598366e-07 0 1.6600884133237826e-07 0
leaf_weight=1500 671 19 1905 3879 17296 2166
leaf_count=1500 671 19 1905 3879 17296 2166
internal_value=0 -2.90974e-07 -5.5528e-07 3.3619e-08 9.63107e-08 1.24093e-07
internal_weight=0 2595 1924 24841 20962 19462
internal_count=27436 2595 1924 24841 20962 19462
is_linear=0
shrinkage=0.01


Tree=7
num_leaves=16
num_cat=0
split_feature=2 31 23 5 19 5 31 21 31 5 5 31 31 23 23
split_gain=6.46771e-07 2.21673e-06 3.66747e-06 2.86022e-06 1.47393e-06 1.19038e-06 7.44921e-07 6.28595e-07 6.25101e-07 2.80777e-06 1.88404e-06 1.43106e-06 4.74317e-07 1.19616e-06 1.75085e-07
threshold=157.26542796134086 0.11289499999999927 0.00075111739350502613 143.27702776443138 -0.00094808399765889501 155.73399141565696 0.046732499999999538 -0.0023013148637652 0.18869750000000177 144.06831578204171 156.39706620078252 0.11726750000000082 0.38842500000000302 0.0035798489970725643 0.00053788539917678081
decision_type=2 2 2 2 2 2 2 2 2 2 2 2 2 2 2
left_child=1 2 -1 -4 -5 -6 -2 -8 9 -3 11 -11 13 -10 -9
right_child=6 8 3 4 5 -7 7 14 12 10 -12 -13 -14 -15 -16
leaf_value=0 0 0 0 0 3.5896968782676405e-07 0 0 0 0 0 0 -3.2098837276871399e-07 0 3.0893310923755267e-07 -2.7471362693338793e-07
leaf_weight=3372 177 825 100 150 9146 1248 26 21 712 656 247 6549 207 1750 2409
leaf_count=3372 177 825 100 150 9146 1248 26 21 712 656 247 6549 207 1750 2409
internal_value=0 3.8869e-08 1.36037e-07 2.42535e-07 2.94121e-07 3.19273e-07 -1.01191e-07 -2.03235e-07 0 -8.69022e-08 -2.14627e-07 -2.71646e-07 0 1.38792e-07 -2.60022e-07
internal_weight=0 24962 14016 10644 10544 10394 2633 2456 10946 8277 7452 7205 2669 2462 2430
internal_count=27595 24962 14016 10644 10544 10394 2633 2456 10946 8277 7452 7205 2669 2462 2430
is_linear=0
shrinkage=0.01


Tree=8
num_leaves=12
num_cat=0
split_feature=2 26 5 19 24 32 32 32 31 9 0
split_gain=2.6129e-06 3.63405e-06 4.35271e-06 5.0612e-06 6.41492e-06 8.00897e-06 1.26079e-06 2.57181e-06 4.42185e-06 7.68177e-07 6.46081e-07
threshold=157.26542796134086 0.00043963501278749861 155.47251210047639 0.0014227806729777508 0.15745747629243398 1.3042348372564876 0.67197628851642965 2.1672443163425785 0.053500000000002088 1.0000000180025095e-35 10.256390532582325
decision_type=2 2 2 2 2 2 2 2 2 2 2
left_child=1 -1 3 4 -3 -6 -2 8 -8 -10 -11
right_child=6 2 -4 -5 5 -7 7 -9 9 10 -12
leaf_value=0 0 0 0 0 5.6561802763453885e-07 0 0 0 0 0 -7.4898194995300958e-07
leaf_weight=8218 441 3482 1774 386 9339 1904 341 42 17 14.999999999999998 1760
leaf_count=8218 441 3482 1774 386 9339 1904 341 42 17 15 1760
internal_value=0 9.79159e-08 1.89145e-07 2.62259e-07 3.23966e-07 4.41036e-07 -8.87586e-08 -2.59682e-07 -4.35107e-07 -6.8706e-07 -7.21e-07
internal_weight=0 25103 16885 15111 14725 11243 2616 2175 2133 1792 1775
internal_count=27719 25103 16885 15111 14725 11243 2616 2175 2133 1792 1775
is_linear=0
shrinkage=0.01


Tree=9
num_leaves=9
num_cat=0
split_feature=4 23 23 23 4 23 4 23
split_gain=7.81203e-08 1.93168e-06 1.64458e-06 3.50019e-06 1.29601e-06 1.20679e-06 1.34056e-07 1.12682e-08
threshold=147.77091793910532 0.006870545815346127 0.0025888589069020394 0.006701914616254378 159.50670016015283 0.00063888450390927947 147.80353479700884 0.0011343361943190993
decision_type=2 2 2 2 2 2 2 2
left_child=1 5 7 4 6 -1 -4 -2
right_child=2 -3 3 -5 -6 -7 -8 -9
leaf_value=0 0 0 0 0 0 2.7963750310329146e-07 -3.2539187821527439e-07 1.1676117836942334e-08
leaf_weight=299 6612 498 19 1188 182 4111 6211 8265
leaf_count=299 6612 498 19 1188 182 4111 6211 8265
internal_value=0 3.9464e-08 -2.73233e-09 -1.47175e-07 -2.833e-07 2.13384e-07 -3.21567e-07 0
internal_weight=0 4908 22477 7600 6412 4410 6230 14877
internal_count=27385 4908 22477 7600 6412 4410 6230 14877
is_linear=0
shrinkage=0.01


Tree=10
num_leaves=9
num_cat=0
split_feature=1 23 23 5 23 5 23 3
split_gain=1.89054e-07 1.18831e-06 8.69777e-07 7.15252e-07 4.12647e-07 9.57009e-07 1.54967e-07 2.3603e-07
threshold=155.85954132056145 0.00075111739350502613 0.0025888589069020394 141.9757996335542 0.001146479009466276 155.35963516585289 0.00063888450390927947 155.76640625000002
decision_type=2 2 2 2 2 2 2 2
left_child=1 -1 3 -3 -5 -6 -2 -8
right_child=6 2 -4 4 5 -7 7 -9
leaf_value=0 0 0 0 0 2.4804469143056232e-07 0 0 -9.3011789800791581e-08
leaf_weight=3317 184 46 8543 3413 7032 329 21 4581
leaf_count=3317 184 46 8543 3413 7032 329 21 4581
internal_value=0 2.84608e-08 8.41764e-08 1.43939e-07 1.65667e-07 2.13953e-07 -1.05624e-08 -5.90186e-08
internal_weight=0 22680 19363 10820 10774 7361 4786 4602
internal_count=27466 22680 19363 10820 10774 7361 4786 4602
is_linear=0
shrinkage=0.01


Tree=11
num_leaves=7
num_cat=0
split_feature=1 9 9 9 5 5
split_gain=5.36468e-06 4.73242e-06 2.14452e-06 4.78503e-07 2.28522e-07 2.54156e-08
threshold=147.40962592188743 0.046500000000008875 0.0035000000000025015 0.73649999999999249 146.22936156707115 1.0000000180025095e-35
decision_type=2 2 2 2 2 2
left_child=2 -2 -1 4 -3 -4
right_child=1 3 5 -5 -6 -7
leaf_value=0 0 0 0 0 -2.7880275808971099e-07 3.7459594881430857e-07
leaf_weight=171 13811 9.9999999999999982 10.999999999999998 21 9045 4235
leaf_count=171 13811 10 11 21 9045 4235
internal_value=0 -8.33899e-08 2.92262e-07 -2.63962e-07 -2.74083e-07 3.7331e-07
internal_weight=0 22887 4417 9076 9055 4246
internal_count=27304 22887 4417 9076 9055 4246
is_linear=0
shrinkage=0.01


Tree=12
num_leaves=9
num_cat=0
split_feature=4 21 21 21 5 5 5 3
split_gain=3.39092e-07 4.49207e-06 2.02423e-06 1.11898e-06 6.99434e-07 5.9218e-07 3.71721e-07 3.38956e-08
threshold=147.77091793910532 0.0012685256456393106 3.1584918142658481e-05 0.0012093094227761108 147.31484314157754 159.73695190695341 146.88661738470003 1.0000000180025095e-35
decision_type=2 2 2 2 2 2 2 2
left_child=1 4 -2 5 7 6 -4 -1
right_child=2 -3 3 -5 -6 -7 -8 -9
leaf_value=0 0 0 0 0 0 0 -2.0655256628533903e-07 3.6221864226481121e-07
leaf_weight=9.9999999999999982 11674 279 20 562 545 370 9752 4200
leaf_count=10 11674 279 20 562 545 370 9752 4200
internal_value=0 7.53052e-08 -1.54769e-08 -1.39324e-07 3.16967e-07 -1.77538e-07 -1.96908e-07 3.60674e-07
internal_weight=0 5034 22378 10704 4755 10142 9772 4210
internal_count=27412 5034 22378 10704 4755 10142 9772 4210
is_linear=0
shrinkage=0.01


Tree=13
num_leaves=12
num_cat=0
split_feature=5 21 18 30 18 30 21 18 21 2 5
split_gain=8.22773e-07 1.82884e-06 2.67433e-06 2.06884e-06 1.66443e-06 4.43797e-06 2.10907e-06 1.48207e-06 7.57084e-07 5.10381e-07 4.36582e-08
threshold=149.42472595548591 0.00085374475948972938 -0.18250289933712335 0.0003638230165588779 -0.16617764235753893 0.00090159837439240053 -0.0029029168122611708 0.39245003495311442 0.0009217739657187751 159.61260714214123 149.37332711650748
decision_type=2 2 2 2 2 2 2 2 2 2 2
left_child=1 2 -1 -4 -2 -6 -7 10 9 -8 -5
right_child=4 -3 3 7 5 6 8 -9 -10 -11 -12
leaf_value=0 0 0 0 3.0774293466444904e-07 0 0 -6.5088269855573144e-07 0 0 0 0
leaf_weight=439 783 860 847 8762 12731 10.999999999999998 2384 13.999999999999998 448 36 93
leaf_count=439 783 860 847 8762 12731 11 2384 14 448 36 93
internal_value=0 4.26807e-08 1.41367e-07 2.20027e-07 -6.1603e-08 -1.21027e-07 -4.83267e-07 2.76335e-07 -5.54953e-07 -6.29491e-07 3.05316e-07
internal_weight=0 11015 10155 9716 16393 15610 2879 8869 2868 2420 8855
internal_count=27408 11015 10155 9716 16393 15610 2879 8869 2868 2420 8855
is_linear=0
shrinkage=0.01


Tree=14
num_leaves=11
num_cat=0
split_feature=2 18 18 32 23 5 32 23 32 30
split_gain=2.5572e-06 1.9015e-06 5.56147e-06 7.93129e-06 6.57216e-06 6.80702e-06 1.83242e-06 9.60303e-07 5.81734e-07 3.16274e-07
threshold=157.26542796134086 0.025659190871124341 0.21422943289007892 1.3445519600649789 0.0012529305875792981 155.47251210047639 0.67197628851642965 0.00063888450390927947 2.4314132344670454 0.00019926702558698494
decision_type=2 2 2 2 2 2 2 2 2 2
left_child=1 -1 3 4 -3 -6 -2 -8 9 -9
right_child=6 2 -4 -5 5 -7 7 8 -10 -11
leaf_value=0 0 0 0 0 7.6028795945333679e-07 0 0 0 0 -5.4694799538541666e-07
leaf_weight=16571 440 1170 503 1020 5004 674 81 9.9999999999999982 25 2037
leaf_count=16571 440 1170 503 1020 5004 674 81 10 25 2037
internal_value=0 2.4792e-08 1.56671e-07 3.11122e-07 4.76475e-07 6.24138e-07 -3.04461e-07 -4.43549e-07 -5.00765e-07 -5.31265e-07
internal_weight=0 24942 8371 7868 6848 5678 2593 2153 2072 2047
internal_count=27535 24942 8371 7868 6848 5678 2593 2153 2072 2047
is_linear=0
shrinkage=0.01


Tree=15
num_leaves=12
num_cat=0
split_feature=3 32 26 26 5 32 26 26 32 4 5
split_gain=1.28245e-06 2.8808e-06 4.73447e-06 4.54149e-06 3.31929e-06 2.22376e-06 2.16467e-06 4.9437e-06 1.65323e-06 8.68321e-07 9.07044e-07
threshold=155.95059375000002 0.74648863364088747 0.0057923555891620489 0.00034937502965347577 158.83308603720829 1.918658413559041 0.00043963501278749861 0.0018960042754419205 0.57385234803646934 142.99102331791175 155.430800319925
decision_type=2 2 2 2 2 2 2 2 2 2 2
left_child=6 -2 3 -3 5 -5 -1 8 -8 -10 -11
right_child=1 2 -4 4 -6 -7 7 -9 9 10 -12
leaf_value=0 0 0 0 -9.5251775671992435e-07 0 0 0 0 0 3.3751534392446284e-07 0
leaf_weight=7568 1169 800 151 2076 510 44 527 4879 183 9376 323
leaf_count=7568 1169 800 151 2076 510 44 527 4879 183 9376 323
internal_value=0 -1.54796e-07 -3.34997e-07 -5.05156e-07 -7.10954e-07 -8.85202e-07 2.51171e-08 1.22891e-07 2.63958e-07 3.00198e-07 3.17445e-07
internal_weight=0 4750 3581 3430 2630 2120 22856 15288 10409 9882 9699
internal_count=27606 4750 3581 3430 2630 2120 22856 15288 10409 9882 9699
is_linear=0
shrinkage=0.01


Tree=16
num_leaves=11
num_cat=0
split_feature=32 32 1 5 32 1 10 10 4 32
split_gain=9.02273e-07 3.33141e-06 4.35229e-06 2.83818e-06 5.07155e-06 2.56502e-06 1.60054e-06 1.50925e-06 9.85258e-07 5.38314e-07
threshold=1.2740117155962982 1.918658413559041 143.40389764510132 155.55721538926153 0.75605126843651849 159.85528470655717 2.0432278916361985e-05 0.00058878161120106472 143.96590861604219 1.8286426055833358
decision_type=2 2 2 2 2 2 2 2 2 2
left_child=3 2 -2 4 -1 8 -6 -8 -4 -10
right_child=1 -3 5 -5 6 -7 7 -9 9 -11
leaf_value=0 0 0 0 0 0 0 3.2883478921518821e-07 0 -5.3875614778130265e-07 0
leaf_weight=4674 168 537 29 3850 699 160 10331 2531 4314 190
leaf_count=4674 168 537 29 3850 699 160 10331 2531 4314 190
internal_value=0 -1.17894e-07 -2.89765e-07 2.62308e-08 1.28053e-07 -4.23914e-07 2.43816e-07 2.74081e-07 -4.92572e-07 -5.15813e-07
internal_weight=0 5398 4861 22085 18235 4693 13561 12862 4533 4504
internal_count=27483 5398 4861 22085 18235 4693 13561 12862 4533 4504
is_linear=0
shrinkage=0.01


Tree=17
num_leaves=16
num_cat=0
split_feature=5 30 23 5 21 2 10 21 30 23 9 30 3 1 1
split_gain=2.58991e-06 3.6538e-06 6.63864e-06 4.18758e-06 3.94998e-06 3.72456e-06 2.06855e-06 2.01769e-06 1.37545e-06 8.40605e-07 7.97553e-07 6.48158e-07 6.11718e-07 1.47299e-07 2.45839e-08
threshold=155.55721538926153 0.00088654600315255742 0.0010331774299239429 144.27950611927272 -0.0008190832244360796 155.7061751684968 1.3210432278483532e-05 -0.0029029168122611708 0.00035347535241546558 0.00063888450390927947 1.0000000180025095e-35 0.0022741666025634173 155.70978125000002 155.70432995907512 144.80305233364348
decision_type=2 2 2 2 2 2 2 2 2 2 2 2 2 2 2
left_child=1 2 -1 -3 -4 13 -6 -2 -8 -9 -11 12 -12 14 -5
right_child=7 3 4 5 6 -7 8 9 -10 10 11 -13 -14 -15 -16
leaf_value=0 0 0 0 0 0 0 0 0 4.5649824504692804e-07 0 0 0 -3.9903505735248839e-07 0 -3.7530490565037353e-07
leaf_weight=5645 27 1156 333 52 279 156 435 184 8559 46 41 23 4619 11.999999999999998 5739
leaf_count=5645 27 1156 333 52 279 156 435 184 8559 46 41 23 4619 12 5739
internal_value=0 2.59288e-08 1.57934e-07 0 3.29709e-07 -2.65084e-07 3.93963e-07 -2.22217e-07 4.27808e-07 -3.01194e-07 -3.34696e-07 -3.60765e-07 -3.80397e-07 -3.69241e-07 -3.73048e-07
internal_weight=0 22366 15251 7115 9606 5959 9273 4940 8994 4913 4729 4683 4660 5803 5791
internal_count=27306 22366 15251 7115 9606 5959 9273 4940 8994 4913 4729 4683 4660 5803 5791
is_linear=0
shrinkage=0.01


Tree=18
num_leaves=7
num_cat=0
split_feature=21 4 2 23 23 5
split_gain=3.22713e-07 3.69903e-06 1.68017e-06 1.19318e-06 1.24687e-06 3.28046e-07
threshold=2.3293973331330707e-05 155.05870772668973 142.92288614344798 0.00098143321697273782 0.014296111262698089 154.68616765414717
decision_type=2 2 2 2 2 2
left_child=1 3 -2 -1 5 -5
right_child=2 -3 -4 4 -6 -7
leaf_value=0 0 0 -1.1847945775474792e-07 2.9082932304109703e-07 0 0
leaf_weight=3007 317 3101 13278 7810 72 9.9999999999999982
leaf_count=3007 317 3101 13278 7810 72 10
internal_value=0 3.15044e-08 -3.67643e-08 1.87652e-07 2.52483e-07 2.83335e-07
internal_weight=0 14000 13595 10899 7892 7820
internal_count=27595 14000 13595 10899 7892 7820
is_linear=0
shrinkage=0.01


Tree=19
num_leaves=12
num_cat=0
split_feature=23 5 23 9 9 9 21 21 5 10 1
split_gain=3.11881e-07 4.09023e-06 3.67983e-06 3.26218e-06 4.90385e-06 2.81385e-06 1.80374e-06 1.75252e-06 1.47867e-06 1.51247e-06 9.6602e-07
threshold=0.0024967872100945753 144.27950611927272 0.0013648239495463209 0.03249999999999887 0.47350000000000142 0.13149999999998843 -0.00068501986306759236 -0.00060231578897446689 160.42667461599595 2.6425751960130277e-05 144.80305233364348
decision_type=2 2 2 2 2 2 2 2 2 2 2
left_child=2 -2 -1 -3 7 6 -4 -5 9 -8 -9
right_child=1 3 5 4 -6 -7 8 10 -10 -11 -12
leaf_value=0 0 0 0 0 0 0 0 0 0 4.3965712493927198e-07 -5.6483999956882256e-07
leaf_weight=9625 1353 2833 174 1632 70 430 430 32 240 5891 4760
leaf_count=9625 1353 2833 174 1632 70 430 430 32 240 5891 4760
internal_value=0 -4.46225e-08 2.43089e-08 -2.14784e-07 -3.41303e-07 2.29654e-07 3.12867e-07 -4.40556e-07 3.57732e-07 3.9525e-07 -5.44753e-07
internal_weight=0 10680 16790 9327 6494 7165 6735 6424 6561 6321 4792
internal_count=27470 10680 16790 9327 6494 7165 6735 6424 6561 6321 4792
is_linear=0
shrinkage=0.01


Tree=20
num_leaves=6
num_cat=0
split_feature=4 21 21 5 21
split_gain=1.38124e-06 3.77e-06 1.65232e-06 6.17039e-07 3.88375e-07
threshold=147.77091793910532 0.00068460229183494811 3.1584918142658481e-05 147.57793520010824 0.002558861597799634
decision_type=2 2 2 2 2
left_child=1 3 -2 -1 -4
right_child=2 -3 4 -5 -6
leaf_value=3.6052143149270811e-07 0 0 -1.4976072002065472e-07 0 0
leaf_weight=4162 11661 713 10696 164 57
leaf_count=4162 11661 713 10696 164 57
internal_value=0 1.42475e-07 -3.99818e-08 3.32845e-07 -1.3674e-07
internal_weight=0 5039 22414 4326 10753
internal_count=27453 5039 22414 4326 10753
is_linear=0
shrinkage=0.01


Tree=21
num_leaves=12
num_cat=0
split_feature=23 2 23 30 26 26 2 9 31 3 30
split_gain=3.29614e-06 6.23743e-06 5.18819e-06 3.69429e-06 1.68489e-06 1.74731e-06 1.98695e-06 1.51843e-06 9.81486e-07 9.77433e-07 6.60072e-07
threshold=0.0025671871451443231 142.92288614344798 0.0010331774299239429 0.00065658156705941889 0.0019270442759857557 3.337966399465654e-05 161.22410411862589 0.54549999999998999 0.2500850000000005 159.13756250000003 0.00027640736974965271
decision_type=2 2 2 2 2 2 2 2 2 2 2
left_child=2 -2 -1 -3 5 -4 10 8 9 -5 -7
right_child=1 3 4 7 -6 6 -8 -9 -10 -11 -12
leaf_value=0 0 0 0 -4.469201560885868e-07 0 0 0 0 0 0 3.752609381994167e-07
leaf_weight=6578 572 1144 628 7642 504 212 174 52 819 111 9024
leaf_count=6578 572 1144 628 7642 504 212 174 52 819 111 9024
internal_value=0 -1.33956e-07 9.17333e-08 -2.87834e-07 2.50756e-07 2.87785e-07 3.26979e-07 -3.69695e-07 -3.93975e-07 -4.29268e-07 3.61168e-07
internal_weight=0 10340 17120 9768 10542 10038 9410 8624 8572 7753 9236
internal_count=27460 10340 17120 9768 10542 10038 9410 8624 8572 7753 9236
is_linear=0
shrinkage=0.01


Tree=22
num_leaves=12
num_cat=0
split_feature=5 26 21 23 23 23 26 2 26 4 26
split_gain=7.64478e-07 5.76429e-06 4.66311e-06 3.591e-06 7.08286e-07 1.33421e-06 1.47204e-06 1.43862e-06 1.07971e-06 4.91601e-07 1.83093e-07
threshold=149.42472595548591 0.00043963501278749861 0.0011504807207271762 0.014296111262698089 0.006701914616254378 0.0025888589069020394 0.0007388320640122878 159.1136154483477 0.0068584165835539708 150.62947069383884 0.00045255651689645392
decision_type=2 2 2 2 2 2 2 2 2 2 2
left_child=1 -1 3 9 5 -2 -7 8 -8 10 -3
right_child=4 2 -4 -5 -6 6 7 -9 -10 -11 -12
leaf_value=0 0 0 0 0 0 0 -4.1427445396752457e-07 0 0 0 4.6009756722956643e-07
leaf_weight=3401 10613 79 195 80 896 1116 3533 138 12.999999999999998 24 7287
leaf_count=3401 10613 79 195 80 896 1116 3533 138 13 24 7287
internal_value=0 8.14074e-08 2.91148e-07 3.86526e-07 -1.38083e-08 -6.92607e-08 -2.07839e-07 -3.1022e-07 -3.74897e-07 4.46777e-07 4.549e-07
internal_weight=0 11066 7665 7470 16309 15413 4800 3684 3546 7390 7366
internal_count=27375 11066 7665 7470 16309 15413 4800 3684 3546 7390 7366
is_linear=0
shrinkage=0.01


Tree=23
num_leaves=12
num_cat=0
split_feature=4 23 31 32 30 23 31 9 31 31 2
split_gain=6.12809e-06 5.94479e-06 8.19071e-06 8.04303e-06 1.31676e-05 3.13572e-06 3.4214e-06 3.2227e-06 1.97182e-06 1.51142e-06 1.21297e-06
threshold=147.8297220063948 0.0025888589069020394 0.2500850000000005 1.9824867242069897 0.00088654600315255742 0.006870545815346127 0.064582500000001222 0.0035000000000025015 0.38842500000000302 0.086850000000002328 147.55525502264501
decision_type=2 2 2 2 2 2 2 2 2 2 2
left_child=5 -2 3 4 -3 6 -1 -8 10 -6 -9
right_child=1 2 -4 -5 9 -7 7 8 -10 -11 -12
leaf_value=0 0 0 0 0 0 0 0 6.4271001063089311e-07 0 -1.0373836487290683e-06 0
leaf_weight=386 14727 2971 475 252 63 526 147 3761 32 3755 426
leaf_count=386 14727 2971 475 252 63 526 147 3761 32 3755 426
internal_value=0 -1.26433e-07 -3.55525e-07 -5.01247e-07 -6.15663e-07 2.20762e-07 3.46574e-07 4.57265e-07 5.41069e-07 -1.00937e-06 5.84879e-07
internal_weight=0 22243 7516 7041 6789 5278 4752 4366 4219 3818 4187
internal_count=27521 22243 7516 7041 6789 5278 4752 4366 4219 3818 4187
is_linear=0
shrinkage=0.01


Tree=24
num_leaves=9
num_cat=0
split_feature=5 23 23 3 23 23 2 4
split_gain=4.74388e-06 3.05876e-06 4.62521e-06 2.31763e-06 1.65065e-06 1.81809e-06 1.04366e-06 3.53485e-07
threshold=149.42472595548591 0.0025671871451443231 0.006701914616254378 159.13756250000003 0.014296111262698089 0.0010431805489616757 149.65703374480958 150.62947069383884
decision_type=2 2 2 2 2 2 2 2
left_child=4 -2 3 6 5 -1 -3 -7
right_child=1 2 -4 -5 -6 7 -8 -9
leaf_value=0 0 0 0 0 0 2.8666609253562766e-07 -5.1995347681845491e-07 0
leaf_weight=2491 10794 19 880 191 127 8457 4683 27
leaf_count=2491 10794 19 880 191 127 8457 4683 27
internal_value=0 -9.87667e-08 -2.8456e-07 -4.35956e-07 1.67846e-07 2.08657e-07 -4.97056e-07 2.78836e-07
internal_weight=0 16567 5773 4893 11102 10975 4702 8484
internal_count=27669 16567 5773 4893 11102 10975 4702 8484
is_linear=0
shrinkage=0.01


Tree=25
num_leaves=5
num_cat=0
split_feature=23 23 23 23
split_gain=1.31927e-07 2.02517e-06 1.96658e-06 2.90955e-08
threshold=0.0024348833230307108 0.0061159742037108873 0.0010331774299239429 0.0024967872100945753
decision_type=2 2 2 2
left_child=2 3 -1 -2
right_child=1 -3 -4 -5
leaf_value=0 0 0 1.4268642661997668e-07 -1.5803995083949293e-07
leaf_weight=6558 330 2141 9942 8522
leaf_count=6558 330 2141 9942 8522
internal_value=0 -2.6e-08 1.86858e-08 -1.54003e-07
internal_weight=0 10993 16500 8852
internal_count=27493 10993 16500 8852
is_linear=0
shrinkage=0.01


Tree=26
num_leaves=9
num_cat=0
split_feature=21 1 4 26 21 26 21 5
split_gain=6.76461e-07 2.71593e-06 2.41863e-06 1.06482e-06 8.23931e-07 4.98327e-07 5.52157e-07 4.56812e-07
threshold=-4.8630482985675834e-05 146.92349002971176 155.05870772668973 0.00066504224106047759 2.3293973331330707e-05 0.0037670909499280436 0.0015613965116614316 154.68616765414717
decision_type=2 2 2 2 2 2 2 2
left_child=2 -2 3 -1 -3 6 -6 -5
right_child=1 4 -4 7 5 -7 -8 -9
leaf_value=0 0 0 0 2.5143467548426291e-07 -2.0146580380298759e-07 0 0 0
leaf_weight=1494 1921 2420 2679 7255 11383 142 270 11.999999999999998
leaf_count=1494 1921 2420 2679 7255 11383 142 270 12
internal_value=0 -1.36265e-08 7.51736e-08 1.87042e-07 -1.38984e-07 -1.73968e-07 -1.86842e-07 2.38389e-07
internal_weight=0 16136 11440 8761 14215 11795 11653 7267
internal_count=27576 16136 11440 8761 14215 11795 11653 7267
is_linear=0
shrinkage=0.01


Tree=27
num_leaves=12
num_cat=0
split_feature=5 9 23 3 32 32 9 32 23 32 4
split_gain=3.48595e-06 2.5872e-06 2.80634e-06 2.41824e-06 6.63999e-06 4.60895e-06 2.41553e-06 3.57733e-06 1.97007e-06 1.72129e-06 5.87858e-07
threshold=149.42472595548591 0.0035000000000025015 0.010075046721625356 147.50993750000001 0.60570042051374395 1.6031327546787695 0.046500000000008875 1.9824867242069897 0.0020823950842040031 0.72704447738616262 160.8153771928082
decision_type=2 2 2 2 2 2 2 2 2 2 2
left_child=1 -1 3 4 -3 -6 -2 8 -8 -10 -11
right_child=6 2 -4 -5 5 -7 7 -9 9 10 -12
leaf_value=0 0 0 0 0 7.741802622223756e-07 0 0 0 0 -5.744000454649472e-07 0
leaf_weight=468 10106 349 296 6029 3641 274 2164 211 411 3332 60
leaf_count=468 10106 349 296 6029 3641 274 2164 211 411 3332 60
internal_value=0 1.58093e-07 2.24789e-07 2.81508e-07 4.97994e-07 6.63095e-07 -6.66026e-08 -2.25364e-07 -3.3546e-07 -4.77872e-07 -5.53869e-07
internal_weight=0 11057 10589 10293 4264 3915 16284 6178 5967 3803 3392
internal_count=27341 11057 10589 10293 4264 3915 16284 6178 5967 3803 3392
is_linear=0
shrinkage=0.01


Tree=28
num_leaves=8
num_cat=0
split_feature=21 3 1 23 23 21 1
split_gain=4.63238e-06 6.45323e-06 5.39163e-06 3.24272e-06 1.53253e-06 5.35403e-07 1.43628e-07
threshold=0.00046194530940818626 142.62662500000002 147.40962592188743 0.0019884376656950612 0.00077222315610450741 0.00034237297304885766 159.85528470655717
decision_type=2 2 2 2 2 2 2
left_child=2 -2 4 -3 -1 -6 -5
right_child=1 3 -4 6 5 -7 -8
leaf_value=0 0 0 0 -6.4020584348898539e-07 5.2300223826504474e-07 0 0
leaf_weight=247 177 477 19915 3365 2975 226 52
leaf_count=247 177 477 19915 3365 2975 226 52
internal_value=0 -3.11622e-07 5.39023e-08 -5.16944e-07 4.19573e-07 4.87336e-07 -6.32e-07
internal_weight=0 4071 23363 3894 3448 3201 3417
internal_count=27434 4071 23363 3894 3448 3201 3417
is_linear=0
shrinkage=0.01


Tree=29
num_leaves=13
num_cat=0
split_feature=4 18 18 31 9 26 23 19 19 31 2 23
split_gain=3.34406e-06 7.16138e-06 1.17977e-05 7.75678e-06 6.15671e-06 4.23475e-06 1.34255e-06 3.98295e-06 3.48501e-06 9.23822e-06 3.30503e-06 5.50498e-07
threshold=147.77091793910532 -0.14784130567542772 0.17991055034895001 0.065119999999999664 0.0035000000000025015 -8.5570463309385102e-05 0.0025671871451443231 -0.00076575478765757144 0.00056698660011615459 0.2432024999999963 158.58408433037127 0.001146479009466276
decision_type=2 2 2 2 2 2 2 2 2 2 2 2
left_child=1 -1 3 -3 -5 -6 11 -8 9 10 -9 -2
right_child=6 2 -4 4 5 -7 7 8 -10 -11 -12 -13
leaf_value=0 0 0 0 0 0 1.0554447421534726e-06 0 -7.8761285967065754e-07 0 0 0 8.2043916317320594e-08
leaf_weight=464 6617 371 221 140 140 3631 1674 3442 2166 207 130 8178
leaf_count=464 6617 371 221 140 140 3631 1674 3442 2166 207 130 8178
internal_value=0 2.59464e-07 4.82994e-07 7.21679e-07 8.76664e-07 9.7996e-07 0 -1.32742e-07 -2.99291e-07 -4.82831e-07 -7.10803e-07 0
internal_weight=0 4967 4503 4282 3911 3771 22414 7619 5945 3779 3572 14795
internal_count=27381 4967 4503 4282 3911 3771 22414 7619 5945 3779 3572 14795
is_linear=0
shrinkage=0.01


Tree=30
num_leaves=10
num_cat=0
split_feature=26 26 26 10 10 19 10 19 9
split_gain=1.06834e-06 3.98083e-06 2.05325e-06 2.74325e-06 2.28505e-06 1.5575e-06 5.29448e-07 4.44402e-07 1.51305e-08
threshold=0.0018960042754419205 0.0064910115348434617 0.00043351348016277251 0.00047177433815237031 2.5577328833713022e-05 0.0014227806729777508 6.603253435157702e-06 -0.00084572267371321968 0.39899999999998675
decision_type=2 2 2 2 2 2 2 2 2
left_child=2 6 -1 4 -4 7 -2 -6 -8
right_child=1 -3 3 -5 5 -7 8 -9 -10
leaf_value=0 0 0 0 0 0 0 -3.2374747324294648e-07 3.1956199196456089e-07 0
leaf_weight=8775 36 651 803 2658 47 105 5079 9159 49
leaf_count=8775 36 651 803 2658 47 105 5079 9159 49
internal_value=0 -1.17167e-07 3.53992e-08 1.3487e-07 2.23814e-07 2.80986e-07 -3.04208e-07 3.11081e-07 -3.21739e-07
internal_weight=0 5815 21547 12772 10114 9311 5164 9206 5128
internal_count=27362 5815 21547 12772 10114 9311 5164 9206 5128
is_linear=0
shrinkage=0.01


Tree=31
num_leaves=12
num_cat=0
split_feature=23 5 17 8 19 9 26 4 9 17 11
split_gain=4.04533e-06 7.37896e-06 1.0349e-05 6.49897e-06 7.39282e-06 3.66942e-06 1.86913e-06 3.39908e-06 2.04591e-06 7.37497e-07 9.69972e-07
threshold=0.0025888589069020394 141.9757996335542 -9.8332563560207635 0.00058927707687444738 -0.00076575478765757144 0.39899999999998675 0.00043963501278749861 155.7028912198447 0.14549999999999844 14.151105741561354 0.0014999999999929516
decision_type=2 2 2 2 2 2 2 2 2 2 2
left_child=6 -2 -3 -4 -5 -6 -1 8 9 10 -8
right_child=1 2 3 4 5 -7 7 -9 -10 -11 -12
leaf_value=0 0 0 0 0 -8.8817305685902112e-07 0 0 0 0 0 3.8846570197753468e-07
leaf_weight=7622 391 1249 1855 1794 4986 60 792 2198 184 490 5978
leaf_count=7622 391 1249 1855 1794 4986 60 792 2198 184 490 5978
internal_value=0 -1.97841e-07 -3.38944e-07 -5.00403e-07 -6.42899e-07 -8.40688e-07 0 1.39229e-07 2.66023e-07 3.17398e-07 3.44856e-07
internal_weight=0 10335 9944 8695 6840 5046 17264 9642 7444 7260 6770
internal_count=27599 10335 9944 8695 6840 5046 17264 9642 7444 7260 6770
is_linear=0
shrinkage=0.01


Tree=32
num_leaves=3
num_cat=0
split_feature=4 2
split_gain=1.93428e-06 1.17619e-07
threshold=147.45781228098778 146.7755330999405
decision_type=2 2
left_child=-1 -2
right_child=1 -3
leaf_value=1.807946342258649e-07 0 -5.451480739017953e-08
leaf_weight=4168 24 23198
leaf_count=4168 24 23198
internal_value=0 -4.96216e-08
internal_weight=0 23222
internal_count=27390 23222
is_linear=0
shrinkage=0.01


Tree=33
num_leaves=9
num_cat=0
split_feature=2 26 21 5 21 26 21 23
split_gain=3.79811e-07 1.78831e-06 2.54025e-06 1.93552e-06 1.7672e-06 3.75198e-07 1.43097e-07 2.80329e-07
threshold=157.26542796134086 0.00045804989270365159 0.0002079486984231178 155.47251210047639 -0.00071142594531113971 0.00049303564520825126 -0.0023013148637652 0.00062740282587946323
decision_type=2 2 2 2 2 2 2 2
left_child=1 -1 3 4 -3 -6 -2 -8
right_child=6 2 -4 -5 5 -7 7 -9
leaf_value=0 0 0 0 0 0 3.087286057259307e-07 0 -1.3039287598484636e-07
leaf_weight=8452 28 1983 3307 1464 372 9215 102 2507
leaf_count=8452 28 1983 3307 1464 372 9215 102 2507
internal_value=0 3.89913e-08 1.15109e-07 1.90002e-07 2.39577e-07 2.96145e-07 -1.04381e-08 -7.47945e-08
internal_weight=0 24793 16341 13034 11570 9587 2637 2609
internal_count=27430 24793 16341 13034 11570 9587 2637 2609
is_linear=0
shrinkage=0.01


Tree=34
num_leaves=12
num_cat=0
split_feature=32 23 32 1 2 31 23 31 5 32 23
split_gain=3.49505e-06 9.80085e-06 1.02616e-05 9.38177e-06 3.53789e-06 2.19054e-06 1.14401e-06 1.59485e-06 2.40949e-06 4.93551e-06 3.39624e-07
threshold=1.2740117155962982 0.0025888589069020394 1.918658413559041 143.40389764510132 159.1136154483477 0.053500000000002088 0.0011343361943190993 0.38842500000000302 155.51528393720636 0.66776521797681121 0.014296111262698089
decision_type=2 2 2 2 2 2 2 2 2 2 2
left_child=6 -2 3 -3 5 -5 -1 8 9 -8 -11
right_child=1 2 -4 4 -6 -7 7 -9 -10 10 -12
leaf_value=0 0 0 0 0 0 -1.28457789749117e-06 0 0 0 3.1381631412674462e-07 0
leaf_weight=6788 2332 174 441 12.999999999999998 61 2343 1560 180 3012 10584 26
leaf_count=6788 2332 174 441 13 61 2343 1560 180 3012 10584 26
internal_value=0 -2.55253e-07 -6.62175e-07 -9.53468e-07 -1.16733e-06 -1.24422e-06 0 8.62954e-08 1.34313e-07 2.05676e-07 3.08283e-07
internal_weight=0 5364 3032 2591 2417 2356 22150 15362 15182 12170 10610
internal_count=27514 5364 3032 2591 2417 2356 22150 15362 15182 12170 10610
is_linear=0
shrinkage=0.01


Tree=35
num_leaves=12
num_cat=0
split_feature=23 2 9 11 30 23 30 11 2 1 21
split_gain=2.11739e-06 9.70613e-06 8.12643e-06 4.32254e-06 4.51343e-06 3.40581e-06 2.99157e-06 1.30717e-06 1.07802e-06 1.02487e-06 5.69756e-07
threshold=0.0025888589069020394 144.80409874510858 0.027000000000001027 1.0000000180025095e-35 0.003640781586452996 0.0011343361943190993 0.0006639110896890227 0.112000000000009 161.22410411862589 142.14722473433781 0.00070527226773802203
decision_type=2 2 2 2 2 2 2 2 2 2 2
left_child=5 -2 -3 -4 6 -1 -5 8 9 -7 -11
right_child=1 2 3 4 -6 7 -8 -9 -10 10 -12
leaf_value=0 0 0 0 0 0 0 -7.4722549958431062e-07 0 0 2.8470159246797337e-07 0
leaf_weight=7580 1317 2261 353 571 56 36 5691 68 173 9112 339
leaf_count=7580 1317 2261 353 571 56 36 5691 68 173 9112 339
internal_value=0 -1.4372e-07 -3.63819e-07 -5.46842e-07 -6.19803e-07 1.41211e-09 -6.77986e-07 1.87117e-07 2.20886e-07 2.47069e-07 2.68551e-07
internal_weight=0 10249 8932 6671 6318 17308 6262 9728 9660 9487 9451
internal_count=27557 10249 8932 6671 6318 17308 6262 9728 9660 9487 9451
is_linear=0
shrinkage=0.01


Tree=36
num_leaves=5
num_cat=0
split_feature=5 1 3 3
split_gain=2.33109e-06 1.30526e-07 4.54764e-08 3.48877e-08
threshold=149.42472595548591 150.21855340642284 149.50953125000004 1.0000000180025095e-35
decision_type=2 2 2 2
left_child=1 3 -2 -1
right_child=2 -3 -4 -5
leaf_value=0 0 0 -7.6143809719768264e-08 1.2064245848769168e-07
leaf_weight=10.999999999999998 19 13.999999999999998 16339 10956
leaf_count=11 19 14 16339 10956
internal_value=0 1.14084e-07 -7.42505e-08 1.19256e-07
internal_weight=0 10981 16358 10967
internal_count=27339 10981 16358 10967
is_linear=0
shrinkage=0.01


Tree=37
num_leaves=10
num_cat=0
split_feature=2 21 32 32 23 21 23 32 3
split_gain=2.13542e-06 3.01438e-06 2.75119e-06 3.97815e-06 1.44568e-06 1.19493e-06 1.34452e-06 1.2874e-06 1.55284e-06
threshold=157.26542796134086 2.3293973331330707e-05 0.73068104353310259 2.1672443163425785 0.00063888450390927947 -0.00071142594531113971 0.00047526788026872464 0.5516915124220404 143.81262500000003
decision_type=2 2 2 2 2 2 2 2 2
left_child=1 5 -2 4 -4 -1 -7 -8 -9
right_child=2 -3 3 -5 -6 6 7 8 -10
leaf_value=0 0 0 0 0 -7.2775872361836351e-07 0 0 0 3.1155102149137816e-07
leaf_weight=2234 581 12195 66 44 1867 751 332 331 9081
leaf_count=2234 581 12195 66 44 1867 751 332 331 9081
internal_value=0 4.10794e-08 -2.58901e-07 -4.75251e-07 -6.60889e-07 1.64271e-07 2.10034e-07 2.47613e-07 2.77764e-07
internal_weight=0 24924 2558 1977 1933 12729 10495 9744 9412
internal_count=27482 24924 2558 1977 1933 12729 10495 9744 9412
is_linear=0
shrinkage=0.01


Tree=38
num_leaves=7
num_cat=0
split_feature=21 4 4 23 23 23
split_gain=2.43222e-06 4.18051e-06 3.14471e-06 1.43741e-06 1.91445e-06 8.24537e-07
threshold=3.1584918142658481e-05 155.05870772668973 147.77091793910532 0.00098143321697273782 0.014296111262698089 0.0024967872100945753
decision_type=2 2 2 2 2 2
left_child=1 3 -2 -1 -5 -4
right_child=2 -3 5 4 -6 -7
leaf_value=0 0 0 0 3.2092965902385296e-07 0 -3.7310063322393147e-07
leaf_weight=3126 2405 3131 6757 8000 73 4090
leaf_count=3126 2405 3131 6757 8000 73 4090
internal_value=0 7.02695e-08 -1.14078e-07 2.08918e-07 2.79913e-07 -2.11872e-07
internal_weight=0 14330 13252 11199 8073 10847
internal_count=27582 14330 13252 11199 8073 10847
is_linear=0
shrinkage=0.01


Tree=39
num_leaves=12
num_cat=0
split_feature=5 14 23 18 18 32 23 18 32 26 14
split_gain=5.94926e-06 1.06231e-05 8.84495e-06 1.0595e-05 1.1719e-05 3.40901e-06 3.18199e-06 7.93603e-06 7.34711e-06 1.04633e-05 3.30933e-06
threshold=149.42472595548591 0.64912063712232548 0.0011099095102670065 -0.18250289933712335 0.17076885223221441 2.0575286262233572 0.0025204883709365944 -0.16617764235753893 0.72704447738616262 0.0007388320640122878 -0.69877772143587258
decision_type=2 2 2 2 2 2 2 2 2 2 2
left_child=1 2 -1 -4 5 -5 -2 -8 -9 -10 -11
right_child=6 -3 3 4 -6 -7 7 8 9 10 -12
leaf_value=0 0 0 0 8.8504432459560313e-07 0 0 0 0 0 0 -1.0289800814071982e-06
leaf_weight=2422 10396 1573 461 6302 272 85 754 719 1080 183 3212
leaf_count=2422 10396 1573 461 6302 272 85 754 719 1080 183 3212
internal_value=0 1.9381e-07 3.93803e-07 5.76241e-07 7.17036e-07 8.48238e-07 -1.04185e-07 -2.88651e-07 -4.98194e-07 -6.7249e-07 -9.50928e-07
internal_weight=0 11115 9542 7120 6659 6387 16344 5948 5194 4475 3395
internal_count=27459 11115 9542 7120 6659 6387 16344 5948 5194 4475 3395
is_linear=0
shrinkage=0.01


Tree=40
num_leaves=13
num_cat=0
split_feature=2 32 32 26 26 32 32 30 9 30 30 30
split_gain=4.31257e-07 1.76396e-06 8.12652e-07 6.70861e-07 1.56533e-06 1.5068e-06 1.47518e-06 1.35011e-06 4.55729e-07 2.67257e-07 1.62347e-09 7.51674e-08
threshold=157.26542796134086 0.67197628851642965 2.1672443163425785 0.00043351348016277251 0.0018960042754419205 0.69137169713873992 1.3378616125566347 0.0017653308942748649 0.00099999999999056421 0.0002273838235903548 0.0011616344171654993 0.00045417959969623335
decision_type=2 2 2 2 2 2 2 2 2 2 2 2
left_child=3 -2 8 -1 5 -5 7 -7 -3 -10 11 -6
right_child=1 2 -4 4 10 6 -8 -9 9 -11 -12 -13
leaf_value=0 0 0 0 0 0 2.8253406305316979e-07 0 0 0 -4.290940278045069e-07 0 -5.1823275185694787e-08
leaf_weight=8072 422 31 45 1748 45 8228 1465 77 53 2026 2355 2859
leaf_count=8072 422 31 45 1748 45 8228 1465 77 53 2026 2355 2859
internal_value=0 -1.29356e-07 -3.19143e-07 0 6.32347e-08 1.39335e-07 1.95729e-07 2.50658e-07 -3.77535e-07 -4.08136e-07 0 -7.47655e-09
internal_weight=0 2577 2155 24849 16777 11518 9770 8305 2110 2079 5259 2904
internal_count=27426 2577 2155 24849 16777 11518 9770 8305 2110 2079 5259 2904
is_linear=0
shrinkage=0.01


Tree=41
num_leaves=5
num_cat=0
split_feature=5 4 3 3
split_gain=3.00334e-07 7.75249e-08 7.10922e-09 5.11602e-09
threshold=149.42472595548591 150.62947069383884 149.50953125000004 1.0000000180025095e-35
decision_type=2 2 2 2
left_child=1 3 -2 -1
right_child=2 -3 -4 -5
leaf_value=0 0 0 -1.242468021403359e-08 5.726022980333262e-08
leaf_weight=10.999999999999998 15.999999999999998 33 16335 11128
leaf_count=11 16 33 16335 11128
internal_value=0 5.02606e-08 -1.05235e-08 5.68293e-08
internal_weight=0 11172 16351 11139
internal_count=27523 11172 16351 11139
is_linear=0
shrinkage=0.01


Tree=42
num_leaves=9
num_cat=0
split_feature=4 21 23 17 23 17 21 23
split_gain=1.01298e-06 6.07716e-06 5.94825e-06 4.95218e-06 3.43529e-06 2.23725e-06 1.83981e-06 1.13558e-06
threshold=147.80353479700884 0.00056398363581679092 0.0025888589069020394 -8.2982610152370686 0.006701914616254378 19.518730188976299 0.0012093094227761108 0.00054940685185481163
decision_type=2 2 2 2 2 2 2 2
left_child=1 7 -2 -4 5 6 -5 -1
right_child=2 -3 3 4 -6 -7 -8 -9
leaf_value=0 0 0 0 -6.2877137591464465e-07 0 0 0 4.2767433921999725e-07
leaf_weight=208 14823 816 1165 4861 1042 161 309 4056
leaf_count=208 14823 816 1165 4861 1042 161 309 4056
internal_value=0 6.37475e-08 -6.00567e-08 -2.99343e-07 -4.28588e-07 -5.3294e-07 -5.79777e-07 3.83867e-07
internal_weight=0 5080 22361 7538 6373 5331 5170 4264
internal_count=27441 5080 22361 7538 6373 5331 5170 4264
is_linear=0
shrinkage=0.01


Tree=43
num_leaves=10
num_cat=0
split_feature=1 26 19 19 32 23 32 32 23
split_gain=9.75075e-07 5.07301e-06 3.482e-06 3.54652e-06 6.22698e-06 3.19923e-06 5.8789e-08 3.48268e-07 4.9861e-07
threshold=157.28366245665651 0.00043963501278749861 0.0013317686264980163 -0.00011866688124886174 1.28609050241272 0.0012790066116017344 2.1672443163425785 0.61124002785834264 0.00062740282587946323
decision_type=2 2 2 2 2 2 2 2 2
left_child=1 -1 3 -3 5 -5 7 -2 -9
right_child=6 2 -4 4 -6 -7 -8 8 -10
leaf_value=0 0 0 0 0 0 6.5041590811518976e-07 0 0 -2.0677146646640418e-07
leaf_weight=8080 291 7923 477 1843 1244 5319 41 80 2118
leaf_count=8080 291 7923 477 1843 1244 5319 41 80 2118
internal_value=0 6.25949e-08 1.89702e-07 2.41582e-07 3.94407e-07 5.1915e-07 0 -4.8597e-08 -1.36077e-07
internal_weight=0 24886 16806 16329 8406 7162 2530 2489 2198
internal_count=27416 24886 16806 16329 8406 7162 2530 2489 2198
is_linear=0
shrinkage=0.01


Tree=44
num_leaves=14
num_cat=0
split_feature=5 18 30 31 21 30 19 3 18 10 31 11 11
split_gain=3.46344e-06 4.22696e-06 4.95778e-06 6.6471e-06 6.83252e-06 4.72661e-06 2.52707e-06 4.00709e-06 1.65119e-05 7.81939e-06 5.40616e-06 1.3822e-08 3.96749e-07
threshold=149.42472595548591 -0.1743960820158463 0.00089693624716372566 0.2500850000000005 0.0010402954546460913 0.0022741666025634173 0.0010821614957460606 147.50993750000001 -0.14201507315358694 2.7226999503818534e-05 0.065635000000001414 0.035000000000010807 1.0000000180025095e-35
decision_type=2 2 2 2 2 2 2 2 2 2 2 2 2
left_child=6 -2 11 4 5 -4 7 8 -1 -10 -11 12 -3
right_child=1 2 3 -5 -6 -7 -8 -9 9 10 -12 -13 -14
leaf_value=0 0 0 -1.1448875772739025e-06 0 0 0 0 0 0 0 1.0300796687331231e-06 0 -6.3678074892254792e-08
leaf_weight=492 689 781 2344 244 337 18 477 6289 184 198 3430 1865 10125
leaf_count=492 689 781 2344 244 337 18 477 6289 184 198 3430 1865 10125
internal_value=0 -1.42638e-07 -2.194e-07 -6.52261e-07 -8.42706e-07 -1.04914e-06 3.37485e-08 1.58258e-07 3.93363e-07 7.79632e-07 9.24208e-07 0 -1.12576e-08
internal_weight=0 16403 15714 2943 2699 2362 11070 10593 4304 3812 3628 12771 10906
internal_count=27473 16403 15714 2943 2699 2362 11070 10593 4304 3812 3628 12771 10906
is_linear=0
shrinkage=0.01


Tree=45
num_leaves=5
num_cat=0
split_feature=2 4 5 3
split_gain=1.27835e-06 7.28755e-07 1.10759e-07 4.6401e-08
threshold=157.26542796134086 147.80353479700884 147.57793520010824 1.0000000180025095e-35
decision_type=2 2 2 2
left_child=1 2 3 -1
right_child=-2 -3 -4 -5
leaf_value=0 -2.0727446197928553e-07 0 0 1.4696092024468867e-07
leaf_weight=11.999999999999998 2601 19832 214 4846
leaf_count=12 2601 19832 214 4846
internal_value=0 2.54073e-08 1.32427e-07 1.43489e-07
internal_weight=0 24904 5072 4858
internal_count=27505 24904 5072 4858
is_linear=0
shrinkage=0.01


Tree=46
num_leaves=9
num_cat=0
split_feature=21 30 23 30 21 23 23 21
split_gain=1.32619e-06 3.03255e-06 2.03436e-06 1.84886e-06 3.54836e-06 1.56908e-06 3.07025e-07 1.48302e-07
threshold=3.1584918142658481e-05 0.00082615010423561666 0.0029086546374817034 0.00036046198960238931 -0.00064063615836171359 0.010075046721625356 0.00046042740738393774 2.8756509793307429e-05
decision_type=2 2 2 2 2 2 2 2
left_child=3 -2 -3 -1 -5 6 -6 -8
right_child=1 2 -4 4 5 -7 7 -9
leaf_value=0 0 0 -4.1831983413277589e-07 0 0 0 3.0286262024467534e-07 0
leaf_weight=2542 8657 1232 3274 2686 106 67 8814 74
leaf_count=2542 8657 1232 3274 2686 106 67 8814 74
internal_value=0 -7.0961e-08 -2.86365e-07 6.81347e-08 1.46238e-07 2.5862e-07 2.91252e-07 2.9882e-07
internal_weight=0 13163 4506 14289 11747 9061 8994 8888
internal_count=27452 13163 4506 14289 11747 9061 8994 8888
is_linear=0
shrinkage=0.01


Tree=47
num_leaves=15
num_cat=0
split_feature=2 19 19 10 4 26 23 9 9 23 30 4 30 30
split_gain=2.02977e-06 1.33562e-06 4.53973e-06 1.77949e-06 1.5943e-06 1.10249e-06 9.46508e-07 9.61222e-07 9.89795e-07 3.26457e-07 1.0788e-05 1.81435e-06 1.49487e-06 2.60385e-07
threshold=157.26542796134086 0.00016504028793741675 0.0014227806729777508 1.2814926929858337e-05 157.34304147360669 3.337966399465654e-05 0.00063888450390927947 0.47350000000000142 0.00099999999999056421 0.0019190612186665357 0.0011849400575106399 157.34304147360669 0.00047425999451761891 0.00019926702558698494
decision_type=2 2 2 2 2 2 2 2 2 2 2 2 2 2
left_child=1 9 3 -3 5 -5 -2 8 -8 -1 11 12 -11 -10
right_child=6 2 -4 4 -6 -7 7 -9 13 10 -12 -13 -14 -15
leaf_value=0 0 0 0 0 0 3.9244424469020816e-07 0 0 0 0 0 0 -5.6764639614149138e-07 -4.6606017864412847e-07
leaf_weight=9339 117 204 504 868 100 6721 42 15.999999999999998 17 153 2383 115 4476 2388
leaf_count=9339 117 204 504 868 100 6721 42 16 17 153 2383 115 4476 2388
internal_value=0 0 1.26117e-07 2.72827e-07 3.15518e-07 3.491e-07 -2.80471e-07 -3.47598e-07 -4.01113e-07 0 -6.76784e-08 -4.84013e-07 -5.28471e-07 -4.52605e-07
internal_weight=0 24863 8397 7893 7689 7589 2580 2463 2447 16466 7127 4744 4629 2405
internal_count=27443 24863 8397 7893 7689 7589 2580 2463 2447 16466 7127 4744 4629 2405
is_linear=0
shrinkage=0.01


Tree=48
num_leaves=9
num_cat=0
split_feature=23 4 30 21 23 30 30 4
split_gain=9.84028e-08 2.56927e-06 4.04103e-06 3.99203e-06 5.71996e-07 5.07055e-07 1.59766e-07 8.8331e-08
threshold=0.0024348833230307108 143.53176701296201 0.00079607999877863856 -0.002014655852747706 0.0010331774299239429 0.00032529233067793878 0.00081055411847736139 161.72300333245946
decision_type=2 2 2 2 2 2 2 2
left_child=4 -2 -3 -4 -1 -6 -5 -8
right_child=1 2 3 6 5 -7 7 -9
leaf_value=0 0 0 0 0 0 1.0762159779103072e-07 -3.9525509047619349e-07 0
leaf_weight=6466 640 2923 296 170 594 9316 7008 13.999999999999998
leaf_count=6466 640 2923 296 170 594 9316 7008 14
internal_value=0 -2.98399e-08 -1.60071e-07 -2.99314e-07 0 7.59719e-08 -3.85721e-07 -3.93265e-07
internal_weight=0 11051 10411 7488 16376 9910 7192 7022
internal_count=27427 11051 10411 7488 16376 9910 7192 7022
is_linear=0
shrinkage=0.01


Tree=49
num_leaves=11
num_cat=0
split_feature=21 23 3 17 32 30 1 17 23 17
split_gain=1.79507e-06 3.96298e-06 6.01828e-06 5.93265e-06 4.5331e-06 3.75289e-06 2.71277e-06 1.09119e-06 1.07215e-06 3.41887e-07
threshold=-1.0000000180025095e-35 0.0029412859991635189 142.37903125000003 -6.3361080127025486 1.8286426055833358 0.00076828828003908231 157.28366245665651 9.4983668768320637 0.00036339446739599258 -29.496502714378355
decision_type=2 2 2 2 2 2 2 2 2 2
left_child=6 -2 -3 -4 5 -5 7 8 -1 -10
right_child=1 2 3 4 -6 -7 -8 -9 9 -11
leaf_value=0 0 0 0 0 0 -9.4594364183808863e-07 0 0 0 2.3992160959214475e-07
leaf_weight=304 9953 171 550 753 210 2812 1124 810 365 10507
leaf_count=304 9953 171 550 753 210 2812 1124 810 365 10507
internal_value=0 -8.17142e-08 -3.31054e-07 -5.03062e-07 -6.68643e-07 -7.74959e-07 7.95794e-08 1.71927e-07 2.03629e-07 2.29097e-07
internal_weight=0 14449 4496 4325 3775 3565 13110 11986 11176 10872
internal_count=27559 14449 4496 4325 3775 3565 13110 11986 11176 10872
is_linear=0
shrinkage=0.01


Tree=50
num_leaves=10
num_cat=0
split_feature=2 32 32 23 32 32 23 5 23
split_gain=6.33047e-07 1.67492e-06 1.5733e-06 1.01259e-06 5.15844e-07 1.79182e-06 1.22965e-06 1.30789e-06 1.67377e-06
threshold=157.26542796134086 2.1672443163425785 0.66776521797681121 0.00063888450390927947 1.2740117155962982 0.82405335104089972 0.014296111262698089 155.55721538926153 0.0011099095102670065
decision_type=2 2 2 2 2 2 2 2 2
left_child=4 2 -2 -4 5 -1 7 8 -7
right_child=1 -3 3 -5 -6 6 -8 -9 -10
leaf_value=0 0 0 0 -4.8678142696861246e-07 0 0 0 0 2.8454882880454183e-07
leaf_weight=7552 412 44 85 2065 4779 3314 53 1135 8051
leaf_count=7552 412 44 85 2065 4779 3314 53 1135 8051
internal_value=0 -1.5585e-07 -3.00124e-07 -4.24852e-07 0 5.06528e-08 1.35584e-07 1.6822e-07 2.06474e-07
internal_weight=0 2606 2562 2150 24884 20105 12553 12500 11365
internal_count=27490 2606 2562 2150 24884 20105 12553 12500 11365
is_linear=0
shrinkage=0.01


Tree=51
num_leaves=6
num_cat=0
split_feature=2 21 21 1 2
split_gain=1.79297e-06 4.30549e-07 1.46715e-06 4.57178e-07 5.27307e-07
threshold=157.26542796134086 1.4286277735096328e-05 -0.00071142594531113971 144.43412639948261 155.55679376037219
decision_type=2 2 2 2 2
left_child=1 2 -1 -4 -5
right_child=-2 -3 3 4 -6
leaf_value=0 -2.6073945507133746e-07 0 0 1.8138505147945702e-07 0
leaf_weight=2213 2637 12357 416 8760 1119
leaf_count=2213 2637 12357 416 8760 1119
internal_value=0 0 5.86694e-08 1.35767e-07 1.54391e-07
internal_weight=0 24865 12508 10295 9879
internal_count=27502 24865 12508 10295 9879
is_linear=0
shrinkage=0.01


Tree=52
num_leaves=8
num_cat=0
split_feature=23 2 23 23 2 2 2
split_gain=6.90563e-07 5.87232e-06 4.83207e-06 2.07475e-06 2.08288e-06 9.67756e-07 2.74942e-07
threshold=0.0024348833230307108 144.80409874510858 0.0011584178095714712 0.0077032015857599187 159.1136154483477 161.22410411862589 142.11835328752383
decision_type=2 2 2 2 2 2 2
left_child=2 -2 -1 4 -3 6 -4
right_child=1 3 5 -5 -6 -7 -8
leaf_value=0 0 -3.4655017821350418e-07 0 0 0 0 2.7651534081068584e-07
leaf_weight=7700 1380 8495 38 961 223 145 8622
leaf_count=7700 1380 8495 38 961 223 145 8622
internal_value=0 -3.95114e-08 5.60165e-08 -2.49905e-07 -3.05179e-07 2.46493e-07 2.70093e-07
internal_weight=0 11059 16505 9679 8718 8805 8660
internal_count=27564 11059 16505 9679 8718 8805 8660
is_linear=0
shrinkage=0.01


Tree=53
num_leaves=14
num_cat=0
split_feature=2 18 22 10 11 0 18 18 9 32 32 2 2
split_gain=2.39897e-06 7.94865e-06 1.1776e-05 5.25733e-06 4.97589e-06 6.03929e-06 7.6971e-07 3.94694e-06 3.42579e-06 1.33856e-06 8.69499e-07 4.22403e-08 5.12979e-07
threshold=147.51248935389609 0.17991055034895001 -0.0013417794909388993 2.0432278916361985e-05 0.0019999999999953393 82.439728640996108 0.024390095208204347 -0.16617764235753893 0.046000000000006487 2.4314132344670454 0.63619771875131226 157.18066086937378 148.30433420594804
decision_type=2 2 2 2 2 2 2 2 2 2 2 2 2
left_child=1 2 -1 -4 -5 -6 7 -2 -9 10 -10 12 -8
right_child=6 -3 3 4 5 -7 11 8 9 -11 -12 -13 -14
leaf_value=0 0 0 0 0 1.1559874045362117e-06 0 0 0 0 0 -4.5271205985552666e-07 0 9.88746638637959e-08
leaf_weight=670 939 243 140 303 2873 407 850 8924 238 20 5050 1177 5679
leaf_count=670 939 243 140 303 2873 407 850 8924 238 20 5050 1177 5679
internal_value=0 2.27471e-07 4.85316e-07 7.70839e-07 8.74143e-07 9.93176e-07 0 -7.12282e-08 -1.82045e-07 -3.91651e-07 -4.23418e-07 0 2.54349e-08
internal_weight=0 4636 4393 3723 3583 3280 22877 15171 14232 5308 5288 7706 6529
internal_count=27513 4636 4393 3723 3583 3280 22877 15171 14232 5308 5288 7706 6529
is_linear=0
shrinkage=0.01


Tree=54
num_leaves=12
num_cat=0
split_feature=10 3 21 10 4 21 5 10 10 1 21
split_gain=7.06504e-07 5.77672e-06 1.58004e-06 1.08298e-06 7.18937e-07 1.63666e-06 8.62912e-07 6.80132e-07 5.30027e-07 5.61489e-07 4.174e-07
threshold=0.00030634551449403361 142.88978125000003 -0.002014655852747706 0.0023423093143916563 157.29544156218131 -0.00071142594531113971 142.7605680187668 1.2814926929858337e-05 0.00033624423647146722 142.89169451319287 0.0010402954546460913
decision_type=2 2 2 2 2 2 2 2 2 2 2
left_child=4 -2 -3 8 5 -1 -7 -8 -4 -10 -9
right_child=1 2 3 -5 -6 6 7 10 9 -11 -12
leaf_value=0 0 0 0 0 0 0 0 1.8678201764452375e-07 0 -3.22912159664995e-07 0
leaf_weight=456 425 304 946 109 1961 223 621 12371 12.999999999999998 9818 168
leaf_count=456 425 304 946 109 1961 223 621 12371 13 9818 168
internal_value=0 -7.79906e-08 -2.40699e-07 -2.72154e-07 0 7.20756e-08 1.32669e-07 1.56385e-07 -2.91317e-07 -3.13725e-07 1.76327e-07
internal_weight=0 11615 11190 10886 15800 13839 13383 13160 10777 9831 12539
internal_count=27415 11615 11190 10886 15800 13839 13383 13160 10777 9831 12539
is_linear=0
shrinkage=0.01


Tree=55
num_leaves=12
num_cat=0
split_feature=21 4 31 4 17 32 10 26 19 32 10
split_gain=8.15967e-06 6.14377e-06 5.79988e-06 1.39793e-05 7.81237e-06 4.75505e-06 4.00856e-06 3.89357e-06 5.19839e-06 4.18263e-06 3.86506e-06
threshold=2.3293973331330707e-05 155.05870772668973 0.11844500000000212 143.53176701296201 14.933917548139862 0.54253582626514951 8.9156925764496107e-05 0.00061982631920263641 -0.0022813225000132818 0.58106755452823122 2.6425751960130277e-05
decision_type=2 2 2 2 2 2 2 2 2 2 2
left_child=1 7 -2 -4 5 -5 -7 -1 -9 -10 -11
right_child=2 -3 3 4 -6 6 -8 8 9 10 -12
leaf_value=0 0 0 0 0 0 0 -1.1041727143134601e-06 0 0 0 5.6427272817859648e-07
leaf_weight=2685 8254 3091 313 211 537 602 3606 114 323 302 7484
leaf_count=2685 8254 3091 313 211 537 602 3606 114 323 302 7484
internal_value=0 6.25014e-08 -2.37263e-07 -5.04523e-07 -7.43417e-07 -8.92527e-07 -9.74442e-07 2.4766e-07 3.58762e-07 4.41161e-07 5.06374e-07
internal_weight=0 13999 13523 5269 4956 4419 4208 10908 8223 8109 7786
internal_count=27522 13999 13523 5269 4956 4419 4208 10908 8223 8109 7786
is_linear=0
shrinkage=0.01


Tree=56
num_leaves=13
num_cat=0
split_feature=5 26 27 0 0 26 26 0 4 0 3 3
split_gain=8.44597e-07 7.23124e-06 3.31176e-06 1.47477e-06 1.44889e-06 6.05295e-07 8.08029e-07 6.08269e-07 5.37616e-07 5.41586e-08 3.97354e-09 2.91695e-07
threshold=155.55721538926153 0.00043963501278749861 0.007462473795199715 26.526923042690097 93.421911157743565 0.0003779169227881315 0.0068584165835539708 9.3036250312844775 155.93075153068187 29.39242190874273 154.99953125000005 142.88978125000003
decision_type=2 2 2 2 2 2 2 2 2 2 2 2
left_child=1 10 3 -3 9 -2 7 -7 -9 -5 11 -1
right_child=5 2 -4 4 -6 6 -8 8 -10 -11 -12 -13
leaf_value=0 0 0 0 0 0 0 0 0 -2.758762354918597e-07 3.7386823172057324e-07 0 -6.4841609772106759e-08
leaf_weight=98 1293 3812 222 638 226 34 63 89 3423 10244 274 7032
leaf_count=98 1293 3812 222 638 226 34 63 89 3423 10244 274 7032
internal_value=0 5.95081e-08 2.30278e-07 2.75705e-07 3.39669e-07 -3.0694e-08 -1.34351e-07 -2.02869e-07 -2.42637e-07 3.62057e-07 0 -7.46509e-09
internal_weight=0 22546 15142 14920 11108 4902 3609 3546 3512 10882 7404 7130
internal_count=27448 22546 15142 14920 11108 4902 3609 3546 3512 10882 7404 7130
is_linear=0
shrinkage=0.01


Tree=57
num_leaves=12
num_cat=0
split_feature=5 19 23 11 21 2 18 19 1 19 23
split_gain=2.02727e-06 4.13883e-06 5.49503e-06 6.26466e-06 4.40712e-06 3.818e-06 1.55915e-06 3.3366e-06 7.89077e-06 1.6343e-06 1.63816e-06
threshold=149.42472595548591 -0.0011110888125698678 0.0025671871451443231 0.0019999999999953393 0.0012093094227761108 159.1136154483477 0.17991055034895001 -0.0022813225000132818 146.92349002971176 -0.0011110888125698678 0.00077222315610450741
decision_type=2 2 2 2 2 2 2 2 2 2 2
left_child=6 -2 -3 -4 5 -5 7 -1 9 -9 -11
right_child=1 2 3 4 -6 -7 -8 8 -10 10 -12
leaf_value=0 0 0 0 -7.9278231384839292e-07 0 0 0 0 0 0 7.6449901403338937e-07
leaf_weight=99 734 10520 420 4159 370 170 374 303 7368 111 2749
leaf_count=99 734 10520 420 4159 370 170 374 303 7368 111 2749
internal_value=0 -1.1101e-07 -1.98408e-07 -4.77075e-07 -6.17457e-07 -7.18077e-07 9.31735e-09 1.21478e-07 2.1582e-07 6.36016e-07 7.10285e-07
internal_weight=0 16373 15639 5119 4699 4329 11004 10630 10531 3163 2860
internal_count=27377 16373 15639 5119 4699 4329 11004 10630 10531 3163 2860
is_linear=0
shrinkage=0.01


Tree=58
num_leaves=9
num_cat=0
split_feature=4 21 5 21 21 5 21 3
split_gain=6.85923e-07 5.45108e-06 5.73193e-07 3.79542e-07 3.83572e-07 2.05578e-07 1.80483e-07 1.30344e-07
threshold=147.77091793910532 0.00068460229183494811 147.57793520010824 -0.00029478375197331745 0.002558861597799634 146.22936156707115 3.1584918142658481e-05 1.0000000180025095e-35
decision_type=2 2 2 2 2 2 2 2
left_child=1 2 7 -2 5 -5 -7 -1
right_child=3 -3 -4 4 -6 6 -8 -9
leaf_value=0 0 0 0 0 0 0 -1.0342470896137518e-07 4.0740674517006253e-07
leaf_weight=11.999999999999998 4393 712 160 18 58 7433 10743 4121
leaf_count=12 4393 712 160 18 58 7433 10743 4121
internal_value=0 1.17064e-07 3.78079e-07 0 -4.56007e-08 -6.4763e-08 -7.30029e-08 4.0292e-07
internal_weight=0 5005 4293 22645 18252 18194 18176 4133
internal_count=27650 5005 4293 22645 18252 18194 18176 4133
is_linear=0
shrinkage=0.01


Tree=59
num_leaves=12
num_cat=0
split_feature=4 23 23 31 30 26 26 31 31 30 23
split_gain=7.43227e-07 3.15865e-06 4.69711e-06 8.33791e-06 1.18946e-05 1.84418e-06 4.31067e-07 1.25002e-06 1.96181e-06 1.1807e-07 7.16048e-09
threshold=147.8297220063948 0.0024967872100945753 0.0063847299407235889 0.2500850000000005 0.00082615010423561666 0.0068584165835539708 -8.5570463309385102e-05 0.1763600000000006 0.063577499999998552 0.00031804319719008246 0.00036339446739599258
decision_type=2 2 2 2 2 2 2 2 2 2 2
left_child=6 -2 3 4 -3 -6 -1 8 -8 -10 -11
right_child=1 2 -4 -5 5 -7 7 -9 9 10 -12
leaf_value=0 0 0 0 0 -9.1495836812226602e-07 0 0 0 0 0 3.3284364581018902e-07
leaf_weight=171 14527 2673 1339 243 3664 11.999999999999998 354 1244 19 10.999999999999998 3401
leaf_count=171 14527 2673 1339 243 3664 12 354 1244 19 11 3401
internal_value=0 -5.75271e-08 -2.21802e-07 -3.61165e-07 -5.16481e-07 -8.8558e-07 0 9.25804e-08 2.10739e-07 3.25832e-07 3.31991e-07
internal_weight=0 22458 7931 6592 6349 3676 5200 5029 3785 3431 3412
internal_count=27658 22458 7931 6592 6349 3676 5200 5029 3785 3431 3412
is_linear=0
shrinkage=0.01


Tree=60
num_leaves=10
num_cat=0
split_feature=30 32 32 21 6 21 30 21 32
split_gain=1.8984e-07 3.8571e-06 9.48548e-06 2.19287e-06 1.99481e-06 1.37711e-06 7.3071e-07 6.05681e-07 5.96758e-07
threshold=0.00082615010423561666 1.2797749652108561 1.9824867242069897 -0.0023013148637652 0.051800000000008596 -0.00053250343246642165 0.00083103713053589185 0.0013446809000377672 0.49625205068556694
decision_type=2 2 2 2 2 2 2 2 2
left_child=4 -2 3 -3 -1 -6 -5 8 -7
right_child=1 2 -4 6 5 7 -8 -9 -10
leaf_value=0 0 0 0 0 0 0 -7.7714693327427418e-07 0 1.8785653522366317e-07
leaf_weight=3830 6093 108 373 26 974 233 2721 62 13020
leaf_count=3830 6093 108 373 26 974 233 2721 62 13020
internal_value=0 -4.26208e-08 -3.53161e-07 -6.87911e-07 1.06407e-08 1.18759e-07 -7.56072e-07 1.59617e-07 1.73686e-07
internal_weight=0 9321 3228 2855 18119 14289 2747 13315 13253
internal_count=27440 9321 3228 2855 18119 14289 2747 13315 13253
is_linear=0
shrinkage=0.01


Tree=61
num_leaves=12
num_cat=0
split_feature=5 0 22 23 9 21 23 31 31 0 17
split_gain=2.10505e-06 2.5676e-06 3.39203e-06 5.39644e-06 3.29623e-06 3.37416e-06 2.0084e-06 2.81649e-06 3.214e-06 1.66836e-06 1.90122e-06
threshold=149.42472595548591 72.04297201990498 -0.0013417794909388993 0.0011099095102670065 0.0014999999999929516 -0.00064063615836171359 0.0077032015857599187 0.2022050000000026 0.052980000000005988 10.256390532582325 -16.525447962711521
decision_type=2 2 2 2 2 2 2 2 2 2 2
left_child=1 2 -1 -4 -5 -6 7 8 -2 -10 -11
right_child=6 -3 3 4 5 -7 -8 -9 9 10 -12
leaf_value=0 0 0 0 0 0 6.1242406050315386e-07 0 0 0 0 -3.4650814197502558e-07
leaf_weight=1051 2654 2612 2228 68 341 4806 638 646 405 656 11421
leaf_count=1051 2654 2612 2228 68 341 4806 638 646 405 656 11421
internal_value=0 1.37383e-09 1.73867e-07 2.82966e-07 4.66636e-07 5.33539e-07 -1.13219e-07 -1.61438e-07 -2.13968e-07 -2.8507e-07 -3.12736e-07
internal_weight=0 11106 8494 7443 5215 5147 16420 15782 15136 12482 12077
internal_count=27526 11106 8494 7443 5215 5147 16420 15782 15136 12482 12077
is_linear=0
shrinkage=0.01


Tree=62
num_leaves=12
num_cat=0
split_feature=2 19 19 10 32 25 19 19 23 17 23
split_gain=1.16754e-06 9.56122e-06 1.24876e-05 1.0105e-05 1.05094e-05 1.11826e-05 3.6394e-07 3.30352e-06 8.83825e-06 5.76261e-06 4.10227e-06
threshold=147.51248935389609 0.0011324690470522225 -0.0022813225000132818 2.7226999503818534e-05 0.63144018257665835 0.94956054483245222 0.00017705521856313541 -0.0010242742096648724 0.0025888589069020394 -3.9194959506386406 0.006870545815346127
decision_type=2 2 2 2 2 2 2 2 2 2 2
left_child=1 2 -1 -4 -5 -6 7 -2 -9 -10 -11
right_child=6 -3 3 4 5 -7 -8 8 9 10 -12
leaf_value=0 0 0 0 0 1.2630823307651446e-06 0 0 0 0 -1.0127004611134094e-06 0
leaf_weight=87 1050 305 192 404 3448 225 7335 11206 827 2181 85
leaf_count=87 1050 305 192 404 3448 225 7335 11206 827 2181 85
internal_value=0 1.58264e-07 4.96268e-07 7.37427e-07 9.04013e-07 1.09235e-06 0 -4.86935e-08 -1.60149e-07 -6.35833e-07 -8.97823e-07
internal_weight=0 4661 4356 4269 4077 3673 22684 15349 14299 3093 2266
internal_count=27345 4661 4356 4269 4077 3673 22684 15349 14299 3093 2266
is_linear=0
shrinkage=0.01


Tree=63
num_leaves=15
num_cat=0
split_feature=1 23 30 30 23 2 26 23 26 4 26 23 26 30
split_gain=3.92741e-06 9.60556e-06 3.11797e-06 2.54898e-06 2.10567e-06 1.11002e-06 9.38479e-07 9.49225e-07 9.27263e-07 6.62339e-07 5.75893e-07 3.62327e-07 2.1393e-07 9.22307e-08
threshold=146.92349002971176 0.0025671871451443231 0.00081055411847736139 0.0029097489440929529 0.012134542979832406 146.95088568512338 -8.5570463309385102e-05 0.00077222315610450741 0.00043351348016277251 161.72300333245946 0.0023045597163373253 0.00098143321697273782 0.00079871830387649842 0.00030377269145717364
decision_type=2 2 2 2 2 2 2 2 2 2 2 2 2 2
left_child=4 8 -3 9 5 6 -1 -8 -2 12 11 -10 -4 -9
right_child=1 2 3 -5 -6 -7 7 13 10 -11 -12 -13 -14 -15
leaf_value=0 0 0 0 0 0 0 0 0 0 0 0 1.6472133212683998e-07 -6.3176257851694338e-07 5.0261837940351732e-07
leaf_weight=129 7125 2484 1015 86 121 40 122 10.999999999999998 1846 9.9999999999999982 141 6875 4404 3045
leaf_count=129 7125 2484 1015 86 121 40 122 11 1846 10 141 6875 4404 3045
internal_value=0 -7.72079e-08 -3.71422e-07 -5.06577e-07 2.68349e-07 3.70838e-07 4.15628e-07 4.57478e-07 0 -5.54647e-07 1.02289e-07 1.31284e-07 -5.66059e-07 4.98697e-07
internal_weight=0 23986 7999 5515 3468 3347 3307 3178 15987 5429 8862 8721 5419 3056
internal_count=27454 23986 7999 5515 3468 3347 3307 3178 15987 5429 8862 8721 5419 3056
is_linear=0
shrinkage=0.01


Tree=64
num_leaves=12
num_cat=0
split_feature=4 23 21 9 21 5 23 9 1 23 1
split_gain=1.82913e-06 4.53294e-06 3.2725e-06 2.41314e-06 4.19735e-06 1.70533e-06 1.66543e-06 1.68937e-06 1.46475e-06 1.40328e-06 9.71238e-07
threshold=147.8297220063948 0.0024967872100945753 0.00065935544211772018 0.02449999999998909 -0.0023013148637652 158.83308603720829 0.014296111262698089 0.0035000000000025015 147.36291571608322 0.00056599811288676933 147.73215919631642
decision_type=2 2 2 2 2 2 2 2 2 2 2
left_child=2 -2 6 -3 -5 8 7 -1 -6 -9 -11
right_child=1 3 -4 4 5 -7 -8 9 -10 10 -12
leaf_value=0 0 0 0 0 0 0 0 0 -5.1649737146802026e-07 4.9562450997406982e-07 0
leaf_weight=185 14322 1908 755 158 43 133 47 204 5727 4016 57
leaf_count=185 14322 1908 755 158 43 133 47 204 5727 4016 57
internal_value=0 -6.58013e-08 1.28108e-07 -2.62662e-07 -3.61277e-07 -4.52897e-07 3.02873e-07 3.60583e-07 -4.89282e-07 4.18497e-07 4.67292e-07
internal_weight=0 22291 5264 7969 6061 5903 4509 4462 5770 4277 4073
internal_count=27555 22291 5264 7969 6061 5903 4509 4462 5770 4277 4073
is_linear=0
shrinkage=0.01


Tree=65
num_leaves=12
num_cat=0
split_feature=26 2 32 23 32 23 26 5 10 30 30
split_gain=3.73113e-06 7.84968e-06 5.1201e-06 4.67799e-06 7.44371e-06 3.73567e-06 2.0217e-06 4.39283e-06 1.66743e-06 1.26828e-06 1.3744e-06
threshold=0.0017566061390153231 145.13993803282855 1.9824867242069897 0.0025888589069020394 0.89833889335316719 0.018267544574847371 0.00043351348016277251 155.430800319925 2.0432278916361985e-05 0.0017653308942748649 0.0003638230165588779
decision_type=2 2 2 2 2 2 2 2 2 2 2
left_child=6 -2 3 -3 -5 -6 -1 8 -8 10 -10
right_child=1 2 -4 4 5 -7 7 -9 9 -11 -12
leaf_value=0 0 0 0 0 -1.0075367333308064e-06 0 0 0 0 0 3.6188273676241672e-07
leaf_weight=8874 919 751 244 1154 3207 34 496 2549 836 136 8189
leaf_count=8874 919 751 244 1154 3207 34 496 2549 836 136 8189
internal_value=0 -2.43181e-07 -4.63514e-07 -5.69669e-07 -6.97426e-07 -9.4299e-07 0 1.28696e-07 2.57724e-07 2.97016e-07 3.2187e-07
internal_weight=0 6309 5390 5146 4395 3241 21080 12206 9657 9161 9025
internal_count=27389 6309 5390 5146 4395 3241 21080 12206 9657 9161 9025
is_linear=0
shrinkage=0.01


Tree=66
num_leaves=12
num_cat=0
split_feature=21 10 4 9 10 3 9 3 23 32 32
split_gain=2.21797e-07 1.38711e-06 2.33242e-06 1.31804e-06 1.30157e-06 4.69269e-06 1.1407e-06 1.10447e-06 1.09665e-06 1.81622e-06 4.96414e-07
threshold=2.3293973331330707e-05 4.7336477949728435e-05 155.05870772668973 0.42450000000000904 0.00030998945134043274 142.62662500000002 0.47350000000000142 158.13359375000002 0.00098143321697273782 0.63144018257665835 0.59405087730563999
decision_type=2 2 2 2 2 2 2 2 2 2 2
left_child=1 -1 3 8 -2 -6 7 10 -3 -10 -7
right_child=4 2 -4 -5 5 6 -8 -9 9 -11 -12
leaf_value=0 0 0 0 0 0 0 0 0 0 3.4986645768376259e-07 -4.1528859739609251e-07
leaf_weight=1713 7787 2341 2739 43 173 167 33 180 491 6676 5065
leaf_count=1713 7787 2341 2739 43 173 167 33 180 491 6676 5065
internal_value=0 3.97981e-08 1.14415e-07 2.03137e-07 0 -1.52206e-07 -3.31785e-07 -3.63082e-07 2.35188e-07 2.97793e-07 -3.96828e-07
internal_weight=0 14003 12290 9551 13405 5618 5445 5412 9508 7167 5232
internal_count=27408 14003 12290 9551 13405 5618 5445 5412 9508 7167 5232
is_linear=0
shrinkage=0.01


Tree=67
num_leaves=5
num_cat=0
split_feature=2 21 4 21
split_gain=2.27666e-06 1.68253e-06 1.67905e-06 2.92199e-07
threshold=157.26542796134086 1.4286277735096328e-05 155.05870772668973 -0.0023013148637652
decision_type=2 2 2 2
left_child=1 2 -1 -2
right_child=3 -3 -4 -5
leaf_value=1.8689980024462222e-07 0 0 0 -2.9611467953805153e-07
leaf_weight=10613 25 12417 1779 2535
leaf_count=10613 25 12417 1779 2535
internal_value=0 3.73347e-08 1.27937e-07 -2.74618e-07
internal_weight=0 24809 12392 2560
internal_count=27369 24809 12392 2560
is_linear=0
shrinkage=0.01


Tree=68
num_leaves=7
num_cat=0
split_feature=1 2 5 4 5 3
split_gain=6.51809e-07 7.36437e-07 3.95396e-07 8.49877e-08 1.20078e-07 8.2757e-08
threshold=146.92349002971176 146.95088568512338 146.76925193504911 147.77091793910532 150.81398007965117 1.0000000180025095e-35
decision_type=2 2 2 2 2 2
left_child=1 2 5 -2 -5 -1
right_child=3 -3 -4 4 -6 -7
leaf_value=0 0 0 0 -4.9304642618807267e-08 0 2.343563413173031e-07
leaf_weight=11.999999999999998 1554 45 75 10512 11927 3306
leaf_count=12 1554 45 75 10512 11927 3306
internal_value=0 1.32246e-07 1.98554e-07 -1.45053e-08 -2.45707e-08 2.2854e-07
internal_weight=0 3438 3393 23993 22439 3318
internal_count=27431 3438 3393 23993 22439 3318
is_linear=0
shrinkage=0.01


Tree=69
num_leaves=12
num_cat=0
split_feature=30 5 32 23 23 5 32 5 30 32 21
split_gain=3.10213e-07 7.95778e-06 9.91188e-06 6.2623e-06 2.15222e-06 3.66051e-06 4.26986e-06 2.66437e-06 1.57412e-06 2.01477e-06 7.99285e-07
threshold=0.00082615010423561666 144.27950611927272 1.8689297019371247 0.0024348833230307108 0.0011699474857737996 155.35963516585289 0.61124002785834264 141.9757996335542 0.00086667279407459912 0.53327412538400354 -0.0008190832244360796
decision_type=2 2 2 2 2 2 2 2 2 2 2
left_child=4 -2 3 -3 -1 6 -6 -8 -5 -10 -9
right_child=1 2 -4 8 5 -7 7 10 9 -11 -12
leaf_value=0 0 0 0 0 0 0 0 0 0 -7.107548949677199e-07 4.6066573181244762e-07
leaf_weight=7617 1229 1512 508 452 693 3123 40 230 48 5546 6389
leaf_count=7617 1229 1512 508 452 693 3123 40 230 48 5546 6389
internal_value=0 -5.65765e-08 -3.19911e-07 -4.90266e-07 8.37175e-09 1.43759e-07 2.81482e-07 3.89354e-07 -6.35642e-07 -6.8178e-07 4.39049e-07
internal_weight=0 9295 8066 7558 18092 10475 7352 6659 6046 5594 6619
internal_count=27387 9295 8066 7558 18092 10475 7352 6659 6046 5594 6619
is_linear=0
shrinkage=0.01


Tree=70
num_leaves=12
num_cat=0
split_feature=17 2 18 4 13 17 18 17 17 18 3
split_gain=2.47113e-06 3.74918e-06 2.42044e-06 1.7173e-06 1.37074e-06 9.2066e-07 8.05371e-07 5.76456e-07 3.41602e-07 1.53728e-07 4.51983e-07
threshold=0.58588205180485187 144.80409874510858 0.10232917400122689 155.82131149607432 1.0000000180025095e-35 48.960975597634032 0.21422943289007892 -31.982694318691447 0.67227334063811395 0.0077764174815371243 155.56468750000002
decision_type=2 2 2 2 2 2 2 2 2 2 2
left_child=3 -2 4 6 -3 8 7 -1 -6 -9 -11
right_child=1 2 -4 -5 5 -7 -8 9 -10 10 -12
leaf_value=0 0 0 0 0 0 0 0 0 -4.0346602158073639e-07 2.4942136239816e-07 0
leaf_weight=343 726 2123 886 2925 33 78 279 6997 6905 6008 45
leaf_count=343 726 2123 886 2925 33 78 279 6997 6905 6008 45
internal_value=0 -1.50591e-07 -2.48429e-07 1.40969e-08 -3.06894e-07 -3.77119e-07 1.13145e-07 1.38136e-07 -3.96342e-07 1.5492e-07 2.32985e-07
internal_weight=0 10751 10025 16597 9139 7016 13672 13393 6938 13050 6053
internal_count=27348 10751 10025 16597 9139 7016 13672 13393 6938 13050 6053
is_linear=0
shrinkage=0.01


Tree=71
num_leaves=7
num_cat=0
split_feature=2 23 23 23 1 1
split_gain=9.84809e-07 6.05316e-07 4.98763e-07 1.31698e-06 1.01516e-06 8.89097e-07
threshold=157.26542796134086 0.00063888450390927947 0.0025888589069020394 0.001146479009466276 155.55571666727761 142.14722473433781
decision_type=2 2 2 2 2 2
left_child=2 -2 3 -1 5 -5
right_child=1 -3 -4 4 -6 -7
leaf_value=0 0 -2.5345546711254274e-07 0 0 0 2.2855544279816337e-07
leaf_weight=6983 104 2475 9414 42 1269 7121
leaf_count=6983 104 2475 9414 42 1269 7121
internal_value=0 -1.954e-07 0 5.68815e-08 1.46742e-07 1.98795e-07
internal_weight=0 2579 24829 15415 8432 7163
internal_count=27408 2579 24829 15415 8432 7163
is_linear=0
shrinkage=0.01


Tree=72
num_leaves=9
num_cat=0
split_feature=2 21 21 23 23 21 2 23
split_gain=7.43866e-07 1.57063e-06 8.53245e-07 1.2188e-06 1.1735e-06 3.55192e-07 1.91852e-07 7.54176e-09
threshold=150.03017855709976 -2.7351093755629632e-06 0.00085374475948972938 0.00082503321123579836 0.014296111262698089 0.002558861597799634 149.65703374480958 0.00021557545607910932
decision_type=2 2 2 2 2 2 2 2
left_child=2 -2 3 -1 6 7 -5 -3
right_child=1 5 -4 4 -6 -7 -8 -9
leaf_value=0 0 0 0 2.0439314866892503e-07 0 0 0 -1.7697281280221531e-07
leaf_weight=1977 7095 29 874 8568 74 39 849 8094
leaf_count=1977 7095 29 874 8568 74 39 849 8094
internal_value=0 -6.27998e-08 3.39367e-08 9.31638e-08 1.52737e-07 -1.63139e-07 1.89666e-07 -1.76394e-07
internal_weight=0 15257 12342 11468 9491 8162 9417 8123
internal_count=27599 15257 12342 11468 9491 8162 9417 8123
is_linear=0
shrinkage=0.01


Tree=73
num_leaves=16
num_cat=0
split_feature=2 9 21 6 32 32 32 23 32 9 23 23 9 23 6
split_gain=1.08704e-06 9.57909e-07 1.91321e-06 2.69191e-06 2.78119e-06 1.62125e-06 6.65374e-07 7.50351e-07 8.77508e-07 6.99298e-07 6.1611e-08 3.90237e-07 7.20198e-07 3.92127e-07 6.04858e-08
threshold=157.26542796134086 0.04899999999999239 -0.00066195945506504581 0.047000000000001312 1.2740117155962982 0.58765429189198215 0.61124002785834264 0.00065033606604410405 2.4314132344670454 0.00099999999999056421 0.0086220130779920186 0.0020082421783799071 0.15149999999999866 0.0072472650975338075 0.031699999999996474
decision_type=2 2 2 2 2 2 2 2 2 2 2 2 2 2 2
left_child=1 2 -1 -4 5 -5 -2 -8 9 -9 11 -3 13 -13 -11
right_child=6 10 3 4 -6 -7 7 8 -10 14 -12 12 -14 -15 -16
leaf_value=0 0 0 0 0 0 3.2655196438067365e-07 0 0 0 0 0 -1.8373724324447804e-07 0 0 -4.4136013992676766e-07
leaf_weight=568 285 3353 2362 755 1684 9345 101 37 22 9.9999999999999982 575 4633 1314 235 2125
leaf_count=568 285 3353 2362 755 1684 9345 101 37 22 10 575 4633 1314 235 2125
internal_value=0 0 8.06849e-08 1.42464e-07 2.17272e-07 2.87426e-07 -2.05252e-07 -2.76311e-07 -3.37724e-07 -3.94472e-07 0 -2.54192e-08 -8.54912e-08 -1.55161e-07 -4.37097e-07
internal_weight=0 24824 14714 14146 11784 10100 2580 2295 2194 2172 10110 9535 6182 4868 2135
internal_count=27404 24824 14714 14146 11784 10100 2580 2295 2194 2172 10110 9535 6182 4868 2135
is_linear=0
shrinkage=0.01


Tree=74
num_leaves=11
num_cat=0
split_feature=5 21 30 30 11 21 21 30 11 11
split_gain=1.17434e-06 1.19359e-06 1.51042e-06 1.42465e-06 1.16165e-06 1.20915e-06 5.3273e-07 4.04262e-07 1.13292e-07 8.86461e-08
threshold=149.42472595548591 0.00085374475948972938 0.0020138372409357818 0.00035347535241546558 1.0000000180025095e-35 -0.0029029168122611708 0.002558861597799634 0.00020825314983615961 0.27750000000001768 0.26349999999999346
decision_type=2 2 2 2 2 2 2 2 2 2
left_child=1 2 3 -1 -2 -6 7 -7 -9 -5
right_child=4 -3 -4 9 5 6 -8 8 -10 -11
leaf_value=0 0 0 0 2.1384955062744271e-07 0 0 0 -1.7510602841739192e-07 0 0
leaf_weight=752 911 831 304 9237 49 414 44 14964 11.999999999999998 12.999999999999998
leaf_count=752 911 831 304 9237 49 414 44 14964 12 13
internal_value=0 7.96075e-09 1.07934e-07 1.64634e-07 -8.43805e-08 -1.22644e-07 -1.51405e-07 -1.62636e-07 -1.72861e-07 2.11445e-07
internal_weight=0 11137 10306 10002 16394 15483 15434 15390 14976 9250
internal_count=27531 11137 10306 10002 16394 15483 15434 15390 14976 9250
is_linear=0
shrinkage=0.01


Tree=75
num_leaves=10
num_cat=0
split_feature=21 1 19 5 19 23 19 2 21
split_gain=8.32047e-07 2.48227e-06 1.10779e-06 4.92754e-07 6.26216e-07 4.46934e-07 2.40106e-07 2.32175e-07 1.04896e-06
threshold=2.3293973331330707e-05 146.92349002971176 0.00056698660011615459 157.08367057902868 -0.0022813225000132818 0.00038598399285830442 -0.00090941944816593174 142.11835328752383 -0.00071142594531113971
decision_type=2 2 2 2 2 2 2 2 2
left_child=3 -2 6 4 -1 -6 -3 -7 -9
right_child=1 2 -4 -5 5 7 -8 8 -10
leaf_value=0 0 0 0 0 0 0 -2.2396887526726847e-07 0 1.7028596224592277e-07
leaf_weight=175 1702 196 2284 1229 465 150 9294 2043 9818
leaf_count=175 1702 196 2284 1229 465 150 9294 2043 9818
internal_value=0 -7.85758e-08 -1.67776e-07 0 6.24091e-08 9.47036e-08 -2.15861e-07 1.14179e-07 1.23123e-07
internal_weight=0 13476 11774 13880 12651 12476 9490 12011 11861
internal_count=27356 13476 11774 13880 12651 12476 9490 12011 11861
is_linear=0
shrinkage=0.01


Tree=76
num_leaves=6
num_cat=0
split_feature=5 1 3 5 3
split_gain=4.71161e-07 5.25075e-08 3.73587e-08 3.50373e-08 3.05371e-09
threshold=149.42472595548591 150.21855340642284 1.0000000180025095e-35 152.15363408453541 152.51375000000004
decision_type=2 2 2 2 2
left_child=1 2 -1 -2 -5
right_child=3 -3 -4 4 -6
leaf_value=0 0 0 7.076617496230833e-08 0 -2.1482665030364672e-08
leaf_weight=10.999999999999998 7108 12.999999999999998 11112 85 9237
leaf_count=11 7108 13 11112 85 9237
internal_value=0 6.47309e-08 6.83157e-08 -5.25637e-09 -2.06044e-08
internal_weight=0 11136 11123 16430 9322
internal_count=27566 11136 11123 16430 9322
is_linear=0
shrinkage=0.01


Tree=77
num_leaves=5
num_cat=0
split_feature=1 21 2 2
split_gain=2.14289e-06 2.55469e-06 2.03708e-08 1.34439e-08
threshold=157.23048464037296 3.1584918142658481e-05 157.32570573314976 142.11835328752383
decision_type=2 2 2 2
left_child=1 2 3 -1
right_child=-2 -3 -4 -5
leaf_value=0 -2.7823272929382305e-07 0 0 1.4369685580796696e-07
leaf_weight=167 2697 11827 18 12801
leaf_count=167 2697 11827 18 12801
internal_value=0 1.48627e-08 1.41754e-07 1.42405e-07
internal_weight=0 24813 12986 12968
internal_count=27510 24813 12986 12968
is_linear=0
shrinkage=0.01


Tree=78
num_leaves=12
num_cat=0
split_feature=23 5 30 32 32 9 23 26 9 2 6
split_gain=2.33726e-06 1.029e-05 7.18142e-06 1.42264e-05 3.15178e-06 1.35458e-06 1.31194e-06 1.57032e-06 1.66926e-06 1.48135e-06 9.46683e-07
threshold=0.0025888589069020394 144.27950611927272 0.00088654600315255742 1.9824867242069897 0.53327412538400354 1.0000000180025095e-35 0.0011584178095714712 4.3232015517499885e-05 0.10849999999999228 160.66293030057446 0.042200000000001132
decision_type=2 2 2 2 2 2 2 2 2 2 2
left_child=6 -2 -3 4 -4 -6 -1 -8 9 10 -9
right_child=1 2 3 -5 5 -7 7 8 -10 -11 -12
leaf_value=0 0 0 0 0 0 -8.5797121996970426e-07 0 0 0 0 3.0027056215725977e-07
leaf_weight=7646 1329 3360 42 290 23 5234 594 111 754 294 7753
leaf_count=7646 1329 3360 42 290 23 5234 594 111 754 294 7753
internal_value=0 -1.50442e-07 -3.75466e-07 -5.95153e-07 -8.01279e-07 -8.40909e-07 8.01225e-09 1.17968e-07 1.80177e-07 2.36485e-07 2.77222e-07
internal_weight=0 10278 8949 5589 5299 5257 17152 9506 8912 8158 7864
internal_count=27430 10278 8949 5589 5299 5257 17152 9506 8912 8158 7864
is_linear=0
shrinkage=0.01


Tree=79
num_leaves=12
num_cat=0
split_feature=4 27 10 26 32 23 10 26 26 32 23
split_gain=9.45572e-07 5.43699e-06 4.63916e-06 4.63831e-06 5.44155e-06 2.80338e-06 4.21852e-06 7.07594e-06 4.43051e-06 4.14287e-06 2.21902e-06
threshold=147.77091793910532 0.007462473795199715 2.7226999503818534e-05 3.337966399465654e-05 0.70851349325446111 0.0025671871451443231 0.00016097093868014186 0.004691285843776369 0.00079871830387649842 0.6635510403122894 0.00063888450390927947
decision_type=2 2 2 2 2 2 2 2 2 2 2
left_child=1 2 -1 -4 -5 -2 -7 8 -8 -10 -6
right_child=5 -3 3 4 10 6 7 -9 9 -11 -12
leaf_value=0 0 0 0 0 0 0 0 0 0 -8.1462810866021422e-07 8.2082421390843489e-07
leaf_weight=218 14723 126 275 755 183 1818 1361 833 271 3416 3461
leaf_count=218 14723 126 275 755 183 1818 1361 833 271 3416 3461
internal_value=0 1.37268e-07 3.61194e-07 4.85586e-07 5.96629e-07 0 -1.90816e-07 -3.45534e-07 -5.2845e-07 -7.08866e-07 7.6094e-07
internal_weight=0 5018 4892 4674 4399 22422 7699 5881 5048 3687 3644
internal_count=27440 5018 4892 4674 4399 22422 7699 5881 5048 3687 3644
is_linear=0
shrinkage=0.01


Tree=80
num_leaves=11
num_cat=0
split_feature=2 9 21 9 3 9 21 9 3 3
split_gain=6.2198e-07 2.38431e-06 1.94067e-06 6.86542e-07 5.39026e-07 3.35832e-07 1.30913e-07 1.04954e-07 2.64405e-09 1.33595e-06
threshold=157.26542796134086 0.046500000000008875 -0.00071142594531113971 0.0014999999999929516 157.19175000000004 0.00099999999999056421 -0.0023013148637652 0.046000000000006487 142.62662500000002 156.66534375000001
decision_type=2 2 2 2 2 2 2 2 2 2
left_child=1 2 -1 -4 7 -2 -7 -5 -3 -10
right_child=5 8 3 4 -6 6 -8 -9 9 -11
leaf_value=0 0 0 0 2.1019914571576098e-07 0 0 -2.065673314475498e-07 0 -1.1542500194833688e-07 0
leaf_weight=463 41 309 605 12881 137 26 2467 66 10047 407
leaf_count=463 41 309 605 12881 137 26 2467 66 10047 407
internal_value=0 1.2008e-08 1.30772e-07 1.78483e-07 1.96409e-07 -1.52069e-07 -1.92288e-07 2.07721e-07 0 -5.02907e-09
internal_weight=0 24915 14152 13689 13084 2534 2493 12947 10763 10454
internal_count=27449 24915 14152 13689 13084 2534 2493 12947 10763 10454
is_linear=0
shrinkage=0.01


Tree=81
num_leaves=12
num_cat=0
split_feature=1 19 19 9 9 19 17 8 7 5 19
split_gain=4.09414e-06 1.01089e-05 9.48592e-06 9.25124e-06 7.9773e-06 4.00708e-06 3.3139e-06 3.68861e-06 3.04558e-06 2.59715e-06 1.92933e-06
threshold=146.92349002971176 0.0011879602929002254 -0.0011110888125698678 0.048499999999990002 0.0035000000000025015 -0.0011110888125698678 -16.525447962711521 0.0005520305412804726 0.038499999999999097 146.76925193504911 0.0010396862618450061
decision_type=2 2 2 2 2 2 2 2 2 2 2
left_child=1 2 -1 -2 -4 -5 -7 -8 -6 -10 -9
right_child=3 -3 4 5 8 6 7 10 9 -11 -12
leaf_value=0 0 0 0 0 0 0 0 -6.288738367820312e-07 1.1585431401286791e-06 0 0
leaf_weight=364 14802 233 98 627 85 813 978 6372 2555 70 450
leaf_count=364 14802 233 98 627 85 813 978 6372 2555 70 450
internal_value=0 1.78333e-07 5.93969e-07 -1.11913e-07 8.58085e-07 -3.64288e-07 -4.34612e-07 -5.01058e-07 1.02823e-06 1.09887e-06 -5.84052e-07
internal_weight=0 3405 3172 24042 2808 9240 8613 7800 2710 2625 6822
internal_count=27447 3405 3172 24042 2808 9240 8613 7800 2710 2625 6822
is_linear=0
shrinkage=0.01


Tree=82
num_leaves=6
num_cat=0
split_feature=4 5 3 3 1
split_gain=6.05299e-07 1.48678e-07 2.56609e-08 2.46321e-08 3.0103e-09
threshold=147.77091793910532 147.38702820900224 147.50993750000001 1.0000000180025095e-35 147.04086553358459
decision_type=2 2 2 2 2
left_child=1 2 3 -1 -2
right_child=4 -3 -4 -5 -6
leaf_value=0 0 0 0 1.3396734409718745e-07 -3.6720285167311193e-09
leaf_weight=13.999999999999998 23 470 15.999999999999998 4481 22325
leaf_count=14 23 470 16 4481 22325
internal_value=0 1.10234e-07 1.29279e-07 1.31694e-07 0
internal_weight=0 4981 4511 4495 22348
internal_count=27329 4981 4511 4495 22348
is_linear=0
shrinkage=0.01


Tree=83
num_leaves=7
num_cat=0
split_feature=4 21 2 21 3 21
split_gain=3.32378e-08 2.79356e-06 7.50642e-07 4.64067e-07 1.88449e-07 9.61482e-08
threshold=147.8297220063948 0.00068460229183494811 147.55525502264501 3.1584918142658481e-05 1.0000000180025095e-35 0.0015613965116614316
decision_type=2 2 2 2 2 2
left_child=1 2 4 -2 -1 -5
right_child=3 -3 -4 5 -6 -7
leaf_value=0 0 0 0 -7.376273819932194e-08 3.1033332318082728e-07 0
leaf_weight=10.999999999999998 11602 692 543 10296 3910 275
leaf_count=11 11602 692 543 10296 3910 275
internal_value=0 2.53891e-08 2.51635e-07 0 3.02044e-07 -6.62562e-08
internal_weight=0 5156 4464 22173 3921 10571
internal_count=27329 5156 4464 22173 3921 10571
is_linear=0
shrinkage=0.01


Tree=84
num_leaves=4
num_cat=0
split_feature=2 2 2
split_gain=5.59016e-09 1.49736e-07 4.98712e-10
threshold=157.26542796134086 150.85927057232769 147.51248935389609
decision_type=2 2 2
left_child=1 2 -1
right_child=-2 -3 -4
leaf_value=0 0 4.078387566830787e-08 -2.148456477870528e-09
leaf_weight=4673 2602 9338 10804
leaf_count=4673 2602 9338 10804
internal_value=0 4.74627e-09 0
internal_weight=0 24815 15477
internal_count=27417 24815 15477
is_linear=0
shrinkage=0.01


Tree=85
num_leaves=12
num_cat=0
split_feature=4 26 32 21 32 17 21 10 32 11 6
split_gain=1.38147e-06 1.69167e-06 3.51944e-06 6.27527e-06 2.66724e-06 1.86957e-06 1.41328e-06 1.87326e-06 1.75698e-06 1.73411e-06 1.27372e-06
threshold=147.77091793910532 0.0018118216331131358 0.84411627116378174 -0.0023013148637652 2.0575286262233572 12.362412502748326 0.00068460229183494811 2.7226999503818534e-05 0.62157032749362873 0.0024999999999977267 0.54009999999999969
decision_type=2 2 2 2 2 2 2 2 2 2 2
left_child=6 -2 -3 -4 5 -5 7 -1 -9 -10 -11
right_child=1 2 3 4 -6 -7 -8 8 9 10 -12
leaf_value=0 0 0 0 -7.4352360336003995e-07 0 0 0 0 0 4.9527369112621565e-07 0
leaf_weight=209 17768 880 150 3148 104 207 713 390 386 3282 25
leaf_count=209 17768 880 150 3148 104 207 713 390 386 3282 25
internal_value=0 -7.87834e-08 -2.61639e-07 -4.27382e-07 -6.099e-07 -6.80442e-07 0 1.81455e-07 2.83703e-07 3.69538e-07 4.52691e-07
internal_weight=0 22257 4489 3609 3459 3355 5005 4292 4083 3693 3307
internal_count=27262 22257 4489 3609 3459 3355 5005 4292 4083 3693 3307
is_linear=0
shrinkage=0.01


Tree=86
num_leaves=3
num_cat=0
split_feature=1 21
split_gain=2.66003e-08 1.41975e-06
threshold=146.92349002971176 -2.7351093755629632e-06
decision_type=2 2
left_child=-1 -2
right_child=1 -3
leaf_value=0 0 -1.0696074460934291e-07
leaf_weight=3512 11288 12642
leaf_count=3512 11288 12642
internal_value=0 -1.05431e-08
internal_weight=0 23930
internal_count=27442 23930
is_linear=0
shrinkage=0.01


Tree=87
num_leaves=3
num_cat=0
split_feature=21 21
split_gain=1.56224e-06 5.4768e-09
threshold=0.00025934282712261082 -0.00062114595635392089
decision_type=2 2
left_child=1 -1
right_child=-2 -3
leaf_value=0 -1.2521869717128001e-07 5.219147443738949e-08
leaf_weight=2832 6916 17741
leaf_count=2832 6916 17741
internal_value=0 4.81909e-08
internal_weight=0 20573
internal_count=27489 20573
is_linear=0
shrinkage=0.01


Tree=88
num_leaves=8
num_cat=0
split_feature=1 21 21 2 5 26 21
split_gain=3.20909e-06 1.81184e-06 1.66516e-06 1.15046e-06 7.36522e-07 3.62356e-07 1.75778e-07
threshold=146.92349002971176 3.1584918142658481e-05 0.0010954959811881053 146.95088568512338 146.76925193504911 0.0068584165835539708 0.002558861597799634
decision_type=2 2 2 2 2 2 2
left_child=2 -2 3 4 -1 6 -3
right_child=1 5 -4 -5 -6 -7 -8
leaf_value=4.7321649238440148e-07 0 -1.4335347118341566e-07 0 0 0 0 0
leaf_weight=3019 12550 11435 310 36 82 23 51
leaf_count=3019 12550 11435 310 36 82 23 51
internal_value=0 0 3.05107e-07 3.94163e-07 4.40754e-07 -1.25469e-07 -1.37581e-07
internal_weight=0 24059 3447 3137 3101 11509 11486
internal_count=27506 24059 3447 3137 3101 11509 11486
is_linear=0
shrinkage=0.01


Tree=89
num_leaves=13
num_cat=0
split_feature=4 32 32 32 2 32 5 4 1 26 26 4
split_gain=1.86263e-07 2.35419e-06 1.49451e-06 4.2232e-06 2.03261e-06 1.03966e-06 7.35321e-07 6.86881e-07 4.82296e-07 4.79649e-07 6.71082e-07 6.30084e-08
threshold=145.90114223209963 0.7498301578757437 1.030493782702816 1.8689297019371247 159.85990689370536 1.6031327546787695 144.06831578204171 146.2707575305964 145.66882911713728 0.00045255651689645392 0.0022682900532402695 140.98241245762702
decision_type=2 2 2 2 2 2 2 2 2 2 2 2
left_child=1 -1 9 4 6 8 -4 -8 11 -2 -11 -3
right_child=2 5 3 -5 -6 -7 7 -9 -10 10 -12 -13
leaf_value=0 0 0 0 0 0 0 0 -3.059630942799488e-07 0 1.2284524577985029e-07 0 5.5898188484921268e-07
leaf_weight=528 5620 79 15.999999999999998 632 301 104 78 9798 44 7625 1381 1320
leaf_count=528 5620 79 16 632 301 104 78 9798 44 7625 1381 1320
internal_value=0 9.47377e-08 0 -1.17498e-07 -2.36839e-07 4.05199e-07 -2.79905e-07 -2.9312e-07 4.98047e-07 0 7.29774e-08 5.38811e-07
internal_weight=0 2075 25451 10825 10193 1547 9892 9876 1443 14626 9006 1399
internal_count=27526 2075 25451 10825 10193 1547 9892 9876 1443 14626 9006 1399
is_linear=0
shrinkage=0.01


end of trees

feature_importances:
bb_width=120
price_ema_fast_dist=87
atr_ratio=75
bb_lower=64
ema_slow=58
price_bb_upper_dist=53
bb_upper=50
atr_normalized=47
body=37
ema_fast=36
bb_middle=32
ema_cross_pct=31
body_pct=24
atr_ma=23
ema_cross=19
rsi_divergence=17
rsi=12
upper_shadow=11
atr=5
rsi_normalized=4
price_ema_slow_dist=3
price_bb_lower_dist=3
range=2
range_pct=2
is_bullish=1
bb_position=1
bb_position_normalized=1

parameters:
[boosting: gbdt]
[objective: regression]
[metric: rmse]
[tree_learner: serial]
[device_type: cpu]
[data: ]
[valid: ]
[num_iterations: 800]
[learning_rate: 0.01]
[num_leaves: 31]
[num_threads: 8]
[deterministic: 0]
[force_col_wise: 0]
[force_row_wise: 0]
[histogram_pool_size: -1]
[max_depth: 6]
[min_data_in_leaf: 10]
[min_sum_hessian_in_leaf: 0.001]
[bagging_fraction: 0.7]
[pos_bagging_fraction: 1]
[neg_bagging_fraction: 1]
[bagging_freq: 1]
[bagging_seed: 9057]
[feature_fraction: 0.7]
[feature_fraction_bynode: 1]
[feature_fraction_seed: 15199]
[extra_trees: 0]
[extra_seed: 31159]
[early_stopping_round: 0]
[first_metric_only: 0]
[max_delta_step: 0]
[lambda_l1: 0.3]
[lambda_l2: 0.3]
[linear_lambda: 0]
[min_gain_to_split: 0]
[drop_rate: 0.1]
[max_drop: 50]
[skip_drop: 0.5]
[xgboost_dart_mode: 0]
[uniform_drop: 0]
[drop_seed: 20727]
[top_rate: 0.2]
[other_rate: 0.1]
[min_data_per_group: 100]
[max_cat_threshold: 32]
[cat_l2: 10]
[cat_smooth: 10]
[max_cat_to_onehot: 4]
[top_k: 20]
[monotone_constraints: ]
[monotone_constraints_method: basic]
[monotone_penalty: 0]
[feature_contri: ]
[forcedsplits_filename: ]
[refit_decay_rate: 0.9]
[cegb_tradeoff: 1]
[cegb_penalty_split: 0]
[cegb_penalty_feature_lazy: ]
[cegb_penalty_feature_coupled: ]
[path_smooth: 0]
[interaction_constraints: ]
[verbosity: 1]
[saved_feature_importance_type: 0]
[linear_tree: 0]
[max_bin: 255]
[max_bin_by_feature: ]
[min_data_in_bin: 3]
[bin_construct_sample_cnt: 200000]
[data_random_seed: 218]
[is_enable_sparse: 1]
[enable_bundle: 1]
[use_missing: 1]
[zero_as_missing: 0]
[feature_pre_filter: 1]
[pre_partition: 0]
[two_round: 0]
[header: 0]
[label_column: ]
[weight_column: ]
[group_column: ]
[ignore_column: ]
[categorical_feature: ]
[forcedbins_filename: ]
[precise_float_parser: 0]
[parser_config_file: ]
[objective_seed: 19100]
[num_class: 1]
[is_unbalance: 0]
[scale_pos_weight: 1]
[sigmoid: 1]
[boost_from_average: 1]
[reg_sqrt: 0]
[alpha: 0.9]
[fair_c: 1]
[poisson_max_delta_step: 0.7]
[tweedie_variance_power: 1.5]
[lambdarank_truncation_level: 30]
[lambdarank_norm: 1]
[label_gain: ]
[lambdarank_position_bias_regularization: 0]
[eval_at: ]
[multi_error_top_k: 1]
[auc_mu_weights: ]
[num_machines: 1]
[local_listen_port: 12400]
[time_out: 120]
[machine_list_filename: ]
[machines: ]
[gpu_platform_id: -1]
[gpu_device_id: -1]
[gpu_use_dp: 0]
[num_gpu: 1]

end of parameters

pandas_categorical:[]
