tree
version=v4
num_class=1
num_tree_per_iteration=1
label_index=0
max_feature_idx=29
objective=binary sigmoid:1
feature_names=ema_fast ema_slow macd macd_signal atr range range_pct body body_pct upper_shadow lower_shadow is_bullish return_1 return_3 return_6 return_12 log_return ema_cross ema_cross_pct ema_cross_signal price_ema_fast_dist price_ema_slow_dist macd_hist macd_hist_change macd_cross_signal macd_strength atr_normalized atr_ma atr_ratio signal_convergence
feature_infos=[140.01794868368825:158.46374932756453] [140.09390840731587:158.4287960737224] [-0.57514457178655221:0.76835340664820251] [-0.5188763570912186:0.66684005555902648] [0:0.55142857142856927] [0:1.4489999999999839] [0:0.0098924731182794597] [0:1.2740000000000009] [0:0.0087871159085422691] [0:0.45400000000000773] [0:0.6290000000000191] [0:1] [-0.010440345742870893:0.0086544548876104077] [-0.010346048081897208:0.011121306408549358] [-0.012740376631571793:0.01214236927980572] [-0.015822511541399464:0.020290175029493485] [-0.010495228483220405:0.0086172197717689965] [-0.57514457178655221:0.76835340664820251] [-0.003883435549732969:0.0051884219504909346] [0:1] [-0.0088498120556881627:0.0085436527782316064] [-0.0096167762950344661:0.012337377364785844] [-0.20097651515128728:0.19509250025932751] [-0.09700790187045677:0.083341641193037941] [0:1] [-0.19455333720912688:0.17538495785784011] [0:0.0037228501986805917] [0:0.42936785714285552] [0:3.4066658717779674] [0:2]
tree_sizes=1836 1550 1536 1874 1827 1863 1769 1749 1602 1871 1857 1822 1729 1540 1636 1852 1848

Tree=0
num_leaves=16
num_cat=0
split_feature=15 27 26 1 10 26 27 0 2 25 1 0 0 13 20
split_gain=13.4674 20.3691 14.5318 13.007 13.0794 10.9977 18.7872 15.4162 13.1692 13.7241 11.4235 10.9498 7.41928 7.27114 2.83192
threshold=-0.00071771663620800996 0.041250000000001626 0.00023714434628444934 148.69835772032226 0.01899999999999125 0.00013124514714179061 0.030492857142857439 146.5337576898996 0.00793823556789164 0.0028087687128379147 149.68391308865679 143.13564704205325 157.27815652441691 -0.00013258666108567627 -1.0000000180025095e-35
decision_type=2 2 2 2 2 2 2 2 2 2 2 2 2 2 2
left_child=1 3 13 4 -1 8 7 -7 9 -2 -8 -4 -5 -3 -10
right_child=5 2 11 12 -6 6 10 -9 14 -11 -12 -13 -14 -15 -16
leaf_value=0.039509218437491833 0.072906099533031316 -0.074106481180663084 0.027950482729063475 0.078397628124914576 -0.004571428080940864 -0.023915899173399376 0.015542172206998738 0.0081443585047664586 0.015054532942910481 0.004083421974684991 0.011098095244809101 0.016374101786163081 0.020059386919249311 0.015054532942910481 -0.040625747787353533
leaf_weight=61.996485590934753 24.248625412583351 5.9996598958969116 228.48704770207405 25.24856872856617 21.998752951622009 55.746839866042137 5159.4575246423483 121.24312706291676 2.7498441189527512 9.2494756728410703 2004.8863485455513 1978.1378648430109 8.2495323568582517 2.7498441189527494 4.4997449219226828
leaf_count=248 97 24 914 101 88 223 20639 485 11 37 8020 7913 33 11 18
internal_value=0.0150545 0.0184055 0.0173143 0.0386708 0.0276206 0.0140479 0.0139 -0.00217591 0.0397669 0.0532856 0.0143018 0.0175868 0.065051 -0.0451202 -0.0179094
internal_weight=0 2332.87 2215.37 117.493 83.9952 7382.08 7341.33 176.99 40.7477 33.4981 7164.34 2206.62 33.4981 8.7495 7.24959
internal_count=38862 9332 8862 470 336 29530 29367 708 163 134 28659 8827 134 35 29
is_linear=0
shrinkage=1


Tree=1
num_leaves=13
num_cat=0
split_feature=27 5 3 15 12 15 25 15 27 18 9 25
split_gain=13.4917 14.1101 13.3189 11.2108 9.92357 9.71107 19.2407 13.9153 11.2535 13.8467 9.01168 6.61548
threshold=0.20630892857142732 0.091999999999998763 -0.23996162039120286 0.0047414471835054437 -0.0002500885736276825 -0.00067630357895759319 -0.00197863219208617 -0.0011659310985384639 0.051262499999998067 -0.00036212945964299076 0.0064999999999884048 0.0073966670414714929
decision_type=2 2 2 2 2 2 2 2 2 2 2 2
left_child=5 -2 4 -4 -3 6 7 -1 9 -7 -10 -8
right_child=1 2 3 -5 -6 8 11 -9 10 -11 -12 -13
leaf_value=0.00060078840739497138 -0.057877084190585071 0.027814868332865245 0.04274780629644985 -0.020082929973128959 -0.061505220141211882 0.050144521194603636 -0.014351934063143078 0.0088410268767881439 -0.0058216803227631635 0.0014551617774036529 -0.0012301381326793202 0.0022072312408931501
leaf_weight=1265.6349105387926 4.7496900409460059 4.7496579736471176 55.74616302549839 7.2495622485876074 6.4995169341564161 14.24922828376293 211.227753713727 868.63902097940445 1515.6719461232424 1999.1119745522738 3692.5571887642145 80.743539437651634
leaf_count=5063 19 19 223 29 26 57 845 3475 6063 7997 14771 323
internal_value=0 0.0202585 0.0259453 0.0350223 -0.0220857 -0.000420788 0.0023119 0.00396752 -0.00134245 0.00182453 -0.00257158 -0.00969114
internal_weight=0 78.9946 74.2449 62.9957 11.2492 9647.84 2426.25 2134.27 7221.59 2013.36 5208.23 291.971
internal_count=38910 316 297 252 45 38594 9706 8538 28888 8054 20834 1168
is_linear=0
shrinkage=0.05


Tree=2
num_leaves=13
num_cat=0
split_feature=1 15 25 25 27 1 1 20 9 5 25 14
split_gain=10.1061 9.55165 9.39446 9.11461 14.4081 8.46513 7.97687 7.67317 7.39424 7.07721 6.85273 6.05104
threshold=140.70048889900224 -0.0004639695524643605 -0.015982830553218124 -0.047490252805294765 0.16913928571428441 147.64370636784375 157.97949617560838 0.0006573703516005461 0.0054999999999978408 0.14349999999998889 0.029832593542628159 -0.0003297624039891866
decision_type=2 2 2 2 2 2 2 2 2 2 2 2
left_child=2 3 11 5 -5 -2 8 -8 -3 10 -4 -1
right_child=1 6 9 4 -6 -7 7 -9 -10 -11 -12 -13
leaf_value=0.01215829391400189 0.00097237858552745408 -0.0031244942789487836 0.050946723267313865 0.0025682064245530476 0.026203015757517864 -0.026036823295652309 -0.01079772323957047 -0.075408294541663271 0.00054466775101752159 -0.031425020793312594 -0.025597416767527827 -0.077842806925344996
leaf_weight=3.2493512332439423 60.990966722369194 1962.654460683465 27.997627153992656 2928.8890567570925 65.732762232422829 51.99450509250164 109.49284863471985 4.4999009370803824 4544.9928273409605 2.7498024553060523 2.499871999025344 2.7496348321437827
leaf_count=13 244 7851 112 11717 263 208 438 18 18181 11 10 11
internal_value=0 0.000277909 0.0255514 0.00256644 0.00309963 -0.0112966 -0.000792461 -0.0138848 -0.000558236 0.0362384 0.0435542 -0.0280621
internal_weight=0 9729.25 39.2463 3107.61 2994.62 112.985 6621.64 113.993 6507.65 33.2473 30.4975 5.99899
internal_count=39077 38920 157 12432 11980 452 26488 456 26032 133 122 24
is_linear=0
shrinkage=0.05


Tree=3
num_leaves=16
num_cat=0
split_feature=18 1 26 17 1 14 1 25 1 25 0 1 15 28 17
split_gain=12.2002 26.1044 24.5724 18.6106 15.6139 19.3277 18.4345 18.1941 16.9118 15.5661 15.2246 13.966 12.9887 11.1432 0.406678
threshold=-5.2721126323676731e-05 147.62167759161755 0.0012321540110976782 0.0055210262845264433 152.17962038358527 -0.001624324753784878 149.77789887680038 -0.0071341650506375901 154.7739916077775 -0.00065731778776188657 150.03946218118384 147.88318056073129 0.0010422671383705231 0.9031571147326064 0.025566185067432915
decision_type=2 2 2 2 2 2 2 2 2 2 2 2 2 2 2
left_child=4 3 11 9 6 13 7 -1 -7 -2 -8 -3 -5 -6 -4
right_child=1 2 14 12 5 8 10 -9 -10 -11 -12 -13 -14 -15 -16
leaf_value=0.0057788445607552599 -0.01626826023912982 -0.014916195459643816 -0.025513481716765058 0.0062854566180659951 0.05713082561978261 0.022612570229286279 -0.031936859512451898 -0.0018815999684804769 0.0052875049297098319 0.00072973471507420179 -0.0054734172388993772 -0.0037676929206766061 -0.0018373767039006833 -0.025792335779775889 -0.080178660072083532
leaf_weight=1385.5272498875856 240.97307123243809 319.72796200215816 2.4998904764652243 1449.1375889033079 3.7479653209447852 205.23434266448021 65.2440395206213 1751.5823384970427 466.45102478563786 298.47672006487846 340.45553115010262 2438.1254693716764 738.68837055563927 53.245045259594917 10.499281108379362
leaf_count=5543 964 1279 10 5797 15 821 261 7007 1866 1194 1362 9753 2955 213 42
internal_value=0 -0.00199227 -0.00541181 0.0014731 0.00156829 0.0082321 0.000189672 0.0014941 0.0106313 -0.00682503 -0.00982485 -0.00507171 0.00353168 -0.0194549 -0.0728523
internal_weight=0 5498.13 2770.85 2727.28 4271.49 728.678 3542.81 3137.11 671.685 539.45 405.7 2757.85 2187.83 56.993 12.9992
internal_count=39082 21994 11084 10910 17088 2915 14173 12550 2687 2158 1623 11032 8752 228 52
is_linear=0
shrinkage=0.05


Tree=4
num_leaves=16
num_cat=0
split_feature=27 28 4 3 28 0 0 3 22 2 14 27 27 22 0
split_gain=13.7317 17.5606 16.196 15.1688 14.5939 16.8807 13.6426 13.7778 13.1959 12.4925 12.3171 10.3673 7.86231 7.72974 5.52925
threshold=0.051262499999998067 0.56085388399127944 0.056214285714283115 -0.049818077375426741 0.65948926264589647 150.52254063002141 143.56856626145245 0.064341544726544977 -0.034973308764861925 -0.091295026775739516 0.00028298196286424831 0.087033928571429303 0.13874999999999765 -0.01145854999754429 145.9319952819076
decision_type=2 2 2 2 2 2 2 2 2 2 2 2 2 2 2
left_child=2 11 4 8 13 -6 7 -3 -4 -8 -5 14 -13 -1 -2
right_child=1 6 3 10 5 -7 9 -9 -10 -11 -12 12 -14 -15 -16
leaf_value=-0.032234241892957455 0 0.0024370845962199163 0.060159667619719505 0.025898992713735348 0.0035479516863415037 -0.0072556045289475894 0.0055114734659932087 0.021840938139700058 -0.030877176947765435 -0.0024995221131812258 0.0040887178711999615 0.0059176425935640563 -0.065418715269626948 0.038929553131903584 -0.082012963940354969
leaf_weight=3.49940600991249 2.4998958706855765 889.59783025085926 3.9992341101169577 172.72406499087811 1535.3126054555178 471.6856388002634 528.90848112106323 102.23246355354786 28.243649527430534 5817.0368379056454 108.4924371689558 14.749005988240244 4.4987967610359183 35.739141494035721 11.99732483923435
leaf_count=14 10 3559 16 691 6142 1887 2116 409 113 23270 434 59 18 143 48
internal_value=0 -0.00114261 0.00323912 0.0138238 0.00160248 0.000995267 -0.00097233 0.00447232 -0.0180757 -0.00182752 0.0175956 -0.0368842 -0.0107241 0.0316281 -0.0684341
internal_weight=0 7371.52 2359.7 313.459 2046.24 2007 7337.78 991.83 32.2429 6345.95 281.217 33.745 19.2478 39.2385 14.4972
internal_count=38929 29489 9440 1254 8186 8029 29354 3968 129 25386 1125 135 77 157 58
is_linear=0
shrinkage=0.05


Tree=5
num_leaves=16
num_cat=0
split_feature=1 0 0 14 26 26 25 14 15 1 23 4 25 3 3
split_gain=10.187 24.8308 24.1123 23.4367 19.5493 16.5357 12.8453 13.4774 11.5928 11.3887 10.6834 9.99604 9.4284 9.00154 8.39903
threshold=149.68391308865679 149.55379709959388 150.13930200283832 -0.0019640444128929397 0.00013124514714179061 0.0013584911259425685 -0.0041830402558012845 -0.0020853163235344248 8.7369833691175472e-05 149.7157628508231 -0.0064541064413686641 0.060642857142853356 -0.0030542073811854532 -0.1267058681482508 0.028933149430612634
decision_type=2 2 2 2 2 2 2 2 2 2 2 2 2 2 2
left_child=1 3 6 13 8 -6 7 -2 -4 -8 -5 14 -13 -1 -3
right_child=2 11 4 10 5 -7 9 -9 -10 -11 -12 12 -14 -15 -16
leaf_value=0.043317636423294281 -0.06943034936930767 0.061145021887740215 0.071382551830825827 0.0078320337919067645 -0.0012509361266947099 -0.065762118806409253 -0.058280024071452122 -0.00026864653237298829 -0.0033414264725127141 -0.019646258423440886 -0.00054424965062189524 0.03963767889228053 -0.00087049366787462471 0.012946319680143051 0.017693431728553873
leaf_weight=30.73830808699131 6.9987810105085364 25.244692787528038 14.227461546659471 404.44141447544098 2377.0291301757097 9.4936995059251768 22.749485269188881 129.23890495300293 6.9968938976526251 148.9909430295229 6342.1906796693802 19.248015239834785 48.4991215467453 140.96111319959164 24.248947635293007
leaf_count=123 28 101 57 1618 9509 38 91 517 28 596 25372 77 194 564 97
internal_value=0 0.000814552 -0.00278973 0.000423349 -0.00109213 -0.00153176 -0.0159571 -0.00424533 0.0460881 -0.0250633 -3.78668e-05 0.0235871 0.0104783 0.0186387 0.0407463
internal_weight=0 7035.57 2715.73 6918.33 2407.75 2386.52 307.978 136.238 21.2244 171.74 6746.63 117.241 67.7471 171.699 49.4936
internal_count=39010 28146 10864 27677 9632 9547 1232 545 85 687 26990 469 271 687 198
is_linear=0
shrinkage=0.05


Tree=6
num_leaves=15
num_cat=0
split_feature=15 0 9 17 4 27 27 23 13 3 22 27 8 9
split_gain=12.2102 15.5783 14.897 11.9291 11.6727 22.7453 19.4482 11.6285 12.5314 9.84925 11.0469 10.1649 7.653 7.10382
threshold=-7.6816983747507437e-05 158.07792211412504 0.00099999999999056421 -0.0073643519775004043 0.050857142857139041 0.051739285714287125 0.046799999999999904 -0.0070251344392432387 -0.0019819848487796494 0.11926898809451664 -0.0065279431271301784 0.067717857142854623 6.8371393459490505e-06 0.0035000000000025015
decision_type=2 2 2 2 2 2 2 2 2 2 2 2 2 2
left_child=2 9 7 -3 6 -6 -4 8 -1 10 -2 -11 -9 -5
right_child=1 3 4 13 5 -7 -8 12 -10 11 -12 -13 -14 -15
leaf_value=-0.022593153445742264 -0.01031191448136983 -0.088910945628801752 0.0023637251291937292 0.0046186062506607091 0.016814158032012735 0.0011026911091828789 -0.012191416183890661 0.046782295415901017 0.039311324478780094 -0.054706432537403329 -0.001073647290617106 0.010720358421582161 0.0059277950334133203 -0.028962726095052654
leaf_weight=8.7470234334468824 348.9729730039835 6.2499161064624777 519.84769587218761 22.241890043020248 250.6529953032732 2854.9570812731981 407.19397953152657 11.495479032397268 53.73439422249794 5.4995858818292609 4565.6033327579498 220.96587555110455 454.65347023308277 44.49275216460228
leaf_count=35 1396 25 2080 89 1003 11422 1629 46 215 22 18264 884 1819 178
internal_value=0 -0.00159331 0.00194848 -0.0244707 0.000906538 0.00238131 -0.00400565 0.00984132 0.0301376 -0.00126132 -0.0017357 0.00890434 0.00703791 -0.0174475
internal_weight=0 5214.03 4561.28 72.9846 4032.65 3105.61 927.042 528.63 62.4814 5141.04 4914.58 226.465 466.149 66.7346
internal_count=39107 20858 18249 292 16134 12425 3709 2115 250 20566 19660 906 1865 267
is_linear=0
shrinkage=0.05


Tree=7
num_leaves=15
num_cat=0
split_feature=27 0 10 8 21 8 16 2 22 16 27 14 21 0
split_gain=11.9819 40.8559 15.7834 20.7924 10.1314 9.84091 9.65636 9.42255 8.98583 8.64848 7.21231 5.82734 3.49159 1.22443
threshold=0.20630892857142732 147.83264930480854 0.055999999999997392 2.7029492718323192e-05 -0.0014448005440515328 6.5066919713271933e-06 -0.00042170174572221279 -0.019937967209074255 0.070381258225717794 1.3335422551061766e-05 0.18166249999999898 -0.0016906321031037728 0.001880055160590042 149.03118772437165
decision_type=2 2 2 2 2 2 2 2 2 2 2 2 2 2
left_child=2 8 5 4 -4 9 -3 -7 11 -1 -5 -2 -10 -8
right_child=1 6 3 10 -6 7 13 -9 12 -11 -12 -13 -14 -15
leaf_value=0.015996675458273511 0.080346266856919285 0.023265280917316871 0.016239561865086651 -0.0046458169832141009 -0.053555240895281048 0.002101304186764678 -0.072574079356930263 -0.0013103813745668335 0.012922178922804227 -0.019142223305617358 -0.039476117105190084 0.035433229285050848 -0.0583715068255709 -0.016165373182297053
leaf_weight=151.70203280448914 10.479562863707541 3.2440774291753796 5.247984752058982 386.15952861309052 34.995192304253578 3039.2850249409676 11.493044614791868 6048.3067746460438 2.7475943863391867 18.743010684847832 15.242799237370489 44.450410977005959 2.4999652206897736 2.7466414868831626
leaf_count=607 42 13 21 1545 140 12160 46 24196 11 75 61 178 10 11
internal_value=0 0.0192678 -0.000383785 -0.00961318 -0.0437523 5.42895e-05 -0.046473 -0.000166562 0.0390055 0.0119417 -0.00607813 0.0451002 -0.0188161 -0.0643072
internal_weight=0 77.6613 9699.68 441.646 40.2432 9258.04 17.4838 9087.59 60.1775 170.445 401.402 54.93 5.24756 14.2397
internal_count=39116 311 38805 1767 161 37038 70 36356 241 682 1606 220 21 57
is_linear=0
shrinkage=0.05


Tree=8
num_leaves=14
num_cat=0
split_feature=26 17 25 27 20 27 26 18 4 17 9 15 14
split_gain=9.8257 18.5114 12.1136 10.0694 14.8902 8.98885 11.9036 8.78437 8.7156 7.08807 4.64429 4.55438 1.06243
threshold=0.00013124514714179061 0.00793823556789164 0.0033861667667562986 0.030492857142857439 -0.00035449857894696092 0.05032857142857123 0.00042198945626510897 -0.00015996731285268553 0.056428571428573916 0.025566185067432915 0.0024999999999977267 8.7369833691175472e-05 0.00011906221000634877
decision_type=2 2 2 2 2 2 2 2 2 2 2 2 2
left_child=1 2 11 4 7 8 -7 -2 -5 -6 -3 -1 -4
right_child=3 10 12 5 9 6 -8 -9 -10 -11 -12 -13 -14
leaf_value=0.064881411221402743 -0.013054865316516857 0 -0.042319337519200098 0.0017598386342579442 -0.012745782263458206 -0.003815265776193154 0.00056179546934668697 0.05758197198962578 0.011598911886115405 -0.05205302545762517 -0.080235687007917 0.003124067952601233 0
leaf_weight=22.163818985223774 5.9973788559436825 4.2481475770473471 2.4997165501117697 1731.4284521490335 165.72700403630733 2194.041668087244 5293.5189029574394 11.240972906351088 260.34502458572388 12.49908924102783 3.4988297522068024 4.4966112673282614 2.9996521025896072
leaf_count=89 24 17 10 6927 663 8777 21178 45 1042 50 14 18 12
internal_value=0 0.0245508 0.0415929 -0.000155474 -0.011375 7.38229e-05 -0.000717623 0.0319221 0.00306104 -0.0157802 -0.0413968 0.055635 -0.0212779
internal_weight=0 39.9068 32.1598 9674.8 195.464 9479.33 7487.56 17.2384 1991.77 178.226 7.74698 26.6604 5.49937
internal_count=38866 160 129 38706 782 37924 29955 69 7969 713 31 107 22
is_linear=0
shrinkage=0.05


Tree=9
num_leaves=16
num_cat=0
split_feature=21 27 4 2 0 1 18 4 3 3 22 2 10 28 10
split_gain=10.4045 11.3249 14.3406 12.1061 11.0288 10.8759 14.2398 21.5963 12.2586 12.2359 14.9731 13.7807 10.8582 6.39829 6.30728
threshold=-0.00040341973411964118 0.20630892857142732 0.22114285714285642 0.10088224928138347 147.75410692545594 144.71504294653127 -0.00027417193546194681 0.096821428571429044 -0.057791996796849016 -0.029053447662482444 -0.057867885966471314 -0.052488830842847271 0.00099999999999056421 1.7774673540658397 0.021500000000003187
decision_type=2 2 2 2 2 2 2 2 2 2 2 2 2 2 2
left_child=5 2 12 14 -5 9 8 -8 -7 11 -11 -1 -2 -4 -3
right_child=1 3 13 4 -6 6 7 -9 -10 10 -12 -13 -14 -15 -16
leaf_value=0.0081217031621522561 -0.0064327976498688121 -0.041514388796743878 -0.059888438638375924 0.058632763330236662 -0.019720195540420711 0.0014923265691008454 0.010188065638275554 -0.01222490253085406 -0.0086341878114728817 -0.080231009237622289 0.0013052764738720253 0.028952967652153574 -0.00022916068731186138 0.014551186725723057 0.013412810700967044
leaf_weight=355.59438388049603 798.58756066858768 7.2370487004518536 14.229254752397539 23.182949095964435 4.7391711622476569 764.50383542478085 618.27362254261971 128.71119610965252 486.83733201026917 5.2473570406436911 270.40499079227448 104.46832554042339 6104.1821905374527 2.7496138960123053 14.960740521550177
leaf_count=1423 3195 29 57 93 19 3059 2474 515 1948 21 1082 418 24420 11 60
internal_value=0 -0.000893453 -0.0010692 0.0226483 0.0443415 0.00274529 0.000817172 0.0062871 -0.00242932 0.00794432 -0.000298786 0.0129325 -0.0009509 -0.0463317 -0.00391346
internal_weight=0 6969.87 6919.75 50.1199 27.9221 2734.04 1998.33 746.985 1251.34 735.715 275.652 460.063 6902.77 16.9789 22.1978
internal_count=38824 27884 27683 201 112 10940 7996 2989 5007 2944 1103 1841 27615 68 89
is_linear=0
shrinkage=0.05


Tree=10
num_leaves=16
num_cat=0
split_feature=26 27 25 1 28 4 26 26 22 1 3 1 28 1 22
split_gain=9.76285 13.0792 19.7563 15.9374 15.9239 15.8841 12.4677 11.8235 23.6509 15.1504 14.2878 10.1337 24.2387 20.8805 7.11687
threshold=0.00042198945626510897 0.051262499999998067 0.0020765896891578243 143.31150678451331 0.65948926264589647 0.036928571428572157 0.00033124740542413134 0.00058240329399137671 -0.0017164015598187738 149.7157628508231 0.050622325827096713 156.52551485706866 1.7774673540658397 155.55447331998394 -0.012121724633152772
decision_type=2 2 2 2 2 2 2 2 2 2 2 2 2 2 2
left_child=1 4 3 -3 14 -6 -4 8 9 -2 -10 13 -13 -9 -1
right_child=7 2 6 -5 5 -7 -8 11 10 -11 -12 12 -14 -15 -16
leaf_value=-0.03427928618198705 0.012318762080285657 0.010848110218202213 0.011033653475101027 -0.010569944732487912 -0.0054435834464762883 0.0034630998389247021 -0.002519061454373782 -0.00077431778036729027 0.0015840518485281153 0 -0.011719623704987034 0.022831005560366189 -0.069002763781280868 -0.026819800105486166 0.03793553517603853
leaf_weight=2.9978417903184882 877.76819723844528 92.733615696430206 227.7351907491684 1103.3753828853369 783.97307655215263 1381.6015761643648 657.21933867037296 2540.4190492779016 1255.6325340569019 349.67564482986927 239.73565594851971 86.2383633852005 7.2434426397085181 78.979345589876175 37.633196160197258
leaf_count=12 3512 371 911 4414 3137 5528 2629 10165 5023 1399 959 345 29 316 151
internal_value=0 -0.00184883 -0.00469362 -0.00888468 0.000823721 0.000226682 0.000944636 0.00134189 0.00367122 0.00881438 -0.000535269 -0.000986995 0.01512 -0.00157414 0.0316476
internal_weight=0 4287.27 2081.06 1196.11 2206.21 2165.57 884.955 5435.69 2722.81 1227.44 1495.37 2712.88 93.4818 2619.4 40.631
internal_count=38901 17153 8325 4785 8828 8665 3540 21748 10893 4911 5982 10855 374 10481 163
is_linear=0
shrinkage=0.05


Tree=11
num_leaves=16
num_cat=0
split_feature=27 0 20 18 1 1 0 26 15 26 22 12 26 3 15
split_gain=13.081 29.2297 11.6381 11.3578 10.7376 10.3607 18.8508 8.0459 17.0111 8.43055 6.99322 6.25554 4.20399 2.06409 1.94868
threshold=0.20630892857142732 147.75410692545594 0.002143935064747146 0.0014422482836148303 145.48158911023151 145.548636838487 145.46359578358093 0.00013124514714179061 8.7369833691175472e-05 0.00022105491584162721 0.070381258225717794 -0.00033589941266520812 0.0011896770715812976 -0.10598730488353257 0.0047414471835054437
decision_type=2 2 2 2 2 2 2 2 2 2 2 2 2 2 2
left_child=3 2 4 7 -2 6 -5 8 -1 -9 -7 13 -13 -3 -4
right_child=1 11 14 5 -6 10 -8 9 -10 -11 -12 12 -14 -15 -16
leaf_value=0.043277592593742607 0.027585121888212528 0.038062213157923359 0.0023279086509161691 -0.040210660737597763 0.078370329765653488 -0.087037829422910717 0.082439469125991593 -0.0067906441526711901 -0.022219740866123935 0.00016696059607394589 0 -0.017376527805379564 -0.084946061672067794 -0.015999996497047524 -0.044177078562744769
leaf_weight=29.011728867888451 31.868966147303581 2.4938407838344574 2.9872818738222113 9.7462702244520205 17.889936357736588 8.9983467161655408 3.9992370158433905 456.58600464463234 13.985594704747198 9096.5628403276205 2.9986278116703025 5.9851704090833646 5.7383418530225754 3.2434198707342174 3.4949199706315994
leaf_count=117 128 10 12 39 72 36 16 1827 56 36394 12 24 23 13 14
internal_value=0 0.0209187 0.0386098 -0.00015546 0.0469395 -0.0330062 -0.0011298 -6.30144e-05 0.0213882 -0.000163294 -0.0660216 -0.0341608 -0.0546171 0.0046587 -0.020533
internal_weight=0 73.7019 56.2411 9621.89 49.7589 25.7425 13.7455 9596.15 42.9973 9553.15 11.997 17.4608 11.7235 5.73726 6.4822
internal_count=38793 296 226 38497 200 103 55 38394 173 38221 48 70 47 23 26
is_linear=0
shrinkage=0.05


Tree=12
num_leaves=15
num_cat=0
split_feature=27 1 1 27 3 28 10 4 7 20 1 1 12 28
split_gain=10.0672 19.8056 8.84211 12.0682 15.7447 15.3979 8.14412 12.2135 9.80277 7.87154 7.02984 6.87875 7.28177 1.92866
threshold=0.20630892857142732 147.59968400539739 140.70048889900224 0.083683928571429186 -0.057791996796849016 1.041301285063027 0.055999999999997392 0.22114285714285642 0.0054999999999978408 0.002143935064747146 145.41711390666237 155.24698064114969 -0.00046951010659496134 1.1078959258823891
decision_type=2 2 2 2 2 2 2 2 2 2 2 2 2 2
left_child=2 9 3 4 -1 -5 7 -4 -8 10 -2 12 -3 -11
right_child=1 11 6 5 -6 -7 8 -9 -10 13 -12 -13 -14 -15
leaf_value=-0.0094366878714678293 0.020252374233946092 0.013627927701072177 -0.00016385827768629926 -0.028571591621406885 0.083231269939082919 0.066709988135056492 -0.026881090013590171 -0.040612362616252708 -0.0042900253713118583 0.0023265042419622138 0.060083924607710816 0.033283487692519431 -0.062168774157662254 -0.045446189328819955
leaf_weight=6.2440362274646786 27.830968976020813 3.4859338253736505 9131.7326580882072 15.482830822467806 12.481337457895277 5.2431847900152198 55.226257711648941 18.208638936281204 390.1281671077013 3.4855937957763663 22.732802420854568 2.9955969750881186 10.940542951226234 2.7473200410604477
leaf_count=25 112 14 36536 62 50 21 221 73 1561 14 92 12 44 11
internal_value=0 0.0179447 -0.000473438 0.0229851 0.0515887 -0.00228621 -0.000573687 -0.000249299 -0.00717451 0.0323995 0.0390627 -0.0273729 -0.0423358 -0.0168286
internal_weight=0 74.2188 9634.75 39.4514 18.7254 20.726 9595.3 9149.94 445.354 56.7967 50.5638 17.4221 14.4265 6.23291
internal_count=38848 299 38549 158 75 83 38391 36609 1782 229 204 70 58 25
is_linear=0
shrinkage=0.05


Tree=13
num_leaves=13
num_cat=0
split_feature=26 2 3 25 26 22 25 15 13 10 25 20
split_gain=9.70205 14.1004 11.8687 8.95391 12.3727 12.4444 11.8111 8.52483 20.0843 7.34337 4.16942 1.85536
threshold=0.00013124514714179061 0.00793823556789164 -0.019959177736392521 -0.0058032639795706888 0.00035120431564301377 -0.057867885966471314 -0.025656825283034656 -0.000608901888327129 -0.00092712343209816462 0.035000000000010807 0.0028087687128379147 -1.0000000180025095e-35
decision_type=2 2 2 2 2 2 2 2 2 2 2 2
left_child=1 2 -1 4 6 -6 -2 8 -5 -9 -4 -3
right_child=3 11 10 7 5 -7 -8 9 -10 -11 -12 -13
leaf_value=-0.038834075013601643 0.052559749603670283 0 0.058486261849918411 0.0083286339783116923 -0.016505589328578991 0.0038396060386722622 -0.0048865990113960579 -0.00036698788015641481 -0.01263980297649568 -0.0058840209631863668 0.0069410776920484103 -0.052940268217488706
leaf_weight=3.7331179082393637 8.498143330216406 2.4970517307519913 23.445625141263012 151.38063701987267 76.588930249214172 2499.9964180886745 719.9753033965826 5134.0863122344017 447.5323828458786 685.10159862041473 6.2388539612293235 4.73547439277172
leaf_count=15 34 10 95 606 307 10004 2881 20540 1791 2742 25 19
internal_value=0 0.0237986 0.0378233 -0.000520454 0.00158999 0.00322206 -0.00414656 -0.00161118 -0.00729561 -0.00102126 0.0487756 -0.0360243
internal_weight=0 40.6501 33.4176 9723.16 3305.06 2576.59 728.473 6418.1 598.913 5819.19 29.6845 7.23253
internal_count=39069 164 135 38905 13226 10311 2915 25679 2397 23282 120 29
is_linear=0
shrinkage=0.05


Tree=14
num_leaves=14
num_cat=0
split_feature=6 1 21 1 3 1 22 4 22 1 12 10 20
split_gain=10.0612 14.6313 12.3787 11.9555 7.92621 23.4762 23.2454 14.791 8.52008 22.1182 7.0765 6.98517 3.9999
threshold=6.0166878297608443e-05 152.17962038358527 -0.00031113219940308464 146.53671111455634 -0.1267058681482508 145.76752961742713 0.023344278045918296 0.098785714285713991 -0.057867885966471314 149.60841148889656 -2.790791785267643e-05 0.055999999999997392 -0.00025615603151330407
decision_type=2 2 2 2 2 2 2 2 2 2 2 2 2
left_child=1 2 10 -4 5 7 -7 -2 9 -6 -1 -10 -3
right_child=4 12 3 -5 8 6 -8 -9 11 -11 -12 -13 -14
leaf_value=0.069172835340358604 -0.0052436403789224168 0.0037300036957555183 -0.036969962494107382 0.013125369224706612 0.00095890349405782513 0.0075629662820065058 -0.034901757093955106 0.041015322476726963 -0.00022467259587115323 -0.061715855437533586 0.011100477159354485 -0.0069064901392070404 0.073001475041403613
leaf_weight=9.2351652830839175 21.988263383507729 3.4956381469964972 20.224612280726433 26.675823882222176 42.624505758285522 137.64836239814758 41.428198143839836 65.8635194003582 8944.3165096342564 19.968155041337013 14.715038031339644 409.15975558757782 12.216395035386084
leaf_count=37 88 14 81 107 171 551 166 264 35788 80 59 1638 49
internal_value=0 0.0166665 0.00641631 -0.00811164 -0.000402786 0.00807859 -0.00219158 0.0291901 -0.000646289 -0.0189698 0.0354722 -0.000519989 0.0597223
internal_weight=0 86.5627 70.8506 46.9004 9683 266.928 179.077 87.8518 9416.07 62.5927 23.9502 9353.48 15.712
internal_count=39093 347 284 188 38746 1069 717 352 37677 251 96 37426 63
is_linear=0
shrinkage=0.05


Tree=15
num_leaves=16
num_cat=0
split_feature=26 15 27 1 21 1 26 1 1 23 29 3 26 2 3
split_gain=9.26713 11.2138 6.8503 17.0958 9.60145 7.55144 27.6258 18.0998 6.05499 6.75267 5.70716 8.49657 3.92063 2.63405 1.95968
threshold=0.00013124514714179061 8.7369833691175472e-05 0.026953571428569443 145.02395174102867 -0.00038630961178821556 147.51051110458016 0.0013584911259425685 146.80225637806691 150.83017489567189 -0.00010458780876899724 1.5000000000000002 0.0040731700456313209 0.00016816032094163364 0.0065006038113182294 -0.0082976687375092284
decision_type=2 2 2 2 2 2 2 2 2 2 2 2 2 2 2
left_child=1 8 3 12 -5 7 -7 -4 9 -1 14 -12 -2 -10 -3
right_child=2 10 5 4 -6 6 -8 -9 13 -11 11 -13 -14 -15 -16
leaf_value=0.048563423914805733 -0.014407628760173086 -0.010835389857729567 0.00047327875339519355 0.059957091113496855 -0.0054556636559433408 -0.0005481776425238442 -0.047886682012193593 0.0083929476494393664 0.07290727111772688 -0.017574211756134175 0.067653219542108498 -0.039439342845955024 -0.060828851765771644 0.0037382375422544199 -0.076464020361552129
leaf_weight=6.9281678795814514 8.7411152422428149 3.7459895610809326 3922.3910802602768 5.7329101264476767 54.478579714894295 4812.8353019505739 30.537591725587845 885.87856131792068 12.394361764192579 6.9297753721475619 3.4941893219947815 2.730258896946907 17.488939389586449 2.477809026837348 2.7409340739250165
leaf_count=28 35 15 15696 23 218 19256 123 3545 51 28 14 11 70 10 11
internal_value=0 0.0239712 0.00040483 -0.0135565 0.000803184 0.000533156 -0.000856722 0.00193832 0.0412721 0.0142893 -0.013322 0.0175212 -0.0468532 0.063506 -0.0456312
internal_weight=0 41.4415 9738.08 86.4415 60.2115 9651.64 4843.37 4808.27 28.7301 13.8579 12.7114 6.22445 26.2301 14.8722 6.48692
internal_count=39134 168 38966 346 241 38620 19379 19241 117 56 51 25 105 61 26
is_linear=0
shrinkage=0.05


Tree=16
num_leaves=16
num_cat=0
split_feature=27 4 25 25 27 25 1 1 26 1 1 1 25 6 3
split_gain=11.7708 11.3015 28.8487 22.1747 15.1982 14.0938 21.1066 13.2178 10.8997 17.1821 13.1026 13.0529 10.937 8.4363 1.67332
threshold=0.05032857142857123 0.051357142857143455 0.01139766429937533 -0.026370866350031493 0.063610714285714284 -0.001849333880979555 142.44706451381941 154.61391001086227 0.00038271958567802697 157.483509050615 143.5665637926717 143.89162673271281 0.015213251960149126 0.00031952722975882531 0.028341142894672905
decision_type=2 2 2 2 2 2 2 2 2 2 2 2 2 2 2
left_child=8 2 3 -2 -4 6 -3 -7 10 13 12 -12 -1 -10 -11
right_child=1 5 4 -5 -6 7 -8 -9 9 14 11 -13 -14 -15 -16
leaf_value=-0.012767256562197311 0.085198548601878352 0.024201231870615628 0.025002722441965677 -0.010971360140686452 -0.018103656544803445 -0.0032832826079302827 0.0016579298668543175 0.0057639266393992774 0.036592391518138222 -0.077286530620748167 0.028187971303700307 0.0026968068430213189 0.05819715159624627 0.011212031402982768 -0.010263173711193611
leaf_weight=178.3509614020586 5.4954859614372245 107.39312541484833 97.737280875444412 702.12431624531746 24.745354920625687 3198.0263632982969 2942.7136722654104 459.84906022250652 40.447534009814262 4.7471996396780005 51.489161863923073 1753.5824828445911 4.9994482398033133 204.53860247135162 2.4982053190469742
leaf_count=714 22 430 391 2809 99 12796 11776 1840 162 19 206 7019 20 819 10
internal_value=0 -0.00072709 -0.00622894 -0.0101296 0.0160524 -4.21048e-05 0.0024637 -0.00213845 0.00339935 0.0131996 0.00214061 0.00344539 -0.0105433 0.0155702 -0.059559
internal_weight=0 7538.08 830.102 707.62 122.483 6707.98 3050.11 3657.88 2240.65 252.232 1988.42 1805.07 183.35 244.986 7.2454
internal_count=39132 30163 3321 2831 490 26842 12206 14636 8969 1010 7959 7225 734 981 29
is_linear=0
shrinkage=0.05


end of trees

feature_importances:
ema_slow=36
atr_ma=23
macd_strength=19
atr_normalized=19
macd_signal=16
ema_fast=15
return_12=13
macd_hist=11
atr=10
atr_ratio=8
macd=7
lower_shadow=7
return_6=7
price_ema_fast_dist=7
upper_shadow=5
ema_cross=5
ema_cross_pct=5
price_ema_slow_dist=5
return_1=4
body_pct=3
return_3=3
macd_hist_change=3
range=2
range_pct=2
log_return=2
body=1
signal_convergence=1

parameters:
[boosting: gbdt]
[objective: binary]
[metric: binary_logloss]
[tree_learner: serial]
[device_type: cpu]
[data: ]
[valid: ]
[num_iterations: 300]
[learning_rate: 0.05]
[num_leaves: 16]
[num_threads: 8]
[deterministic: 0]
[force_col_wise: 0]
[force_row_wise: 0]
[histogram_pool_size: -1]
[max_depth: 4]
[min_data_in_leaf: 10]
[min_sum_hessian_in_leaf: 0.001]
[bagging_fraction: 0.8]
[pos_bagging_fraction: 1]
[neg_bagging_fraction: 1]
[bagging_freq: 1]
[bagging_seed: 400]
[feature_fraction: 0.7]
[feature_fraction_bynode: 1]
[feature_fraction_seed: 30056]
[extra_trees: 0]
[extra_seed: 12879]
[early_stopping_round: 0]
[first_metric_only: 0]
[max_delta_step: 0]
[lambda_l1: 0.5]
[lambda_l2: 0.5]
[linear_lambda: 0]
[min_gain_to_split: 0]
[drop_rate: 0.1]
[max_drop: 50]
[skip_drop: 0.5]
[xgboost_dart_mode: 0]
[uniform_drop: 0]
[drop_seed: 17869]
[top_rate: 0.2]
[other_rate: 0.1]
[min_data_per_group: 100]
[max_cat_threshold: 32]
[cat_l2: 10]
[cat_smooth: 10]
[max_cat_to_onehot: 4]
[top_k: 20]
[monotone_constraints: ]
[monotone_constraints_method: basic]
[monotone_penalty: 0]
[feature_contri: ]
[forcedsplits_filename: ]
[refit_decay_rate: 0.9]
[cegb_tradeoff: 1]
[cegb_penalty_split: 0]
[cegb_penalty_feature_lazy: ]
[cegb_penalty_feature_coupled: ]
[path_smooth: 0]
[interaction_constraints: ]
[verbosity: 1]
[saved_feature_importance_type: 0]
[linear_tree: 0]
[max_bin: 255]
[max_bin_by_feature: ]
[min_data_in_bin: 3]
[bin_construct_sample_cnt: 200000]
[data_random_seed: 175]
[is_enable_sparse: 1]
[enable_bundle: 1]
[use_missing: 1]
[zero_as_missing: 0]
[feature_pre_filter: 1]
[pre_partition: 0]
[two_round: 0]
[header: 0]
[label_column: ]
[weight_column: ]
[group_column: ]
[ignore_column: ]
[categorical_feature: ]
[forcedbins_filename: ]
[precise_float_parser: 0]
[parser_config_file: ]
[objective_seed: 16083]
[num_class: 1]
[is_unbalance: 0]
[scale_pos_weight: 1]
[sigmoid: 1]
[boost_from_average: 1]
[reg_sqrt: 0]
[alpha: 0.9]
[fair_c: 1]
[poisson_max_delta_step: 0.7]
[tweedie_variance_power: 1.5]
[lambdarank_truncation_level: 30]
[lambdarank_norm: 1]
[label_gain: ]
[lambdarank_position_bias_regularization: 0]
[eval_at: ]
[multi_error_top_k: 1]
[auc_mu_weights: ]
[num_machines: 1]
[local_listen_port: 12400]
[time_out: 120]
[machine_list_filename: ]
[machines: ]
[gpu_platform_id: -1]
[gpu_device_id: -1]
[gpu_use_dp: 0]
[num_gpu: 1]

end of parameters

pandas_categorical:[]
