tree
version=v4
num_class=1
num_tree_per_iteration=1
label_index=0
max_feature_idx=31
objective=binary sigmoid:1
feature_names=rsi bb_middle bb_upper bb_lower atr range range_pct body body_pct upper_shadow lower_shadow is_bullish return_1 return_3 return_6 return_12 log_return rsi_normalized rsi_overbought rsi_oversold rsi_divergence bb_width bb_position bb_position_normalized price_bb_upper_dist price_bb_lower_dist bb_breakout_upper bb_breakout_lower atr_normalized atr_ma atr_ratio signal_convergence
feature_infos=[0:99.755467076367083] [0:158.45214999999999] [0:158.98423446083257] [0:158.37119522484221] [0:0.55142857142856927] [0:1.4489999999999839] [0:0.0098924731182794597] [0:1.2740000000000009] [0:0.0087871159085422691] [0:0.45400000000000773] [0:0.6290000000000191] [0:1] [-0.010440345742870893:0.0086544548876104077] [-0.010346048081897208:0.011121306408549358] [-0.012740376631571793:0.01214236927980572] [-0.015822511541399464:0.020290175029493485] [-0.010495228483220405:0.0086172197717689965] [-1:0.99510934152734165] [0:1] [0:1] [-56.904350987366826:51.361182180793548] [0:0.031342652110744211] [-0.54651378490698344:1.552884196153675] [-2.0930275698139669:2.10576839230735] [-0.0045480417175792053:0.02223832595088774] [-0.0050724392954735378:0.027298010487932362] [0:1] [0:1] [0:0.0037228501986805917] [0:0.42936785714285552] [0:3.4066658717779674] [0:1]
tree_sizes=3463 3511 3502 3447 3498

Tree=0
num_leaves=31
num_cat=0
split_feature=0 2 30 10 2 21 14 15 4 10 0 2 8 8 30 4 1 30 30 21 4 4 4 1 21 24 24 13 1 24
split_gain=22.6426 11.829 11.1337 11.8056 15.6734 9.50628 10.5746 9.72589 8.93297 8.67054 9.79552 8.25904 11.6635 9.01644 8.7187 7.9133 13.5277 7.77315 7.60738 10.3449 14.1454 9.86255 12.8457 10.2227 9.74997 11.4116 9.42123 8.14186 7.9997 7.81106
threshold=46.483334929647519 140.87113248888707 1.7100580014805662 0.035499999999998984 150.15938744053992 0.0031485752645126299 -2.0776343756190304e-05 0.00081049678135025627 0.072678571428573355 0.0035000000000025015 47.576676412999397 145.5315190404439 0.00083623120039961292 6.7702973542849704e-06 0.84335790684894685 0.062999999999997322 143.92362500000004 1.5450509408985569 1.2033790971264369 0.0021269426473332791 0.040357142857143716 0.060357142857143796 0.075642857142857997 147.12262500000003 0.0019970455767887702 0.00047735588000724763 0.0029479499369844124 -0.000270965083452479 157.36795000000004 0.0017908361872783251
decision_type=2 2 2 2 2 2 2 2 2 2 2 2 2 2 2 2 2 2 2 2 2 2 2 2 2 2 2 2 2 2
left_child=5 8 3 9 11 6 18 -8 -2 10 -3 12 14 -13 -5 16 -7 -15 24 20 27 23 29 -21 25 -1 -26 -20 -22 -23
right_child=1 2 -4 4 -6 15 7 -9 -10 -11 -12 13 -14 17 -16 -17 -18 -19 19 21 28 22 -24 -25 26 -27 -28 -29 -30 -31
leaf_value=0.023519586425167702 0.052424473674868702 -0.0084357761725984536 0.0192240044530709 0.013252401460573646 -0.0061965733073288051 0.025854941254793117 0.0074601188376624142 0.05587150951394651 0.012057603281734558 0.0080243216450971884 0.0055942072269698495 -0.020481798691013006 0.029098938683901843 0.011140658271527652 -0.0040258617734143555 0.0077836390352740833 -0.020110978628599549 -0.017148413843018948 0.01946722597259562 -0.037662711310787932 0.025809653708844159 -0.0062508253551659121 0.0080809349234753584 0.0078473197498759081 0.015050770474939017 0.0087876424559036638 -0.0058264625627165254 -0.019542688492227872 0.0022918399113208091 0.036176781869945912
leaf_weight=49.249195665121078 8.249865263700487 46.499240577220917 62.748975187540054 29.999510049819946 139.49772173166275 6.9998856782913235 712.73835960030556 3.2499469220638266 13.749775439500807 2986.9512172937393 1229.2299242913723 8.4998611807823163 11.499812185764311 235.74614980816841 154.99746859073639 817.48664885759354 21.499648869037628 8.4998611807823163 7.2498815953731564 6.7498897612094906 149.7475543320179 3.749938756227496 100.99835050106049 13.249783605337141 552.74097266793251 1058.4827129244804 19.249685615301132 10.999820351600645 12.999787688255308 26.499567210674286
leaf_count=197 33 186 251 120 558 28 2851 13 55 11948 4917 34 46 943 620 3270 86 34 29 27 599 15 404 53 2211 4234 77 44 52 106
internal_value=0.00808093 0.00684798 0.00674588 0.00658026 0.00259467 0.00998293 0.0108457 0.007734 0.0285109 0.00713483 0.0050648 0.0053707 0.000757785 0.00890514 -0.00113673 0.00721844 -0.00819206 0.0100454 0.0119604 0.0161335 0.0209799 0.0102117 0.0133044 -0.00898512 0.0111239 0.00946282 0.0143104 -0.00335521 0.0238273 0.0302818
internal_weight=0 4936.17 4914.17 4851.42 588.74 3573.94 2727.96 715.988 21.9996 4262.68 1275.73 449.243 196.497 252.746 184.997 845.986 28.4995 244.246 2011.97 332.245 180.997 151.248 131.248 19.9997 1679.72 1107.73 571.991 18.2497 162.747 30.2495
internal_count=34041 19745 19657 19406 2355 14296 10912 2864 88 17051 5103 1797 786 1011 740 3384 114 977 8048 1329 724 605 525 80 6719 4431 2288 73 651 121
is_linear=0
shrinkage=1


Tree=1
num_leaves=31
num_cat=0
split_feature=1 4 30 14 22 30 17 28 30 3 17 5 30 3 25 12 15 15 15 6 21 17 22 21 28 13 1 3 1 1
split_gain=14.1224 17.6035 9.77424 11.0705 9.57417 14.7493 13.2651 12.7366 18.6518 15.3098 13.0388 10.6817 10.8917 18.6325 11.7374 11.189 11.0217 9.77316 14.6753 9.63862 8.95795 10.8293 8.87841 8.87449 8.23474 8.04176 7.89374 7.85235 11.6039 9.87688
threshold=140.71552500000004 0.072678571428573355 1.0054654831629164 0.00023679766091844193 0.38200382005058497 1.7100580014805662 0.035955857756230648 0.00062219260501870553 1.3531295595956119 156.655726122435 -0.46238607628919659 0.0084999999999979554 1.0181538588317509 151.81253150292818 0.0075481002588250199 -0.00032908574397810803 0.0012107725656193005 0.0013039070926592624 0.002187739933662503 0.00014898386234578134 0.0038616703371587009 -0.0021742270047649722 0.22637432249920444 0.00044910372211925785 0.00057418980470645752 -4.7454249216427595e-05 142.39240000000004 143.7206101979821 142.45445000000004 144.19927500000003
decision_type=2 2 2 2 2 2 2 2 2 2 2 2 2 2 2 2 2 2 2 2 2 2 2 2 2 2 2 2 2 2
left_child=1 -1 3 -3 6 11 7 8 23 27 22 -6 15 14 16 -13 -14 19 -19 -17 21 -15 25 -2 -22 -10 -8 28 -9 -29
right_child=4 2 -4 -5 5 -7 26 9 10 -11 -12 12 13 20 -16 17 -18 18 -20 -21 24 -23 -24 -25 -26 -27 -28 29 -30 -31
leaf_value=0.04805771508479114 0.022434678483652944 0.0044166168848936991 0.023444096541954059 -0.050776695487183408 -0.019638316016280109 0.012877966347246835 0.031698896711474168 -0.013768681431976253 -0.0016890159371440855 0.024692140297724173 0.01845815553987918 -0.0068381847640171956 -0.0027382900889330463 -0.00042879062755918568 -0.033045199992121729 -0.0052605088224993461 0.0029160924000824935 -0.0070431301096535275 0.0057623831846090089 0.0017978242705681874 0.029078008669214912 -0.014373085682628463 -0.042674233333898672 0.0017676972746908258 -0.0033245010332377174 0.041954503128491805 -0.011949857470490419 -0.029708886450835695 0.0065652430170040433 -0.0033456006357906781
leaf_weight=11.745429158210753 18.498265743255615 8.9997007101774233 11.499658212065695 4.2498917728662482 27.249566361308098 68.743940860033035 3.249775141477584 29.499280855059624 31.497048854827881 18.749619960784912 106.48888456821442 194.24691401422024 1109.9793496131897 67.998353615403175 9.9996771514415723 186.49744211137295 427.99261520802975 306.74540089070797 107.49803820252419 2377.9624329656363 8.7498869448900205 217.99713262915611 3.7497898489236823 2267.6709711402655 27.249652251601219 3.7496736943721762 87.498695686459541 12.749601796269415 150.99628210067749 613.7350387275219
leaf_count=47 74 36 46 17 109 275 13 118 126 75 426 777 4440 272 40 746 1712 1227 430 9512 35 872 15 9071 109 15 350 51 604 2455
internal_value=0 0.0185319 0.00325134 -0.0133987 -4.32052e-05 -0.000858197 0.00120315 0.00152296 0.00261841 -0.00168445 0.0130336 -0.00104865 -0.000943288 -0.00275941 -0.00138088 0.000122579 -0.00115458 0.00058261 -0.00368093 0.00127774 -0.00932769 -0.0111166 -0.00144588 0.00194635 0.00443059 0.00305621 -0.0100572 -0.00233078 0.00313024 -0.00392931
internal_weight=0 36.4947 24.7493 13.2496 8487.04 5138.91 3348.13 3257.38 2431.65 825.73 145.485 5070.17 5042.92 1869.97 1547.97 3172.95 1537.97 2978.7 414.243 2564.46 321.995 285.995 38.9965 2286.17 35.9995 35.2467 90.7485 806.98 180.496 626.485
internal_count=34095 146 99 53 33949 20556 13393 13030 9727 3303 582 20281 20172 7480 6192 12692 6152 11915 1657 10258 1288 1144 156 9145 144 141 363 3228 722 2506
is_linear=0
shrinkage=0.03


Tree=2
num_leaves=31
num_cat=0
split_feature=2 17 29 14 28 23 21 20 2 2 4 29 25 20 22 25 2 20 2 24 15 4 21 29 9 2 24 12 24 4
split_gain=17.2612 16.1474 17.6119 12.4491 10.6523 16.4846 13.1027 15.0168 10.3091 9.9722 9.7874 19.3831 11.3635 19.052 10.5177 10.1382 9.67705 13.0974 12.6711 14.403 11.1994 12.5811 9.9831 9.43573 9.30729 10.6418 17.026 9.14363 9.04375 8.91841
threshold=140.87113248888707 -0.059017997003041806 0.05032857142857123 -0.00046496340384888363 0.00035786421068860589 -0.037001012662188019 0.0013402948040160537 1.4014723601733901 158.12940870618817 144.44161333155287 0.19007142857143275 0.17553571428571407 0.0020829356815779045 0.76707934319688686 0.11193619700766423 0.0021628507854253277 157.32902341004328 7.2841774401847923 147.41725771431854 0.0012521279588898597 -0.0012395360649521401 0.034000000000002986 0.0008921832058020198 0.03253035714285616 0.00099999999999056421 148.20679184505647 0.0013192258183701408 -0.00035188689099602261 0.00080755742811180391 0.075999999999998499
decision_type=2 2 2 2 2 2 2 2 2 2 2 2 2 2 2 2 2 2 2 2 2 2 2 2 2 2 2 2 2 2
left_child=29 2 16 9 5 24 7 -7 -5 -3 12 -12 27 -14 -13 -15 17 18 20 22 -2 -22 -20 -18 -4 26 -26 -6 -10 -1
right_child=1 3 4 8 10 6 -8 -9 28 -11 11 14 13 15 -16 -17 23 -19 19 -21 21 -23 -24 -25 25 -27 -28 -29 -30 -31
leaf_value=0.037288068661955269 -0.01278963917233164 0.0027987758506028415 0.0053749745142718181 -0.00040963525246921973 -0.0024953980553585561 0.049530095829357738 -0.0093566967847372642 -0.00026227592448611404 -0.016698781390073639 -0.0079067085419891863 -0.030463037419708867 0.044683020912897338 0.034673079668620092 0.047829573028238641 -0.0025946652152565768 -0.0039084239508737221 0.020003415483378514 -0.0070585742115417353 0.013902574667029908 0.019362580941964337 -0.0047942236697658368 0.0087956145628760186 0.0020697088906898634 -0.0099272432518091418 -0.020738287974778644 -0.0016764515128238875 -0.00010324072605563489 0.002023072617532038 0.015837014237136449 0.0061696964819557346
leaf_weight=15.979579523205755 35.242634505033493 95.997189611196518 49.498296618461609 4273.9059206843376 511.97733551263809 12.749570637941366 10.999784305691717 8.2497878372669202 57.248384296894073 379.49187375605106 25.249640628695488 4.4997128993272808 23.999388292431831 3.2499573528766623 24.749377027153969 35.999231174588203 10.498859971761702 59.995833680033684 110.74160405993462 127.22992449998856 83.994220122694969 213.48469680547714 160.74066926538944 60.497024983167648 104.49691142141819 121.99572479724884 56.997559159994125 1854.9227774143219 7.9997504204511634 19.99570819735527
leaf_count=64 141 384 198 17096 2048 51 44 33 229 1518 101 18 96 13 99 144 42 240 443 509 336 854 643 242 418 488 228 7420 32 80
internal_value=0 4.06422e-05 0.00152904 -0.00110382 0.000386233 -0.00438771 0.0158883 0.0297198 -0.000594671 -0.00571318 0.00109429 -0.0113916 0.00138276 0.0139011 0.00480312 0.000546034 0.0052853 0.00624593 0.00736181 0.0109802 0.00297072 0.00490653 0.00696834 -0.00518236 -0.00640205 -0.00851702 -0.0135708 0.00103904 -0.0123915 0.0207248
internal_weight=0 8526.7 3712.06 4814.64 2849.64 364.988 31.9991 20.9994 4339.15 475.489 2484.65 54.4987 2430.15 63.2486 29.2491 39.2492 862.425 791.43 731.434 398.712 332.722 297.479 271.482 70.9959 332.988 283.49 161.494 2366.9 65.2481 35.9753
internal_count=34252 34108 14849 19259 11399 1460 128 84 17357 1902 9939 218 9721 253 117 157 3450 3166 2926 1595 1331 1190 1086 284 1332 1134 646 9468 261 144
is_linear=0
shrinkage=0.03


Tree=3
num_leaves=31
num_cat=0
split_feature=2 0 29 29 29 2 1 0 12 0 4 30 29 1 1 29 24 8 4 21 25 22 21 21 2 3 24 2 24 24
split_gain=15.3158 11.4152 13.0751 16.1636 10.8011 12.3503 17.3158 12.1307 11.5489 12.2089 10.0237 11.0876 9.52065 9.48863 12.5314 17.1636 11.0702 14.4264 10.2456 9.4758 8.99595 8.40785 8.23468 8.2125 7.90977 9.42026 8.23017 7.90817 8.225 8.54791
threshold=140.87113248888707 47.230454531618228 0.05032857142857123 0.053219642857144124 0.043664285714284046 144.28269980412077 147.74157500000004 78.242647269260274 0.00016928494044277101 70.446012834296553 0.072678571428573355 0.9031571147326064 0.053474999999998225 147.34337500000004 147.694625 0.032978571428570448 0.0012521279588898597 0.00032778857798510116 0.036928571428572157 0.0019431411921222157 0.00036423535651517548 0.67043919616418812 0.0027941049946262281 0.001522459246937386 148.95747368986437 149.72118868632626 0.00014633961654376249 142.69940167652351 0.00080755742811180391 0.00044388630791988295
decision_type=2 2 2 2 2 2 2 2 2 2 2 2 2 2 2 2 2 2 2 2 2 2 2 2 2 2 2 2 2 2
left_child=10 2 13 -4 5 19 8 24 -7 -10 -1 -12 -5 27 18 23 20 -18 -15 21 -17 -3 -13 -16 26 -26 -8 28 29 -2
right_child=1 4 3 12 -6 6 7 -9 9 -11 11 22 -14 14 15 16 17 -19 -20 -21 -22 -23 -24 -25 25 -27 -28 -29 -30 -31
leaf_value=0.041308148931140855 0.018972195282437657 -0.0062327340363320556 -0.0086149352985538333 0.024565486784367489 -0.00051879051121140099 0.0059852761462570667 -0.026996648795787389 -0.023451932623233467 -0.017808920247866688 0.0071958067887081794 -0.027805954266183833 0 0.00056687917322063158 0.0035827891005388995 0.012862473373350928 0.0018468678393715585 0.014866310005195492 -0.0089161294141152612 0.026856063443950754 0.018932874810652318 -0.011272774595396993 -0.02752491689233038 0.037179332988047153 0.04146247277400187 0.015301180946016683 -0.0044139054381597083 -0.0070758718437069663 -0.00073746648735726033 0.031563817432430488 -0.01803291756340665
leaf_weight=11.960168093442915 11.747861742973329 31.499207392334938 177.98752465844154 14.498368144035338 4086.6599908620119 206.99686275422573 25.249451637268066 39.249246299266815 43.749175503849983 27.749190807342529 5.498575925827029 10.496951773762705 2676.6023857146502 29.247546017169952 76.732699081301689 146.98363552987576 92.720668807625771 29.240457013249397 47.237027272582054 5.7497502565383902 67.746742874383926 42.249355331063271 9.7464365661144239 10.744094312191008 24.749424278736115 153.49534967541695 83.998734042048454 336.96094720065594 13.998290404677389 9.7487442940473539
leaf_count=48 47 126 712 58 16347 828 101 157 175 111 22 42 10707 117 307 588 371 117 189 23 271 169 39 43 99 614 336 1348 56 39
internal_value=0 -0.000133072 0.00110526 0.000121403 -0.00110745 -0.00459585 -0.0030978 -0.00778818 0.00235549 -0.00791343 0.0189039 0.00733412 0.000706284 0.00431916 0.00701772 0.00494113 0.0018053 0.0090288 0.0182323 -0.0157227 -0.00223922 -0.0187359 0.0180423 0.0167614 -0.00556064 -0.00155739 -0.0119187 0.000647018 0.0140346 0.00147996
internal_weight=0 8513.59 3742.2 2869.09 4771.4 684.736 605.237 326.742 278.495 71.4984 37.7021 25.742 2691.1 873.109 500.653 424.168 336.692 121.961 76.4846 79.4983 214.73 73.7486 20.2434 87.4768 287.493 178.245 109.248 372.456 35.4949 21.4966
internal_count=34207 34056 14970 11477 19086 2739 2421 1307 1114 286 151 103 10765 3493 2003 1697 1347 488 306 318 859 295 81 350 1150 713 437 1490 142 86
is_linear=0
shrinkage=0.03


Tree=4
num_leaves=31
num_cat=0
split_feature=2 17 15 28 4 30 12 4 21 3 14 9 6 1 30 14 12 1 23 8 6 1 28 14 13 1 20 0 0 9
split_gain=18.0875 14.7049 12.1112 13.4627 13.2354 11.7553 9.90683 9.6806 8.79941 8.54253 7.31247 7.23952 12.4071 11.146 10.5262 7.77323 6.9377 6.90539 6.88741 7.10769 9.21062 6.66962 6.62561 7.2111 6.59909 6.43308 6.38556 6.30982 7.01082 14.3236
threshold=140.87113248888707 -0.070226282119524711 -0.0019232131980224108 0.00041661320561103631 0.07400000000000316 1.7100580014805662 -0.0009280951782634771 0.075999999999998499 0.0028361809903757018 143.34376882594779 -0.00015247758752912063 0.041499999999999211 0.00052905246748309609 156.53145000000004 1.3531295595956119 -0.00056842602176598856 -0.0001500825457422805 150.04520000000005 -0.27391882066380596 6.9230023689287053e-06 0.00063128297085794541 142.19995000000003 0.00047350620183532249 -0.00085379424173648289 -0.0019819848487796494 142.77867500000002 8.1426417047789474 63.932696952576215 65.730738737074105 0.00099999999999056421
decision_type=2 2 2 2 2 2 2 2 2 2 2 2 2 2 2 2 2 2 2 2 2 2 2 2 2 2 2 2 2 2
left_child=7 2 3 -2 22 16 17 -1 -9 21 -11 12 14 -14 15 -8 24 -4 19 -6 -21 -7 23 -5 -3 -16 -18 -28 29 -29
right_child=1 5 6 4 18 9 11 8 -10 10 -12 -13 13 -15 25 -17 26 -19 -20 20 -22 -23 -24 -25 -26 -27 27 28 -30 -31
leaf_value=0.036876690958805802 -0.030965043900978345 0.024897938334851759 0.022620403376276774 0.012864073370361462 0.026280440970879084 0.022464486791095386 0.0052247673165833827 -0.0096910181523872825 0.029004717091779524 -0.007977498083573592 0.021891240429318039 0.0068769723430803622 -0.0027503801893703876 0.016266325697307498 -0.014835500036952507 0.0010340078484633213 -0.00012411433307435134 -0.0048693822615303176 0.023889197433180496 -0.010665499782876581 -0.0013543137686266857 -0.01963389305792437 0.030627256171412591 -0.027259216832458927 -0.0035851094840617078 0.016016104520134862 -0.0062411831771293971 -0.046316772887794233 -0.0019102698897015976 0.019078323342316881
leaf_weight=17.404426977038383 14.496924191713331 6.7496390193700782 33.995524674654007 18.496716648340225 6.2494471818208686 3.9989027678966513 554.43943099677563 12.2466436624527 8.2390972226858121 7.7486517876386634 44.239045098423958 242.97211854159832 679.93977914750576 28.246238350868225 5.7489899545907965 1461.1062644869089 3113.9233082681894 9.4983611553907377 7.498867228627204 144.74076296389103 293.98346099257469 11.497230991721151 14.498631969094275 4.4997145980596569 1103.2269462049007 71.955422192811966 335.2424488812685 2.749967396259307 233.74404995143414 30.749281421303749
leaf_count=70 58 27 136 74 25 16 2218 49 33 31 177 972 2720 113 23 5845 12456 38 30 579 1176 46 58 18 4413 288 1341 11 935 123
internal_value=0 -5.44299e-05 0.00140117 -0.00289397 -0.00200211 -0.00112602 0.00210808 0.0205835 0.00547739 0.0112395 0.01712 0.00189791 0.00145957 -0.00195979 0.00262376 0.00219526 -0.00130317 0.016289 -0.00345368 -0.00397444 -0.00446899 -0.00746973 0.0149349 0.00396174 -0.00338727 0.0134615 -0.000676311 -0.00350297 -6.77314e-06 0.0126666
internal_weight=0 8486.24 3592.37 504.465 489.968 4893.87 3087.9 37.8902 20.4857 67.4838 51.9877 3044.41 2801.44 708.186 2093.25 2015.55 4826.39 43.4939 452.473 444.974 438.724 15.4961 37.4951 22.9964 1109.98 77.7044 3716.41 602.486 267.243 33.4992
internal_count=34099 33947 14371 2018 1960 19576 12353 152 82 270 208 12179 11207 2833 8374 8063 19306 174 1810 1780 1755 62 150 92 4440 311 14866 2410 1069 134
is_linear=0
shrinkage=0.03


end of trees

feature_importances:
bb_middle=14
bb_upper=14
atr=13
bb_width=11
atr_ratio=11
price_bb_upper_dist=10
atr_ma=8
rsi=7
return_6=6
return_12=6
bb_lower=5
return_1=5
rsi_normalized=5
atr_normalized=5
body_pct=4
rsi_divergence=4
bb_position=4
price_bb_lower_dist=4
range_pct=3
upper_shadow=3
return_3=3
lower_shadow=2
bb_position_normalized=2
range=1

parameters:
[boosting: gbdt]
[objective: binary]
[metric: binary_logloss]
[tree_learner: serial]
[device_type: cpu]
[data: ]
[valid: ]
[num_iterations: 800]
[learning_rate: 0.03]
[num_leaves: 31]
[num_threads: 8]
[deterministic: 0]
[force_col_wise: 0]
[force_row_wise: 0]
[histogram_pool_size: -1]
[max_depth: 8]
[min_data_in_leaf: 10]
[min_sum_hessian_in_leaf: 0.001]
[bagging_fraction: 0.7]
[pos_bagging_fraction: 1]
[neg_bagging_fraction: 1]
[bagging_freq: 1]
[bagging_seed: 400]
[feature_fraction: 0.8]
[feature_fraction_bynode: 1]
[feature_fraction_seed: 30056]
[extra_trees: 0]
[extra_seed: 12879]
[early_stopping_round: 0]
[first_metric_only: 0]
[max_delta_step: 0]
[lambda_l1: 0.5]
[lambda_l2: 0.5]
[linear_lambda: 0]
[min_gain_to_split: 0]
[drop_rate: 0.1]
[max_drop: 50]
[skip_drop: 0.5]
[xgboost_dart_mode: 0]
[uniform_drop: 0]
[drop_seed: 17869]
[top_rate: 0.2]
[other_rate: 0.1]
[min_data_per_group: 100]
[max_cat_threshold: 32]
[cat_l2: 10]
[cat_smooth: 10]
[max_cat_to_onehot: 4]
[top_k: 20]
[monotone_constraints: ]
[monotone_constraints_method: basic]
[monotone_penalty: 0]
[feature_contri: ]
[forcedsplits_filename: ]
[refit_decay_rate: 0.9]
[cegb_tradeoff: 1]
[cegb_penalty_split: 0]
[cegb_penalty_feature_lazy: ]
[cegb_penalty_feature_coupled: ]
[path_smooth: 0]
[interaction_constraints: ]
[verbosity: 1]
[saved_feature_importance_type: 0]
[linear_tree: 0]
[max_bin: 255]
[max_bin_by_feature: ]
[min_data_in_bin: 3]
[bin_construct_sample_cnt: 200000]
[data_random_seed: 175]
[is_enable_sparse: 1]
[enable_bundle: 1]
[use_missing: 1]
[zero_as_missing: 0]
[feature_pre_filter: 1]
[pre_partition: 0]
[two_round: 0]
[header: 0]
[label_column: ]
[weight_column: ]
[group_column: ]
[ignore_column: ]
[categorical_feature: ]
[forcedbins_filename: ]
[precise_float_parser: 0]
[parser_config_file: ]
[objective_seed: 16083]
[num_class: 1]
[is_unbalance: 0]
[scale_pos_weight: 1]
[sigmoid: 1]
[boost_from_average: 1]
[reg_sqrt: 0]
[alpha: 0.9]
[fair_c: 1]
[poisson_max_delta_step: 0.7]
[tweedie_variance_power: 1.5]
[lambdarank_truncation_level: 30]
[lambdarank_norm: 1]
[label_gain: ]
[lambdarank_position_bias_regularization: 0]
[eval_at: ]
[multi_error_top_k: 1]
[auc_mu_weights: ]
[num_machines: 1]
[local_listen_port: 12400]
[time_out: 120]
[machine_list_filename: ]
[machines: ]
[gpu_platform_id: -1]
[gpu_device_id: -1]
[gpu_use_dp: 0]
[num_gpu: 1]

end of parameters

pandas_categorical:[]
