tree
version=v4
num_class=1
num_tree_per_iteration=1
label_index=0
max_feature_idx=56
objective=regression
feature_names=rsi bb_middle bb_upper bb_lower atr momentum_10 momentum_20 volatility volume_ma range range_pct body body_pct upper_shadow lower_shadow is_bullish return_1 return_3 return_6 return_12 return_24 log_return rsi_normalized rsi_overbought rsi_oversold rsi_divergence bb_width bb_position bb_position_normalized price_bb_upper_dist price_bb_lower_dist bb_breakout_upper bb_breakout_lower atr_normalized atr_ma atr_ratio momentum_ratio momentum_convergence volume_ratio volume_spike volume_change volatility_ma volatility_ratio high_volatility low_volatility stoch_k stoch_d stoch_overbought stoch_oversold adx strong_trend sma_20 price_sma_20_dist sma_50 price_sma_50_dist signal_convergence market_regime
feature_infos=[0:98.323991543918936] [0:107202.68299999999] [0:108503.14528069981] [0:106362.39873835164] [0:1913.6478571428556] [-8342.5400000000009:10665.179999999993] [-12486.150000000001:14155.739999999991] [0:0.027665265364936176] [0:15071.1] [41.610000000000582:7445.0200000000041] [0.00064197892033770012:0.083194551703992967] [0.010000000002037268:4847.2799999999988] [1.687657469333537e-07:0.053865545209733065] [0:2853.8099999999977] [0:2709.1299999999974] [0:1] [-0.06392068477713575:0.11991470268267301] [-0.06874591913368211:0.12121289228058596] [-0.079615203583715433:0.12324016964288909] [-0.13852618933251082:0.1281729140500143] [-0.20656179582649081:0.18012682534038826] [-0.066055067608681614:0.11325252408776919] [-0.94806582176005261:0.96647983087837874] [0:1] [0:1] [-49.557479223093154:42.119850794411732] [0:0.23507214819731151] [-0.47895853378551589:1.5139666392771387] [-1.9579170675710318:2.0279332785542774] [-0.051695806611816018:0.2348085863011253] [-0.031298755752849884:0.18048430889612765] [0:1] [0:1] [0:0.030615925217490077] [0:1459.5823571428562] [0:2.5193794912994942] [-4451.5502226422777:74647.925336867193] [-10665.179999999993:8342.5400000000009] [0:2.9553958669892095] [0:1] [-0.80889167188478395:8.7027863777089784] [0:0.027364409329763521] [0:3.7248595957797415] [0:1] [0:1] [0:99.999999999838437] [0:98.883595895685247] [0:1] [0:1] [0:95.095784100943362] [0:1] [0:107202.68299999999] [-0.11842224866658865:0.11006071071452704] [0:106786.319] [-0.21353636665559603:0.12751438682104085] [0:1] [0:2]
tree_sizes=3824 3953 3746 3788 3433 3860 3914 3695 3654 3837 3328

Tree=0
num_leaves=40
num_cat=0
split_feature=41 26 53 3 34 8 30 34 29 34 1 8 35 49 34 52 53 2 49 41 37 42 2 53 38 34 2 8 46 1 34 35 1 6 46 54 18 49 53
split_gain=0.015706 0.0169665 0.0148394 0.0108329 0.0153776 0.0107166 0.00936522 0.00795596 0.00782846 0.00715825 0.0056615 0.00510395 0.00489386 0.00477957 0.00513447 0.00392067 0.00361367 0.00343027 0.00333811 0.00317147 0.00313016 0.00306641 0.00277439 0.00250044 0.00256486 0.00173014 0.0015795 0.00149815 0.00148609 0.00144863 0.00134867 0.00401404 0.00110691 0.000960203 0.00075212 0.00051052 0.000373969 0.000349487 0.000339454
threshold=0.0067702310205894648 0.11393503964507061 62012.378800000006 80665.960840825705 939.67226785714286 11413.050000000001 0.021274886032383023 695.78960714285734 0.0098519269798218161 1172.7441249999995 64409.733000000007 8351.1250000000018 1.1332819913986583 21.951981792273273 904.10125000000107 0.0072138432247913246 43044.827600000011 61691.983105860789 10.643812879623104 0.0054742744004584775 800.58000000000186 0.95293143248926981 43486.1504031156 98224.67720000002 0.8378466673389473 695.78960714285734 46877.963733497207 8792.6000000000004 79.406681676574451 62582.368750000001 867.90525000000048 0.81558470283592499 58558.670500000007 1027.9449999999999 39.085349757247471 -0.036675261214280254 0.017449466255916261 47.055465736344921 63344.017800000009
decision_type=2 2 2 2 2 2 2 2 2 2 2 2 2 2 2 2 2 2 2 2 2 2 2 2 2 2 2 2 2 2 2 2 2 2 2 2 2 2 2
left_child=2 3 11 4 6 7 26 10 -6 34 18 12 28 -9 -15 23 -14 19 -4 22 -18 -12 -13 24 -7 -17 -2 -21 32 36 31 -5 -1 35 -3 -32 -19 -30 -8
right_child=1 9 5 30 8 15 38 13 -10 -11 21 17 16 14 -16 25 20 29 -20 27 -22 -23 -24 -25 -26 -27 -28 -29 37 -31 33 -33 -34 -35 -36 -37 -38 -39 -40
leaf_value=0.00071902093271345553 0.0006217368123731025 -0.00035374130046247258 0.0006217368123731025 0.0006217368123731025 0.0006217368123731025 0.0006217368123731025 0.00064546141950464278 0.0006217368123731025 0.0016496161476521774 0.0006217368123731025 0.0006217368123731025 0.0006217368123731025 0.0006217368123731025 0.00013743774877383728 0.0006217368123731025 0.0006217368123731025 0.00092599546491686107 0.00086238273085312094 0.0004313263709136056 0.0006217368123731025 0.0006217368123731025 0.0005524537272494067 0.0004581806547510228 0.0006217368123731025 0.00083429972516897103 0.00039858597234787845 0.00099516268943344974 0.0008189834938102554 0.00056981549244948212 0.0006217368123731025 0.0006217368123731025 -4.0842971252129856e-05 0.0006217368123731025 0.0006217368123731025 0.0006217368123731025 0.0007867505206443098 0.0006217368123731025 0.0006217368123731025 0.00055345090019498163
leaf_weight=1090 31 35 30 32 48 176 173 87 121 38 2987 150 123 269 41 216 570 155 1145 35 37 3393 691 108 643 90 350 111 324 33 30 30 484 76 30 142 38 117 161
leaf_count=1090 31 35 30 32 48 176 173 87 121 38 2987 150 123 269 41 216 570 155 1145 35 37 3393 691 108 643 90 350 111 324 33 30 30 484 76 30 142 38 117 161
internal_value=0.000621737 0.000787207 0.000604846 0.000853803 0.00094325 0.000568489 0.000794964 0.000545614 0.0014223 0.000258225 0.000561252 0.000682898 0.000721856 0.000311048 0.000219069 0.000695743 0.000843534 0.000615344 0.000453723 0.000556509 0.000893843 0.000584977 0.000504546 0.000754714 0.000788008 0.000598781 0.000964873 0.000684587 0.000665359 0.00076164 0.000621737 0.000395476 0.000690991 0.000649592 -7.40854e-05 0.000744484 0.000825876 0.000621737 0.000621737
internal_weight=0 1297 13143 1194 884 9185 715 7952 169 103 7555 3958 2745 397 310 1233 730 1213 1175 987 607 6380 841 927 819 306 381 146 2015 226 310 62 1574 248 65 172 193 441 334
internal_count=14440 1297 13143 1194 884 9185 715 7952 169 103 7555 3958 2745 397 310 1233 730 1213 1175 987 607 6380 841 927 819 306 381 146 2015 226 310 62 1574 248 65 172 193 441 334
is_linear=0
shrinkage=1


Tree=1
num_leaves=46
num_cat=0
split_feature=41 53 3 26 34 34 4 17 3 54 34 2 41 38 7 7 20 34 41 7 20 2 7 29 1 20 26 33 37 35 42 19 49 33 53 2 53 7 4 22 1 53 29 49 35
split_gain=0.0153301 0.0117703 0.0114474 0.0124147 0.0198033 0.00748119 0.00737619 0.00587999 0.00540486 0.00527945 0.00489522 0.00448667 0.00435662 0.00481374 0.00430257 0.00424709 0.00325395 0.00286742 0.00254285 0.00509189 0.00578154 0.00381557 0.00286251 0.00247319 0.00225391 0.00217879 0.00214012 0.00210378 0.0020435 0.00190937 0.00189446 0.00150355 0.00128243 0.0020257 0.00277079 0.00112825 0.00111613 0.00109867 0.000998801 0.000974767 0.000916588 0.000696101 0.000302892 0.00012558 4.58516e-06
threshold=0.0058470693400602724 62099.385000000002 80665.960840825705 0.10386273165926393 939.67226785714286 809.71273214285645 710.24357142857184 0.010540194324106357 66303.511708438513 0.0096755594019744557 1232.3735892857137 61691.983105860789 0.0045333663240909958 1.1902524562917354 0.014170226152244137 0.0061657640739939115 0.012098897561300228 849.80896428571361 0.0050004151612504004 0.0048595000434968356 -0.038657683659221946 65108.796997790159 0.0050790540375578635 0.010133836988064969 97183.639500000019 0.045667865540318993 0.01224059672469917 0.0085693081612907823 378.71500000000384 0.6306670432992213 0.69403131734327927 0.00094599998248146033 53.280772113709368 0.0065560249170400894 81835.544900000023 60001.793118119815 95283.758100000021 0.0033347834494363254 580.13928571428562 0.61900058999196172 66143.415500000017 76026.253000000012 0.023926422036497141 37.227737666329077 1.1848629310896708
decision_type=2 2 2 2 2 2 2 2 2 2 2 2 2 2 2 2 2 2 2 2 2 2 2 2 2 2 2 2 2 2 2 2 2 2 2 2 2 2 2 2 2 2 2 2 2
left_child=1 11 3 4 5 8 -6 -8 -2 15 14 12 13 35 -5 23 18 -17 21 43 -21 22 -3 -4 -23 29 -13 30 -15 -11 -14 -7 33 41 -35 -1 -25 -34 39 -28 -39 -18 -19 -20 -29
right_child=2 16 9 10 6 31 7 -9 -10 25 -12 26 27 28 -16 17 32 42 19 20 -22 24 -24 36 -26 -27 38 44 -30 -31 -32 -33 37 34 -36 -37 -38 40 -40 -41 -42 -43 -44 -45 -46
leaf_value=2.8490958798436831e-05 0.00011346972074756091 -0.00018127597817355512 0 0 0 0 0.0012265464426580177 0 0.00048636394953354399 0 0 0 0 0.00019924363133394914 -0.00071619392966130329 -0.00038471507677357208 -4.9007388499328621e-05 0 -4.6431671056445373e-05 0 -0.00041852147460728467 -1.0101804738278155e-05 0 0.00050399592681626016 -0.00011190576063760251 0 0.0002750189219686507 1.2437638459198038e-05 0 -0.00045419486661531846 -0.00023224010514677338 -0.0002296210612049446 0 0.000263503234878348 0 -7.0997934947779174e-05 0 0 0 0 -0.00014469817064838403 3.6503701849941811e-05 7.3518251000399511e-05 1.9641904747712205e-05 0
leaf_weight=1518 797 904 91 60 33 65 95 36 218 30 30 72 139 622 50 49 462 89 126 45 272 4370 58 79 806 57 401 74 84 111 270 82 222 193 165 315 30 76 46 33 326 473 140 109 96
leaf_count=1518 797 904 91 60 33 65 95 36 218 30 30 72 139 622 50 49 462 89 126 45 272 4370 58 79 806 57 401 74 84 111 270 82 222 193 165 315 30 76 46 33 326 473 140 109 96
internal_value=0 -1.92521e-05 0.000125575 0.000206136 0.000261426 0.000161231 0.00081847 0.000989533 0.000218227 -1.21603e-05 -0.000138913 5.23821e-05 1.98926e-05 5.45408e-05 -0.000368387 3.54203e-05 -5.27016e-05 -1.88226e-05 -6.92046e-05 -0.000192588 -0.000323607 -5.40326e-05 -0.000153107 0.000235727 -3.07863e-05 -0.000253185 0.000190582 -8.88575e-05 0.000166554 -0.000358611 -0.000155025 -6.22445e-05 0 3.3097e-05 0.000134527 0 0.000398232 -5.35488e-05 0.000230028 0.000253519 -0.000106214 0 0 0 0
internal_weight=0 12277 2142 1466 1326 1162 164 131 1015 676 140 3670 3118 2539 110 478 8607 278 6690 552 317 6138 962 200 5176 198 552 579 706 141 409 147 1917 1293 358 1833 109 624 480 434 402 935 229 235 170
internal_count=14419 12277 2142 1466 1326 1162 164 131 1015 676 140 3670 3118 2539 110 478 8607 278 6690 552 317 6138 962 200 5176 198 552 579 706 141 409 147 1917 1293 358 1833 109 624 480 434 402 935 229 235 170
is_linear=0
shrinkage=0.05


Tree=2
num_leaves=44
num_cat=0
split_feature=53 8 30 34 2 53 8 42 4 2 1 2 4 3 53 2 26 20 1 53 26 2 2 3 8 1 38 8 53 34 33 12 28 3 42 2 9 34 2 7 7 8 8
split_gain=0.0127971 0.00883689 0.0150683 0.0100726 0.0128221 0.0077415 0.00733411 0.0062447 0.00485694 0.014858 0.0281834 0.0053401 0.00420635 0.00415044 0.0049747 0.0047417 0.00552607 0.00641422 0.00576602 0.00405597 0.00557517 0.00324088 0.00271557 0.00260053 0.00230135 0.00203894 0.00203706 0.00161575 0.00132487 0.00155372 0.00129725 0.000762265 0.000794415 0.00074353 0.000721955 0.000445698 0.000300046 0.000191771 0.000882089 2.17772e-05 0.000182046 6.41658e-05 1.14722e-05
threshold=62012.378800000006 12186.175000000001 0.020981203944079905 904.10125000000107 88795.966028523399 81835.544900000023 11114.450000000003 0.82597790928126846 617.94035714285735 65406.380963383424 64326.422000000013 65108.796997790159 487.81499999999954 45735.527307756223 57761.868000000009 61691.983105860789 0.027698892693927873 -0.010478686967894999 60032.500000000007 45050.202100000002 0.019729261353425072 52660.59240103083 63255.098843487693 63892.528908714849 7412.1750000000002 51454.04800000001 0.74263443331665413 7046.8250000000007 43572.861800000006 312.41641071428575 0.0076274526024333825 0.00062228836194878369 0.76819523307497328 66633.712063682047 1.5432095125263199 63896.406069571232 537.69000000000244 228.65637500000034 43209.916900277305 0.0069076044246419886 0.013234187744587282 10940.025000000003 8391.0500000000011
decision_type=2 2 2 2 2 2 2 2 2 2 2 2 2 2 2 2 2 2 2 2 2 2 2 2 2 2 2 2 2 2 2 2 2 2 2 2 2 2 2 2 2 2 2
left_child=13 3 26 8 6 33 7 -5 11 -10 -11 12 -2 19 21 16 18 -18 -16 28 -21 25 24 -13 -17 27 -3 -15 37 -30 -7 -23 -33 -4 35 -28 -35 38 -1 41 -41 -6 -27
right_child=1 2 5 4 39 30 -8 -9 9 10 -12 23 -14 14 15 22 17 -19 -20 20 -22 31 -24 -25 -26 42 34 -29 29 -31 -32 32 -34 36 -36 -37 -38 -39 -40 40 -42 -43 -44
leaf_value=8.02222236223006e-05 -0.00017965751748175824 0 0 0 0 0 0 0.0011887854536760387 0.00050152711779899125 -0.0015674352183045225 -0.00014316350803410149 0.00013333519070664505 8.513986017938713e-06 0.00026968874676262469 0.00018024232448482023 0 0 -0.00033740947810684458 -6.1030550160403708e-05 -0.0007739550481653711 0 0 0 -2.8463148351193704e-05 0.00030046764848537061 -1.1683696687793022e-05 0 0 0.00030200957037975233 0 -0.00043890676524296896 0.00032544413763284315 0 0 0 0.00033911903158039762 0.00019305044286520884 -3.4157750497596407e-05 0 6.644015986775885e-05 0 -6.4843236181680877e-05 0
leaf_weight=367 1071 56 93 30 56 31 66 56 59 41 1172 215 84 131 472 214 209 244 317 39 105 92 165 6254 294 210 33 147 86 82 136 512 116 30 37 459 70 276 217 103 43 51 30
leaf_count=367 1071 56 93 30 56 31 66 56 59 41 1172 215 84 131 472 214 209 244 317 39 105 92 165 6254 294 210 33 147 86 82 136 512 116 30 37 459 70 276 217 103 43 51 30
internal_value=0 -3.11864e-05 0.0001066 -4.78746e-05 0.00018105 -0.000100331 0.000545944 0.000859931 -6.11087e-05 -0.000159251 -0.000212038 -4.14536e-05 -0.00014433 7.13647e-05 0.000101374 3.38719e-05 -5.82741e-06 -0.000161063 5.16279e-05 0 -0.000256535 0.000185586 0.000144267 -1.92192e-05 0.00020232 2.77318e-05 0.000276665 0.000140577 2.52734e-05 0.000153656 -0.0003708 0.000264417 0.000288429 4.30568e-06 0.000307034 0.000324076 0.000136402 0 1.64098e-05 0 0 -2.25463e-05 0
internal_weight=0 10246 945 9301 405 360 152 86 8896 1272 1213 7624 1155 4325 3153 1915 1242 453 789 1172 144 1238 673 6469 508 518 585 278 1028 168 167 720 628 193 529 492 100 860 584 253 146 107 240
internal_count=14571 10246 945 9301 405 360 152 86 8896 1272 1213 7624 1155 4325 3153 1915 1242 453 789 1172 144 1238 673 6469 508 518 585 278 1028 168 167 720 628 193 529 492 100 860 584 253 146 107 240
is_linear=0
shrinkage=0.05


Tree=3
num_leaves=45
num_cat=0
split_feature=41 26 53 8 34 3 3 52 34 30 53 1 41 8 49 8 22 42 1 8 53 41 53 1 20 33 26 1 53 28 8 37 52 3 6 6 41 52 1 3 49 3 29 53
split_gain=0.0148037 0.0118154 0.0100019 0.0105465 0.00730811 0.00698904 0.0132871 0.00852286 0.00546143 0.00534974 0.0044077 0.00629083 0.00488948 0.00429904 0.0041017 0.00379702 0.00300115 0.00296372 0.00269587 0.00291017 0.00242832 0.00229499 0.00207532 0.00420428 0.00197121 0.00196664 0.0019389 0.00141567 0.00135995 0.00150319 0.00122015 0.000708063 0.000685627 0.00181434 0.00174624 0.00113368 0.000530376 0.000461021 0.000241634 0.00196939 0.000252944 0.00019652 0.000137046 6.94936e-05
threshold=0.0067702310205894648 0.10386273165926393 62012.378800000006 12061.725 702.69867857142845 80665.960840825705 67915.259999499191 0.0021661004653823774 1232.3735892857137 0.023308089205642736 74764.092300000004 82867.380250000017 0.0023340342809312306 10455.725000000002 21.590465429471184 8391.0500000000011 -0.48014878769229702 0.9503518485089909 60496.820500000009 9327.6250000000018 66290.280600000013 0.0045333663240909958 43044.827600000011 49994.796500000004 0.022328560198120132 0.010338109741873333 0.11393503964507061 62582.368750000001 82275.383200000011 0.39912094443995966 12263.85 221.91499999999363 0.0021661004653823774 92419.173859294649 418.82499999999715 -1841.5100000000018 0.0054742744004584775 -0.021663554614879107 53214.75250000001 56854.176819698805 51.582393531979058 42263.793397582987 0.0079381892658604639 64365.428800000009
decision_type=2 2 2 2 2 2 2 2 2 2 2 2 2 2 2 2 2 2 2 2 2 2 2 2 2 2 2 2 2 2 2 2 2 2 2 2 2 2 2 2 2 2 2 2
left_child=2 5 15 4 10 6 7 20 26 24 12 -12 -4 -8 -6 21 -16 -15 19 25 -2 22 41 -24 30 -17 -3 31 42 -30 -5 -20 35 34 -34 -7 -21 -28 40 -40 -23 -1 -11 -9
right_child=1 8 3 9 14 32 13 43 -10 28 11 -13 -14 17 16 18 -18 -19 27 36 -22 38 23 -25 -26 -27 37 -29 29 -31 -32 -33 33 -35 -36 -37 -38 -39 39 -41 -42 -43 -44 -45
leaf_value=4.1666990162372522e-05 0.00040395550222012931 0 -0.00022283239537445213 0 0 0 0.0012889811564268396 0 0 8.3533716670193854e-05 0.00022636660966706201 -2.1522104549359731e-05 -4.8229236263823178e-05 0.00047686081916095452 0 -0.00019305428307248723 -0.00039192013620606599 0 0.00025565824723047895 0 0 -9.9099810958647505e-05 0.0003741625365250563 8.1667203278388645e-05 0 0 -0.00072211176704227139 0 0 -0.00030081733936436863 0.00027597879052827524 0 0 0 -0.00041630648570936267 0.00019323055573031018 0.00011452136040917616 0 0.00018030743790667454 0 0 -8.5252224822611116e-06 0 -4.125052640473618e-05
leaf_weight=273 242 45 599 94 94 65 59 225 35 49 278 3188 4030 86 46 421 326 62 131 393 57 117 228 1482 30 33 45 34 36 79 441 67 31 39 54 109 101 30 154 255 32 236 41 102
leaf_count=273 242 45 599 94 94 65 59 225 35 49 278 3188 4030 86 46 421 326 62 131 393 57 117 228 1482 30 33 45 34 36 79 441 67 31 39 54 109 101 30 154 255 32 236 41 102
internal_value=0 0.000165855 -1.13933e-05 -4.11729e-05 -5.91384e-05 0.000232328 0.000307012 0.000139178 -0.000157835 0.000126089 -4.42897e-05 0 -7.62281e-05 0.000693541 -0.000263378 5.25116e-05 -0.000338303 0.000286655 -4.33812e-06 -6.0779e-05 0.000334344 8.56696e-05 0.000108491 0.000135305 0.000212915 -0.00015406 -0.000381912 0.000118506 0 -0.000171868 0.000238923 0.000185255 0 -6.18467e-05 -0.000242648 8.4373e-05 0 -0.000545709 0 1.45352e-05 -5.89224e-05 0 0 0
internal_weight=0 1286 13288 9331 8561 1131 833 626 155 770 8095 3466 4629 207 466 3957 372 148 1180 948 299 2777 2219 1710 565 454 120 232 205 115 535 198 298 124 85 174 494 75 558 409 149 509 90 327
internal_count=14574 1286 13288 9331 8561 1131 833 626 155 770 8095 3466 4629 207 466 3957 372 148 1180 948 299 2777 2219 1710 565 454 120 232 205 115 535 198 298 124 85 174 494 75 558 409 149 509 90 327
is_linear=0
shrinkage=0.05


Tree=4
num_leaves=41
num_cat=0
split_feature=41 26 3 34 29 53 34 52 8 8 8 1 34 1 7 53 53 1 35 34 49 34 8 2 49 19 26 53 7 34 49 49 26 1 2 41 53 3 35 41
split_gain=0.0113855 0.00969302 0.0123111 0.0139014 0.00889326 0.00823773 0.00646939 0.00646388 0.00599869 0.00566563 0.00521048 0.00503392 0.00483931 0.00782959 0.0043437 0.00402935 0.00518324 0.00499565 0.00401542 0.00393864 0.00679888 0.00310085 0.00289923 0.00285607 0.00293968 0.00229559 0.0022902 0.00215723 0.00161114 0.00160274 0.00157935 0.00156122 0.00224167 0.00256592 0.000695047 0.000426217 0.000972738 0.000415108 0.000175209 3.41635e-05
threshold=0.0058470693400602724 0.10386273165926393 80665.960840825705 939.67226785714286 0.0098519269798218161 62012.378800000006 1232.3735892857137 0.0067293671167658418 11703.225 8391.0500000000011 12061.725 60627.264500000012 695.78960714285734 95699.612750000015 0.014170226152244137 74764.092300000004 69322.16810000001 82867.380250000017 0.91596916706827625 867.90525000000048 28.275982768542395 709.91610714285673 11319.975 43486.1504031156 45.093486552131331 -0.035229072675965582 0.032139667016162533 43044.827600000011 0.0056542044128383455 785.3746428571427 65.438974507059854 29.26537502404766 0.07884676486700537 79730.327250000017 63255.098843487693 0.0040964045214840006 58749.388800000008 58681.394663785926 0.64717747739201004 0.0061990108125104578
decision_type=2 2 2 2 2 2 2 2 2 2 2 2 2 2 2 2 2 2 2 2 2 2 2 2 2 2 2 2 2 2 2 2 2 2 2 2 2 2 2 2
left_child=5 2 3 7 -5 9 14 25 -6 18 12 23 15 22 -3 16 -7 -17 35 20 39 -22 -14 -11 -25 -2 38 -20 -29 -9 -28 -12 33 -33 -13 36 -1 -37 -21 -4
right_child=1 6 19 4 8 10 -8 29 -10 11 31 34 13 -15 -16 17 -18 -19 27 26 21 -23 -24 24 -26 -27 30 28 -30 -31 -32 32 -34 -35 -36 37 -38 -39 -40 -41
leaf_value=7.8363137404623752e-05 0 0 0 0 0.0013647261223351322 -4.1894185186747544e-05 0 3.0980229396963974e-05 0 0 0 0.00020825309208453134 -0.00072652310892368374 0 -0.00079959257717782345 0.0002031490030572555 -0.00019298305542670303 -2.3316461153612755e-05 0 0 0 -0.00056671209135677667 0 -0.00024077129616213112 0 0.00025518869624814957 0.00020256564636929016 0.00019257863213460941 0 -0.00022169277786566186 0 0 0 0.0003332338578097604 0 -5.9557119409170803e-05 0 0 -7.2168916238634663e-05 4.2138457736469952e-05
leaf_weight=557 42 76 41 47 64 3571 36 329 47 150 155 126 93 158 53 261 923 3152 244 39 40 104 30 436 267 718 264 1019 101 75 32 188 38 179 57 314 260 129 84 48
leaf_count=557 42 76 41 47 64 3571 36 329 47 150 155 126 93 158 53 261 923 3152 244 39 40 104 30 436 267 718 264 1019 101 75 32 188 38 179 57 314 260 129 84 48
internal_value=0 0.000106304 0.000144971 0.000233795 0.00072086 -1.85963e-05 -0.00020468 0.00014615 0.000969323 4.0856e-05 -4.63279e-05 -4.32506e-05 -5.83057e-05 -0.000281781 -0.000422912 -4.71987e-05 -7.8492e-05 0 8.35902e-05 0 -0.000193011 -0.000422156 -0.00058337 -0.000112472 -0.0001597 0.00023232 5.2676e-05 0.000144224 0.000173627 0 0.000152525 8.41491e-05 0.000139374 0.000191578 0.000142752 0 3.47937e-05 -1.31273e-05 0 0
internal_weight=0 2139 1974 1322 158 12408 165 1164 111 3660 8748 1036 8188 281 129 7907 4494 3413 2624 652 233 144 123 853 703 760 419 1364 1120 404 296 560 405 367 183 1260 817 443 123 89
internal_count=14547 2139 1974 1322 158 12408 165 1164 111 3660 8748 1036 8188 281 129 7907 4494 3413 2624 652 233 144 123 853 703 760 419 1364 1120 404 296 560 405 367 183 1260 817 443 123 89
is_linear=0
shrinkage=0.05


Tree=5
num_leaves=46
num_cat=0
split_feature=41 3 26 34 53 52 4 35 34 34 7 4 49 34 2 41 19 54 1 34 2 4 37 4 45 53 38 49 53 53 1 49 1 3 2 3 53 42 52 53 41 18 53 0 4
split_gain=0.0125597 0.00863516 0.010093 0.0161194 0.00830737 0.00795769 0.00584805 0.00827486 0.00476846 0.0043153 0.00732535 0.00574024 0.00426413 0.00467881 0.00467427 0.00440836 0.00401992 0.00313457 0.00307708 0.00305472 0.00300302 0.00427346 0.00395466 0.00393506 0.00331071 0.00287636 0.0028369 0.00268571 0.00222696 0.0081245 0.00285117 0.00213218 0.00173453 0.00251459 0.00333678 0.00108046 0.000986997 0.000891774 0.000603835 0.000600659 0.000100988 8.20392e-05 5.14634e-05 1.5876e-05 8.36277e-06
threshold=0.0057532749433251967 80665.960840825705 0.11393503964507061 939.67226785714286 62099.385000000002 0.0066139260985366467 813.82392857142997 1.1284078221255125 1172.7441249999995 867.90525000000048 0.0060335630934151589 765.13607142857256 47.566164219592785 419.67132142857184 61318.030657437739 0.0054279892681324193 -0.035229072675965582 0.0084172865285111233 46853.055000000008 796.12130357142826 65108.796997790159 617.94035714285735 -1240.1850000000047 487.81499999999954 14.499039118907429 57761.868000000009 1.1902524562917354 12.074546759791891 74764.092300000004 69121.888300000006 97183.639500000019 42.795584503668472 96880.371000000014 84581.44145004751 90119.270847947962 58765.072535625855 50110.410200000006 0.6229963504246141 0.0033210002462949252 59644.190500000004 0.0038182297554792233 0.0035515350814334661 63291.245700000007 35.096861658095378 1087.6167857142857
decision_type=2 2 2 2 2 2 2 2 2 2 2 2 2 2 2 2 2 2 2 2 2 2 2 2 2 2 2 2 2 2 2 2 2 2 2 2 2 2 2 2 2 2 2 2 2
left_child=4 2 3 5 12 16 -5 -8 43 10 17 -12 13 26 15 -15 -2 38 -14 -7 23 28 40 27 -24 36 35 -6 29 -22 -30 -28 33 -11 -35 -1 -20 -29 -3 -27 -23 42 -25 -4 -34
right_child=1 9 8 6 20 19 7 -9 -10 32 11 -13 18 14 -16 -17 -18 -19 25 -21 21 22 24 41 -26 39 31 37 30 -31 -32 -33 44 34 -36 -37 -38 -39 -40 -41 -42 -43 -44 -45 -46
leaf_value=-2.42690956495326e-05 0 0.00026734840020802524 -0.00067006060793900338 0 0 1.7456976032928948e-05 0.0011372204238476837 0 0 0 0 -0.0008393791794031936 0 -0.00043741438696617298 0 0 0.00025946302408492885 -0.00025097720790859094 0 -0.00030839713143894758 0 0 0 8.4179119259364233e-05 -0.00020991200739342182 0 0.00015710469838013292 0 5.0000808876867846e-05 -0.000165151394736279 -5.4697669248296058e-05 0 -1.7784614148183407e-05 0 0.00032506681530502027 6.6533264477424005e-05 0.00044667013977552354 -0.00020225254440166788 0 0.00010051550690910288 3.8080683282880351e-05 0 0 0 0
leaf_weight=1361 49 68 35 49 42 373 95 33 35 74 33 60 268 168 78 45 775 71 38 79 2334 50 154 47 808 194 594 52 2208 951 756 68 66 83 190 429 163 944 32 269 174 44 34 30 32
leaf_count=1361 49 68 35 49 42 373 95 33 35 74 33 60 268 168 78 45 775 71 38 79 2334 50 154 47 808 194 594 52 2208 951 756 68 66 83 190 429 163 944 32 269 174 44 34 30 32
internal_value=0 0.000108466 0.000176142 0.000218888 -1.97476e-05 0.000132005 0.000703636 0.000893654 -0.000194798 -4.52134e-06 -0.000191449 -0.000548343 3.95429e-05 0 -0.000180234 -0.000314978 0.000226105 0 0.000132673 0 -4.79976e-05 -3.17128e-05 -0.000121272 -0.000130599 -0.000168544 0.000190497 3.02296e-05 -0.000169076 -1.0713e-05 -4.1398e-05 1.48611e-05 0.000118727 5.02257e-05 0.000125411 0.000207385 0 0.000386709 -0.000191135 0.000183153 5.1267e-05 0 0 5.02887e-05 -0.000491394 0
internal_weight=0 2262 1553 1453 12273 1276 177 128 100 709 264 93 3675 2743 291 213 824 171 932 452 8598 7435 1186 1163 962 664 2452 1038 6249 3285 2964 662 445 347 273 1790 201 996 100 463 224 125 81 65 98
internal_count=14535 2262 1553 1453 12273 1276 177 128 100 709 264 93 3675 2743 291 213 824 171 932 452 8598 7435 1186 1163 962 664 2452 1038 6249 3285 2964 662 445 347 273 1790 201 996 100 463 224 125 81 65 98
is_linear=0
shrinkage=0.05


Tree=6
num_leaves=46
num_cat=0
split_feature=41 3 26 34 41 27 52 3 8 34 28 33 54 49 19 42 8 8 35 6 46 2 33 2 3 3 34 6 7 54 38 8 34 49 49 10 54 8 8 33 49 1 1 54 46
split_gain=0.0108261 0.00872345 0.00906532 0.0130983 0.00654824 0.00644377 0.00643795 0.00602444 0.00403134 0.00398654 0.00391153 0.00387621 0.0036742 0.00453361 0.00356102 0.00340241 0.00326498 0.00321556 0.00279118 0.0029047 0.00265845 0.00257934 0.00545301 0.00525965 0.00293174 0.0030587 0.00252842 0.00195332 0.00192222 0.00387179 0.00167291 0.00165732 0.00129427 0.0012245 0.00118265 0.00115597 0.00107909 0.00102556 0.000632678 0.000308538 0.00105284 0.000302449 0.000844897 7.14874e-05 4.99539e-05
threshold=0.0057532749433251967 80665.960840825705 0.11393503964507061 939.67226785714286 0.0050004151612504004 0.89804355494131538 0.0051461106492655213 61405.034626730536 11319.975 1172.7441249999995 0.20186952076161527 0.010964561522257768 -0.0057528884263648673 55.506225160433779 -0.035229072675965582 0.87835332196462568 8424.1000000000004 9303.4750000000004 1.1574910277622907 92.784999999999869 31.819406361108204 74075.79952251869 0.0065560249170400894 69475.51527542602 95142.369860307212 91320.585145764417 785.3746428571427 474.80499999999307 0.0064237895581002362 0.0066383224165497733 1.0240190285408086 11657.650000000001 834.86578571428572 40.860451670188837 65.066163805221393 0.007233125721481915 0.0091312051185763882 8085.4750000000013 10825.500000000002 0.0077130761092762826 29.101786244918646 87998.902750000008 79730.327250000017 -0.045455977258779916 46.207203671570291
decision_type=2 2 2 2 2 2 2 2 2 2 2 2 2 2 2 2 2 2 2 2 2 2 2 2 2 2 2 2 2 2 2 2 2 2 2 2 2 2 2 2 2 2 2 2 2
left_child=4 2 3 6 7 11 14 16 12 44 28 -5 13 15 -2 -6 18 20 36 -20 -18 22 23 -9 25 -23 -8 -24 29 35 -26 39 -30 -33 -19 -3 -1 -14 -39 40 -12 42 -10 -34 -4
right_child=1 10 9 5 8 -7 26 21 41 -11 31 -13 37 -15 -16 -17 17 34 19 -21 -22 24 27 -25 30 -27 -28 -29 32 -31 -32 33 43 -35 -36 -37 -38 38 -40 -41 -42 -43 -44 -45 -46
leaf_value=5.7446822700806547e-05 0 0 -0.00062941537088126486 0 0 0 4.2988971857326388e-05 -3.7158262523202598e-05 0 0 0 0.00092494787839193435 0 0 0.00025345395546294395 -0.00062363563556523899 0 9.6809817577232709e-05 4.3401992021642802e-06 0.00030837082066172134 -0.00019989441425858918 0 0 -0.00020096999527635746 0 0.00011096735182204322 -0.00025053604282936927 0.00016356916442234089 -0.0003036191447192214 0 -0.00010767874760171459 -0.00049141064911387405 0 0 0 0.00049995999592064133 0 -0.00013782564733593938 0 0 -0.00020743014408521564 -3.9463654712752381e-05 0.00022359378570655246 3.2225101392569793e-05 0
leaf_weight=1347 51 87 33 30 74 30 428 2613 140 34 45 119 175 46 731 147 103 444 362 309 338 1303 508 849 719 889 88 245 35 43 708 68 30 35 61 72 398 287 39 51 79 105 54 172 32
leaf_count=1347 51 87 33 30 74 30 428 2613 140 34 45 119 175 46 731 147 103 444 362 309 338 1303 508 849 719 889 88 245 35 43 708 68 30 35 61 72 398 287 39 51 79 105 54 172 32
internal_value=0 0.000102249 0.000170232 0.000210282 -1.5913e-05 0.000651818 0.000130088 -2.34079e-06 -0.000134884 -0.00017462 -1.23215e-05 0.000786382 -0.000195952 -0.000374047 0.000220606 -0.000469342 5.10905e-05 -5.65137e-06 8.36547e-05 0.000181626 -0.00012474 -2.84626e-05 -5.50953e-05 -8.45562e-05 0 3.88078e-05 0 4.71512e-05 3.83907e-05 0.000164257 -5.31269e-05 -0.000182284 0 -0.000360297 4.88541e-05 0.000308401 3.16481e-05 -5.10933e-05 -0.000108967 0 -7.88385e-05 0 5.52472e-05 0 -0.000446666
internal_weight=0 2293 1576 1477 12263 179 1298 11196 1067 99 717 149 768 267 782 221 3362 946 2416 671 441 7834 4215 3462 3619 2192 516 753 439 202 1427 278 237 103 505 159 1745 501 326 175 124 299 194 202 65
internal_count=14556 2293 1576 1477 12263 179 1298 11196 1067 99 717 149 768 267 782 221 3362 946 2416 671 441 7834 4215 3462 3619 2192 516 753 439 202 1427 278 237 103 505 159 1745 501 326 175 124 299 194 202 65
is_linear=0
shrinkage=0.05


Tree=7
num_leaves=44
num_cat=0
split_feature=41 26 3 34 30 53 29 8 27 34 8 51 35 35 8 41 33 6 41 51 30 35 3 54 51 4 35 17 42 35 14 11 51 37 13 8 0 45 7 22 41 19 4
split_gain=0.00919802 0.00820769 0.0103309 0.0147498 0.0072425 0.00690634 0.00631949 0.00588395 0.0048235 0.00426136 0.00393749 0.00474585 0.00394783 0.00373541 0.00338379 0.00620376 0.00779751 0.00636215 0.0022882 0.0020391 0.00219779 0.00191551 0.0026585 0.00186025 0.00516615 0.00158101 0.00220086 0.00149641 0.00143944 0.00129113 0.00125547 0.000985947 0.000672154 0.000638608 0.000603887 0.000485439 0.000419736 0.000272802 0.000556909 0.000553174 0.000141819 0.000703031 2.858e-05
threshold=0.0058892764872640821 0.11393503964507061 80665.960840825705 939.67226785714286 0.019381443725740462 62012.378800000006 0.0098519269798218161 11744.175000000001 0.59015357779315225 1172.7441249999995 8391.0500000000011 60627.264500000012 0.91596916706827625 1.2317447984298837 11413.050000000001 0.0049199224193854788 0.0081141824375170358 440.20500000000544 0.0021682096864911854 63917.055000000015 0.012995055252580179 1.3243023423815303 95326.596008823399 0.0031976181044361266 44342.280250000011 1024.453571428571 0.66120126564667092 -0.00015524982264070172 0.93841576226684509 1.1453791695520579 216.1350000000057 49.235000000000589 62260.98575 235.98499999999697 220.44000000000599 8104.2500000000009 35.096861658095378 76.322615393966956 0.0023211372591928534 -0.030744652755212411 0.0040738646585664522 0.0042442757521647953 411.02928571428657
decision_type=2 2 2 2 2 2 2 2 2 2 2 2 2 2 2 2 2 2 2 2 2 2 2 2 2 2 2 2 2 2 2 2 2 2 2 2 2 2 2 2 2 2 2
left_child=5 2 3 4 13 10 -5 -8 21 36 12 23 37 -2 15 19 35 -18 -14 20 -7 22 -4 24 -12 26 -10 31 -21 -6 -20 -16 33 -13 -33 -17 -3 39 -39 -1 42 -42 -29
right_child=1 9 8 6 29 14 7 -9 25 -11 11 32 18 -15 27 16 17 -19 30 28 -22 -23 -24 -25 -26 -27 -28 40 -30 -31 -32 34 -34 -35 -36 -37 -38 38 -40 -41 41 -43 -44
leaf_value=0 0.00028788002243290429 -0.00069944858488500542 0.00020949558772715628 0 -4.3996521450026981e-05 -0.00015904057886083491 0.0012083623704906479 0 0 0 0 0.000286009999254173 0 0 0 0 -0.00076387663340569695 0 0.00017564733174277756 0 0 0 0 0 -0.0002642018863199747 0 -0.00038840527112384753 0 -4.3697464262764475e-05 0.0001349069875271494 0 0.0001690199623625768 0 0 0 -7.4080783995441316e-05 0 0 -8.2055863158879359e-05 6.1434891471354007e-05 0 -0.00011310616451293582 2.0930235554715464e-05
leaf_weight=444 523 39 300 51 463 694 75 49 68 35 132 95 191 43 44 93 109 64 1057 2705 176 43 53 367 370 56 131 37 3589 128 106 299 45 45 111 351 30 95 242 484 182 165 163
leaf_count=444 523 39 300 51 463 694 75 49 68 35 132 95 191 43 44 93 109 64 1057 2705 176 43 53 367 370 56 131 37 3589 128 106 299 45 45 111 351 30 95 242 484 182 165 163
internal_value=0 9.60634e-05 0.000127728 0.000208988 0.000117249 -1.73168e-05 0.000672321 0.000874689 -1.45354e-07 -0.000267088 3.66989e-05 -2.93139e-05 7.28107e-05 0.00024512 -4.27553e-05 -5.51708e-05 -0.000216687 -0.000525245 0.000132449 -3.77678e-05 -0.00011774 6.61997e-05 0.000135935 -9.7536e-05 -0.000160403 -0.000201162 -0.000267768 2.87768e-05 -2.27398e-05 0 0.000159191 0.000100319 0.000155963 0.000210075 0.000130974 -4.0075e-05 -0.00051151 0 -2.65615e-05 2.18767e-05 0 -3.19603e-05 0
internal_weight=0 2087 1983 1332 1157 12455 175 124 651 104 3673 1054 2619 566 8782 7781 617 173 1354 7164 870 396 353 869 502 255 199 1001 6294 591 1163 454 185 140 410 444 69 1265 337 928 547 347 200
internal_count=14542 2087 1983 1332 1157 12455 175 124 651 104 3673 1054 2619 566 8782 7781 617 173 1354 7164 870 396 353 869 502 255 199 1001 6294 591 1163 454 185 140 410 444 69 1265 337 928 547 347 200
is_linear=0
shrinkage=0.05


Tree=8
num_leaves=43
num_cat=0
split_feature=41 26 53 8 34 49 34 3 3 8 0 30 8 7 37 2 8 20 49 2 49 20 53 8 49 1 2 34 41 53 49 1 37 41 38 53 52 3 52 3 53 29
split_gain=0.00734417 0.00834534 0.00657735 0.00658714 0.00617362 0.0052328 0.00517818 0.00496363 0.00928584 0.00571447 0.00490325 0.00458778 0.00343567 0.00315297 0.00295243 0.00255796 0.00233241 0.00216189 0.0025745 0.00214836 0.0021353 0.00228419 0.00304294 0.00207332 0.00179789 0.00166238 0.00157889 0.00167005 0.00132492 0.00132219 0.00114181 0.000866064 0.00084486 0.000711994 0.000671512 0.000616492 0.000373219 0.00154751 0.000909777 0.000311238 7.83928e-05 3.97395e-05
threshold=0.0067702310205894648 0.10386273165926393 62012.378800000006 12061.725 695.78960714285734 21.590465429471184 1232.3735892857137 80665.960840825705 67915.259999499191 10455.725000000002 50.432798517366749 0.021541339978037179 8391.0500000000011 0.013234187744587282 -1525.794999999998 61778.102446333032 9327.6250000000018 0.012098897561300228 17.794506177034364 59487.330237779366 47.566164219592785 -0.011939546757050999 43822.462300000007 9455.6500000000033 28.78210199358621 62468.052500000013 64615.652713419993 492.2893035714286 0.0044097960385104619 82275.383200000011 54.836699763864011 93089.883250000014 1.0000000180025095e-35 0.0055700768820014434 0.83449312116852381 57761.868000000009 0.0029336873583766135 92419.173859294649 -0.015382918360090782 82811.882422122217 64365.428800000009 0.010733469712376964
decision_type=2 2 2 2 2 2 2 2 2 2 2 2 2 2 2 2 2 2 2 2 2 2 2 2 2 2 2 2 2 2 2 2 2 2 2 2 2 2 2 2 2 2
left_child=2 7 12 4 17 -6 13 8 10 -10 23 26 20 -3 -7 16 19 18 -4 -14 28 -22 -23 -2 -11 34 -5 -28 32 41 -19 -31 -1 -30 -17 -18 38 -38 -9 -40 -12 -13
right_child=1 6 3 11 5 14 -8 36 9 24 40 29 15 -15 -16 25 35 30 -20 -21 21 22 -24 -25 -26 -27 27 -29 33 31 -32 -33 -34 -35 -36 -37 37 -39 39 -41 -42 -43
leaf_value=9.135222204444704e-05 0 0 1.0931062332289471e-05 0 0 0 0 0 0.0011161074238492661 0.00047343421337534512 0 4.1351673005704e-05 -0.00020307671062803131 -0.00061139539443453997 -0.00037997919404393285 0 5.6113427098180542e-05 3.6605008734704196e-05 -6.37815239250082e-05 0 0 0 0.00030349086946149923 0.00036412271559846116 0 0 0 0.00027801169612955867 -8.0929778615966051e-05 -0.0002292442365547716 -4.5000920490474211e-05 0 0 0 0.00025973128698383711 -5.6454113078298453e-05 -0.00022967328040717465 0 0 0.00016663387042067791 -3.9580323830681323e-05 0
leaf_weight=918 84 48 783 52 101 65 36 37 60 38 245 58 375 66 325 34 300 1317 5422 128 207 105 337 167 113 44 120 342 275 104 538 35 787 143 122 187 84 34 30 123 125 43
leaf_count=918 84 48 783 52 101 65 36 37 60 38 245 58 375 66 325 34 300 1317 5422 128 207 105 337 167 113 44 120 342 275 104 538 35 787 143 122 187 84 34 30 123 125 43
internal_value=0 0.000113885 -1.10778e-05 -3.55108e-05 -4.99702e-05 -0.00023219 -0.00016079 0.000171965 0.000235438 0.000553295 8.71154e-05 9.53043e-05 3.99944e-05 -0.000384015 -0.000318442 -1.51885e-05 -6.56501e-05 -3.57653e-05 -5.03247e-05 -0.000141676 7.27022e-05 0.000165278 0.000230269 0.00025998 0.000163617 0.000109567 0.000188766 0.000219509 3.26201e-05 -7.31864e-07 0 -0.000154156 5.70501e-05 -7.22392e-06 0.000204969 0 0 -6.9319e-05 4.38519e-05 0.000131315 0 0
internal_weight=0 1290 13267 9305 8551 491 150 1140 832 211 621 754 3962 114 390 1190 990 8060 6205 503 2772 649 442 251 151 200 514 462 2123 240 1855 139 1705 418 156 487 308 118 190 153 370 101
internal_count=14557 1290 13267 9305 8551 491 150 1140 832 211 621 754 3962 114 390 1190 990 8060 6205 503 2772 649 442 251 151 200 514 462 2123 240 1855 139 1705 418 156 487 308 118 190 153 370 101
is_linear=0
shrinkage=0.05


Tree=9
num_leaves=45
num_cat=0
split_feature=53 41 52 53 46 35 20 42 4 4 37 53 42 33 1 3 53 49 53 27 3 1 41 4 27 49 29 53 41 41 49 41 3 42 42 35 37 42 46 52 27 53 1 20
split_gain=0.00650964 0.00523824 0.00861733 0.00560873 0.00582976 0.00633026 0.00387662 0.00378855 0.0047598 0.00346788 0.00715885 0.00392802 0.00370264 0.00369043 0.00367219 0.00320052 0.00404165 0.00368234 0.00309554 0.00258939 0.00321828 0.00241808 0.00206847 0.00197647 0.00179106 0.00173621 0.00222648 0.00153922 0.00133074 0.001306 0.00101282 0.00321079 0.000988774 0.00095395 0.00108221 0.00114106 0.000798849 0.000518528 0.000268429 0.000164728 0.000118925 0.000208151 0.00010225 5.24182e-05
threshold=62012.378800000006 0.0066880417649510483 -0.016962232117464945 83019.965300000011 86.96721567570539 0.76023150854548682 -0.03423871964274771 1.1138192850960207 1259.2025000000001 653.96749999999997 -860.29499999999814 74764.092300000004 0.96148113882546049 0.0065560249170400894 97183.639500000019 46374.247020930437 57761.868000000009 48.386193115529927 45050.202100000002 0.59501402421958882 92419.173859294649 60994.592750000003 0.0055700768820014434 556.99678571428592 0.83859962268207378 55.89973985501468 0.013357935467857325 50110.410200000006 0.0060002042684815628 0.0021803688269490893 49.744124495980259 0.0032599235423692052 62839.216912984331 0.83760074733628376 1.1745004415957394 0.73367240691174274 -364.4000000000014 0.88162383544418821 86.212452594131761 -0.010965279476753733 0.10453693481339267 43044.827600000011 70000.07650000001 0.012528168591168122
decision_type=2 2 2 2 2 2 2 2 2 2 2 2 2 2 2 2 2 2 2 2 2 2 2 2 2 2 2 2 2 2 2 2 2 2 2 2 2 2 2 2 2 2 2 2
left_child=15 6 7 4 5 -4 23 -3 -9 11 38 13 -12 -8 -13 18 17 22 33 39 -21 30 37 -2 -24 26 -20 -19 29 -23 31 -18 -25 40 35 -35 -32 -17 -11 -5 -1 -42 -34 -36
right_child=1 2 3 19 -6 -7 9 8 -10 10 12 14 -14 -15 -16 16 21 27 25 20 -22 28 24 32 -26 -27 -28 -29 -30 -31 36 -33 42 34 43 -37 -38 -39 -40 -41 41 -43 -44 -45
leaf_value=0 0 0 0 0 0 0.00049912062669580401 -8.2618549889255672e-05 -0.0007080895054113011 0 4.8773449855454322e-05 0 4.6111717700391311e-05 -0.0002645933472451418 7.9091375707702764e-06 -7.117127062751813e-05 6.8649604656436587e-05 4.388366267669533e-05 0 -0.00046872905989480123 -0.00034286810535653477 0 0 0.00029060815442646568 0.00041575972590422489 0 0 0 0.00043674541249406022 0 0.00017453554696152595 0 -0.00011781009292007959 0 0 -2.8173286775363977e-05 0.00014172309496954832 0.00010809850538318636 0 0 0.00014292682102846004 -6.2286246880772966e-05 0 4.3989643928865926e-05 0
leaf_weight=41 97 40 141 37 112 264 3564 56 31 282 138 2442 665 959 835 275 281 32 79 101 39 39 185 68 42 37 79 190 91 438 160 671 31 61 165 408 231 455 45 149 214 60 132 88
leaf_count=41 97 40 141 37 112 264 3564 56 31 282 138 2442 665 959 835 275 281 32 79 101 39 39 185 68 42 37 79 190 91 438 160 671 31 61 165 408 231 455 45 149 214 60 132 88
internal_value=0 -2.09291e-05 8.23886e-05 0.000159211 0.00026162 0.000351206 -3.44552e-05 -0.000230573 -0.000431649 -4.27548e-05 -0.000131054 -2.67562e-05 -0.000215531 -5.78973e-05 8.59733e-06 5.22374e-05 8.00376e-05 0.000157343 0 0 -0.000165545 1.92566e-05 7.90685e-05 0.000115255 0.000221625 -0.000195701 -0.000273343 0.000382019 0.000109034 0.000145359 -1.05087e-07 -4.38259e-05 0.0002006 1.60375e-05 6.04499e-05 0.000106736 4.24073e-05 4.73133e-07 0 0.000118969 -6.40546e-06 -3.3643e-05 0 0
internal_weight=0 10228 970 843 517 405 9258 127 87 8930 1130 7800 803 4523 3277 4322 3090 1179 1232 326 140 1911 957 328 227 195 158 222 568 477 1343 952 231 1037 722 469 391 730 327 186 315 274 163 253
internal_count=14550 10228 970 843 517 405 9258 127 87 8930 1130 7800 803 4523 3277 4322 3090 1179 1232 326 140 1911 957 328 227 195 158 222 568 477 1343 952 231 1037 722 469 391 730 327 186 315 274 163 253
is_linear=0
shrinkage=0.05


Tree=10
num_leaves=39
num_cat=0
split_feature=34 54 53 35 53 26 42 34 1 49 34 4 1 3 34 35 1 54 26 1 53 1 1 37 53 35 3 1 20 1 49 4 34 14 3 37 1 1
split_gain=0.0085815 0.00848053 0.0101142 0.00960046 0.00539631 0.00273613 0.00257946 0.00561101 0.00696882 0.00737699 0.00366456 0.00259465 0.00693876 0.0047806 0.00426489 0.00231705 0.00216123 0.00118262 0.00113506 0.00289141 0.00270942 0.00382938 0.00342905 0.00141521 0.000879106 0.000849298 0.00123148 0.000741902 0.000740674 0.000739096 0.00063929 0.000444158 0.000363204 0.000306635 0.000109178 1.4061e-05 0.000213441 0.00093269
threshold=922.10264285714322 0.029345551916596803 87545.623600000006 1.0960583742433287 61908.17470000001 0.036950263033458643 0.95293143248926981 659.56871428571401 94752.949750000014 21.951981792273273 252.59373214285748 452.57535714285694 87998.902750000008 64643.112987806955 809.71273214285645 0.80602640873072562 97040.763500000015 0.002032027701496322 0.024681788270792107 54931.665000000001 57761.868000000009 60175.555000000008 57497.14375000001 481.98500000000064 62212.397700000009 0.66627453960546779 45735.527307756223 71930.301750000013 -0.015073863524903973 61095.54800000001 39.31852451016595 173.12428571428637 176.27539285714286 263.73500000000791 96771.564127648773 1290.210000000003 95304.166000000012 88634.067500000019
decision_type=2 2 2 2 2 2 2 2 2 2 2 2 2 2 2 2 2 2 2 2 2 2 2 2 2 2 2 2 2 2 2 2 2 2 2 2 2 2
left_child=4 2 3 5 15 -2 11 10 9 -9 27 13 14 24 -13 25 -12 -14 19 32 22 -22 -20 -21 -6 26 -1 -8 -27 -30 -15 -28 -17 -3 -10 36 37 -4
right_child=1 33 35 -5 6 -7 7 8 34 -11 16 12 17 30 -16 18 -18 -19 20 23 21 -23 -24 -25 -26 28 31 -29 29 -31 -32 -33 -34 -35 -36 -37 -38 -39
leaf_value=0 0 -0.00013208152142200823 0 0 0 0.00084085515631894059 -0.00022914036636622251 0 5.0482721482429676e-05 -0.00037719564397046147 0 0.0002780580175237043 0 -4.185543739088218e-06 0 6.2279468698938159e-05 -0.00010322701267109287 -0.00011980587412139745 2.0410167478462969e-05 0.00018994038898887723 -0.00015485693260131549 4.5407937975772398e-05 0.00051421323401067262 0 -0.00016073573359472727 0 0 0 -9.7995307869500807e-05 0 4.4574749772681262e-05 0.00014634201357339405 0 0 0 0 0 0.00026247860993631409
leaf_weight=129 64 75 49 66 79 138 262 90 107 430 3898 425 236 1857 78 234 534 223 729 705 423 273 53 96 601 88 30 30 590 76 789 204 544 30 87 109 48 42
leaf_count=129 64 75 49 66 79 138 262 90 107 430 3898 425 236 1857 78 234 534 223 729 705 423 273 53 96 601 88 30 30 590 76 789 204 544 30 87 109 48 42
internal_value=0 0.000183251 0.000283619 0.000499161 -6.55128e-06 0.000670291 -2.84749e-05 -5.13419e-05 -0.000188333 -0.0002867 -2.53411e-05 0 7.28339e-05 -2.03906e-05 0.000210086 3.8544e-05 -8.06373e-06 -2.31341e-05 6.25681e-05 9.63905e-05 9.51675e-06 -4.03951e-05 8.59043e-05 0.000165341 -0.000140012 -4.82522e-06 2.23823e-05 -0.000201899 -5.10771e-05 -7.57194e-05 9.07359e-07 0.000118018 0 -7.19162e-05 0 0 1.5897e-05 7.90139e-05
internal_weight=0 621 516 268 13900 202 9726 5438 714 520 4724 4288 962 3326 503 4174 4432 459 3057 1579 1478 696 782 801 680 1117 363 292 754 666 2646 234 778 105 194 248 139 91
internal_count=14521 621 516 268 13900 202 9726 5438 714 520 4724 4288 962 3326 503 4174 4432 459 3057 1579 1478 696 782 801 680 1117 363 292 754 666 2646 234 778 105 194 248 139 91
is_linear=0
shrinkage=0.05


end of trees

feature_importances:
sma_50=48
atr_ma=40
bb_middle=37
volume_ma=33
bb_lower=32
volatility_ma=29
adx=28
bb_upper=24
atr_ratio=18
atr=16
bb_width=16
volatility_ratio=14
volatility=13
price_sma_20_dist=12
momentum_convergence=11
return_24=10
price_sma_50_dist=10
atr_normalized=9
price_bb_upper_dist=8
momentum_20=6
price_bb_lower_dist=6
volume_ratio=6
stoch_d=6
return_12=5
bb_position=5
sma_20=4
rsi=3
rsi_normalized=3
bb_position_normalized=3
lower_shadow=2
return_3=2
return_6=2
stoch_k=2
range=1
range_pct=1
body=1
body_pct=1
upper_shadow=1

parameters:
[boosting: gbdt]
[objective: regression]
[metric: rmse]
[tree_learner: serial]
[device_type: cpu]
[data: ]
[valid: ]
[num_iterations: 500]
[learning_rate: 0.05]
[num_leaves: 64]
[num_threads: 8]
[deterministic: 0]
[force_col_wise: 0]
[force_row_wise: 0]
[histogram_pool_size: -1]
[max_depth: 6]
[min_data_in_leaf: 30]
[min_sum_hessian_in_leaf: 0.001]
[bagging_fraction: 0.9]
[pos_bagging_fraction: 1]
[neg_bagging_fraction: 1]
[bagging_freq: 1]
[bagging_seed: 400]
[feature_fraction: 0.8]
[feature_fraction_bynode: 1]
[feature_fraction_seed: 30056]
[extra_trees: 0]
[extra_seed: 12879]
[early_stopping_round: 0]
[first_metric_only: 0]
[max_delta_step: 0]
[lambda_l1: 0.5]
[lambda_l2: 0.1]
[linear_lambda: 0]
[min_gain_to_split: 0]
[drop_rate: 0.1]
[max_drop: 50]
[skip_drop: 0.5]
[xgboost_dart_mode: 0]
[uniform_drop: 0]
[drop_seed: 17869]
[top_rate: 0.2]
[other_rate: 0.1]
[min_data_per_group: 100]
[max_cat_threshold: 32]
[cat_l2: 10]
[cat_smooth: 10]
[max_cat_to_onehot: 4]
[top_k: 20]
[monotone_constraints: ]
[monotone_constraints_method: basic]
[monotone_penalty: 0]
[feature_contri: ]
[forcedsplits_filename: ]
[refit_decay_rate: 0.9]
[cegb_tradeoff: 1]
[cegb_penalty_split: 0]
[cegb_penalty_feature_lazy: ]
[cegb_penalty_feature_coupled: ]
[path_smooth: 0]
[interaction_constraints: ]
[verbosity: 1]
[saved_feature_importance_type: 0]
[linear_tree: 0]
[max_bin: 255]
[max_bin_by_feature: ]
[min_data_in_bin: 3]
[bin_construct_sample_cnt: 200000]
[data_random_seed: 175]
[is_enable_sparse: 1]
[enable_bundle: 1]
[use_missing: 1]
[zero_as_missing: 0]
[feature_pre_filter: 1]
[pre_partition: 0]
[two_round: 0]
[header: 0]
[label_column: ]
[weight_column: ]
[group_column: ]
[ignore_column: ]
[categorical_feature: ]
[forcedbins_filename: ]
[precise_float_parser: 0]
[parser_config_file: ]
[objective_seed: 16083]
[num_class: 1]
[is_unbalance: 0]
[scale_pos_weight: 1]
[sigmoid: 1]
[boost_from_average: 1]
[reg_sqrt: 0]
[alpha: 0.9]
[fair_c: 1]
[poisson_max_delta_step: 0.7]
[tweedie_variance_power: 1.5]
[lambdarank_truncation_level: 30]
[lambdarank_norm: 1]
[label_gain: ]
[lambdarank_position_bias_regularization: 0]
[eval_at: ]
[multi_error_top_k: 1]
[auc_mu_weights: ]
[num_machines: 1]
[local_listen_port: 12400]
[time_out: 120]
[machine_list_filename: ]
[machines: ]
[gpu_platform_id: -1]
[gpu_device_id: -1]
[gpu_use_dp: 0]
[num_gpu: 1]

end of parameters

pandas_categorical:[]
