tree
version=v4
num_class=1
num_tree_per_iteration=1
label_index=0
max_feature_idx=69
objective=regression
feature_names=rsi ema_fast ema_slow bb_middle bb_upper bb_lower macd macd_signal atr momentum_10 momentum_20 volatility volume_ma range range_pct body body_pct upper_shadow lower_shadow is_bullish return_1 return_3 return_6 return_12 return_24 log_return rsi_normalized rsi_overbought rsi_oversold rsi_divergence ema_cross ema_cross_pct ema_cross_signal price_ema_fast_dist price_ema_slow_dist bb_width bb_position bb_position_normalized price_bb_upper_dist price_bb_lower_dist bb_breakout_upper bb_breakout_lower macd_hist macd_hist_change macd_cross_signal macd_strength atr_normalized atr_ma atr_ratio momentum_ratio momentum_convergence volume_ratio volume_spike volume_change volatility_ma volatility_ratio high_volatility low_volatility stoch_k stoch_d stoch_overbought stoch_oversold adx strong_trend sma_20 price_sma_20_dist sma_50 price_sma_50_dist signal_convergence market_regime
feature_infos=[0:99.99999802816906] [393.78039597925124:516.19050637889245] [394.23095608416145:515.56941879713395] [0:515.995] [0:519.35259465880495] [0:515.16754446967616] [-3.7843608113351479:4.9124877890472476] [-3.4421243135740478:4.2997943675253758] [0:4.3464285714285733] [-17.25:18.550000000000011] [-18.950000000000045:18.300000000000011] [0:0.010936378070948268] [0:1295.8499999999999] [0:28.199999999999989] [0:0.067407673001075627] [0:20.449999999999989] [0:0.04888251464085093] [0:7.4000000000000341] [0:6.1500000000000341] [0:1] [-0.046712999886065809:0.037101048507892642] [-0.043627227044312544:0.037151702786377694] [-0.038395807223424949:0.042290850426365489] [-0.040701673927998172:0.04109116022099446] [-0.04466218525692156:0.042651296829971264] [-0.047839266296518912:0.036429367612840491] [-1:0.99999996056338114] [0:1] [0:1] [-50.422589203230672:57.142847619048588] [-3.7843608113351479:4.9124877890472476] [-0.0088258630886247341:0.010264287064453087] [0:1] [-0.035676378944641852:0.029123986701014376] [-0.038063384774058365:0.03410996193567073] [0:0.073304577880474078] [-0.50106521650598013:1.5560963962314149] [-2.0021304330119603:2.1121927924628299] [-0.017339809312814661:0.062077626462115836] [-0.019519971936887471:0.059344195675750409] [0:1] [0:1] [-1.7856090633421566:1.9741201889542976] [-1.2287011414126909:0.97834973995522934] [0:1] [-1.5995113318141976:1.8043205953337147] [0:0.010204081632653071] [0:3.6758928571428604] [0:2.8358371218692864] [-414999999.99999774:269999999.99999887] [-18.550000000000011:17.25] [0:10.328947367741517] [0:1] [-0.99641577060931896:611] [0:0.01086280726866261] [0:7.028555025285689] [0:1] [0:1] [0:99.999999918699174] [0:99.999999828387146] [0:1] [0:1] [0:96.569188193361313] [0:1] [0:515.995] [-0.038998446277040882:0.036075179657269328] [0:515.072] [-0.039361778415202678:0.038076285240464407] [0:3] [0:2]
tree_sizes=3054 2617 2622 2614 2629 2639 2665 2602 2702 2675 2631 2625 2589 2671 2647 2626 2579 2631 2618 2662 2625 2643 2648 2483 2113 2675 2698 2623 2713 2642 2673 2656 2590 2670

Tree=0
num_leaves=31
num_cat=0
split_feature=5 12 45 55 6 5 2 4 6 7 24 8 45 11 55 4 64 38 51 7 0 47 7 49 12 55 59 59 1 5
split_gain=0.00208425 0.00211267 0.00170479 0.00240792 0.00181056 0.00146101 0.0024025 0.00261583 0.00112204 0.00127898 0.00108456 0.000951341 0.00109624 0.000811818 0.002091 0.00128075 0.00191703 0.00120205 0.000801117 0.000601428 0.000540868 0.000422848 0.00108946 0.000344579 0.000326238 0.000285656 0.000517289 0.000300082 0.000251763 9.58132e-05
threshold=462.79983337762923 291.72500000000008 -0.17802897964695741 0.46435619028129255 0.35257259577059591 452.88885346581242 443.27387017953401 449.34701666163227 0.72847352749215599 -1.1250983300073514 -0.013248505684355981 0.47857142857143792 0.24515322951937732 0.0012766676235491355 0.94517053218038338 405.64993647190209 425.88500000000005 0.0010286892324026713 0.40656617499537323 -0.60839041530855109 75.463118829953615 1.2220535714285774 0.19955239317710063 0.41572150571534727 312.92500000000001 1.281090497944301 70.256410045364873 15.386487562404755 472.78934481669557 488.09205313403066
decision_type=2 2 2 2 2 2 2 2 2 2 2 2 2 2 2 2 2 2 2 2 2 2 2 2 2 2 2 2 2 2
left_child=5 2 -2 -4 10 6 13 18 9 -7 -5 -11 -13 15 17 19 -17 -15 -8 -1 -20 22 -9 -23 -16 26 27 -3 -29 -27
right_child=1 25 3 4 -6 8 7 21 -10 11 -12 12 -14 14 24 16 -18 -19 20 -21 -22 23 -24 -25 -26 29 -28 28 -30 -31
leaf_value=8.8123647955156804e-06 8.8123647955156804e-06 8.8123647955156804e-06 8.8123647955156804e-06 8.8123647955156804e-06 8.8123647955156804e-06 8.8123647955156804e-06 8.8123647955156804e-06 9.6751660479356343e-05 8.8123647955156804e-06 8.8123647955156804e-06 -0.00014006743620905245 0.0001094313537296772 8.8123647955156804e-06 8.8123647955156804e-06 2.5939595993201616e-05 -4.8321426379475008e-05 1.5821286189926409e-05 9.6009813225040349e-05 -0.00011294834204412552 0.00016719985921716439 8.8123647955156804e-06 -3.1772877359964539e-05 8.8123647955156804e-06 8.8123647955156804e-06 7.8931346348408013e-06 -1.3087034193457356e-05 8.8123647955156804e-06 8.8123647955156804e-06 8.057326456787877e-05 8.8123647955156804e-06
leaf_weight=43 278 31 122 33 279 150 190 161 260 20 435 568 93 82 1126 586 873 572 339 58 23 257 138 244 1138 292 208 119 226 145
leaf_count=43 278 31 122 33 279 150 190 161 260 20 435 568 93 82 1126 586 873 572 339 58 23 257 138 244 1138 292 208 119 226 145
internal_value=8.81236e-06 -1.69585e-05 -4.51548e-05 -6.60799e-05 -8.82673e-05 1.67472e-05 9.19317e-06 -2.41389e-05 4.88553e-05 6.64292e-05 -0.000127272 8.4576e-05 9.37151e-05 2.1268e-05 3.09131e-05 8.81236e-06 -3.78042e-06 7.95023e-05 -7.43812e-05 0.000104177 -0.000103174 8.81236e-06 3.86728e-05 -6.24743e-06 1.28949e-05 8.81236e-06 2.74581e-05 5.09673e-05 6.09537e-05 -2.29492e-06
internal_weight=0 2168 1147 869 747 6921 5830 1352 1091 831 468 681 661 4478 2918 1560 1459 654 552 101 362 800 299 501 2264 1021 584 376 345 437
internal_count=9089 2168 1147 869 747 6921 5830 1352 1091 831 468 681 661 4478 2918 1560 1459 654 552 101 362 800 299 501 2264 1021 584 376 345 437
is_linear=0
shrinkage=1


Tree=1
num_leaves=31
num_cat=0
split_feature=5 35 55 42 24 66 54 12 66 66 66 66 7 54 37 12 7 66 54 54 12 23 11 55 3 5 42 39 46 46
split_gain=0.00234239 0.00243533 0.00250849 0.00277276 0.000940324 0.00133214 0.00263027 0.00202355 0.00175832 0.00179019 0.00165105 0.00147467 0.00129841 0.00151434 0.00102239 0.000871554 0.000704647 0.00100518 0.000605974 0.000426235 0.000484433 0.000418265 0.000515196 0.000544289 0.000252333 0.000215461 0.000152725 0.000283351 0.000463225 0.000426346
threshold=462.79983337762923 0.0066432064101506942 0.46435619028129255 -0.19761959386845604 0.0046651116870123363 418.52950000000004 0.0013978281719251116 250.87500000000003 452.35850000000011 443.3875000000001 438.1995 446.15550000000002 -1.1250983300073514 0.0017825019148725203 0.53664164714618268 323.27500000000003 1.0000000180025095e-35 480.77950000000004 0.0010836184937202317 0.0014152152220844195 526.37500000000011 0.0025094390562593332 0.00266481999281363 0.53864826082606609 409.53375000000011 398.35414601842223 -0.11819743956228039 0.0057649478276210293 0.0016607404086603067 0.0029737649764568987
decision_type=2 2 2 2 2 2 2 2 2 2 2 2 2 2 2 2 2 2 2 2 2 2 2 2 2 2 2 2 2 2
left_child=4 2 -2 -4 5 6 24 14 9 10 -7 -11 -10 -14 -8 18 17 19 -5 -3 -21 22 23 -18 25 -1 -6 28 -28 -30
right_child=1 16 3 15 26 8 7 -9 12 11 -12 -13 13 -15 -16 -17 21 -19 -20 20 -22 -23 -24 -25 -26 -27 27 -29 29 -31
leaf_value=0 0 0 0 0 0 -5.9078090524005066e-06 0.00015520269481788279 0 0 -9.1544006168401771e-05 4.381716022050817e-05 0 0 0.00011604986111608043 0 0 0 0 -0.00018078237830928537 -0.00010654888317858502 0 0 0 6.2244929942050728e-05 0 -4.9867774866727743e-05 0 0 -8.4463600100332146e-05 0
leaf_weight=44 108 39 103 29 324 1414 314 297 240 332 833 441 373 317 49 20 27 453 298 201 28 444 79 363 111 169 56 1371 173 35
leaf_count=44 108 39 103 29 324 1414 314 297 240 332 833 441 373 317 49 20 27 453 298 201 28 444 79 363 111 169 56 1371 173 35
internal_value=0 -2.59726e-05 -8.10355e-05 -0.000114697 9.55451e-06 1.70375e-05 5.0015e-05 8.55223e-05 6.54088e-06 -1.79304e-06 8.52464e-06 -4.34152e-05 4.32699e-05 6.49313e-05 0.000135301 -0.000155699 -1.65061e-06 -2.78891e-05 -0.000167691 -7.39113e-05 -8.98053e-05 9.21804e-06 3.11045e-05 4.84904e-05 0 -3.26297e-05 -4.69869e-06 -1.05122e-05 -4.0603e-05 -6.39787e-05
internal_weight=0 2192 558 450 6893 4934 984 660 3950 3020 2247 773 930 690 363 347 1634 721 327 268 229 913 469 390 324 213 1959 1635 264 208
internal_count=9085 2192 558 450 6893 4934 984 660 3950 3020 2247 773 930 690 363 347 1634 721 327 268 229 913 469 390 324 213 1959 1635 264 208
is_linear=0
shrinkage=0.03


Tree=2
num_leaves=31
num_cat=0
split_feature=5 11 5 66 66 7 6 49 65 51 62 7 55 55 62 3 5 38 55 5 7 49 51 58 38 48 5 23 62 55
split_gain=0.00246287 0.00188123 0.00126207 0.00206229 0.00220242 0.00122877 0.00163536 0.00112264 0.00106679 0.000969229 0.00151337 0.000903083 0.00182941 0.000875225 0.00119642 0.000743653 0.000625203 0.000597046 0.000387303 0.000350837 0.000350491 0.000336863 0.000291211 0.000270438 0.000219617 0.000193654 0.000166271 0.000164219 0.00015235 0.000107988
threshold=463.15893200479883 0.0017376855195192027 451.75670352907247 443.3875000000001 446.15550000000002 -1.1250983300073514 0.71782659300112084 1.4285714455782357 0.0014968788607703008 0.34974786628045773 65.989394551094946 0.087293573732470056 0.38523409584431606 0.86943463265250898 83.278624400569427 454.85625000000005 440.51728978816385 0.0022508558910569808 1.2643334674191335 449.83415570982368 0.28798650329412684 0.31818181673554252 0.73445718827356765 22.325762787794272 0.00099003373906227598 1.2049120313303543 484.73137453412005 0.0020997987710705828 53.990377799308853 1.3072205185978885
decision_type=2 2 2 2 2 2 2 2 2 2 2 2 2 2 2 2 2 2 2 2 2 2 2 2 2 2 2 2 2 2
left_child=2 11 3 8 16 -4 7 15 9 -1 -11 12 -2 14 -14 -7 -5 20 23 21 -13 -6 -22 -3 25 -10 29 -25 -21 -20
right_child=1 18 5 4 19 6 -8 -9 24 10 -12 17 13 -15 -16 -17 -18 -19 26 28 22 -23 -24 27 -26 -27 -28 -29 -30 -31
leaf_value=0 0 0 0 0 0 0 0 0 -3.5281212652821469e-05 4.5577414390643464e-05 -4.5445223124317783e-06 0 -0.00015658059671939283 0 0 9.787216055458059e-05 -0.00010512415442122775 0 0 -5.4341637511411025e-05 0 3.1723863583987504e-05 -7.6830960823219823e-05 4.7230236723262791e-05 0 0 0 0 0 -4.1192138782929648e-05
leaf_weight=873 36 85 201 81 215 32 314 126 325 1790 344 44 312 137 23 612 347 343 35 136 57 351 206 263 944 294 231 176 24 235
leaf_count=873 36 85 201 81 215 32 314 126 325 1790 344 44 312 137 23 612 347 343 35 136 57 351 206 263 944 294 231 176 24 235
internal_value=0 -2.82539e-05 8.22078e-06 5.5254e-07 -3.34712e-05 3.53684e-05 5.00273e-05 7.37132e-05 1.1115e-05 2.22721e-05 3.32814e-05 -5.44648e-05 -9.03123e-05 -0.000110743 -0.000140087 8.98021e-05 -8.74491e-05 -1.258e-05 0 0 -4.56453e-05 9.43141e-06 -6.02469e-05 1.93422e-05 -4.59297e-06 -1.92979e-05 -1.74371e-05 3.16316e-05 -4.06881e-05 -3.34294e-05
internal_weight=0 2183 7009 5724 1154 1285 1084 770 4570 3007 2134 1158 508 472 335 644 428 650 1025 726 307 566 263 524 1563 619 501 439 160 270
internal_count=9192 2183 7009 5724 1154 1285 1084 770 4570 3007 2134 1158 508 472 335 644 428 650 1025 726 307 566 263 524 1563 619 501 439 160 270
is_linear=0
shrinkage=0.03


Tree=3
num_leaves=31
num_cat=0
split_feature=5 47 50 54 59 54 51 24 62 48 47 65 12 66 58 65 54 54 62 1 1 67 48 0 47 54 38 2 64 66
split_gain=0.00194717 0.00189571 0.000945933 0.000853875 0.000810815 0.000807514 0.00180986 0.00154402 0.00253763 0.00104409 0.00078523 0.00158802 0.00138669 0.00131602 0.001056 0.000968254 0.000773084 0.000768379 0.000559973 0.000497742 0.00185579 0.00171642 0.00092473 0.000474999 0.000387371 0.000299417 0.000234809 0.00020064 0.000421181 0.000178842
threshold=462.79983337762923 1.4289285714285791 -1.19999999999996 0.0010272557866120417 16.240183227419077 0.0019703386659707602 0.47165558898920928 0.00097781741448410586 60.434314564349826 0.539711461605071 1.0294642857142928 -0.0015262463550538327 196.97500000000002 432.36599999999999 47.826086783239774 0.00286032851325338 0.0020358700438145643 0.0013706371584978035 72.039759632265586 482.59497800005681 489.35851524020569 -0.00098663119715758645 0.96138431334982011 22.857142095238185 1.253571428571435 0.0015755415427821686 0.0079961136638100044 455.86755601765543 422.11250000000001 476.80549999999999
decision_type=2 2 2 2 2 2 2 2 2 2 2 2 2 2 2 2 2 2 2 2 2 2 2 2 2 2 2 2 2 2
left_child=5 2 -2 -4 -5 10 26 8 9 -8 14 17 13 -13 -1 18 -6 -12 -16 21 22 23 -21 -3 -19 -25 -7 28 -28 -23
right_child=1 19 3 4 16 6 7 -9 -10 -11 11 12 -14 -15 15 -17 -18 24 -20 20 -22 29 -24 25 -26 -27 27 -29 -30 -31
leaf_value=0 0 0 0 0 -9.7400224896420845e-05 4.106426439982931e-06 0 0 0 0.00013922426235768928 0 0 0 -8.7151302295882424e-05 7.5601692500956667e-05 0 0 7.2406286161837456e-05 0 0.00023433070098605126 0 2.4440761031858239e-05 0 0 1.6355533371642491e-06 -0.00011851748048494703 0 0 -6.9109089784650829e-05 0
leaf_weight=565 275 40 55 101 651 601 55 506 128 376 445 350 1411 493 497 259 88 256 55 51 426 288 34 20 557 168 137 118 159 37
leaf_count=565 275 40 55 101 651 601 55 506 128 376 445 350 1411 493 497 259 88 256 55 51 426 288 34 20 557 168 137 118 159 37
internal_value=0 -2.52746e-05 -5.17441e-05 -6.6714e-05 -7.52104e-05 6.83115e-06 2.2487e-05 5.01645e-05 8.53095e-05 0.000121379 0 -7.35757e-06 -2.41462e-05 -5.51226e-05 1.93735e-05 4.25226e-05 -8.61188e-05 1.55692e-05 6.50687e-05 0 2.47995e-05 -1.55338e-05 0.000152535 -8.54514e-05 3.50046e-05 -0.000105467 0 -2.20366e-05 -3.58948e-05 5.88295e-06
internal_weight=0 2234 1170 895 840 6968 2080 1065 559 431 4888 3512 2254 843 1376 811 739 1258 552 1064 511 553 85 228 813 188 1015 414 296 325
internal_count=9202 2234 1170 895 840 6968 2080 1065 559 431 4888 3512 2254 843 1376 811 739 1258 552 1064 511 553 85 228 813 188 1015 414 296 325
is_linear=0
shrinkage=0.03


Tree=4
num_leaves=31
num_cat=0
split_feature=5 47 5 1 26 2 2 42 11 55 2 23 50 48 10 45 51 55 7 55 2 55 59 49 2 55 45 49 47 45
split_gain=0.00220116 0.00264082 0.00150371 0.00146786 0.00143563 0.00132534 0.00278935 0.000989647 0.00117028 0.00220484 0.00105939 0.000765796 0.000757566 0.00073834 0.000638705 0.000695242 0.000595896 0.000440599 0.0013569 0.0015252 0.00116837 0.000512297 0.000363649 0.000325236 0.00042831 0.00031041 0.000254328 0.000138019 0.000164595 0.000123208
threshold=460.39963557235473 1.3667857142857185 458.4486457202575 463.62346889500969 -0.45454546059353756 443.27387017953401 448.39342337345045 0.18507200306916685 0.0012766676235491355 1.0051770182814102 404.6399195220643 -0.0061157218566838525 -1.19999999999996 1.5500553953689706 -1.5749999999999884 -0.2157490713338413 0.2382204196000868 0.86943463265250898 0.47560742041414344 0.39553625689785654 464.0211155921026 1.2892186785563469 22.186921202883084 0.3636363622589544 459.11780663245094 1.3874450693556035 0.2418336183480079 0.35550289603459156 1.1191071428571482 -0.016260856824660424
decision_type=2 2 2 2 2 2 2 2 2 2 2 2 2 2 2 2 2 2 2 2 2 2 2 2 2 2 2 2 2 2
left_child=2 12 5 4 -4 7 11 8 10 -10 -1 -7 -2 14 -14 -16 -13 18 19 -3 -21 22 -19 -8 -25 -6 -24 -9 -29 -20
right_child=1 17 3 -5 25 6 23 27 9 -11 -12 16 13 -15 15 -17 -18 21 29 20 -22 -23 26 24 -26 -27 -28 28 -30 -31
leaf_value=9.0052704763332624e-05 0 0 0 0 0.00019383753006199387 0 0 0 8.3887329941941029e-05 9.6182489366132647e-06 -7.5518839787430848e-06 0 0 0 0 -0.0001184348009773901 -9.6629095534490162e-05 0 2.6285594144478964e-05 0 -0.00013147630063055983 0 5.5631866921966739e-05 3.6398823467790233e-05 0 0 0 0 -2.5139614852011401e-05 0
leaf_weight=109 252 28 23 52 124 87 495 300 686 1523 1176 167 236 128 49 448 427 84 176 30 219 309 406 566 171 23 106 255 457 52
leaf_count=109 252 28 23 52 124 87 495 300 686 1523 1176 167 236 128 49 448 427 84 176 30 219 309 406 566 171 23 106 255 457 52
internal_value=0 -2.32552e-05 9.63423e-06 8.94279e-05 0.000134895 5.46851e-06 -1.30517e-05 1.53287e-05 2.35191e-05 3.67643e-05 0 -6.36971e-05 -5.79706e-05 -7.1662e-05 -8.32949e-05 -0.000106707 -7.62299e-05 0 -1.7589e-05 -7.02018e-05 -0.000104823 1.62893e-05 3.42936e-05 7.64828e-06 2.22435e-05 0.000172655 4.48078e-05 -4.05702e-06 -1.40634e-05 6.91731e-06
internal_weight=0 2523 6641 222 170 6419 1913 4506 3494 2209 1285 681 1113 861 733 497 594 1410 505 277 249 905 596 1232 737 147 512 1012 712 228
internal_count=9164 2523 6641 222 170 6419 1913 4506 3494 2209 1285 681 1113 861 733 497 594 1410 505 277 249 905 596 1232 737 147 512 1012 712 228
is_linear=0
shrinkage=0.03


Tree=5
num_leaves=31
num_cat=0
split_feature=2 66 5 12 7 5 10 11 35 62 51 59 47 36 3 51 66 47 7 49 46 59 49 12 42 62 7 7 11 66
split_gain=0.00190644 0.00257501 0.00194856 0.00230666 0.00145048 0.00124767 0.00120724 0.00117664 0.00110811 0.000904633 0.00165042 0.000882075 0.000644898 0.000511436 0.000496718 0.000473228 0.00108666 0.000283159 0.000366889 0.000234953 0.000232917 0.000336159 0.000210533 0.000198187 0.00018876 0.000159405 0.000225219 0.000155228 0.000149774 0.000253801
threshold=443.27387017953401 446.15550000000002 460.03715898279017 349.22500000000008 0.029879729772329253 458.4486457202575 1.0249999999999775 0.0021266910052371887 0.018780738712041885 65.989394551094946 0.33277597094774736 31.982425826556774 1.3456250000000076 0.849799011117221 449.86750000000001 0.38087294030168761 443.3875000000001 1.088303571428576 0.17086207890052094 -5.1749998177501952 0.0039213684978762382 79.724735715723099 0.30857630751249826 341.5750000000001 -0.42534530552941835 24.082493932406383 1.6460166587696066 -0.0095656268276955256 0.0014178290160081033 437.71950000000004
decision_type=2 2 2 2 2 2 2 2 2 2 2 2 2 2 2 2 2 2 2 2 2 2 2 2 2 2 2 2 2 2
left_child=6 14 5 4 7 17 9 -4 11 10 -1 -7 -6 19 15 -2 -17 18 -3 -12 21 -5 -19 -8 -18 -25 27 -27 29 -11
right_child=1 2 3 20 12 8 23 -9 -10 28 13 -13 -14 -15 -16 16 24 22 -20 -21 -22 -23 -24 25 -26 26 -28 -29 -30 -31
leaf_value=0 0 5.2568639163043295e-05 -9.0032624666657777e-05 3.8990320123326811e-05 -3.3292778157914996e-05 0 0 0 0 -4.2061886242056679e-05 0 0.00018536606891725977 9.6106828860724248e-06 0 0 0 0 -2.1601761128060262e-05 0 5.5170001844640341e-05 0 0 2.8055487813877983e-06 0 -0.00015416566139230358 0 0 -4.9999588834316105e-05 0 0
leaf_weight=656 180 214 690 392 512 37 1179 137 46 205 56 101 376 95 32 83 20 396 172 1553 345 135 578 90 222 34 57 274 188 74
leaf_count=656 180 214 690 392 512 37 1179 137 46 205 56 101 376 95 32 83 20 396 172 1553 345 135 578 90 222 34 57 274 188 74
internal_value=0 -1.48299e-05 -4.44457e-06 -2.2081e-05 -4.35502e-05 1.92763e-05 1.245e-05 -7.40508e-05 9.57467e-05 2.49254e-05 3.30021e-05 0.000139384 -4.99762e-06 4.87843e-05 -7.79242e-05 -8.56822e-05 -0.000112752 2.29523e-06 2.60433e-05 5.29756e-05 9.82619e-06 2.36066e-05 0 -3.62737e-06 -0.000145273 -2.09521e-05 -3.06574e-05 -4.20846e-05 0 -2.19686e-05
internal_weight=0 4668 4131 2587 1715 1544 4461 827 184 2827 2360 138 888 1704 537 505 325 1360 386 1609 872 527 974 1634 242 455 365 308 467 279
internal_count=9129 4668 4131 2587 1715 1544 4461 827 184 2827 2360 138 888 1704 537 505 325 1360 386 1609 872 527 974 1634 242 455 365 308 467 279
is_linear=0
shrinkage=0.03


Tree=6
num_leaves=31
num_cat=0
split_feature=5 35 55 45 11 5 3 4 11 55 55 47 4 8 6 0 7 55 3 25 59 55 7 11 55 47 31 7 47 46
split_gain=0.00230185 0.00366801 0.00213356 0.0022791 0.00146584 0.00113365 0.00186356 0.00158617 0.0011343 0.00224983 0.000901845 0.000884993 0.000879333 0.00163679 0.000822575 0.0010383 0.000768357 0.000685948 0.00066825 0.000648676 0.000632155 0.000606059 0.000548769 0.000481791 0.000554372 0.00045443 0.000377383 0.000374303 0.00105453 0.000299265
threshold=460.39963557235473 0.0065913026129270748 0.46435619028129255 -0.12907099615549186 0.0014178290160081033 453.35315083939076 442.55375000000009 448.8263390228941 0.0012766676235491355 0.99927649782220496 0.50012920944841277 0.94428571428571895 405.64993647190209 0.72857142857143398 0.78926017274562821 26.766107990782952 0.019907011827440986 0.86943463265250898 455.12625000000008 0.0011808280077624629 73.703418265838081 0.96070599337918405 0.94801399300083145 0.0028802014523884533 0.41674747642066634 1.2871428571428603 -0.0013671131390724947 0.25824623102122352 1.2390000000000085 0.0025961206851276924
decision_type=2 2 2 2 2 2 2 2 2 2 2 2 2 2 2 2 2 2 2 2 2 2 2 2 2 2 2 2 2 2
left_child=5 2 -2 -4 11 6 8 21 12 10 -10 -5 26 -14 15 -7 17 25 -17 -20 23 22 -8 24 -18 -3 -1 28 -9 -19
right_child=1 16 3 4 -6 14 7 27 9 -11 -12 -13 13 -15 -16 18 20 29 19 -21 -22 -23 -24 -25 -26 -27 -28 -29 -30 -31
leaf_value=0 0 0 0 0 0 0 -0.00010019171084054889 7.1829079721668441e-05 0 4.9526001002596111e-06 7.9434697927684408e-05 -0.00021164840337541875 4.1737733922624548e-05 -3.386375591050323e-05 0 0 0 3.3510240747955848e-05 0.00011489187560559773 0 0 0 0 0 6.0590708971762504e-05 -9.6662199235152075e-05 0.00011268950603790727 -2.0608530865153502e-05 0 -1.5869278720688267e-05
leaf_weight=36 125 71 174 20 63 96 323 222 31 2036 757 242 252 1110 175 25 20 113 334 85 507 326 26 69 461 163 70 327 335 564
leaf_count=36 125 71 174 20 63 96 323 222 31 2036 757 242 252 1110 175 25 20 113 334 85 507 326 26 69 461 163 70 327 335 564
internal_value=0 -2.37766e-05 -8.738e-05 -0.000115726 -0.000163895 9.60812e-06 3.54835e-06 -2.23444e-05 1.50511e-05 2.6557e-05 7.09373e-05 -0.000195813 -9.54037e-07 -1.32632e-05 4.6592e-05 6.5147e-05 0 -2.34111e-05 8.52315e-05 9.55609e-05 1.34776e-05 -5.71558e-05 -8.87538e-05 3.7187e-05 4.98201e-05 -6.90407e-05 7.21325e-05 0 1.88425e-05 0
internal_weight=0 2592 624 499 325 6566 5851 1559 4292 2824 788 262 1468 1362 715 540 1968 911 444 419 1057 675 349 550 481 234 106 884 557 677
internal_count=9158 2592 624 499 325 6566 5851 1559 4292 2824 788 262 1468 1362 715 540 1968 911 444 419 1057 675 349 550 481 234 106 884 557 677
is_linear=0
shrinkage=0.03


Tree=7
num_leaves=31
num_cat=0
split_feature=2 4 4 47 26 54 23 51 62 54 51 30 4 51 1 1 66 49 35 0 55 47 37 54 35 5 5 35 59 46
split_gain=0.00204359 0.0026662 0.00155504 0.00165025 0.00165147 0.00114918 0.00155249 0.00186624 0.00140771 0.000920351 0.000852507 0.000879965 0.000685304 0.000609884 0.000554241 0.00177007 0.00161003 0.000523306 0.000509053 0.00053191 0.000465619 0.00109182 0.000440095 0.000348242 0.000310353 0.000486629 0.00018337 0.000323834 0.000302223 0.000146681
threshold=443.27387017953401 448.8263390228941 466.98489453115991 1.3667857142857185 -0.14530793841599524 0.0014022262718922038 0.00034506556702207375 0.38087294030168761 60.434314564349826 0.0011419044120449112 1.2482717582852971 0.57358544730487904 444.33246062123027 0.40656617499537323 482.59497800005681 490.0565367982839 473.27250000000009 0.9689903883882881 0.013637477278871163 75.463118829953615 0.81839499756479095 1.0294642857142928 -1.0511924767206227 0.0015702850411655803 0.0054771199010929311 411.92513702042214 418.07793492035631 0.0067957929866606899 47.007610914318228 0.0016607404086603067
decision_type=2 2 2 2 2 2 2 2 2 2 2 2 2 2 2 2 2 2 2 2 2 2 2 2 2 2 2 2 2 2
left_child=5 13 10 4 -4 20 7 -7 12 -6 -3 17 -9 -2 16 -16 -5 -12 19 22 21 -1 -15 24 -8 -26 -22 28 -28 -23
right_child=1 2 3 14 9 6 23 8 -10 -11 11 -13 -14 18 15 -17 -18 -19 -20 -21 26 29 -24 -25 25 -27 27 -29 -30 -31
leaf_value=0 0 0 0 0 0 0 0 0.00010100471142939539 0 -9.3120175092598382e-05 8.8732618163691652e-05 0 0 0 0.00012703465975350377 0 -8.6626959792821697e-05 0 0 0 0 0 -0.00013559902432073369 -2.5945124190501424e-06 0 7.2744010686914739e-05 0 0 7.0944820188429276e-05 -0.00010699113805149785
leaf_weight=212 164 1018 385 684 95 520 39 690 205 546 320 122 59 29 119 450 215 172 34 21 382 28 274 1161 63 193 71 617 146 133
leaf_count=212 164 1018 385 684 95 520 39 690 205 546 320 122 59 29 119 450 215 172 34 21 382 28 274 1161 63 193 71 617 146 133
internal_value=0 -1.30498e-05 -2.67127e-06 -1.9385e-05 -4.85844e-05 1.52254e-05 2.66543e-05 4.8578e-05 7.35237e-05 -7.80718e-05 1.73556e-05 4.527e-05 9.26041e-05 -7.78041e-05 0 2.41556e-05 -1.36123e-05 6.45442e-05 -0.000101765 -0.000113379 -1.86824e-07 -3.31911e-05 -0.000123786 0 3.21696e-05 4.7772e-05 2.54322e-06 1.43958e-05 4.62268e-05 -9.29601e-05
internal_weight=0 4648 4126 2494 1026 4519 2930 1474 954 641 1632 614 749 522 1468 569 899 492 358 324 1589 373 303 1456 295 256 1216 834 217 161
internal_count=9167 4648 4126 2494 1026 4519 2930 1474 954 641 1632 614 749 522 1468 569 899 492 358 324 1589 373 303 1456 295 256 1216 834 217 161
is_linear=0
shrinkage=0.03


Tree=8
num_leaves=31
num_cat=0
split_feature=11 1 42 55 51 1 54 42 1 54 1 54 3 7 3 8 62 24 55 48 55 54 62 55 54 1 1 11 10 62
split_gain=0.0019518 0.00179562 0.00137262 0.00195613 0.00222855 0.00161 0.00136675 0.00121865 0.00114722 0.00167991 0.00167312 0.00142162 0.00127922 0.00138347 0.00100864 0.000981942 0.000545858 0.00050346 0.000377554 0.000348729 0.000260285 0.000221931 0.000134011 0.00018552 0.0001537 0.000127153 0.0002431 0.000155154 0.00012534 8.43635e-05
threshold=0.0012766676235491355 490.0565367982839 0.18507200306916685 1.2187224586395982 0.34974786628045773 442.8531069681967 0.0025977587327331115 0.25808842983781172 404.8356568589108 0.00097224542318476886 482.59497800005681 0.0012460011786594493 452.36875000000003 0.57085627337659106 449.86750000000001 0.72857142857143398 35.472606318153566 0.0054775362927094182 0.87448409816113259 1.6437416173798569 0.6549539373887715 0.0035366635120404502 38.772276447924362 0.86943463265250898 0.0028418763987371385 465.40909306369468 425.98847672874223 0.00147779339587318 -7.1750000000000105 55.188945167949662
decision_type=2 2 2 2 2 2 2 2 2 2 2 2 2 2 2 2 2 2 2 2 2 2 2 2 2 2 2 2 2 2
left_child=1 8 3 4 22 6 -6 17 11 12 15 -1 -10 -14 -7 -11 25 18 -3 20 -18 -22 24 -24 -2 26 -4 -28 -5 -30
right_child=2 7 16 28 5 14 -8 -9 9 10 -12 -13 13 -15 -16 -17 19 -19 -20 -21 21 -23 23 -25 -26 -27 27 -29 29 -31
leaf_value=0 0 -0.00017992995528123639 0 -2.5551709484013687e-05 0.00011585876208751896 -3.0476087230637651e-05 0 0 0 0 8.4427013777948383e-05 0.00016419564031722444 0.0001772847605261652 0 3.8482592942883766e-05 -4.6508831577884443e-05 0 0 0 0 -4.8042814323245545e-05 0 0 2.6307700587952974e-05 -3.8671771327907642e-05 -1.2892874416962136e-05 0 3.5821757496486477e-05 -2.1681006158715341e-06 1.6736627597761741e-05
leaf_weight=57 665 140 189 184 566 135 100 21 207 395 65 66 88 25 649 1814 42 38 20 107 655 26 82 407 96 202 46 342 1475 246
leaf_count=57 665 140 189 184 566 135 100 21 207 395 65 66 88 25 649 1814 42 38 20 107 655 26 82 407 96 202 46 342 1475 246
internal_value=0 -2.16728e-05 7.83305e-06 1.70786e-05 3.3862e-05 5.93116e-05 9.77882e-05 -0.000109978 -1.12316e-05 -1.82839e-05 -2.96572e-05 6.41878e-05 3.4391e-05 0.000116212 1.5126e-05 -3.70988e-05 -1.30337e-05 -0.000137503 -0.000161913 -3.0347e-05 -3.86147e-05 -4.3896e-05 0 1.53255e-05 -2.73318e-06 0 1.18313e-05 2.77771e-05 -1.98685e-06 0
internal_weight=0 2936 6214 4605 2700 1450 666 219 2717 2594 2274 123 320 113 784 2209 1609 198 160 830 723 681 1250 489 761 779 577 388 1905 1721
internal_count=9150 2936 6214 4605 2700 1450 666 219 2717 2594 2274 123 320 113 784 2209 1609 198 160 830 723 681 1250 489 761 779 577 388 1905 1721
is_linear=0
shrinkage=0.03


Tree=9
num_leaves=31
num_cat=0
split_feature=66 12 66 66 42 48 54 11 1 55 51 23 54 51 4 12 54 35 46 1 55 31 31 55 11 0 54 59 55 67
split_gain=0.00195738 0.00146361 0.00203135 0.00286391 0.00193969 0.0016475 0.00133687 0.00112455 0.000988298 0.000966678 0.00074728 0.000725416 0.00100261 0.00123664 0.0013652 0.00133249 0.00125385 0.000376314 0.00130368 0.00112688 0.00133414 0.00060462 0.000512546 0.000635032 0.000328983 0.000276227 0.000931841 0.000196941 0.000192709 0.000341705
threshold=468.4695000000001 349.22500000000008 479.483 490.71750000000003 -0.18337386408282816 0.55948280094019454 0.0024455989067906519 0.0017083423456943881 467.37356821015413 1.1038756854118972 0.57370232332831439 -0.00046270194169972795 0.0013706371584978035 0.49598601375695256 423.18588366006026 195.42500000000004 0.0026892751761003896 0.0059635837672983695 0.001712996642146563 416.94666872316304 0.82351576636647894 0.0013082768077207528 -0.00048953700457632116 1.1414167854174864 0.0028131554755651228 49.783549180112907 0.001499138246035438 91.390556899552379 0.98080263560751768 -0.0015436399407446207
decision_type=2 2 2 2 2 2 2 2 2 2 2 2 2 2 2 2 2 2 2 2 2 2 2 2 2 2 2 2 2 2
left_child=11 2 4 9 -2 -6 7 -5 -7 10 -4 12 28 24 16 -16 -15 18 25 -20 -21 22 -19 -24 -14 -13 -27 -23 29 -1
right_child=1 -3 3 6 5 8 -8 -9 -10 -11 -12 17 13 14 15 -17 -18 21 19 20 -22 27 23 -25 -26 26 -28 -29 -30 -31
leaf_value=-4.5209422057906345e-05 0 0 0 -0.00011536317245205878 0 0 0 0 -0.00019673788994896351 0 0.0001160021831774858 0 1.1252971487011811e-05 0.00013392977628230552 0 5.9145477051322094e-05 0 0 0 -9.5744335050267787e-05 0 -1.6310070795812685e-05 5.0358020408218885e-05 0 -3.3927913057875511e-05 0.00010733901907377835 0 0 2.4787770335446741e-07 0
leaf_weight=235 109 690 52 317 21 20 65 143 223 124 163 67 708 278 521 437 29 534 123 394 169 979 597 465 179 102 79 422 725 123
leaf_count=235 109 690 52 317 21 20 65 143 223 124 163 67 708 278 521 437 29 534 123 394 169 979 597 465 179 102 79 422 725 123
internal_value=0 -2.75661e-05 -4.74159e-05 -9.91294e-06 -0.000110099 -0.000154033 -6.18203e-05 -8.35185e-05 -0.000178517 4.3933e-05 8.41585e-05 6.43887e-06 1.71354e-05 2.93363e-05 4.84102e-05 1.85715e-05 0.000112126 -7.51503e-08 -1.84404e-05 -4.51593e-05 -6.54609e-05 2.64685e-06 1.73747e-05 2.97971e-05 0 1.91865e-05 4.33059e-05 -7.70843e-06 0 -2.19985e-05
internal_weight=0 1927 1237 864 373 264 525 460 243 339 215 7166 3235 2152 1265 958 307 3931 934 686 563 2997 1596 1062 887 248 181 1401 1083 358
internal_count=9093 1927 1237 864 373 264 525 460 243 339 215 7166 3235 2152 1265 958 307 3931 934 686 563 2997 1596 1062 887 248 181 1401 1083 358
is_linear=0
shrinkage=0.03


Tree=10
num_leaves=31
num_cat=0
split_feature=5 7 55 55 54 51 10 62 45 23 14 42 35 5 42 51 66 66 26 62 23 3 66 66 66 38 38 11 55 54
split_gain=0.00165747 0.00172101 0.00236471 0.00298979 0.000875992 0.00165062 0.00161247 0.00235359 0.00079205 0.00088024 0.000631618 0.000513124 0.000823691 0.000718363 0.000624647 0.000346983 0.000481883 0.000905974 0.00061235 0.000221601 0.000520946 0.000255257 0.000235395 0.000220527 0.000390222 0.000202292 0.000194882 0.000384469 0.000470549 0.000702022
threshold=462.79983337762923 0.087293573732470056 0.86943463265250898 0.46435619028129255 0.0019703386659707602 0.52942143936918551 1.7000000000000173 58.428850469737959 -0.15585359523507278 0.0042159884358093933 0.0015085990296414297 0.13293679785725199 0.0060646674850457953 433.16754884938308 0.28659159631819153 1.2585670035825278 443.3875000000001 445.86600000000004 -0.51083047471085974 50.119612409713021 -0.0045066712787307775 479.44125000000003 501.95400000000001 422.78750000000008 404.33150000000006 0.0037332992406707709 0.0022177623056083159 0.00266481999281363 0.51491760071568271 0.0016358503894754863
decision_type=2 2 2 2 2 2 2 2 2 2 2 2 2 2 2 2 2 2 2 2 2 2 2 2 2 2 2 2 2 2
left_child=4 2 3 -2 11 -6 7 10 -5 -10 -7 15 13 -13 -15 23 18 -18 -17 22 -21 -22 -4 24 -1 -25 -3 28 -28 -30
right_child=1 26 19 8 5 6 -8 -9 9 -11 -12 12 -14 14 -16 16 17 -19 -20 20 21 -23 -24 25 -26 -27 27 -29 29 -31
leaf_value=0 0 -1.5341964081778566e-05 -3.5045523625095236e-05 0 0 0 0 0 -0.00019432049744308685 0 0.00011797489725617533 0 0 -0.00013666467489239676 0 0 -7.9606746442133889e-05 1.6531051242509037e-05 4.4138305043996176e-05 0 0 0.00010519845242515443 0 0 -3.4826421159609508e-05 1.4054471973827538e-05 0 0 0 7.133357558964969e-05
leaf_weight=117 77 401 333 55 1085 57 295 146 239 31 484 102 1117 122 33 114 113 356 731 111 44 63 51 568 430 1062 49 133 306 291
leaf_count=117 77 401 333 55 1085 57 295 146 239 31 484 102 1117 122 33 114 113 356 731 111 44 63 51 568 430 1062 49 133 306 291
internal_value=0 -2.30752e-05 -5.1965e-05 -0.000109687 6.88547e-06 2.32453e-05 5.14734e-05 7.67998e-05 -0.000152154 -0.000174639 0.000106782 0 -1.5594e-05 -6.4653e-05 -0.000105302 6.04591e-06 1.82949e-05 0 3.21477e-05 0 2.98142e-06 6.62391e-05 -2.26698e-05 0 -1.76607e-05 4.1273e-06 0 1.01911e-05 2.57026e-05 3.77337e-05
internal_weight=0 2184 1004 402 6932 2067 982 687 325 270 541 4865 1374 257 155 3491 1314 469 845 602 218 107 384 2177 547 1630 1180 779 646 597
internal_count=9116 2184 1004 402 6932 2067 982 687 325 270 541 4865 1374 257 155 3491 1314 469 845 602 218 107 384 2177 547 1630 1180 779 646 597
is_linear=0
shrinkage=0.03


Tree=11
num_leaves=31
num_cat=0
split_feature=66 12 45 66 2 3 7 45 5 4 2 2 7 45 3 10 35 34 6 10 55 66 45 36 55 5 12 45 66 3
split_gain=0.00200582 0.00156534 0.00161563 0.00160073 0.00258989 0.00177447 0.00174689 0.00126887 0.000719073 0.00196736 0.00189656 0.00159808 0.00115742 0.000878302 0.00118129 0.000647266 0.000619286 0.000592508 0.000583906 0.000570976 0.000541475 0.000498614 0.000429172 0.000399058 0.000391999 0.000366644 0.000348428 0.000291268 0.000109779 9.89527e-05
threshold=468.4695000000001 291.72500000000008 -0.17802897964695741 479.483 490.44934105396436 468.14000000000016 1.1327354020842666 0.27664266700476464 451.75670352907247 462.58358661159605 443.27387017953401 448.39342337345045 -1.1927877845535642 0.29130775329773578 454.85625000000005 1.0249999999999775 0.006232541458698654 -0.0055046958943369721 0.89432228163812522 -1.69999999999996 0.7259510384997333 467.22150000000005 0.34609218131598946 0.79411400828868917 1.2766496708345934 449.83415570982368 200.40000000000001 -0.050912042837152983 437.71950000000004 469.20000000000005
decision_type=2 2 2 2 2 2 2 2 2 2 2 2 2 2 2 2 2 2 2 2 2 2 2 2 2 2 2 2 2 2
left_child=8 2 -2 5 22 -4 -7 -6 10 12 15 17 -10 14 -14 19 21 -12 20 28 -18 26 -5 -21 -19 27 -11 -13 -1 -20
right_child=1 -3 3 4 7 6 -8 -9 9 16 11 25 13 -15 -16 -17 18 24 29 23 -22 -23 -24 -25 -26 -27 -28 -29 -30 -31
leaf_value=0 0 0 0 5.383400653897488e-05 -0.00011802227873662928 -0.00021204886250398097 0 0 0 -0.00010803431751498878 0 0 0 0 0.00012655051326620416 0 0.00010397492658074142 -8.3494647564840533e-05 -2.1913974851136652e-05 3.8557087859864183e-05 5.344821248976765e-07 0 0 0 0 -2.7379824794661219e-05 0 4.1673643315134289e-05 1.6445834987944756e-05 0
leaf_weight=879 246 954 26 194 255 191 22 42 39 101 46 143 37 32 357 1638 106 490 187 1396 518 22 24 186 154 168 20 268 365 49
leaf_count=879 246 954 26 194 255 191 22 42 39 101 46 143 37 32 357 1638 106 490 187 1396 518 22 24 186 154 168 20 268 365 49
internal_value=0 -2.66606e-05 -5.28872e-05 -7.50798e-05 -2.24667e-05 -0.000150671 -0.000181538 -9.01125e-05 7.60175e-06 2.6821e-05 1.10952e-06 -2.93543e-05 7.79446e-05 9.52612e-05 0.000108701 1.1787e-05 0 -6.05638e-05 1.26368e-05 2.06293e-05 3.25638e-05 -5.41364e-05 2.84624e-05 3.2938e-05 -6.89746e-05 0 -8.46276e-05 2.22606e-05 0 -1.93878e-06
internal_weight=0 1954 1000 754 515 239 213 297 7201 1468 5733 1269 465 426 394 4464 1003 690 860 2826 624 143 218 1582 644 579 121 411 1244 236
internal_count=9155 1954 1000 754 515 239 213 297 7201 1468 5733 1269 465 426 394 4464 1003 690 860 2826 624 143 218 1582 644 579 121 411 1244 236
is_linear=0
shrinkage=0.03


Tree=12
num_leaves=31
num_cat=0
split_feature=1 35 0 3 4 8 7 6 10 51 11 51 12 66 22 66 38 24 66 5 11 11 51 6 24 46 35 10 59 10
split_gain=0.00131242 0.00158671 0.00162184 0.00111035 0.00130737 0.000913702 0.00112357 0.000668244 0.000663886 0.000859648 0.000919104 0.000557211 0.000497765 0.000478439 0.000455545 0.000446314 0.000504182 0.00039124 0.000329829 0.000243413 0.000232336 9.04314e-05 0.000744268 0.00038071 0.000483347 0.000349769 0.000312608 0.000393639 0.00015246 0.000233858
threshold=443.01645985137253 0.0065913026129270748 40.716423545772493 449.86750000000001 466.98489453115991 0.79285714285714659 -1.3274528583467862 1.0209333125428091 0.52499999999997737 0.33277597094774736 0.00093286840995616992 1.1229572141137703 349.22500000000008 479.483 0.0038071845399928477 443.58300000000003 0.013661475951320718 -0.01437787557250225 443.3875000000001 444.83778478510322 0.0028802014523884533 0.0012766676235491355 1.2585670035825278 0.85467572681568538 1.0000000180025095e-35 0.0031349167815030218 0.007092646235503694 5.3750000000000009 88.09220672849203 2.3249999999999891
decision_type=2 2 2 2 2 2 2 2 2 2 2 2 2 2 2 2 2 2 2 2 2 2 2 2 2 2 2 2 2 2
left_child=8 2 -2 15 11 -4 -7 -8 9 -1 -11 -5 13 -6 -13 -3 19 -12 -19 -17 -14 22 23 24 -10 26 -23 -28 29 -24
right_child=1 3 5 4 12 6 7 -9 21 10 17 14 20 -15 -16 16 -18 18 -20 -21 -22 25 28 -25 -26 -27 27 -29 -30 -31
leaf_value=0 0 0 0 0 -4.4867780392492458e-05 0 -9.65662063950434e-05 0 0 0 0 8.8203703622524742e-05 1.8568929885057988e-05 0 0 -7.8901750840158923e-05 0 5.0345962593573359e-05 0 0 0 0 4.7779743114282014e-05 0 -9.3859655209522079e-05 -2.2278334185420985e-06 5.4169972131379921e-05 0 0 0
leaf_weight=679 299 182 185 560 435 21 639 44 52 326 129 280 684 560 91 314 41 1337 33 107 288 110 152 58 173 785 323 59 89 28
leaf_count=679 299 182 185 560 435 21 639 44 52 326 129 280 684 560 91 314 41 1337 33 107 288 110 152 58 173 785 323 59 89 28
internal_value=0 -1.16212e-05 -4.17056e-05 0 6.35806e-06 -6.29723e-05 -7.85795e-05 -8.85686e-05 1.11873e-05 2.13343e-05 3.23779e-05 3.69168e-05 -3.53431e-06 -2.11618e-05 6.90576e-05 -3.70022e-05 -5.26978e-05 4.27551e-05 4.75084e-05 -6.42213e-05 5.2548e-06 0 -1.19763e-05 -5.14203e-05 -6.96098e-05 1.30359e-06 2.52175e-05 3.94314e-05 0 2.75868e-05
internal_weight=0 4730 1188 3542 2898 889 704 683 4333 2504 1825 931 1967 995 371 644 462 1499 1370 421 972 1829 552 283 225 1277 492 382 269 180
internal_count=9063 4730 1188 3542 2898 889 704 683 4333 2504 1825 931 1967 995 371 644 462 1499 1370 421 972 1829 552 283 225 1277 492 382 269 180
is_linear=0
shrinkage=0.03


Tree=13
num_leaves=31
num_cat=0
split_feature=66 55 24 42 55 11 66 66 31 54 54 66 39 35 46 51 54 11 12 66 51 31 45 47 55 47 51 3 11 1
split_gain=0.00169324 0.00176807 0.00204 0.00140896 0.00218695 0.00105224 0.000759945 0.00237564 0.00141238 0.00193483 0.00170452 0.00117387 0.00101088 0.00100304 0.000844194 0.00102754 0.000667597 0.000742245 0.00143018 0.0013098 0.000441523 0.000614154 0.000376834 0.000659042 0.000373819 0.000284637 0.000356933 0.000345903 0.000185636 0.000173303
threshold=468.4695000000001 0.86435213994160476 0.005144222110069375 -0.16489759263110546 0.37270511402250528 0.00070200067329012118 452.35850000000011 443.3875000000001 0.0019457202201988546 0.0019460611832986835 0.00095921041204180275 447.96000000000004 0.0048275579886772274 0.0061851322509073594 0.0017430079357879124 0.283241094445351 0.0028418763987371385 0.0012766676235491355 283.52500000000003 403.84950000000003 0.38825343279598795 -0.0024301572188083231 0.045631745272429788 1.5265178571428641 1.2643334674191335 1.250714285714291 0.18367055930530959 472.03250000000008 0.0045683172523810897 466.98333705792521
decision_type=2 2 2 2 2 2 2 2 2 2 2 2 2 2 2 2 2 2 2 2 2 2 2 2 2 2 2 2 2 2
left_child=6 2 3 -2 -5 -6 7 16 9 10 12 20 -8 -12 -11 -16 17 19 -19 -1 -9 -22 23 -18 25 -3 -27 -28 29 -10
right_child=1 24 -4 4 5 -7 8 11 28 14 13 -13 -14 -15 15 -17 22 18 -20 -21 21 -23 -24 -25 -26 26 27 -29 -30 -31
leaf_value=9.904955370735516e-05 0 0 0 0 0 -0.00015936088460913187 0.00023496769213866083 0 -4.6457740832372735e-05 0 -7.5479463448224228e-05 0 0 4.4487061338335181e-06 0 0.00013651890642225336 0 4.4924713455334652e-05 0 -1.066317718144865e-05 0 -0.00010267292928478491 0 -9.5199938294539458e-05 -2.1006334126524586e-05 0 0 6.2209135342480712e-05 0 0
leaf_weight=103 130 144 186 29 31 351 44 219 182 46 156 368 25 620 119 296 27 1358 1440 1454 39 356 102 125 581 205 66 250 51 108
leaf_count=103 130 144 186 29 31 351 44 219 182 46 156 368 25 620 119 296 27 1358 1440 1454 39 356 102 125 581 205 66 250 51 108
internal_value=0 -2.57752e-05 -6.31699e-05 -9.35599e-05 -0.000120844 -0.000144428 5.43261e-06 0 2.33426e-05 4.00786e-05 1.51343e-06 -4.22013e-05 0.000148877 -4.88313e-08 9.12104e-05 0.000105215 9.18251e-06 1.34354e-05 2.27963e-05 0 -6.75844e-05 -9.0019e-05 -2.82751e-05 -5.96807e-05 0 1.09608e-05 2.53917e-05 4.55875e-05 -1.43638e-05 -2.86021e-05
internal_weight=0 1973 727 541 411 382 7238 5591 1647 1306 845 982 69 776 461 415 4609 4355 2798 1557 614 395 254 152 1246 665 521 316 341 290
internal_count=9211 1973 727 541 411 382 7238 5591 1647 1306 845 982 69 776 461 415 4609 4355 2798 1557 614 395 254 152 1246 665 521 316 341 290
is_linear=0
shrinkage=0.03


Tree=14
num_leaves=31
num_cat=0
split_feature=4 55 54 24 39 45 5 54 2 54 31 54 39 47 2 67 54 39 4 47 55 39 55 39 55 47 49 5 2 51
split_gain=0.00113838 0.00138957 0.00140737 0.00125388 0.00141119 0.00121157 0.00112186 0.00162448 0.00162413 0.00120318 0.00123614 0.000713939 0.000692139 0.000667688 0.000775673 0.000826737 0.000644313 0.00130621 0.00153651 0.000626908 0.000587006 0.000553135 0.000701977 0.00052413 0.000413042 0.000803116 0.000361837 0.000358593 0.000483641 0.000350735
threshold=466.98489453115991 0.86943463265250898 0.0026185992286015245 0.005144222110069375 0.00043925700244204746 -0.17431396412212233 451.75670352907247 0.002194149196922734 443.27387017953401 0.0013865172619634987 -0.0018647971791940518 0.00094084177602253799 0.01903287810231084 2.5135714285714257 464.22522995463402 0.0075735289533066024 0.0014022262718922038 0.0023845726276742669 422.77813002776981 1.3383035714285778 1.2726912313673175 0.0054485350766701711 1.0518050285438079 0.0049070679261722502 0.80280601369144755 0.99035714285715293 0.43333333261110552 481.1095564230223 497.11512033635552 0.12806306785707741
decision_type=2 2 2 2 2 2 2 2 2 2 2 2 2 2 2 2 2 2 2 2 2 2 2 2 2 2 2 2 2 2
left_child=6 2 3 4 -2 -6 8 11 16 -10 -11 23 -12 14 15 -9 24 18 -18 -3 29 22 -13 -8 25 -1 -19 -4 -29 -21
right_child=1 19 27 -5 5 -7 7 13 9 10 12 21 -14 -15 -16 -17 17 26 -20 20 -22 -23 -24 -25 -26 -27 -28 28 -30 -31
leaf_value=0 0 -2.7526968541772141e-05 0 0 0 -0.00014348744709537651 0.00018573444039667541 0.00017312981341609097 0 0 -8.6743370367899387e-05 -6.2205953229917924e-05 0 0 0 0 0.00011498568804699917 1.5714699594294278e-05 0 0 0 2.2611439775284061e-05 0 0 0 -7.9043422896058147e-05 -5.5648606177198777e-06 0.0001308084370502829 0 4.6773320613911167e-05
leaf_weight=186 83 558 108 202 104 333 32 156 518 164 524 260 59 21 22 21 261 1242 405 180 442 239 124 25 1257 176 981 44 21 450
leaf_count=186 83 558 108 202 104 333 32 156 518 164 524 260 59 21 22 21 261 1242 405 180 442 239 124 25 1257 176 981 44 21 450
internal_value=0 -1.84109e-05 -4.85072e-05 -6.83382e-05 -9.30169e-05 -0.000114886 5.04915e-06 3.62002e-05 0 -2.9841e-05 -5.43762e-05 0 -7.54678e-05 0.000109508 0.000127557 0.000149088 8.61994e-06 1.77266e-05 5.57644e-05 0 1.14741e-05 0 -3.12575e-05 0.000105895 -2.07255e-06 -3.23303e-05 2.2766e-06 0 7.03017e-05 3.25908e-05
internal_weight=0 2525 895 722 520 437 6673 900 5773 1265 747 680 583 220 199 177 4508 2889 666 1630 1072 623 384 57 1619 362 2223 173 65 630
internal_count=9198 2525 895 722 520 437 6673 900 5773 1265 747 680 583 220 199 177 4508 2889 666 1630 1072 623 384 57 1619 362 2223 173 65 630
is_linear=0
shrinkage=0.03


Tree=15
num_leaves=31
num_cat=0
split_feature=11 47 55 39 66 12 8 54 42 50 9 11 12 7 42 12 35 35 42 54 14 8 10 47 5 12 13 55 65 11
split_gain=0.00142768 0.00197312 0.00144704 0.00125736 0.00172379 0.00176023 0.00147408 0.00113483 0.00112943 0.00120548 0.000960076 0.000507024 0.000481305 0.000667255 0.000705192 0.000460382 0.000501348 0.000232611 0.000217341 0.00015332 0.000227689 0.000131627 0.000130666 0.000229187 0.000127057 0.000228767 0.000126389 0.00010348 9.34827e-05 9.04391e-05
threshold=0.0013888154966294967 0.99419642857142498 1.0688106125836558 0.0064837109521376024 421.23400000000004 198.82500000000002 0.70000000000000695 0.001448139575929366 0.21151644184653803 -4.2750000000000048 0.22500000000002277 0.0011499237314816708 61.250000000000007 0.55952328773728155 0.1357104480146169 442.30000000000007 0.0070570585617869613 0.028080559629267688 0.07628722613446047 0.0020358700438145643 0.0010050882632789246 1.2107142857142954 -1.7250000000000225 1.3727678571428683 421.16117426255403 149.92500000000004 0.6050000000000183 1.5032107167020012 0.017196058871700576 0.0024021341509072413
decision_type=2 2 2 2 2 2 2 2 2 2 2 2 2 2 2 2 2 2 2 2 2 2 2 2 2 2 2 2 2 2
left_child=1 11 8 4 7 6 -6 18 9 -2 -9 12 -1 14 -14 16 -11 19 -3 22 -21 -10 -4 -24 -5 -26 -23 -22 29 -19
right_child=2 3 17 24 5 -7 -8 10 21 15 -12 -13 13 -15 -16 -17 -18 28 -20 20 27 26 23 -25 25 -27 -28 -29 -30 -31
leaf_value=0 0 -5.5661597403908631e-05 4.8595995753604954e-06 0 0 0 -8.046955102970108e-05 9.8273330596290129e-05 0 0 0 0 8.1675062766908092e-05 0 0 0 6.8499659788712539e-05 0 0 0 3.2066371204566482e-05 0 -1.6391587799236977e-05 0 5.3503603335766959e-05 0 -4.5271963905501987e-05 0 0 -3.4206342499947102e-05
leaf_weight=160 184 153 1036 62 208 322 1234 166 192 325 87 236 350 99 138 64 1004 64 28 178 425 20 1114 597 114 131 113 69 32 319
leaf_count=160 184 153 1036 62 208 322 1234 166 192 325 87 236 350 99 138 64 1004 64 28 178 425 20 1114 597 114 131 113 69 32 319
internal_value=0 -1.55349e-05 8.78859e-06 -3.09869e-05 -4.00736e-05 -5.36681e-05 -6.79829e-05 0 3.02906e-05 4.18452e-05 5.41233e-05 1.46864e-05 2.99071e-05 4.33091e-05 5.90406e-05 5.25447e-05 5.66178e-05 0 -3.92532e-05 6.10654e-07 1.43925e-05 0 0 -7.37689e-06 4.75828e-06 2.22381e-05 -2.98111e-05 2.63876e-05 -2.23835e-05 -2.76107e-05
internal_weight=0 3488 5736 2505 2198 1764 1442 434 1902 1577 253 983 747 587 488 1393 1329 3834 181 3419 672 325 2747 1711 307 245 133 494 415 383
internal_count=9224 3488 5736 2505 2198 1764 1442 434 1902 1577 253 983 747 587 488 1393 1329 3834 181 3419 672 325 2747 1711 307 245 133 494 415 383
is_linear=0
shrinkage=0.03


Tree=16
num_leaves=31
num_cat=0
split_feature=2 11 5 5 42 55 62 24 54 42 5 2 2 6 31 54 1 8 6 47 48 67 37 62 62 2 42 54 5 48
split_gain=0.0010596 0.00165352 0.00154305 0.00202884 0.00155821 0.00151333 0.00133388 0.00124924 0.00114068 0.00130335 0.00064481 0.00144094 0.00108413 0.000903716 0.00116375 0.00081806 0.000623475 0.000388071 0.000207964 0.000114196 0.000223898 9.30554e-05 0.000124477 6.34125e-05 0.000223704 0.000138017 5.87396e-05 0.000141997 4.5404e-05 2.77149e-05
threshold=490.44934105396436 0.0011853596867905205 476.48281789143897 462.79983337762923 -0.16489759263110546 1.0183995914299795 76.286511186375137 0.0054775362927094182 0.001461159733607395 -0.2914462343068504 451.75670352907247 443.27387017953401 448.39342337345045 0.74186893911684149 -0.0028348423419444486 0.0013865172619634987 490.0565367982839 0.77857142857143313 -0.88039942455887388 1.2900000000000051 1.5500553953689706 -0.0022551096253184745 0.20697976986995972 35.173064678892047 65.369700142722351 507.39211762435008 -0.085359390930330389 0.0019622210522711836 455.19617390041543 1.2589696897325908
decision_type=2 2 2 2 2 2 2 2 2 2 2 2 2 2 2 2 2 2 2 2 2 2 2 2 2 2 2 2 2 2
left_child=2 7 3 10 21 6 -6 18 -4 -10 11 15 -13 14 -12 -1 17 -11 -2 20 29 -5 -23 26 25 -25 -21 -28 -15 -3
right_child=1 19 8 4 5 -7 -8 -9 9 16 13 12 -14 28 -16 -17 -18 -19 -20 23 -22 22 -24 24 -26 -27 27 -29 -30 -31
leaf_value=-3.5888719309992605e-06 0 0 0 0 -0.00012700912793511845 0 0 0 0 0 0 -5.2906259946688569e-05 0 0 5.8110992017666883e-05 1.9464208102941592e-05 0 0.00015341563937706153 -0.00018484097674312749 0 0 3.6091372036214658e-05 0 4.4958136174605607e-05 0 0 0 -4.2023894523553443e-05 -1.4108277531207462e-05 -5.9723770155098174e-05
leaf_weight=1558 20 48 197 147 342 259 21 27 43 21 137 661 559 77 802 3005 20 196 106 70 42 150 22 189 33 28 43 102 205 92
leaf_count=1558 20 48 197 147 342 259 21 27 43 21 137 661 559 77 802 3005 20 196 106 70 42 150 22 189 33 28 43 102 205 92
internal_value=0 -3.22471e-05 3.79696e-06 0 -4.06689e-05 -6.89592e-05 -0.000109062 -0.000123029 5.62492e-05 9.51327e-05 6.19806e-06 3.84016e-07 -2.67822e-05 2.6359e-05 4.2063e-05 9.62094e-06 0.000125033 0.000140195 -0.000165148 0 -2.37439e-05 0 2.2047e-05 0 1.51e-05 3.44842e-05 0 -1.90745e-05 0 -4.65705e-05
internal_weight=0 800 8422 7945 941 622 363 153 477 280 7004 5783 1220 1221 939 4563 237 217 126 647 182 319 172 465 250 217 215 145 282 140
internal_count=9222 800 8422 7945 941 622 363 153 477 280 7004 5783 1220 1221 939 4563 237 217 126 647 182 319 172 465 250 217 215 145 282 140
is_linear=0
shrinkage=0.03


Tree=17
num_leaves=31
num_cat=0
split_feature=66 66 66 12 55 1 35 26 47 66 66 7 3 7 3 16 47 11 55 24 14 1 1 66 24 7 66 24 66 42
split_gain=0.00149117 0.00250495 0.00164406 0.00145815 0.00136467 0.00122605 0.00148151 0.00157023 0.00199956 0.00064662 0.00103826 0.00106644 0.000632756 0.000578388 0.000568476 0.000545477 0.000543886 0.000454732 0.000405798 0.0004055 0.00023129 0.000222541 0.000215651 2.8378e-05 6.43733e-05 4.24274e-05 3.37425e-05 2.23431e-05 2.01927e-05 4.70243e-06
threshold=418.52950000000004 422.78750000000008 421.23400000000004 270.05000000000007 1.0136009334901883 442.8531069681967 0.0067957929866606899 -0.18367348493683341 0.95607142857143035 438.73200000000003 429.73250000000002 0.30459503396036841 449.86750000000001 -0.89261863358051075 464.97000000000008 0.00024827757528460135 1.2043750000000044 0.0019753506760434619 1.3114861839017173 0.011872249918246426 0.0011836357033863615 420.06666484312905 436.46572696931935 412.67350000000005 0.0042201312897645069 -0.65713253168875341 400.85600000000005 -0.0090831115940417356 490.71750000000003 0.036119285021071042
decision_type=2 2 2 2 2 2 2 2 2 2 2 2 2 2 2 2 2 2 2 2 2 2 2 2 2 2 2 2 2 2
left_child=3 2 29 15 20 9 7 28 -9 10 13 -12 16 -3 -14 -1 -8 22 19 21 -4 -17 -11 25 27 -5 -27 -25 -7 -2
right_child=1 5 4 23 -6 6 12 8 -10 17 11 -13 14 -15 -16 18 -18 -19 -20 -21 -22 -23 -24 24 -26 26 -28 -29 -30 -31
leaf_value=0 0 0 0 0 0 8.4042418578782728e-06 0 0 -8.271462437888202e-05 0 -4.2437587039374529e-05 9.0037591894854153e-06 2.2438993373094744e-05 4.5874249453438152e-05 -1.635419004591799e-06 8.5555855971589253e-05 -4.7718818563466629e-05 0 0 0 -0.0002721181970740221 0 5.401441444539709e-05 0 0 0 -1.6776857287277192e-05 3.1175556172250573e-05 0 -6.3396954891637413e-06
leaf_weight=157 136 76 20 96 96 257 215 193 752 23 654 343 1132 574 1762 510 437 228 39 33 74 24 582 21 102 63 334 80 38 105
leaf_count=157 136 76 20 96 96 257 215 193 752 23 654 343 1132 574 1762 510 437 228 39 33 74 24 582 21 102 63 334 80 38 105
internal_value=0 -6.66864e-06 -7.74293e-05 2.61982e-05 -0.000146162 -1.22969e-06 -1.12042e-05 -3.949e-05 -5.95072e-05 1.43899e-05 0 -1.57184e-05 0 3.25273e-05 4.67318e-06 5.50587e-05 -2.78592e-05 3.62589e-05 6.80159e-05 7.47528e-05 -0.00023693 8.13397e-05 4.98603e-05 0 0 -7.19543e-06 -1.26647e-05 2.3915e-05 0 0
internal_weight=0 7697 431 1459 190 7266 4786 1240 945 2480 1647 997 3546 650 2894 763 652 833 606 567 94 534 605 696 203 493 397 101 295 241
internal_count=9156 7697 431 1459 190 7266 4786 1240 945 2480 1647 997 3546 650 2894 763 652 833 606 567 94 534 605 696 203 493 397 101 295 241
is_linear=0
shrinkage=0.03


Tree=18
num_leaves=31
num_cat=0
split_feature=66 7 55 55 48 23 39 11 51 55 11 48 8 8 45 7 49 7 38 66 55 55 50 50 66 26 67 26 50 49
split_gain=0.00138957 0.0011176 0.00186455 0.0017767 0.00121828 0.000886771 0.000620546 0.000770099 0.000889408 0.00120432 0.00082478 0.000472134 0.000852995 0.00067498 0.000464436 0.000284181 0.000235597 0.000193699 0.000151379 0.000278851 0.00027229 0.000470501 0.000358469 0.000195964 0.0001576 0.000149848 0.00011234 8.37273e-05 7.34992e-05 6.90535e-05
threshold=468.4695000000001 0.029879729772329253 0.86943463265250898 0.41674747642066634 0.57475199976614932 0.0050336223659290811 0.012909254646817759 0.0011033369961646251 0.52942143936918551 1.2096104415080442 0.0014405190630045128 1.1369308217334053 0.88571428571429434 1.1857142857142977 -0.10898289812122451 0.5955878317033384 0.56030303169364803 1.7862818490780457 0.0022177623056083159 490.71750000000003 1.2892186785563469 0.53219633022583468 -6.5999999999999934 -2.0499999999999825 502.88450000000006 0.58607215131501134 0.0013214048685676564 -0.18367348493683341 -1.274999999999977 1.6900656796435574
decision_type=2 2 2 2 2 2 2 2 2 2 2 2 2 2 2 2 2 2 2 2 2 2 2 2 2 2 2 2 2 2
left_child=6 2 3 -2 -5 -6 7 11 -9 10 -10 12 -1 -14 -13 -16 -4 25 19 -3 21 -20 -23 -21 -25 29 28 -11 -18 -8
right_child=1 18 16 4 5 -7 17 8 9 27 -12 14 13 -15 15 -17 26 -19 20 23 -22 22 -24 24 -26 -27 -28 -29 -30 -31
leaf_value=0 0 0 0 0 -0.00017966517689094804 0 -3.3795723261111521e-05 0 9.116071320581118e-06 1.0870795768592581e-05 6.8615013541915357e-05 0 -6.3170392889052936e-05 0 6.5505181883817812e-05 0 0 0 0 0 0 0 4.99652528946431e-05 -9.4037165829904517e-05 0 0 0 -6.1026104384330335e-06 -4.0149229548469179e-05 0
leaf_weight=782 45 223 291 46 225 20 511 2026 871 457 787 99 441 73 176 28 50 120 40 31 171 33 409 76 31 193 38 572 235 61
leaf_count=782 45 223 291 46 225 20 511 2026 871 457 787 99 441 73 176 28 50 120 40 31 171 33 409 76 31 193 38 572 235 61
internal_value=0 -2.36112e-05 -4.7019e-05 -0.000106005 -0.000135876 -0.000162463 4.67166e-06 8.92604e-06 1.56363e-05 2.69572e-05 4.27929e-05 -5.22397e-06 -1.72522e-05 -4.73593e-05 1.65162e-05 4.9507e-05 -5.3357e-08 -1.54981e-05 0 -1.70918e-05 6.85445e-06 2.39113e-05 3.97598e-05 -5.07722e-05 -7.04717e-05 -2.24866e-05 -2.56097e-05 0 -3.313e-05 -3.01963e-05
internal_weight=0 1964 950 336 291 245 7197 6312 4713 2687 1658 1599 1296 514 303 204 614 885 1014 361 653 482 442 138 107 765 323 1029 285 572
internal_count=9161 1964 950 336 291 245 7197 6312 4713 2687 1658 1599 1296 514 303 204 614 885 1014 361 653 482 442 138 107 765 323 1029 285 572
is_linear=0
shrinkage=0.03


Tree=19
num_leaves=31
num_cat=0
split_feature=11 2 8 12 23 12 39 7 58 66 12 1 2 7 50 38 5 15 5 30 58 39 7 48 12 5 7 4 48 7
split_gain=0.00117642 0.00183467 0.00129579 0.000989022 0.00147966 0.00111025 0.000931407 0.000929649 0.000695259 0.000602969 0.0013539 0.000427101 0.0012883 0.000837904 0.000421465 0.000379502 0.000333204 0.000318339 0.000316714 0.000625238 0.000382068 0.000257726 0.000236281 0.000249101 0.000300216 0.000145644 0.000335136 0.000128961 4.73633e-05 2.45218e-05
threshold=0.0013888154966294967 403.87985872981193 0.71071428571428708 166.67500000000004 0.003622394546061614 78.175000000000026 0.012909254646817759 -0.60839041530855109 51.8200220150921 429.73250000000002 220.27500000000003 454.49447109277503 464.54752128799726 -1.1452659076535683 -0.27499999999997721 0.00099003373906227598 470.34147231869321 0.049999999999982954 441.49508749164619 -1.1758201871134302 61.433239834741791 0.0051209412816500778 1.7862818490780457 1.5860252166329951 810.95000000000016 404.91502410600896 1.0000000180025095e-35 408.13908992051296 1.0834731427888393 -0.38165447894164339
decision_type=2 2 2 2 2 2 2 2 2 2 2 2 2 2 2 2 2 2 2 2 2 2 2 2 2 2 2 2 2 2
left_child=1 7 8 4 5 -4 9 -1 29 10 15 18 13 -13 -10 -2 -14 -17 20 -20 -11 -16 23 24 27 -12 -27 -8 -6 -3
right_child=6 2 3 -5 28 -7 22 -9 14 11 25 12 16 -15 21 17 -18 -19 19 -21 -22 -23 -24 -25 -26 26 -28 -29 -30 -31
leaf_value=0 0 0 0 0 1.4515914619364016e-05 -6.3563319941366153e-05 0 0.00015144577557401096 0 2.1438491213380359e-05 0 0 -1.9540972658169369e-05 7.3219798290638025e-05 0.00010189435622366382 0 1.1371737211280796e-05 0.00011314424050032622 0 -4.4333057748890573e-05 -1.3426023337243584e-05 0 0 0 0 3.4657883962726974e-05 0 -3.9331776025365448e-05 0 -1.6085070142727719e-05
leaf_weight=49 40 49 292 900 202 1424 23 76 144 594 196 96 513 437 129 25 803 254 64 439 392 24 163 153 41 383 399 665 98 85
leaf_count=49 40 49 292 900 202 1424 23 76 144 594 196 96 513 437 129 25 803 254 64 439 392 24 163 153 41 383 399 665 98 85
internal_value=0 -1.45482e-05 -2.09761e-05 -2.94747e-05 -4.12068e-05 -5.26375e-05 7.55088e-06 8.5376e-05 1.56361e-05 1.43614e-05 3.32772e-05 4.3132e-06 1.52636e-05 5.46079e-05 4.95924e-05 9.07117e-05 0 0.000103102 -3.2419e-06 -2.44427e-05 0 8.51115e-05 -1.40419e-05 -2.17859e-05 -2.96918e-05 5.32175e-06 1.42469e-05 -3.64235e-05 0 0
internal_weight=0 3472 3347 2916 2016 1716 5680 125 431 4635 1297 3338 1849 533 297 319 1316 279 1489 503 986 153 1045 882 729 978 782 688 300 134
internal_count=9152 3472 3347 2916 2016 1716 5680 125 431 4635 1297 3338 1849 533 297 319 1316 279 1489 503 986 153 1045 882 729 978 782 688 300 134
is_linear=0
shrinkage=0.03


Tree=20
num_leaves=31
num_cat=0
split_feature=66 66 66 12 54 35 3 54 5 42 66 55 24 0 62 62 46 42 35 54 12 14 66 47 6 66 62 3 24 54
split_gain=0.00117351 0.00172347 0.00214603 0.00134447 0.00282107 0.00127479 0.00183894 0.00192988 0.00163795 0.00121493 0.000900913 0.000860067 0.000739563 0.000927152 0.000713919 0.000654522 0.000548947 0.000424686 0.000280604 0.000778707 0.00059405 0.000158012 0.000154264 0.000253068 0.000141215 2.82109e-05 0.000137827 0.000138071 8.08216e-05 1.92242e-06
threshold=418.52950000000004 422.78750000000008 421.23400000000004 281.92500000000001 0.0014022262718922038 0.0060646674850457953 461.33375000000001 0.0024275982088467697 457.48497560899335 -0.22766887937800628 429.96950000000004 1.0875621653579721 0.0095162336678850119 67.741930894901103 65.989394551094946 54.489261867197861 0.0017013703965023802 0.35865737823289046 0.010500308348127048 0.0017297906918141341 213.17500000000004 0.0010762076556357747 415.30300000000005 0.93901785714286168 -0.88039942455887388 414.04850000000005 25.171430253919258 404.58375000000007 -0.010556830275838145 0.0015498669789025651
decision_type=2 2 2 2 2 2 2 2 2 2 2 2 2 2 2 2 2 2 2 2 2 2 2 2 2 2 2 2 2 2
left_child=3 2 -2 4 22 6 8 9 16 -8 15 21 13 14 -6 17 -3 -7 19 -12 -20 -4 23 -1 -25 26 -5 -28 -29 -27
right_child=1 5 11 25 12 10 7 -9 -10 -11 18 -13 -14 -15 -16 -17 -18 -19 20 -21 -22 -23 -24 24 -26 29 27 28 -30 -31
leaf_value=0 0 4.9325203399337598e-06 0 0 0.00013178222495795422 6.9556695259886484e-05 0 0 0.00022451082648770822 -0.00011969719141258956 0 0 0 0 0 0 -2.7881972788774182e-05 0 -3.5445954068510776e-05 3.224019560648466e-05 0 -0.00025008136797307777 0 0 -6.1810899354971768e-05 0 0 0 -3.9126406858852941e-05 3.8737377665025953e-06
leaf_weight=66 248 332 24 116 385 390 55 65 27 386 1231 78 71 41 61 90 751 46 493 835 2551 74 67 20 129 45 111 31 226 115
leaf_count=66 248 332 24 116 385 390 55 65 27 386 1231 78 71 41 61 90 751 46 493 835 2551 74 67 20 129 45 111 31 226 115
internal_value=0 -5.77669e-06 -6.5116e-05 2.32171e-05 4.89095e-05 -1.06379e-06 -2.54794e-05 -7.30848e-05 0 -0.000100319 4.34105e-06 -0.000145465 9.02636e-05 0.000103443 0.000116418 4.17423e-05 -9.51597e-06 5.87537e-05 0 9.00079e-06 -5.28852e-06 -0.000214067 -1.04698e-06 -2.54223e-05 -4.95734e-05 0 -7.24057e-06 -2.0143e-05 -3.26149e-05 0
internal_weight=0 7676 424 1484 840 7252 1616 506 1110 441 5636 176 558 487 446 526 1083 436 5110 2066 3044 98 282 215 149 644 484 368 257 160
internal_count=9160 7676 424 1484 840 7252 1616 506 1110 441 5636 176 558 487 446 526 1083 436 5110 2066 3044 98 282 215 149 644 484 368 257 160
is_linear=0
shrinkage=0.03


Tree=21
num_leaves=31
num_cat=0
split_feature=4 5 2 7 7 4 12 4 55 10 45 64 45 2 5 2 64 30 55 39 51 11 58 35 11 51 4 13 4 11
split_gain=0.000673176 0.00105291 0.00143355 0.00137009 0.00101412 0.000880393 0.000864981 0.000779117 0.000708369 0.000695508 0.000659465 0.00083266 0.000654154 0.0012945 0.00135564 0.00127108 0.00118202 0.00101792 0.0007809 0.000651483 0.000619013 0.000825287 0.00036745 0.000365105 0.000347457 0.000219849 0.000401276 0.000186667 0.00017526 0.000153858
threshold=466.98489453115991 451.75670352907247 443.27387017953401 -0.56063294772194094 -1.1250983300073514 462.58358661159605 317.0750000000001 463.87718999903194 0.79416532502612747 1.2749999999999775 0.29130775329773578 454.85625000000005 -0.19442943121958459 478.54846917425567 465.59761539624515 490.44934105396436 494.92750000000001 0.46952999517506561 0.97130984746357363 0.00026865611777448492 0.33277597094774736 0.0012101878249853183 86.956521571098577 0.0058628463248554114 0.0020460900388636154 0.75347326954627547 449.34701666163227 0.72500000000002285 407.52434588308898 0.0031815156974262914
decision_type=2 2 2 2 2 2 2 2 2 2 2 2 2 2 2 2 2 2 2 2 2 2 2 2 2 2 2 2 2 2
left_child=1 2 9 25 -3 10 12 24 19 20 11 -6 -2 14 -14 18 -17 -16 -15 -5 -1 -22 -9 -10 -7 -4 -27 -11 -29 -8
right_child=6 4 3 8 5 7 29 22 23 27 -12 -13 13 15 17 16 -18 -19 -20 -21 21 -23 -24 -25 -26 26 -28 28 -30 -31
leaf_value=0 0 0 0 0 0 -7.1318088693720985e-05 1.0580186239027084e-05 6.2712347861286046e-05 0 0 0 0.00010861029249435677 0 7.5426735056805861e-05 -0.00016861184388258202 -0.00012375405708118657 0 0 0 -0.00011539956905498842 0 4.1295890622507815e-05 0 -2.8816163179708969e-05 0 0 7.831381953109409e-05 0 -1.8767264966365325e-05 -1.1525745207101423e-05
leaf_weight=785 333 110 160 39 44 103 929 208 122 397 31 351 154 174 180 125 210 81 101 251 950 1271 61 538 28 52 92 61 1018 259
leaf_count=785 333 110 160 39 44 103 929 208 122 397 31 351 154 174 180 125 210 81 101 251 950 1271 61 538 28 52 92 61 1018 259
internal_value=0 4.7162e-06 0 -2.8448e-05 3.42139e-05 4.93052e-05 -1.34035e-05 0 -4.85625e-05 7.83429e-06 8.10599e-05 9.26684e-05 -3.01647e-05 -4.21858e-05 -8.48466e-05 0 -5.05018e-05 -0.000126929 3.23897e-05 -9.75102e-05 1.69934e-05 2.53304e-05 4.25908e-05 -1.33904e-05 -4.02487e-05 4.8196e-06 3.76853e-05 -4.72227e-06 -1.3644e-05 0
internal_weight=0 6672 5736 1254 936 826 2546 400 950 4482 426 395 1358 1025 415 610 335 261 275 290 3006 2221 269 660 131 304 144 1476 1079 1188
internal_count=9218 6672 5736 1254 936 826 2546 400 950 4482 426 395 1358 1025 415 610 335 261 275 290 3006 2221 269 660 131 304 144 1476 1079 1188
is_linear=0
shrinkage=0.03


Tree=22
num_leaves=31
num_cat=0
split_feature=4 47 0 66 2 4 48 4 3 65 62 55 1 3 66 48 62 12 4 47 62 66 47 12 49 0 35 55 62 11
split_gain=0.000776304 0.00165907 0.00105237 0.000798376 0.00113761 0.000955059 0.000729496 0.000709472 0.000830404 0.000565085 0.000790492 0.00118533 0.000546212 0.00188369 0.00140722 0.000927995 0.000879214 0.000521135 0.000494129 0.000646594 0.0004055 0.000399074 0.000336255 0.000315205 0.000267641 0.000263194 0.000259147 0.000252362 0.00025404 0.000222222
threshold=467.15443361816324 1.392946428571441 42.85714142857119 453.98099999999999 443.27387017953401 448.8263390228941 1.6125673490467163 462.58358661159605 460.43625000000009 0.001400060350030208 60.817365401788102 0.93440236902818963 482.59497800005681 489.71125000000012 473.27250000000009 0.95109339929873238 35.304949151703333 538.7750000000002 463.87718999903194 1.37660714285715 25.899670747137975 460.15350000000007 1.1399107142857099 133.47500000000002 0.9689903883882881 75.463118829953615 0.011822583945214521 0.46435619028129255 21.419205573639257 0.00094767073931492391
decision_type=2 2 2 2 2 2 2 2 2 2 2 2 2 2 2 2 2 2 2 2 2 2 2 2 2 2 2 2 2 2
left_child=3 2 -2 4 9 20 27 8 21 10 11 -1 14 15 -3 -14 -16 -18 19 -9 -6 25 -7 -20 -25 -5 -22 -4 -29 -11
right_child=1 12 6 7 5 22 -8 18 -10 29 -12 -13 13 -15 16 -17 17 -19 23 -21 26 -23 -24 24 -26 -27 -28 28 -30 -31
leaf_value=5.0521597106586932e-05 0 4.7884913531430794e-06 0 4.6890408527336329e-05 0 2.4207343228006638e-05 0 -9.0451859344358658e-05 0.00023292436268898653 -3.510288788294628e-05 -2.785581333375012e-06 0 0.00021790995395668425 0 0 0 -0.00013686923184775396 0 0 0 -8.1900781405393934e-05 0 -1.8127791498268098e-05 5.7391115412144671e-05 0 0 0 0 -8.8217274914744587e-05 0
leaf_weight=1015 416 633 49 358 138 281 45 99 39 165 595 1307 63 448 55 43 135 20 65 45 323 48 419 224 80 26 64 71 517 1398
leaf_count=1015 416 633 49 358 138 281 45 99 39 165 595 1307 63 448 55 43 135 20 65 45 323 48 419 224 80 26 64 71 517 1398
internal_value=0 -1.38575e-05 -4.23125e-05 5.72836e-06 0 -2.40866e-05 -6.53458e-05 3.08708e-05 5.78372e-05 8.35791e-06 1.67436e-05 2.56231e-05 2.07064e-06 2.92818e-05 -5.14362e-06 0.000142897 -7.7842e-05 -0.000115328 0 -3.99664e-05 -5.46771e-05 2.10612e-05 0 2.40849e-05 4.04505e-05 3.78626e-05 -7.06902e-05 -7.48451e-05 -8.03395e-05 -1.53534e-06
internal_weight=0 2495 1098 6689 5705 1225 682 984 471 4480 2917 2322 1397 554 843 106 210 155 513 144 525 432 700 369 304 384 387 637 588 1563
internal_count=9184 2495 1098 6689 5705 1225 682 984 471 4480 2917 2322 1397 554 843 106 210 155 513 144 525 432 700 369 304 384 387 637 588 1563
is_linear=0
shrinkage=0.03


Tree=23
num_leaves=29
num_cat=0
split_feature=66 47 2 66 66 55 8 48 54 5 66 6 54 11 39 4 45 38 2 55 48 5 54 14 55 11 11 11
split_gain=0.000967216 0.00125148 0.000651219 0.000780038 0.000788338 0.00155808 0.0015465 0.000640101 0.000598296 0.00120319 0.00159603 0.00154981 0.000521486 0.000844928 0.000395604 0.000380041 0.000372578 0.000402758 0.00030284 0.000532524 0.000128759 0.000119249 0.00010839 5.18685e-05 9.63313e-07 7.41369e-08 9.50166e-05 7.42191e-06
threshold=490.71750000000003 1.3031250000000101 485.31965370562835 468.82550000000009 479.483 0.89247739304184626 0.92857142857143471 1.5645377064017583 0.0019703386659707602 453.35315083939076 420.76500000000004 1.0052218362716874 0.00085750420084812322 0.0010824845017832797 0.016487154742329722 425.58798828263497 0.28113896272296346 0.013026467442070548 481.98741282492182 1.1707891256472596 1.3734150776262668 479.65621348115252 0.0019211476565438666 0.0010184798182242699 1.2892186785563469 0.0013807290203566882 0.0021562962008194984 0.00099993529357940794
decision_type=2 2 2 2 2 2 2 2 2 2 2 2 2 2 2 2 2 2 2 2 2 2 2 2 2 2 2 2
left_child=2 7 3 8 5 6 -5 16 12 10 -10 -11 15 -14 20 -1 17 22 19 -6 23 -20 -2 -4 -7 27 -27 -3
right_child=1 25 14 4 18 24 -8 -9 9 11 -12 -13 13 -15 -16 -17 -18 -19 21 -21 -22 -23 -24 -25 -26 26 -28 -29
leaf_value=0 -0.00013927435243657116 0 0 0 9.246382660302893e-05 0 -0.0001408330032050258 0 4.4287148249148625e-05 9.1679672664172411e-05 -1.7225334005089559e-05 0 -2.6293966972375253e-05 5.0092924836849443e-07 0 6.6104570357869403e-05 0 0 0 0 0 -3.6149394913701461e-05 0 9.4779253259311209e-05 -2.3476898037276127e-06 2.1900056102943817e-05 0 -9.1094471539140517e-06
leaf_weight=37 173 20 20 46 87 256 208 37 570 367 1071 144 1238 3650 32 164 38 23 22 69 25 86 24 124 157 178 200 81
leaf_count=37 173 20 20 46 87 256 208 37 570 367 1071 144 1238 3650 32 164 38 23 22 69 25 86 24 124 157 178 200 81
internal_value=0 -3.34e-05 1.19182e-06 0 -2.59633e-05 -4.47664e-05 -0.000103793 -8.20932e-05 3.20212e-06 1.68284e-05 0 5.75324e-05 -7.92295e-07 -4.44557e-06 5.45036e-05 4.32144e-05 -9.96744e-05 -0.000114764 0 4.13391e-05 7.50678e-05 -7.09473e-06 -0.000128621 8.61077e-05 0 0 0 -8.11585e-07
internal_weight=0 774 8373 8172 931 667 254 295 7241 2152 1641 511 5089 4888 201 201 258 220 264 156 169 108 197 144 413 479 378 101
internal_count=9147 774 8373 8172 931 667 254 295 7241 2152 1641 511 5089 4888 201 201 258 220 264 156 169 108 197 144 413 479 378 101
is_linear=0
shrinkage=0.03


Tree=24
num_leaves=25
num_cat=0
split_feature=2 35 66 55 66 62 35 7 12 2 66 66 66 66 3 51 66 58 65 55 7 12 8 26
split_gain=0.00109944 0.00134901 0.00114659 0.00193997 0.00185882 0.00199844 0.000988834 0.000823627 0.000677583 0.00050074 0.00174231 0.00293464 0.00173986 0.000593518 0.000555453 0.000495035 0.000438002 0.00043304 0.000188543 8.77702e-05 6.00317e-05 0.000133442 0.000124961 0.00013871
threshold=490.44934105396436 0.0065913026129270748 479.483 1.0476041372270719 473.27250000000009 29.667252908682027 0.0043882439075871868 0.78865678768051628 538.7750000000002 416.91390652900412 422.78750000000008 421.23400000000004 414.04850000000005 429.73250000000002 404.58375000000007 0.283241094445351 418.15199999999999 91.762364456486452 -0.0091437296919369745 0.86943463265250898 1.4247713996458908 331.97500000000008 1.7607142857142986 0.65097818896382631
decision_type=2 2 2 2 2 2 2 2 2 2 2 2 2 2 2 2 2 2 2 2 2 2 2 2
left_child=2 7 4 6 9 -6 -4 19 18 12 11 -11 14 -12 -1 -8 -14 -17 -7 -2 21 22 23 -3
right_child=1 20 3 -5 5 8 15 -9 -10 10 13 -13 16 -15 -16 17 -18 -19 -20 -21 -22 -23 -24 -25
leaf_value=3.2383237008203311e-05 -0.0001688150902105681 -4.146452561802434e-05 0 0 0 0 0 0 0 0 3.4352238128073879e-05 -0.00015032427479327108 9.5855761587938977e-05 1.2246414500838454e-06 -1.404672777307943e-05 0.00019352938317751978 0 0 -0.00015104609836930302 0 0 0 0 0
leaf_weight=358 99 239 51 221 65 20 28 36 28 430 656 175 283 5105 629 125 25 20 178 20 88 235 39 33
leaf_count=358 99 239 51 221 65 20 28 36 28 430 656 175 283 5105 629 125 25 20 178 20 88 235 39 33
internal_value=0 -3.17475e-05 4.86838e-06 5.238e-05 1.07597e-06 -7.15142e-05 0.000115026 -0.000113756 -0.000120545 5.0107e-06 8.31618e-08 -4.6701e-05 2.22798e-05 6.56059e-06 0 0.000149198 8.46441e-05 0.000172093 -0.000140208 -0.000151851 0 -9.9448e-06 -2.36506e-05 -3.2442e-05
internal_weight=0 789 8397 445 7952 291 224 155 226 7661 6366 605 1295 5761 987 173 308 145 198 119 634 546 311 272
internal_count=9186 789 8397 445 7952 291 224 155 226 7661 6366 605 1295 5761 987 173 308 145 198 119 634 546 311 272
is_linear=0
shrinkage=0.03


Tree=25
num_leaves=31
num_cat=0
split_feature=35 4 4 5 42 31 7 46 26 62 42 24 62 7 47 35 51 24 26 38 69 35 35 8 35 22 39 64 47 51
split_gain=0.000770937 0.00195137 0.00270974 0.00102981 0.00101885 0.000666428 0.001412 0.000662971 0.000691116 0.000614292 0.000561403 0.000542554 0.000535547 0.000530526 0.000522091 0.00112556 0.000916084 0.000479954 0.000414547 0.000397085 0.000302247 0.000382986 0.000516145 0.000185456 0.000184248 0.000153075 0.000138635 7.83131e-05 0.00017637 5.75958e-05
threshold=0.005909280363867766 462.30996340966618 460.13763421131517 404.03958957634353 -0.22766887937800628 -0.00040482107136839614 0.087293573732470056 0.0026167453995519659 -0.49437919994965268 24.450166304658783 0.17310972963919199 -0.0098803858826383411 37.673698643025944 0.90321174544830274 1.0695535714285809 0.016007433346998213 0.79824140579878644 0.013374319486911814 -0.18367348493683341 0.0003111578697489777 1.5000000000000002 0.012766727700082565 0.007128395981411558 0.89642857142857846 0.028080559629267688 -0.0060412562917108161 0.005166529506754748 483.1112500000001 0.8760714285714325 0.84404484171749583
decision_type=2 2 2 2 2 2 2 2 2 2 2 2 2 2 2 2 2 2 2 2 2 2 2 2 2 2 2 2 2 2
left_child=1 2 3 19 -3 -5 -7 8 23 -10 17 -6 20 18 27 16 -16 -11 -13 -1 21 22 -9 -2 -17 -25 -27 28 -14 -12
right_child=7 4 -4 5 11 6 -8 12 9 10 29 13 14 -15 15 24 -18 -19 -20 -21 -22 -23 -24 25 -26 26 -28 -29 -30 -31
leaf_value=0 0 0 0.0002966302323761488 0 0 -0.00010095259945006599 0 0 0 5.3224499944411056e-05 -7.5064423096826737e-06 0 0 0 0 6.1671599264400452e-06 -7.830853966212015e-05 0 -0.00012544141025287571 0.00010367333898196413 0 0 4.2652204047640205e-05 0 -2.0381179559823641e-05 -5.4371822110302325e-05 0 0 2.7372257299413585e-05 1.5069210363662307e-05
leaf_weight=21 124 77 27 489 26 225 608 165 435 1008 189 64 84 23 300 774 430 122 289 83 1560 380 673 20 328 147 20 20 315 181
leaf_count=21 124 77 27 489 26 225 608 165 435 1008 189 64 84 23 300 774 430 122 289 83 1560 380 673 20 328 147 20 20 315 181
internal_value=0 -1.67207e-05 0 -5.06948e-06 -6.92191e-05 -1.79393e-05 -3.50776e-05 4.59499e-06 1.82759e-05 2.65702e-05 3.57655e-05 -8.93736e-05 0 -9.91825e-05 -1.22595e-05 -2.09111e-05 -4.98419e-05 4.63133e-05 -0.000108761 7.1817e-05 7.19019e-06 1.8471e-05 3.01166e-05 -4.39498e-06 0 -3.03849e-05 -4.3094e-05 4.09189e-06 1.39318e-05 0
internal_weight=0 1932 1453 1426 479 1322 833 7275 2246 1935 1500 402 5029 376 2251 1832 730 1130 353 104 2778 1218 838 311 1102 187 167 419 399 370
internal_count=9207 1932 1453 1426 479 1322 833 7275 2246 1935 1500 402 5029 376 2251 1832 730 1130 353 104 2778 1218 838 311 1102 187 167 419 399 370
is_linear=0
shrinkage=0.03


Tree=26
num_leaves=31
num_cat=0
split_feature=2 66 4 49 54 12 2 5 35 67 54 39 12 55 54 49 49 62 12 62 54 66 46 13 55 5 66 54 54 35
split_gain=0.000839851 0.00133155 0.000944634 0.000845546 0.000796333 0.00156696 0.00145989 0.00114232 0.000999572 0.000689909 0.00067011 0.000783381 0.000658341 0.000814373 0.000531674 0.000472301 0.000700549 0.000444354 0.00035664 0.000280333 0.000503426 0.000492437 0.000444328 0.000266363 0.00036511 0.000174964 0.000168238 0.000552447 0.000416548 0.000163969
threshold=443.27387017953401 446.15550000000002 466.98489453115991 0.17142857106122697 0.0013865172619634987 317.0750000000001 416.91390652900412 435.45457958974606 0.0059635837672983695 0.0051771877086313192 0.0026892751761003896 0.0032116943511618823 362.52500000000003 0.38523409584431606 0.0013090173704554126 0.28317610069069904 0.9310344870392494 25.382049769034996 61.250000000000007 41.615895502927323 0.0011844069460241252 405.59600000000006 0.0020209529407036273 0.27499999999997732 1.335758469366219 424.74717980429068 456.94350000000003 0.0019703386659707602 0.0017514975740883351 0.0065913026129270748
decision_type=2 2 2 2 2 2 2 2 2 2 2 2 2 2 2 2 2 2 2 2 2 2 2 2 2 2 2 2 2 2
left_child=4 14 15 29 19 6 10 8 -8 -9 11 -6 13 -5 -2 26 18 -16 -17 -1 -21 -22 -23 -19 -25 -7 28 -28 -3 -4
right_child=1 2 3 12 5 25 7 9 -10 -11 -12 -13 -14 -15 17 16 -18 23 -20 20 21 22 -24 24 -26 -27 27 -29 -30 -31
leaf_value=0 0 0 0 0 0.00014168260014119302 -1.7070869718120839e-05 -6.2963642243728861e-05 6.9766064982526503e-05 6.4041029039636315e-06 0 0 1.2078987361000284e-05 0 -4.8989680075867929e-05 0 0 0 0 5.8864006840000223e-05 0 0 0 -8.5650621204748497e-05 -0.00012436286805481546 0 0 0 6.0701517874444514e-05 -5.9463683457341689e-05 1.5548835661308148e-05
leaf_weight=795 179 195 204 62 243 607 220 367 653 100 61 276 588 1094 86 25 499 27 488 462 32 79 214 196 37 364 154 139 144 619
leaf_count=795 179 195 204 62 243 607 220 367 653 100 61 276 588 1094 86 25 499 27 488 462 32 79 214 196 37 364 154 139 144 619
internal_value=0 -9.16827e-06 -1.31319e-06 -1.45302e-05 8.94279e-06 1.9064e-05 3.56573e-05 1.01946e-05 -7.86774e-07 4.99699e-05 7.89401e-05 9.01383e-05 -2.7309e-05 -4.04653e-05 -5.50038e-05 1.38498e-05 2.70459e-05 -7.72722e-05 5.16807e-05 -3.86528e-06 -1.87213e-05 -4.734e-05 -6.3219e-05 -9.73659e-05 -0.000107726 -4.48159e-06 0 7.40279e-06 -1.99721e-05 1.61739e-06
internal_weight=0 4736 4211 2567 4473 2891 1920 1340 873 467 580 519 1744 1156 525 1644 1012 346 513 1582 787 325 293 260 233 971 632 293 339 823
internal_count=9209 4736 4211 2567 4473 2891 1920 1340 873 467 580 519 1744 1156 525 1644 1012 346 513 1582 787 325 293 260 233 971 632 293 339 823
is_linear=0
shrinkage=0.03


Tree=27
num_leaves=31
num_cat=0
split_feature=11 47 23 8 12 4 45 54 51 56 54 33 58 7 53 4 66 9 54 51 8 4 51 62 62 35 14 51 47 11
split_gain=0.000862483 0.001667 0.00100282 0.0010727 0.00145596 0.001698 0.000831294 0.000783547 0.00155021 0.000770637 0.000660509 0.000657355 0.00130886 0.000921471 0.000629621 0.000380531 0.000242922 0.000511028 0.000423755 0.000239281 0.000219595 0.000213586 0.000469087 0.000193896 0.000162838 0.000155661 0.000148762 0.000117917 8.88548e-05 8.52315e-05
threshold=0.0013807290203566882 0.99419642857142498 0.0035530026668888497 0.80000000000000537 166.67500000000004 405.64993647190209 0.21264929484158282 0.0013918836348659445 0.52942143936918551 1.0000000180025095e-35 0.0016546998405031312 0.0014365233284704731 57.142856950113547 0.55952328773728155 -0.42378493658098548 458.97548845186208 456.94350000000003 -2.0750000000000166 0.0028418763987371385 0.9031512099743767 0.85714285714286331 474.11404274433619 0.29445438620023751 28.541083429853252 29.034854337416167 0.0047012005918942931 0.0040551808534601093 2.1044608470742614 0.98657142857143121 0.0015321693916956036
decision_type=2 2 2 2 2 2 2 2 2 2 2 2 2 2 2 2 2 2 2 2 2 2 2 2 2 2 2 2 2 2
left_child=1 11 3 -3 5 -5 7 27 16 10 -10 12 20 14 -14 -8 18 -18 -9 -4 -1 22 -17 -21 -24 -22 -25 -2 -29 -30
right_child=6 2 19 4 -6 -7 15 8 9 -11 -12 -13 13 -15 -16 21 17 -19 -20 23 25 -23 24 26 -26 -27 -28 28 29 -31
leaf_value=-3.2881442489444878e-05 0 0 0 0 0 -7.7040146944791263e-05 0 0 0 0 6.6976320894629733e-05 0 0 0 0.0001235602022021296 0 0 3.3676503140700158e-05 -6.0631928907987249e-05 0 0 0 0 6.865256460529079e-05 -9.8547372643163211e-05 2.7725552997965975e-05 0 0 0 -5.4029738896006596e-05
leaf_weight=127 773 494 103 50 528 1062 751 1033 327 258 984 236 22 72 226 115 166 580 109 82 48 246 65 112 124 260 22 93 20 90
leaf_count=127 773 494 103 50 528 1062 751 1033 327 258 984 236 22 72 226 115 166 580 109 82 48 246 65 112 124 260 22 93 20 90
internal_value=0 -1.06822e-05 -2.55695e-05 -3.42314e-05 -4.59702e-05 -6.55323e-05 8.17616e-06 1.52261e-05 2.23835e-05 4.46413e-05 5.39802e-05 1.70854e-05 3.41528e-05 8.01763e-05 0.000107853 -8.92741e-06 0 1.62964e-05 -4.22928e-06 4.1672e-06 0 -2.84748e-05 -4.58038e-05 3.19571e-05 -7.48514e-05 1.39504e-05 5.42603e-05 -9.06118e-07 -2.29338e-05 -4.11636e-05
internal_weight=0 3444 2453 2134 1640 1112 5734 4433 3457 1569 1311 991 755 320 248 1301 1888 746 1142 319 435 550 304 216 189 308 134 976 203 110
internal_count=9178 3444 2453 2134 1640 1112 5734 4433 3457 1569 1311 991 755 320 248 1301 1888 746 1142 319 435 550 304 216 189 308 134 976 203 110
is_linear=0
shrinkage=0.03


Tree=28
num_leaves=31
num_cat=0
split_feature=2 66 54 5 35 50 23 54 12 2 50 35 12 64 66 67 5 38 51 66 51 6 17 66 12 2 33 49 5 18
split_gain=0.000792502 0.00156935 0.00103209 0.00119226 0.00200218 0.00162485 0.00114778 0.000755514 0.000968947 0.00103257 0.00128952 0.000890937 0.00087568 0.000806759 0.000736313 0.000599382 0.000539636 0.000940268 0.000510073 0.000915981 0.000404573 0.000273001 0.000269551 0.000252443 0.00055429 0.000343739 0.000153435 0.000152598 0.00012471 0.00010261
threshold=443.27387017953401 446.15550000000002 0.0031945835016963043 460.03715898279017 0.0065913026129270748 -1.1500000000000055 0.0021498076763120104 0.0013865172619634987 320.67500000000001 416.91390652900412 1.4000000000000059 0.007128395981411558 244.32500000000002 436.47000000000008 423.10350000000011 -0.0021104776226904807 458.4486457202575 0.0050982272938821776 0.38087294030168761 443.3875000000001 0.16592594048778311 0.1674296565504392 0.049999999999982954 422.95950000000011 188.82500000000002 404.6399195220643 -0.003601691117882925 0.3344298354518353 424.74717980429068 1.1999999999999604
decision_type=2 2 2 2 2 2 2 2 2 2 2 2 2 2 2 2 2 2 2 2 2 2 2 2 2 2 2 2 2 2
left_child=7 18 3 16 5 -5 20 23 9 10 12 13 -9 -11 -13 -6 27 -18 -2 -20 -4 26 -22 24 25 -1 -21 -3 29 -10
right_child=1 2 6 4 15 -7 -8 8 28 11 -12 14 -14 -15 -16 -17 17 -19 19 21 22 -23 -24 -25 -26 -27 -28 -29 -30 -31
leaf_value=0 0 -7.2991309454319674e-06 0 0 -2.5092152144520296e-05 -9.3924534503065876e-05 0 0.00011649421673883189 -1.9024356254562074e-05 -4.6097854162685849e-05 0 0 0 8.3447791412360433e-06 5.0624924559947409e-05 8.0943048136583523e-06 0.00015191028799600394 0 0 0 0 0 0.0001598814833419909 0 0 -8.0626075545824747e-05 -0.00015184848170161591 1.2150163088425432e-05 3.3582947348588197e-06 0
leaf_weight=42 184 468 25 108 739 487 88 341 553 351 154 165 94 270 594 1130 66 105 97 22 22 73 94 1033 324 163 150 761 384 37
leaf_count=42 184 468 25 108 739 487 88 341 553 351 154 165 94 270 594 1130 66 105 97 22 22 73 94 1033 324 163 150 761 384 37
internal_value=0 -9.15944e-06 -6.21805e-07 -6.42799e-06 -2.04902e-05 -6.90278e-05 5.79784e-05 8.50269e-06 1.82431e-05 3.06633e-05 6.74758e-05 8.41975e-06 9.39673e-05 -7.94879e-06 3.36631e-05 -2.14859e-07 1.18933e-05 6.31784e-05 -5.84552e-05 -8.1209e-05 0.000112985 -0.000112087 0.000136531 -4.08864e-06 -2.18766e-05 -6.05293e-05 -0.000138969 0 0 -1.35202e-05
internal_weight=0 4619 4093 3864 2464 595 229 4505 2943 1969 589 1380 435 621 759 1869 1400 171 526 342 141 245 116 1562 529 205 172 1229 974 590
internal_count=9124 4619 4093 3864 2464 595 229 4505 2943 1969 589 1380 435 621 759 1869 1400 171 526 342 141 245 116 1562 529 205 172 1229 974 590
is_linear=0
shrinkage=0.03


Tree=29
num_leaves=31
num_cat=0
split_feature=35 54 4 45 24 3 1 8 54 22 62 12 12 55 42 66 13 62 66 1 62 66 1 67 35 6 12 8 10 54
split_gain=0.000804291 0.00125352 0.00187176 0.000824114 0.000757709 0.000662787 0.000826394 0.00111683 0.00111059 0.000480958 0.000465195 0.000619499 0.000935654 0.000530198 0.000618033 0.000477484 0.000397725 0.000425143 0.000347417 0.000220457 0.000293329 0.000175136 0.000156989 0.000132267 5.35335e-05 4.15023e-05 8.53503e-05 0.00010568 8.11901e-05 0.000124913
threshold=0.0060646674850457953 0.0024169549679740141 462.30996340966618 -0.20481013256294658 0.0054775362927094182 458.16250000000008 408.47543543303794 0.70000000000000695 0.0014152152220844195 -0.0033319174928684299 60.434314564349826 171.47500000000002 82.77500000000002 1.2218600957996619 0.17310972963919199 421.23400000000004 0.424999999999983 52.159198804190929 480.77950000000004 465.40909306369468 51.592638695284428 453.98099999999999 433.11874816871028 0.0081898879166014509 0.0041603579997154154 -0.76735406994197308 610.50000000000011 1.4257142857142966 -7.1750000000000105 0.0013439722022044228
decision_type=2 2 2 2 2 2 2 2 2 2 2 2 2 2 2 2 2 2 2 2 2 2 2 2 2 2 2 2 2 2
left_child=1 2 5 -4 9 6 8 -8 -1 -5 13 12 -12 14 16 -14 -2 -18 -17 21 -21 -16 -3 24 -24 28 27 -27 -15 -30
right_child=10 22 3 4 -6 -7 7 -9 -10 -11 11 -13 15 25 19 18 17 -19 -20 20 -22 -23 23 -25 -26 26 -28 -29 29 -31
leaf_value=0 0 0 0 0 0 0.00011955922049889853 4.3363913339070379e-06 -4.342912237745035e-05 0.00011615159683536022 -0.00012786378188476804 0 0 0 0 0 -0.00011072919777455527 3.4002442678347643e-05 0 0 -4.4976277731118977e-05 0 2.9540492372918941e-05 0 0 8.6670378117679537e-05 0 0 -1.1725002401608542e-05 0 2.29786676506501e-05
leaf_weight=77 615 42 78 20 53 27 265 965 85 304 57 654 69 81 489 187 1838 266 35 228 24 181 20 22 82 271 116 1522 128 351
leaf_count=77 615 42 78 20 53 27 265 965 85 304 57 654 69 81 489 187 1838 266 35 228 24 181 20 22 82 271 116 1522 128 351
internal_value=0 -1.76726e-05 -2.78686e-05 -8.27612e-05 -0.00010115 -3.91239e-06 -1.27967e-05 -2.58243e-05 3.05291e-05 -0.000118347 3.50037e-06 -1.24127e-05 -4.52123e-05 7.58341e-06 1.50847e-05 -7.30406e-05 2.25665e-05 2.87782e-05 -9.44668e-05 0 -2.80015e-05 9.36097e-07 4.31548e-05 6.02353e-05 7.46473e-05 0 -4.42303e-06 -7.97893e-06 0 1.23472e-05
internal_weight=0 2040 1874 455 377 1419 1392 1230 162 324 7112 1002 348 6110 3641 291 2719 2104 222 922 252 670 166 124 102 2469 1909 1793 560 479
internal_count=9152 2040 1874 455 377 1419 1392 1230 162 324 7112 1002 348 6110 3641 291 2719 2104 222 922 252 670 166 124 102 2469 1909 1793 560 479
is_linear=0
shrinkage=0.03


Tree=30
num_leaves=31
num_cat=0
split_feature=2 5 1 47 0 35 12 11 2 5 31 54 55 42 5 7 54 23 0 23 47 54 12 2 5 50 54 55 5 12
split_gain=0.000718507 0.00167757 0.000997333 0.00168416 0.001274 0.000913478 0.000550022 0.00130349 0.000981061 0.0013278 0.000799361 0.000764836 0.000894825 0.00125834 0.000523653 0.00115563 0.00124236 0.00051887 0.000461736 0.000426155 0.000374974 0.000370175 0.000301502 0.000240161 0.000236134 0.000355891 0.000132807 0.000447796 6.52921e-05 0.000149147
threshold=443.27387017953401 444.83778478510322 461.62117626697113 1.3667857142857185 40.9090899545456 0.0074003737187913693 280.37500000000006 0.0012766676235491355 404.6399195220643 425.32342783814846 -0.0013671131390724947 0.0025977587327331115 1.2218600957996619 0.18866423610682082 451.75670352907247 -1.1452659076535683 0.002175983837284933 -0.0074814472206114471 77.639316176500969 -0.0047041780662849244 1.7846428571428614 0.0019300811419091896 80.925000000000026 434.78340542677091 449.83415570982368 -0.1500000000000625 0.0013347397597902771 1.335758469366219 424.74717980429068 319.02500000000003
decision_type=2 2 2 2 2 2 2 2 2 2 2 2 2 2 2 2 2 2 2 2 2 2 2 2 2 2 2 2 2 2
left_child=6 17 14 4 -4 -6 7 8 10 22 -1 12 13 -9 24 -16 -17 -2 26 21 -21 -5 -10 -11 25 -3 -19 -28 29 -8
right_child=1 2 3 19 5 -7 28 11 9 23 -12 -13 -14 -15 15 16 -18 18 -20 20 -22 -23 -24 -25 -26 -27 27 -29 -30 -31
leaf_value=0 0 0 0 0 -0.00010109217095159408 -4.6534804464206476e-06 0 8.5701677570550595e-05 0 2.8013699467617874e-05 0.00014987475862937604 0 0 0 0 1.3697109742726941e-05 0.000159623310554673 0 0 0 4.6736138605240567e-05 -4.7814528038676545e-05 -5.6963677589058982e-05 0 -2.7734265510263863e-05 4.1048797839027609e-05 -0.00010062869796643667 0 0 -1.6867951065334231e-05
leaf_weight=40 68 180 381 154 359 423 270 643 78 327 67 152 410 149 75 446 125 173 61 947 332 167 467 513 166 240 309 46 659 678
leaf_count=40 68 180 381 154 359 423 270 643 78 327 67 152 410 149 75 446 125 173 61 947 332 167 467 513 166 240 309 46 659 678
internal_value=0 -6.83134e-06 0 -9.52599e-06 -3.83663e-05 -6.04528e-05 9.83253e-06 1.80327e-05 0 -8.08965e-06 8.59299e-05 3.93656e-05 4.81466e-05 6.73359e-05 2.29109e-05 4.15939e-05 6.1463e-05 -5.12572e-05 -6.10156e-05 5.81666e-06 1.74232e-05 -1.23906e-05 -4.77817e-05 6.96036e-06 0 1.41879e-05 -7.02807e-05 -8.76403e-05 0 -7.87189e-06
internal_weight=0 4652 3995 2763 1163 782 4453 2846 1492 1385 107 1354 1202 792 1232 646 571 657 589 1600 1279 321 545 840 586 420 528 355 1607 948
internal_count=9105 4652 3995 2763 1163 782 4453 2846 1492 1385 107 1354 1202 792 1232 646 571 657 589 1600 1279 321 545 840 586 420 528 355 1607 948
is_linear=0
shrinkage=0.03


Tree=31
num_leaves=31
num_cat=0
split_feature=5 47 12 5 38 55 7 54 10 54 1 62 54 1 12 23 1 7 58 5 55 47 55 5 6 47 1 1 54 50
split_gain=0.000782624 0.00124878 0.00114963 0.000959446 0.00091822 0.00110319 0.000729123 0.00115332 0.000615393 0.000533822 0.000878131 0.0011073 0.000442662 0.000385206 0.000669763 0.00035662 0.000554765 0.000344549 0.000272811 0.000331241 0.000250002 0.000225161 0.000419181 0.000371236 0.000196974 0.000303688 0.000174088 0.000311105 0.000223047 3.60291e-05
threshold=460.03715898279017 1.7951785714285797 328.22500000000008 458.4486457202575 0.0058404545388231104 1.0476041372270719 0.029879729772329253 0.0024455989067906519 -1.0000000180025095e-35 0.0013706371584978035 420.06666484312905 60.434314564349826 0.0010439500446637786 442.4890827627417 207.87500000000003 -0.0046170973445805999 489.35851524020569 1.1845707961785454 85.806451502185311 461.41946835777327 0.6931638401248571 1.0695535714285809 1.1370675671707071 441.0185795325404 0.49981645827583071 1.392946428571441 425.98847672874223 418.24105919704903 0.0012167833301000885 -0.77499999999997715
decision_type=2 2 2 2 2 2 2 2 2 2 2 2 2 2 2 2 2 2 2 2 2 2 2 2 2 2 2 2 2 2
left_child=3 2 6 8 5 -5 7 12 9 21 11 -11 -2 26 17 -3 18 -15 19 -17 -12 23 -23 -1 29 -26 27 -10 -28 -8
right_child=1 15 -4 4 -6 -7 24 -9 13 10 20 -13 -14 14 -16 16 -18 -19 -20 -21 -22 22 -24 -25 25 -27 28 -29 -30 -31
leaf_value=0 0 0 0 0.00024265277777569437 0 0 1.4837007388311804e-05 0 0 8.1294140205379707e-05 -7.9347109161123189e-06 0 -8.6073315978575215e-05 -5.452914079278404e-05 0 0 0 0 0 0.00011071131378329896 1.3826831898503862e-05 -4.7761348001082716e-05 0 4.2947576133618719e-05 -4.5091812527192101e-05 0 0 -2.709443539926704e-05 2.0162194582665238e-05 0
leaf_weight=400 21 66 775 48 100 39 147 69 636 413 347 152 602 458 587 21 72 58 39 134 1108 236 361 203 235 160 229 437 778 239
leaf_count=400 21 66 775 48 100 39 147 69 636 413 347 152 602 458 587 21 72 58 39 134 1108 236 361 203 235 160 229 437 778 239
internal_value=0 -1.4211e-05 -2.46198e-05 5.27334e-06 7.39638e-05 0.000145614 -4.03393e-05 -6.61111e-05 1.85833e-06 1.2117e-05 2.17218e-05 5.53972e-05 -8.07455e-05 -5.69253e-06 -2.01921e-05 2.91427e-05 4.75924e-05 -4.5153e-05 7.53263e-05 9.31663e-05 2.45211e-06 0 -1.64572e-05 8.23101e-06 -5.96851e-06 -2.27787e-05 0 -6.18299e-06 1.07149e-05 0
internal_weight=0 2580 2248 6590 187 87 1473 692 6403 3220 2020 565 623 3183 1103 332 266 516 194 155 1455 1200 597 603 781 395 2080 1073 1007 386
internal_count=9170 2580 2248 6590 187 87 1473 692 6403 3220 2020 565 623 3183 1103 332 266 516 194 155 1455 1200 597 603 781 395 2080 1073 1007 386
is_linear=0
shrinkage=0.03


Tree=32
num_leaves=30
num_cat=0
split_feature=66 66 66 55 66 24 69 7 55 55 66 38 24 54 66 55 43 47 7 35 51 55 35 7 38 66 59 66 4
split_gain=0.000768663 0.00188593 0.0020044 0.00162414 0.00123942 0.00213395 0.00105764 0.000929897 0.00118118 0.00122245 0.00152128 0.000592334 0.000581054 0.000560477 0.000571278 0.000557916 0.000497828 0.000457053 0.00128369 0.000614427 0.000403348 0.000380712 0.000369036 0.000341847 0.000321427 0.000256687 0.000243623 0.000107302 6.79985e-05
threshold=419.00650000000013 422.78750000000008 421.23400000000004 1.0183995914299795 414.04850000000005 0.0025074083819361941 1.5000000000000002 0.087293573732470056 0.86943463265250898 0.49353486541524633 464.82150000000001 0.0038689531781675754 0.010563589141238785 0.0014529832638209719 410.83350000000007 1.4333261253987224 -0.038334906690780761 0.9276785714285759 0.55952328773728155 0.007128395981411558 1.7072481350225781 1.1598195558194091 0.004278798403508601 -0.34755490928759564 0.01510373383828219 400.01600000000002 20.346449285537773 418.52950000000004 417.97968650527906
decision_type=2 2 2 2 2 2 2 2 2 2 2 2 2 2 2 2 2 2 2 2 2 2 2 2 2 2 2 2 2
left_child=4 2 -2 -4 6 22 13 8 9 23 -11 17 15 -1 21 -13 24 18 -9 -19 25 -15 -6 -3 -10 -8 -18 -24 -27
right_child=1 7 3 -5 5 -7 20 11 16 10 -12 12 -14 14 -16 -17 26 19 -20 -21 -22 -23 27 -25 -26 28 -28 -29 -30
leaf_value=0 0 3.6874524775689022e-05 -0.00023443215081567044 0 0 0 0 0.00010169092232744807 -4.5535405241659887e-05 -1.122055545054908e-05 -0.00010653993056904579 4.6638670325156456e-05 0 9.3899339079454419e-05 0 0 0 -3.0200332766933223e-05 0 7.8373732815044935e-07 0 0 0.00014082197740251731 -8.289033824995747e-06 0 -4.7650624643279063e-05 1.4876682221236193e-05 0 0
leaf_weight=61 221 221 93 97 33 208 73 144 296 779 344 883 409 224 39 195 494 687 129 943 123 61 201 98 132 436 1546 22 25
leaf_count=61 221 221 93 97 33 208 73 144 296 779 344 883 409 224 39 195 494 687 129 943 123 61 201 98 132 436 1546 22 25
internal_value=0 -4.61999e-06 -6.72826e-05 -0.000138794 1.87083e-05 5.94809e-05 0 0 -1.10071e-05 -3.26426e-05 -4.84518e-05 1.03496e-05 2.4548e-05 3.99991e-05 5.87904e-05 3.62787e-05 0 0 3.51097e-05 -6.75789e-06 -2.259e-05 7.57028e-05 0.000117909 0 -2.75502e-05 -3.61552e-05 7.76308e-06 0.000132078 -4.48872e-05
internal_weight=0 7711 411 190 1506 464 1042 7300 3910 1442 1123 3390 1487 385 324 1078 2468 1903 273 1630 657 285 256 319 428 534 2040 223 461
internal_count=9217 7711 411 190 1506 464 1042 7300 3910 1442 1123 3390 1487 385 324 1078 2468 1903 273 1630 657 285 256 319 428 534 2040 223 461
is_linear=0
shrinkage=0.03


Tree=33
num_leaves=31
num_cat=0
split_feature=4 12 54 45 24 4 2 2 54 10 62 12 13 35 55 6 54 2 62 47 8 6 39 55 2 11 45 0 0 62
split_gain=0.000625403 0.000800284 0.000739205 0.000761846 0.000915229 0.000670114 0.000527069 0.00179914 0.000689769 0.000625591 0.0009508 0.000750511 0.000608406 0.000592043 0.00048324 0.000662953 0.000573993 0.000348682 0.000337762 0.000218685 0.000638202 0.00102197 0.000523608 0.000564116 0.00035986 0.000200442 0.000320549 0.000191346 0.000232583 0.000187507
threshold=467.15443361816324 358.97500000000008 0.0031945835016963043 -0.20481013256294658 0.005144222110069375 469.97732428124647 448.7578147720771 443.27387017953401 0.0012674470988396742 1.0249999999999775 60.036443677339143 281.92500000000001 1.5999999999999945 0.018495441529421668 1.4480814219681679 0.74186893911684149 0.0016599192650038445 432.13944942400082 14.576767323558341 0.98187500000000527 0.47857142857143792 0.64858827730466839 0.0056662183614467265 0.52039723454267894 455.86755601765543 0.0029377590659046293 0.26211817429713374 28.745078078622424 52.499998928125002 37.514520865362428
decision_type=2 2 2 2 2 2 2 2 2 2 2 2 2 2 2 2 2 2 2 2 2 2 2 2 2 2 2 2 2 2
left_child=6 2 3 27 5 -5 7 9 -9 10 11 -1 19 18 15 16 -14 -12 -10 20 -8 -22 23 -21 -24 26 -3 29 -29 -2
right_child=1 25 -4 4 -6 -7 12 8 13 -11 17 -13 14 -15 -16 -17 -18 -19 -20 22 21 -23 24 -25 -26 -27 -28 28 -30 -31
leaf_value=4.0158383308385701e-05 0 2.9898607834574679e-05 1.0144260627937565e-05 0 0 -7.7114176347952782e-05 0 0 0 -3.1214160641245631e-06 -2.8052036362429525e-05 0 0 0 0 0 0.00013121354231038999 0 -8.461878138232135e-05 0 0.00011435873065139231 0 0 -4.4751873410314524e-05 4.5904939487587436e-05 -1.9311038216142342e-06 0 4.3431641833954621e-05 0 -4.2306187935533243e-05
leaf_weight=1431 25 525 68 127 347 655 29 218 45 1660 419 755 122 70 99 58 158 238 395 86 129 27 142 430 209 267 113 164 42 134
leaf_count=1431 25 525 68 127 347 655 29 218 45 1660 419 755 122 70 99 58 158 238 395 86 129 27 142 430 209 267 113 164 42 134
internal_value=0 -1.28516e-05 -2.68474e-05 -3.45557e-05 -4.67674e-05 -6.48867e-05 4.80805e-06 0 -4.34169e-05 7.39634e-06 1.67026e-05 2.73282e-05 2.05628e-05 -6.25047e-05 5.1886e-05 6.90332e-05 8.87712e-05 -4.95537e-06 -7.57504e-05 0 3.25906e-05 7.02431e-05 0 -2.61875e-05 1.82634e-05 1.36413e-06 1.68434e-05 0 2.20821e-05 -2.12029e-05
internal_weight=0 2467 1562 1494 1129 782 6720 5231 728 4503 2843 2186 1489 510 437 338 280 657 440 1052 185 156 867 516 351 905 638 365 206 159
internal_count=9187 2467 1562 1494 1129 782 6720 5231 728 4503 2843 2186 1489 510 437 338 280 657 440 1052 185 156 867 516 351 905 638 365 206 159
is_linear=0
shrinkage=0.03


end of trees

feature_importances:
sma_50=86
volatility_ratio=76
volatility_ma=69
bb_lower=54
volume_ma=47
macd_signal=46
ema_slow=41
volatility=40
atr_ma=39
bb_width=37
adx=37
volume_ratio=35
bb_upper=33
ema_fast=31
macd_hist=23
macd_strength=22
bb_middle=21
return_24=20
atr=18
macd=16
price_bb_lower_dist=16
atr_ratio=16
momentum_ratio=16
price_bb_upper_dist=15
momentum_20=14
return_12=14
rsi=13
atr_normalized=11
momentum_convergence=11
stoch_d=11
rsi_normalized=9
ema_cross_pct=9
stoch_k=8
price_sma_50_dist=8
range_pct=6
sma_20=6
price_sma_20_dist=6
range=5
return_6=3
ema_cross=3
bb_position_normalized=3
momentum_10=2
price_ema_fast_dist=2
bb_position=2
market_regime=2
body=1
body_pct=1
upper_shadow=1
lower_shadow=1
log_return=1
price_ema_slow_dist=1
macd_hist_change=1
volume_change=1
high_volatility=1

parameters:
[boosting: gbdt]
[objective: regression]
[metric: rmse]
[tree_learner: serial]
[device_type: cpu]
[data: ]
[valid: ]
[num_iterations: 500]
[learning_rate: 0.03]
[num_leaves: 31]
[num_threads: 8]
[deterministic: 0]
[force_col_wise: 0]
[force_row_wise: 0]
[histogram_pool_size: -1]
[max_depth: 6]
[min_data_in_leaf: 20]
[min_sum_hessian_in_leaf: 0.001]
[bagging_fraction: 0.8]
[pos_bagging_fraction: 1]
[neg_bagging_fraction: 1]
[bagging_freq: 1]
[bagging_seed: 400]
[feature_fraction: 0.7]
[feature_fraction_bynode: 1]
[feature_fraction_seed: 30056]
[extra_trees: 0]
[extra_seed: 12879]
[early_stopping_round: 0]
[first_metric_only: 0]
[max_delta_step: 0]
[lambda_l1: 0.3]
[lambda_l2: 0.3]
[linear_lambda: 0]
[min_gain_to_split: 0]
[drop_rate: 0.1]
[max_drop: 50]
[skip_drop: 0.5]
[xgboost_dart_mode: 0]
[uniform_drop: 0]
[drop_seed: 17869]
[top_rate: 0.2]
[other_rate: 0.1]
[min_data_per_group: 100]
[max_cat_threshold: 32]
[cat_l2: 10]
[cat_smooth: 10]
[max_cat_to_onehot: 4]
[top_k: 20]
[monotone_constraints: ]
[monotone_constraints_method: basic]
[monotone_penalty: 0]
[feature_contri: ]
[forcedsplits_filename: ]
[refit_decay_rate: 0.9]
[cegb_tradeoff: 1]
[cegb_penalty_split: 0]
[cegb_penalty_feature_lazy: ]
[cegb_penalty_feature_coupled: ]
[path_smooth: 0]
[interaction_constraints: ]
[verbosity: 1]
[saved_feature_importance_type: 0]
[linear_tree: 0]
[max_bin: 255]
[max_bin_by_feature: ]
[min_data_in_bin: 3]
[bin_construct_sample_cnt: 200000]
[data_random_seed: 175]
[is_enable_sparse: 1]
[enable_bundle: 1]
[use_missing: 1]
[zero_as_missing: 0]
[feature_pre_filter: 1]
[pre_partition: 0]
[two_round: 0]
[header: 0]
[label_column: ]
[weight_column: ]
[group_column: ]
[ignore_column: ]
[categorical_feature: ]
[forcedbins_filename: ]
[precise_float_parser: 0]
[parser_config_file: ]
[objective_seed: 16083]
[num_class: 1]
[is_unbalance: 0]
[scale_pos_weight: 1]
[sigmoid: 1]
[boost_from_average: 1]
[reg_sqrt: 0]
[alpha: 0.9]
[fair_c: 1]
[poisson_max_delta_step: 0.7]
[tweedie_variance_power: 1.5]
[lambdarank_truncation_level: 30]
[lambdarank_norm: 1]
[label_gain: ]
[lambdarank_position_bias_regularization: 0]
[eval_at: ]
[multi_error_top_k: 1]
[auc_mu_weights: ]
[num_machines: 1]
[local_listen_port: 12400]
[time_out: 120]
[machine_list_filename: ]
[machines: ]
[gpu_platform_id: -1]
[gpu_device_id: -1]
[gpu_use_dp: 0]
[num_gpu: 1]

end of parameters

pandas_categorical:[]
