tree
version=v4
num_class=1
num_tree_per_iteration=1
label_index=0
max_feature_idx=63
objective=regression
feature_names=rsi ema_fast ema_slow bb_middle bb_upper bb_lower atr momentum_10 momentum_20 volatility volume_ma range range_pct body body_pct upper_shadow lower_shadow is_bullish return_1 return_3 return_6 return_12 return_24 log_return rsi_normalized rsi_overbought rsi_oversold rsi_divergence ema_cross ema_cross_pct ema_cross_signal price_ema_fast_dist price_ema_slow_dist bb_width bb_position bb_position_normalized price_bb_upper_dist price_bb_lower_dist bb_breakout_upper bb_breakout_lower atr_normalized atr_ma atr_ratio momentum_ratio momentum_convergence volume_ratio volume_spike volume_change volatility_ma volatility_ratio high_volatility low_volatility stoch_k stoch_d stoch_overbought stoch_oversold adx strong_trend sma_20 price_sma_20_dist sma_50 price_sma_50_dist signal_convergence market_regime
feature_infos=[0:99.999985872857692] [140.00419228244851:161.85491834155184] [140.15959095491192:161.77386577410471] [0:161.81829999999999] [0:163.49872234254795] [0:161.6340769086128] [0:1.1125714285714321] [-4.1740000000000066:3.6910000000000025] [-4.0190000000000055:3.1930000000000121] [0:0.004651925091918363] [0:14472.4] [0:3.1289999999999907] [0:0.019790486385785944] [0:2.86099999999999] [0:0.018034088903456733] [0:1.1399999999999864] [0:1.5829999999999984] [0:1] [-0.017714621838333167:0.014877782329646427] [-0.022323288195084667:0.021831831417413072] [-0.021306128588913342:0.022410317306895688] [-0.023662010314559945:0.026812644307773414] [-0.030412096542869249:0.024559774311784466] [-0.017873403720390344:0.014768193745818952] [-0.93857804316327842:0.99999971745715388] [0:1] [0:1] [-46.462567102264515:46.652687094333061] [-1.1327603992711772:0.72525453050678834] [-0.0079356633899468083:0.0049124836963239634] [0:1] [-0.015550408266898312:0.015067731023277454] [-0.020498919836102681:0.017349420162368165] [0:0.040801763298405708] [-0.55579002868326455:1.5382809875739039] [-2.1115800573665293:2.0765619751478077] [-0.0075319905790354963:0.035914588403848639] [-0.009333748992502458:0.033676416175928932] [0:1] [0:1] [0:0.0071373584075662827] [0:0.8504392857142864] [0:3.9214667240956609] [-20500000.000001252:27300000.000002455] [-3.6910000000000025:4.1740000000000066] [0:5.4120637403284393] [0:1] [-0.99739752765126866:135] [0:0.0043580031549319562] [0:8.9920287103106187] [0:1] [0:1] [0:99.99999954128441] [0:99.332322829059265] [0:1] [0:1] [0:92.306826590390614] [0:1] [0:161.81829999999999] [-0.019390125305217113:0.019216354919305893] [0:161.66587999999999] [-0.029932344977646477:0.017446147612938202] [0:2] [0:2]
tree_sizes=3109 2192 2273 2432 2211 2837 3175 2386 2154 2029 2662 2285 2846 2375 2592 2279 2455 2546 2328 1995 2529

Tree=0
num_leaves=30
num_cat=0
split_feature=4 41 53 61 40 60 44 48 0 10 48 22 48 36 60 56 52 10 35 52 9 41 48 10 9 48 6 61 48
split_gain=0.000190542 0.000412771 0.000128653 0.00011226 0.000127734 0.000105137 0.000148432 9.59869e-05 9.00666e-05 5.31001e-05 3.51005e-05 3.09732e-05 3.35791e-05 3.08745e-05 2.6492e-05 2.50566e-05 1.84712e-05 1.84353e-05 3.82381e-05 1.33629e-05 9.63149e-06 8.4936e-06 1.5544e-05 5.01817e-06 8.38803e-06 7.65717e-06 9.51934e-06 9.5613e-06 6.74487e-07
threshold=146.82677858586018 0.1761874999999988 79.716961026960988 0.0076552704206794909 0.0015793541690491051 155.99991000000003 0.12749999999999775 0.00080535599054457638 25.098344590874408 4717.2000000000007 0.0033304571156235903 -0.0040696296730684525 0.00029907087669661404 0.023637013769305566 146.83824000000004 59.93034519301915 93.484524299344045 3387.6250000000005 0.70146226587274851 89.422717845307091 0.00049132815258183624 0.20023571428571421 0.00041228351762360912 3091.9250000000006 0.00081619195590015208 0.00022802580192235681 0.063250000000000542 -0.0051829652181391867 0.0010763591047332347
decision_type=2 2 2 2 2 2 2 2 2 2 2 2 2 2 2 2 2 2 2 2 2 2 2 2 2 2 2 2 2
left_child=3 5 13 4 21 6 9 -6 -9 11 15 -2 -13 17 -14 16 -10 -3 19 20 -19 22 -1 24 25 -7 -27 -28 -24
right_child=1 2 -4 -5 7 23 -8 8 10 -11 -12 12 14 -15 -16 -17 -18 18 -20 -21 -22 -23 28 -25 -26 26 27 -29 -30
leaf_value=-2.2009037526877285e-06 -2.2009037526877285e-06 -2.2009037526877285e-06 -2.2009037526877285e-06 -2.2009037526877285e-06 -2.2009037526877285e-06 -2.2009037526877285e-06 -2.2009037526877285e-06 -2.2009037526877285e-06 2.6515330877111299e-05 -2.2009037526877285e-06 -2.2009037526877285e-06 -2.2009037526877285e-06 -2.2009037526877285e-06 -2.2009037526877285e-06 8.5611798619850603e-06 -2.2009037526877285e-06 -2.2009037526877285e-06 -2.2009037526877285e-06 -2.2009037526877285e-06 -2.2009037526877285e-06 -1.5870780848045859e-05 -2.2009037526877285e-06 3.5670997681934641e-06 -2.2009037526877285e-06 -2.2009037526877285e-06 -2.2009037526877285e-06 -2.2009037526877285e-06 -7.4276795940283539e-06 -2.2009037526877285e-06
leaf_weight=58 73 280 1005 98 64 24 1070 56 724 399 12.999999999999998 512 37 42 3188 49 42 15.999999999999998 110 45 3230 525 668 724 42 124 10.999999999999998 1322 9.9999999999999982
leaf_count=58 73 280 1005 98 64 24 1070 56 724 399 13 512 37 42 3188 49 42 16 110 45 3230 525 668 724 42 124 11 1322 10
internal_value=-2.2009e-06 -3.71943e-06 -1.1264e-05 5.67765e-06 8.31346e-06 -9.72461e-07 2.27951e-06 1.72601e-05 2.02446e-05 5.34308e-06 2.30121e-05 6.48314e-06 6.983e-06 -1.38373e-05 8.1481e-06 2.39633e-05 2.53263e-05 -1.42216e-05 -1.49001e-05 -1.55094e-05 -1.57388e-05 -2.2009e-06 1.02077e-06 -2.2009e-06 -3.92266e-06 -5.0547e-06 -5.80736e-06 -6.74411e-06 3.44576e-06
internal_weight=0 12254 4728 2307 2209 7526 5279 948 884 4209 828 3810 3737 3723 3225 815 766 3681 3401 3291 3246 1261 736 2247 1523 1481 1457 1333 678
internal_count=14561 12254 4728 2307 2209 7526 5279 948 884 4209 828 3810 3737 3723 3225 815 766 3681 3401 3291 3246 1261 736 2247 1523 1481 1457 1333 678
is_linear=0
shrinkage=1


Tree=1
num_leaves=26
num_cat=0
split_feature=4 10 9 60 28 60 44 41 24 4 44 42 56 56 49 22 53 61 6 0 41 9 53 56 41
split_gain=0.000234294 0.00038645 0.000203921 0.000117269 9.45761e-05 7.04812e-05 8.28791e-05 0.000116287 6.786e-05 7.08512e-05 5.67084e-05 4.54109e-05 5.40325e-05 4.83305e-05 4.40935e-05 3.35899e-05 3.13816e-05 3.33935e-05 3.03167e-05 2.46022e-05 2.23899e-05 2.03169e-05 8.69627e-06 3.4022e-06 8.17962e-07
threshold=147.14827321699929 5585.2750000000005 0.0008757959406891267 154.86970000000002 0.13422683226886536 155.94923000000003 0.12749999999999775 0.1761874999999988 -0.37934494839660865 146.82677858586018 -1.1400000000000003 0.68861692086106585 63.516436320681564 14.964170633973565 1.7216190476897955 -0.0038871879790157156 78.03049152265514 -0.0050227094773129463 0.18200000000000319 78.764404482064606 0.07551249999999661 0.00025278855517129478 95.907152367216938 11.02088180165847 0.063642857142857945
decision_type=2 2 2 2 2 2 2 2 2 2 2 2 2 2 2 2 2 2 2 2 2 2 2 2 2
left_child=4 5 -3 10 8 6 7 15 -1 11 -4 -10 13 -13 18 -2 17 -7 -12 -15 -17 -19 -22 -23 -25
right_child=1 2 3 -5 -6 16 -8 -9 9 -11 14 12 -14 19 -16 20 -18 21 -20 -21 22 23 -24 24 -26
leaf_value=0 0 0 0 0 0 0 0 0 0 0 0 0 0 2.1046171487338457e-05 0 0 0 0 -2.7226035032482428e-05 0 8.9852412984020133e-06 0 0 0 -7.9151301637341625e-06
leaf_weight=353 98 353 70 209 486 156 1919 1385 178 158 47 109 44 1231 31 513 827 92 1059 9.9999999999999982 3366 29 70 9.9999999999999982 1747
leaf_count=353 98 353 70 209 486 156 1919 1385 178 158 47 109 44 1231 31 513 827 92 1059 10 3366 29 70 10 1747
internal_value=0 -1.59495e-06 -1.46212e-05 -1.99153e-05 8.37869e-06 0 2.16111e-06 4.4778e-06 1.12886e-05 1.37375e-05 -2.3509e-05 1.57554e-05 1.75848e-05 1.88496e-05 -2.51307e-05 7.26426e-06 -3.18889e-06 -5.30894e-06 -2.61747e-05 2.05314e-05 7.85705e-06 -6.82089e-06 8.76428e-06 -7.69127e-06 -7.866e-06
internal_weight=0 11981 1769 1416 2569 10212 7351 5432 2083 1730 1207 1572 1394 1350 1137 4047 2861 2034 1106 1241 3949 1878 3436 1786 1757
internal_count=14550 11981 1769 1416 2569 10212 7351 5432 2083 1730 1207 1572 1394 1350 1137 4047 2861 2034 1106 1241 3949 1878 3436 1786 1757
is_linear=0
shrinkage=0.03


Tree=2
num_leaves=27
num_cat=0
split_feature=4 41 28 53 60 44 24 10 56 52 28 48 34 2 48 41 41 52 10 10 48 10 40 34 61 31
split_gain=0.000182962 0.000332969 0.000130239 0.000111646 7.37116e-05 0.000155031 7.15161e-05 6.50342e-05 3.47876e-05 3.68163e-05 3.42783e-05 3.17232e-05 2.92527e-05 2.84412e-05 2.5316e-05 2.41592e-05 1.65415e-05 1.51179e-05 1.79834e-05 1.39236e-05 9.44121e-06 1.42671e-05 1.75265e-05 4.18154e-06 4.0598e-06 1.03325e-05
threshold=146.82677858586018 0.1769678571428582 0.13422683226886536 79.716961026960988 155.99991000000003 0.12749999999999775 -0.37934494839660865 4717.2000000000007 63.516436320681564 90.680549973804915 -0.14657103990514028 0.00030860036407491374 -0.088456732850583461 146.85952096313784 0.0033304571156235903 0.61033928571428797 0.17862678571428428 92.632402724568195 3387.6250000000005 2633.4000000000001 0.00073138900748217302 1859.9250000000002 0.00040237614054746377 0.94965048295351107 0.0038660061068124768 0.0030840511903002786
decision_type=2 2 2 2 2 2 2 2 2 2 2 2 2 2 2 2 2 2 2 2 2 2 2 2 2 2
left_child=2 4 6 12 5 7 -1 10 9 14 -2 -12 -3 -13 24 16 -14 18 -18 20 21 -6 -23 -24 25 -8
right_child=1 3 -4 -5 19 -7 8 -9 -10 -11 11 13 15 -15 -16 -17 17 -19 -20 -21 -22 22 23 -25 -26 -27
leaf_value=0 0 0 0 0 0 0 1.7396335537163024e-05 0 0 0 0 0 0 1.046520182107411e-05 0 0 0 0 -1.2780248080589303e-05 0 0 0 -9.608225036942006e-06 0 0 0
leaf_weight=333 57 117 440 1006 304 1080 1364 423 47 145 544 42 65 3211 11.999999999999998 24 248 56 3208 1163 92 57 578 62 20 10.999999999999998
leaf_count=333 57 117 440 1006 304 1080 1364 423 47 145 544 42 65 3211 12 24 248 56 3208 1163 92 57 578 62 20 11
internal_value=0 -1.64743e-06 7.43589e-06 -8.36804e-06 5.52921e-07 3.58011e-06 1.13374e-05 6.97655e-06 1.39834e-05 1.4887e-05 8.31858e-06 8.85219e-06 -1.07699e-05 1.00119e-05 1.63706e-05 -1.12725e-05 -1.15758e-05 -1.18624e-05 -1.21216e-05 0 -3.38522e-06 -4.58223e-06 -6.9683e-06 -8.80375e-06 1.69301e-05 1.71304e-05
internal_weight=0 12337 2372 4724 7613 5357 1932 4277 1599 1552 3854 3797 3718 3253 1407 3601 3577 3512 3456 2256 1093 1001 697 640 1395 1375
internal_count=14709 12337 2372 4724 7613 5357 1932 4277 1599 1552 3854 3797 3718 3253 1407 3601 3577 3512 3456 2256 1093 1001 697 640 1395 1375
is_linear=0
shrinkage=0.03


Tree=3
num_leaves=29
num_cat=0
split_feature=4 41 40 61 48 53 9 0 60 44 10 22 48 10 52 36 2 53 44 48 10 9 40 61 48 41 41 41
split_gain=0.000178392 0.000322664 0.00015801 0.000217836 0.000131633 9.71701e-05 9.44293e-05 7.97374e-05 7.87477e-05 0.000124518 5.08855e-05 3.57877e-05 3.96568e-05 3.26987e-05 4.10829e-05 3.59735e-05 2.29597e-05 2.10047e-05 1.59906e-05 1.55362e-05 5.4264e-06 8.56408e-06 7.49014e-06 9.38757e-06 9.97937e-06 3.16053e-06 4.44209e-10 3.04207e-06
threshold=146.82677858586018 0.1761874999999988 0.0015793541690491051 0.008290671868760353 0.00083696583878870034 78.312589197297456 0.0039645658957739496 24.037623594487673 155.99991000000003 0.12749999999999775 4717.2000000000007 -0.0040696296730684525 0.00030860036407491374 3387.6250000000005 84.567898102422149 0.023637013769305566 146.85952096313784 92.122661304255232 -1.1400000000000003 0.00067249631843103129 3091.9250000000006 0.00081619195590015208 0.00040237614054746377 -0.0051829652181391867 0.00022802580192235681 0.17770714285714082 0.20023571428571421 0.090099999999997724
decision_type=2 2 2 2 2 2 2 2 2 2 2 2 2 2 2 2 2 2 2 2 2 2 2 2 2 2 2 2
left_child=2 8 26 4 -4 13 7 -6 9 10 11 -2 -13 -3 15 19 -14 18 -9 -15 21 22 -10 -24 -25 -21 27 -1
right_child=1 5 3 -5 6 -7 -8 17 20 -11 -12 12 16 14 -16 -17 -18 -19 -20 25 -22 -23 23 24 -26 -27 -28 -29
leaf_value=0 0 0 0 0 0 0 0 0 0 0 0 0 0 0 0 0 1.0065989086348177e-05 0 3.2420228568509962e-05 0 0 0 0 0 -5.2904095043027871e-06 -1.2781033803854886e-05 0 1.977122555815538e-06
leaf_weight=57 79 278 88 70 48 1079 12.999999999999998 28 126 1095 404 540 38 74 118 43 3178 28 744 42 734 37 10.999999999999998 22 1313 3143 551 700
leaf_count=57 79 278 88 70 48 1079 13 28 126 1095 404 540 38 74 118 43 3178 28 744 42 734 37 11 22 1313 3143 551 700
internal_value=0 -1.41704e-06 7.6369e-06 1.65118e-05 2.23432e-05 -8.06107e-06 2.62245e-05 2.82564e-05 7.92474e-07 3.76535e-06 6.65384e-06 7.80239e-06 8.41022e-06 -1.03723e-05 -1.11773e-05 -1.18571e-05 9.68002e-06 3.05933e-05 3.15332e-05 -1.23442e-05 0 -1.79871e-06 -2.92422e-06 -3.78915e-06 -4.56095e-06 -1.26613e-05 0 2.29733e-08
internal_weight=0 12354 2327 1019 949 4777 861 848 7577 5334 4239 3835 3756 3698 3420 3302 3216 800 772 3259 2243 1509 1472 1346 1335 3185 1308 757
internal_count=14681 12354 2327 1019 949 4777 861 848 7577 5334 4239 3835 3756 3698 3420 3302 3216 800 772 3259 2243 1509 1472 1346 1335 3185 1308 757
is_linear=0
shrinkage=0.03


Tree=4
num_leaves=26
num_cat=0
split_feature=4 41 28 53 24 60 44 10 44 49 10 22 48 2 4 56 34 52 10 1 48 41 44 0 41
split_gain=0.000212098 0.000307493 0.000165489 0.000164406 0.000114756 4.51338e-05 0.000118413 4.56744e-05 4.288e-05 3.67466e-05 3.38883e-05 2.83665e-05 3.18068e-05 2.751e-05 1.99153e-05 1.97063e-05 1.56328e-05 1.08999e-05 9.49119e-06 1.50993e-05 1.26527e-05 1.08356e-05 1.06415e-05 8.9772e-06 7.25085e-06
threshold=146.82677858586018 0.1761874999999988 0.10934405899631373 78.312589197297456 -0.37934494839660865 155.99991000000003 0.12749999999999775 4717.2000000000007 0.83100000000000318 1.5312445662825438 3403.9000000000001 -0.0040696296730684525 0.00030860036407491374 146.85952096313784 156.8459657583393 63.516436320681564 1.1428930987075692 90.952378353740485 3959.0500000000006 158.57489899563237 0.00073462363553106083 0.071585714285716015 -0.52999999999998681 78.249013382344202 0.61033928571428797
decision_type=2 2 2 2 2 2 2 2 2 2 2 2 2 2 2 2 2 2 2 2 2 2 2 2 2
left_child=2 5 4 9 -1 6 7 11 15 10 -3 -2 -13 -14 17 16 23 24 19 20 21 -7 -23 -6 -12
right_child=1 3 -4 -5 8 18 -8 -9 -10 -11 14 12 13 -15 -16 -17 -18 -19 -20 -21 -22 22 -24 -25 -26
leaf_value=0 0 0 0 0 1.8877243298921654e-05 0 0 0 0 0 -1.4070982217130454e-05 0 0 9.1391082694987861e-06 0 0 0 0 0 0 0 0 -6.7480620089202073e-06 0 0
leaf_weight=324 81 284 532 1077 1313 113 1092 410 95 105 2909 542 40 3195 308 39 14.999999999999998 47 236 579 136 21 1167 13.999999999999998 9.9999999999999982
leaf_count=324 81 284 532 1077 1313 113 1092 410 95 105 2909 542 40 3195 308 39 15 47 236 579 136 21 1167 14 10
internal_value=0 -2.08151e-06 7.67421e-06 -8.34676e-06 1.26102e-05 0 2.74206e-06 5.86596e-06 1.62438e-05 -1.14254e-05 -1.19868e-05 6.97993e-06 7.51814e-06 8.65092e-06 -1.28631e-05 1.76051e-05 1.82251e-05 -1.37361e-05 -3.74185e-07 -2.09583e-06 -3.95161e-06 -5.09866e-06 -6.05586e-06 1.86147e-05 -1.39671e-05
internal_weight=0 12352 2332 4740 1800 7612 5360 4268 1476 3663 3558 3858 3777 3235 3274 1381 1342 2966 2252 2016 1437 1301 1188 1327 2919
internal_count=14684 12352 2332 4740 1800 7612 5360 4268 1476 3663 3558 3858 3777 3235 3274 1381 1342 2966 2252 2016 1437 1301 1188 1327 2919
is_linear=0
shrinkage=0.03


Tree=5
num_leaves=33
num_cat=0
split_feature=4 10 9 4 60 61 48 40 9 53 48 24 41 40 60 53 61 61 53 24 9 60 41 48 60 9 9 48 41 41 56 48
split_gain=0.000136234 0.000265248 0.000189523 0.000131552 8.64862e-05 8.17697e-05 8.44446e-05 0.00013997 0.000127887 0.00012927 7.17283e-05 6.27189e-05 6.0712e-05 9.74036e-05 4.54787e-05 3.65685e-05 3.75059e-05 2.63496e-05 1.91355e-05 1.62787e-05 1.21784e-05 1.0886e-05 6.72321e-06 9.06555e-06 2.70415e-06 2.25925e-06 7.91312e-06 5.46267e-06 2.22198e-06 2.01443e-06 1.10821e-06 2.59589e-07
threshold=146.82677858586018 5647.0250000000005 0.0008757959406891267 153.52239063142619 155.94923000000003 0.002899667358699373 0.0014308415506213616 0.0016290176264995451 0.0039645658957739496 82.681477512878402 0.00067249631843103129 -0.49803310818251184 0.25875357142857042 0.0015413927498717902 151.68914000000004 80.54821039424418 -0.0050227094773129463 0.004610994963015291 92.390837841418829 0.29744692982285592 0.00021840407433531794 155.84354000000005 0.20784107142857192 0.00041228351762360912 145.46106000000003 0.0010192345724363738 0.00054076088160425037 0.00094607832687460881 0.063642857142857945 0.18910892857142933 10.304263213021613 0.00081551312442934446
decision_type=2 2 2 2 2 2 2 2 2 2 2 2 2 2 2 2 2 2 2 2 2 2 2 2 2 2 2 2 2 2 2 2
left_child=5 4 -3 12 10 6 22 -8 9 11 14 -9 -4 -14 -2 16 -6 21 24 -13 -18 29 23 -1 -15 26 -12 -28 -22 -16 -30 -25
right_child=1 2 3 -5 15 -7 7 8 -10 -11 25 19 13 18 17 -17 20 -19 -20 -21 28 -23 -24 31 -26 -27 27 -29 30 -31 -32 -33
leaf_value=0 0 0 0 0 0 0 0 0 0 0 0 5.4825825956688458e-05 0 0 1.150547151774075e-05 0 0 0 0 0 0 0 0 6.2691365073697962e-06 -3.734872350651669e-05 0 -2.8336208111323286e-06 0 0 0 -7.7909408884047635e-06 0
leaf_weight=57 2664 352 463 377 169 480 43 10.999999999999998 10.999999999999998 15.999999999999998 249 227 58 13.999999999999998 1365 728 38 89 14.999999999999998 9.9999999999999982 18 37 718 367 506 789 1752 666 11.999999999999998 12.999999999999998 1952 380
leaf_count=57 2664 352 463 377 169 480 43 11 11 16 249 227 58 14 1365 728 38 89 15 10 18 37 718 367 506 789 1752 666 12 13 1952 380
internal_value=0 -1.17022e-06 -1.19647e-05 -1.72423e-05 0 6.7501e-06 9.87076e-06 2.83133e-05 3.72024e-05 4.33212e-05 2.28898e-06 4.96563e-05 -2.27035e-05 -3.17746e-05 5.00697e-06 -3.60375e-06 -5.68654e-06 9.83189e-06 -3.58145e-05 5.30813e-05 -7.1936e-06 1.09315e-05 0 2.7425e-06 -3.67795e-05 0 -8.73075e-07 -1.94563e-06 -7.63338e-06 1.13935e-05 -7.73436e-06 4.36003e-06
internal_weight=0 12326 1785 1433 10541 2320 1840 318 275 264 7624 248 1056 593 4168 2917 2189 1504 535 237 2020 1415 1522 804 520 3456 2667 2418 1982 1378 1964 747
internal_count=14646 12326 1785 1433 10541 2320 1840 318 275 264 7624 248 1056 593 4168 2917 2189 1504 535 237 2020 1415 1522 804 520 3456 2667 2418 1982 1378 1964 747
is_linear=0
shrinkage=0.03


Tree=6
num_leaves=38
num_cat=0
split_feature=4 41 4 48 61 41 53 60 48 44 6 10 41 56 48 60 48 60 44 1 1 48 3 44 2 48 48 60 41 41 4 4 5 5 60 60 1
split_gain=0.00022423 0.000332396 0.000300852 0.000107439 9.21926e-05 9.51958e-05 0.000134128 9.67004e-05 0.000109159 8.23985e-05 8.32072e-05 0.000118297 4.31002e-05 6.1459e-05 6.85202e-05 3.01906e-05 7.11577e-05 9.00571e-05 2.49505e-05 2.29751e-05 2.16995e-05 7.83065e-05 3.94381e-05 1.65767e-05 1.497e-05 1.10162e-05 1.0516e-05 9.85677e-06 9.16636e-06 8.66429e-06 7.20727e-06 6.04302e-06 5.48753e-06 5.47593e-06 1.82168e-06 2.09843e-06 4.10352e-07
threshold=146.9668011504709 0.26138392857142717 153.62577578867004 0.0010572323019015343 0.0076552704206794909 0.3854392857142856 82.07449096705399 143.58966000000001 0.0033304571156235903 -1.1400000000000003 0.23296428571428054 5585.2750000000005 0.21528035714285618 15.677788498062736 0.00041228351762360912 155.94923000000003 0.00067249631843103129 151.68914000000004 -0.58150000000000535 146.68138306551876 149.77035168520925 0.00098663447046892002 155.78492500000002 0.61549999999999738 158.50817120706958 0.0013911654142043778 0.00029907087669661404 155.84354000000005 0.24315714285714149 0.18323214285714606 156.39036373994648 147.14827321699929 154.82425750332456 141.95950315918662 142.41349000000002 146.83824000000004 146.4343572548903
decision_type=2 2 2 2 2 2 2 2 2 2 2 2 2 2 2 2 2 2 2 2 2 2 2 2 2 2 2 2 2 2 2 2 2 2 2 2 2
left_child=4 15 3 -3 5 12 7 -7 -9 -5 -11 -12 13 -1 -15 16 17 -2 -19 23 -18 22 30 -16 25 26 -17 29 32 -20 -22 -13 -28 -14 -35 36 -36
right_child=1 2 -4 9 -6 6 -8 8 -10 10 11 31 33 14 19 24 20 18 27 -21 21 -23 -24 -25 -26 -27 28 -29 -30 -31 -32 -33 -34 34 35 -37 -38
leaf_value=0 0 0 0 0 0 0 0 7.0422693810040328e-05 0 0 0 0 0 0 1.4462424664159062e-05 0 0 0 1.1600471282019751e-05 0 -8.8781337262586317e-06 0 0 0 0 0 0 0 0 0 0 -4.6325631079734153e-05 -5.7992749927055857e-06 0 -3.5219924567177182e-06 0 0
leaf_weight=84 2728 40 559 54 113 27 20 130 10.999999999999998 97 24 12.999999999999998 248 37 918 207 1545 35 1435 9.9999999999999982 1674 653 65 61 653 25 13.999999999999998 40 38 29 9.9999999999999982 445 1910 19 711 9.9999999999999982 12.999999999999998
leaf_count=84 2728 40 559 54 113 27 20 130 11 97 24 13 248 37 918 207 1545 35 1435 10 1674 653 65 61 653 25 14 40 38 29 10 445 1910 19 711 10 13
internal_value=0 -1.52264e-06 -1.63049e-05 -2.98082e-05 8.47563e-06 1.0557e-05 4.25455e-05 5.23582e-05 6.22859e-05 -3.31251e-05 -3.64347e-05 -4.18278e-05 5.94805e-07 5.96683e-06 9.61258e-06 0 1.04433e-06 4.13597e-06 1.00033e-05 1.25769e-05 0 -2.85111e-06 -7.17261e-06 1.34501e-05 -2.52903e-06 -3.79983e-06 -4.37893e-06 1.08314e-05 -5.101e-06 1.12508e-05 -8.63149e-06 -4.55341e-05 -5.55164e-06 0 -2.55746e-06 -2.99031e-06 -3.41645e-06
internal_weight=0 12293 1232 673 2412 2299 188 168 141 633 579 482 2111 1110 1026 11061 8214 4267 1539 989 3947 2402 1749 979 2847 2194 2169 1504 1962 1464 1684 458 1924 1001 753 734 724
internal_count=14705 12293 1232 673 2412 2299 188 168 141 633 579 482 2111 1110 1026 11061 8214 4267 1539 989 3947 2402 1749 979 2847 2194 2169 1504 1962 1464 1684 458 1924 1001 753 734 724
is_linear=0
shrinkage=0.03


Tree=7
num_leaves=28
num_cat=0
split_feature=4 10 9 4 61 24 44 56 60 48 60 6 35 52 53 61 44 48 41 9 9 9 60 61 52 41 48
split_gain=0.000157129 0.000279668 0.00023028 0.000120739 9.2895e-05 7.05126e-05 6.85996e-05 6.23578e-05 4.36969e-05 9.44443e-05 7.07307e-05 4.28121e-05 4.4759e-05 3.93595e-05 2.74472e-05 4.21116e-05 1.93332e-05 1.90601e-05 1.64111e-05 1.20983e-05 1.1432e-05 2.06563e-05 1.11426e-05 8.28545e-06 5.16856e-06 1.85746e-06 1.64329e-06
threshold=146.82677858586018 5647.0250000000005 0.0008757959406891267 153.52239063142619 0.0039508730257146402 -0.37934494839660865 -1.1400000000000003 43.140201851714068 155.94923000000003 0.00067249631843103129 151.68914000000004 0.17725000000000082 -1.2490018834898735 90.680549973804915 80.54821039424418 -0.0050227094773129463 -0.61750000000000671 0.0014728388604640073 0.15027142857142814 0.00021840407433531794 0.0010192345724363738 0.00053236746563657884 155.84354000000005 0.0062257473632709006 68.02614240397638 0.063642857142857945 0.0011448363770931872
decision_type=2 2 2 2 2 2 2 2 2 2 2 2 2 2 2 2 2 2 2 2 2 2 2 2 2 2 2
left_child=4 8 -3 6 5 -1 -4 13 9 10 -2 -8 -13 17 15 -10 -12 -7 -14 -17 21 -11 23 -18 25 -21 -23
right_child=1 2 3 -5 -6 7 11 -9 14 20 16 12 18 -15 -16 19 22 -19 -20 24 -22 26 -24 -25 -26 -27 -28
leaf_value=0 0 0 0 0 0 0 0 0 0 0 0 0 0 0 0 0 1.2018085528311451e-05 4.1474470844503011e-05 -2.8156015514979841e-05 0 0 -3.7084262401802874e-06 0 0 0 -7.9404887452272782e-06 0
leaf_weight=332 2645 364 66 372 361 1000 35 311 167 218 23 15.999999999999998 10.999999999999998 102 718 42 1441 220 934 11.999999999999998 789 2207 41 19 479 1498 234
leaf_count=332 2645 364 66 372 361 1000 35 311 167 218 23 16 11 102 718 42 1441 220 934 12 789 2207 41 19 479 1498 234
internal_value=0 -1.2046e-06 -1.22434e-05 -1.82322e-05 7.28654e-06 1.02656e-05 -2.34749e-05 1.28705e-05 0 1.79923e-06 5.12839e-06 -2.54858e-05 -2.67066e-05 1.57175e-05 -2.24259e-06 -4.23175e-06 1.06624e-05 1.72253e-05 -2.77113e-05 -6.16735e-06 0 -1.9669e-06 1.12702e-05 1.17239e-05 -6.65674e-06 -7.8386e-06 -3.43927e-06
internal_weight=0 12331 1798 1434 2326 1965 1062 1633 10533 7617 4169 996 961 1322 2916 2198 1524 1220 945 2031 3448 2659 1501 1460 1989 1510 2441
internal_count=14657 12331 1798 1434 2326 1965 1062 1633 10533 7617 4169 996 961 1322 2916 2198 1524 1220 945 2031 3448 2659 1501 1460 1989 1510 2441
is_linear=0
shrinkage=0.03


Tree=8
num_leaves=25
num_cat=0
split_feature=4 10 9 29 4 44 24 6 34 60 48 60 44 20 52 22 48 48 44 60 0 22 24 44
split_gain=0.000115436 0.000223172 0.000186079 0.000127281 0.000125909 6.90455e-05 6.87632e-05 4.96058e-05 3.97652e-05 2.49162e-05 4.67852e-05 7.0304e-05 2.22644e-05 1.70476e-05 1.68944e-05 1.94565e-05 1.5007e-05 6.21475e-06 6.19454e-06 6.0526e-06 4.78657e-06 3.15794e-06 2.63559e-06 5.74377e-07
threshold=146.82677858586018 5647.0250000000005 0.0008757959406891267 0.00070739466136817959 153.52239063142619 -1.1400000000000003 -0.37934494839660865 0.17725000000000082 -0.12379861782724021 155.94923000000003 0.00067249631843103129 151.68914000000004 -0.61750000000000671 0.003199608304454205 90.308562308786819 -0.013285691702737133 0.0033304571156235903 0.00022802580192235681 -0.86299999999999943 155.84354000000005 78.764404482064606 0.0070002711907427581 0.54906939442919567 1.0935000000000061
decision_type=2 2 2 2 2 2 2 2 2 2 2 2 2 2 2 2 2 2 2 2 2 2 2 2
left_child=3 9 -3 6 5 -4 -1 -7 -9 10 11 -2 -13 16 15 -11 20 -17 -19 21 -8 -14 -10 -20
right_child=1 2 4 -5 -6 7 13 8 22 14 -12 12 19 -15 -16 17 -18 18 23 -21 -22 -23 -24 -25
leaf_value=0 0 0 0 0 0 0 1.4762763384613132e-05 0 -2.6856480491621136e-05 0 0 0 9.9615366307174254e-06 0 0 0 0 0 -4.9138315458412679e-06 0 0 0 0 0
leaf_weight=314 2682 352 64 580 368 37 1303 17 909 20 3448 23 1427 121 405 10.999999999999998 11.999999999999998 20 2438 34 9.9999999999999982 28 53 11.999999999999998
leaf_count=314 2682 352 64 580 368 37 1303 17 909 20 3448 23 1427 121 405 11 12 20 2438 34 10 28 53 12
internal_value=0 -1.54314e-06 -1.13087e-05 5.6414e-06 -1.65705e-05 -2.1748e-05 1.03624e-05 -2.37463e-05 -2.5115e-05 0 1.01968e-06 3.45442e-06 8.65602e-06 1.31709e-05 -2.2319e-06 -3.44473e-06 1.41733e-05 -4.36101e-06 -4.62245e-06 9.46237e-06 1.45945e-05 9.76578e-06 -2.60593e-05 -4.88022e-06
internal_weight=0 12348 1800 2340 1448 1080 1760 1016 979 10548 7642 4194 1512 1446 2906 2501 1325 2481 2470 1489 1313 1455 962 2450
internal_count=14688 12348 1800 2340 1448 1080 1760 1016 979 10548 7642 4194 1512 1446 2906 2501 1325 2481 2470 1489 1313 1455 962 2450
is_linear=0
shrinkage=0.03


Tree=9
num_leaves=24
num_cat=0
split_feature=4 41 29 53 24 1 44 12 49 41 10 56 48 0 34 48 56 2 36 52 10 10 10
split_gain=0.000161135 0.000194015 0.00013141 0.000115638 9.07009e-05 5.5461e-05 0.000106136 4.00533e-05 4.44154e-05 3.26944e-05 3.42316e-05 2.84434e-05 2.34685e-05 2.53444e-05 2.08028e-05 2.04413e-05 1.80338e-05 1.72402e-05 1.43563e-05 1.39312e-05 8.79158e-06 1.52972e-06 1.35775e-06
threshold=146.82677858586018 0.1761874999999988 0.00070739466136817959 78.312589197297456 -0.37934494839660865 157.22577352751713 0.12749999999999775 0.00047073929442416644 1.5312445662825438 0.07551249999999661 4965.8500000000013 63.516436320681564 0.0033304571156235903 68.540183242934134 -0.088456732850583461 0.00089050861387324199 14.964170633973565 146.85952096313784 0.023637013769305566 9.0357180502416146 3387.6250000000005 2843.2500000000005 1531.3500000000001
decision_type=2 2 2 2 2 2 2 2 2 2 2 2 2 2 2 2 2 2 2 2 2 2 2
left_child=2 5 4 7 -1 6 9 -3 14 -2 15 12 13 16 -9 17 -6 -11 20 -18 -16 22 -7
right_child=1 3 -4 -5 11 21 -8 8 -10 10 -12 -13 -14 -15 18 -17 19 -19 -20 -21 -22 -23 -24
leaf_value=0 0 0 0 0 0 0 0 0 0 0 0 0 0 0 0 0 0 7.9078128834748019e-06 0 2.0094786661010761e-05 -1.1578913248732259e-05 0 -1.8509820499372046e-06
leaf_weight=329 632 212 568 1080 125 58 1293 101 109 44 281 50 11.999999999999998 115 245 94 62 3869 17 1077 2983 547 758
leaf_count=329 632 212 568 1080 125 58 1293 101 109 44 281 50 12 115 245 94 62 3869 17 1077 2983 547 758
internal_value=0 -8.12004e-07 7.65114e-06 -6.16347e-06 1.2005e-05 5.61521e-07 2.90134e-06 -8.80639e-06 -9.6303e-06 5.48115e-06 6.42899e-06 1.52854e-05 1.6138e-05 1.66737e-05 -1.03783e-05 7.20539e-06 1.79258e-05 7.60695e-06 -1.08087e-05 1.92569e-05 -1.10203e-05 0 -1.29852e-06
internal_weight=0 12323 2338 4747 1770 7576 6213 3667 3455 4920 4288 1441 1391 1379 3346 4007 1264 3913 3245 1139 3228 1363 816
internal_count=14661 12323 2338 4747 1770 7576 6213 3667 3455 4920 4288 1441 1391 1379 3346 4007 1264 3913 3245 1139 3228 1363 816
is_linear=0
shrinkage=0.03


Tree=10
num_leaves=31
num_cat=0
split_feature=44 1 1 48 10 48 3 40 6 48 36 61 36 44 24 10 34 61 9 36 48 36 40 10 48 9 9 22 10 36
split_gain=8.74125e-05 0.000144763 8.73431e-05 7.76237e-05 9.82919e-05 7.40373e-05 7.46841e-05 4.74473e-05 3.47043e-05 5.0166e-05 3.77677e-05 3.35767e-05 3.32034e-05 2.30146e-05 2.70164e-05 1.87847e-05 1.79531e-05 1.73404e-05 1.68032e-05 1.41501e-05 1.41052e-05 1.84468e-05 1.31437e-05 1.28641e-05 1.20854e-05 1.14541e-05 7.37243e-06 5.58455e-06 4.39639e-06 2.40963e-06
threshold=0.28249999999999892 143.34086589734756 157.22577352751713 0.00081823162500739273 4755.4000000000005 0.00061599439016268279 156.24790000000004 0.0015504700238213487 0.15664285714286005 0.0013378727902981723 0.0064749724598256722 0.008290671868760353 0.00033039085252114863 0.12749999999999775 -0.44491238304537745 3042.5750000000003 -0.088456732850583461 -0.0064655004243049747 0.00030984533637526147 -0.00026029364099540187 0.00094607832687460881 -0.00039749949494576796 0.00040237614054746377 2479.2250000000008 0.00022802580192235681 0.00020235988270947785 0.00049132815258183624 -0.0042685362914459115 1601.5000000000002 0.0032330790421337976
decision_type=2 2 2 2 2 2 2 2 2 2 2 2 2 2 2 2 2 2 2 2 2 2 2 2 2 2 2 2 2 2
left_child=2 -2 3 4 13 -3 12 8 -5 10 19 17 -7 14 -1 22 -14 -9 -16 -10 -19 -22 -4 -18 -24 -26 -25 -20 -27 -30
right_child=1 5 15 7 -6 6 -8 11 9 -11 -12 -13 16 -15 18 -17 23 20 27 -21 21 -23 24 26 25 28 -28 -29 29 -31
leaf_value=0 0 0 0 0 0 0 0 0 0 0 0 0 0 0 0 0 0 0 0 -1.0880741013983277e-05 0 9.6018924178269636e-06 0 0 0 0 -1.4791313557084873e-05 9.1304562661613873e-06 -9.1819889817004387e-06 0
leaf_weight=250 326 288 79 564 979 85 246 170 51 191 100 186 33 757 820 631 9.9999999999999982 206 27 1257 14.999999999999998 998 18 12.999999999999998 9.9999999999999982 45 1809 3692 729 53
leaf_count=250 326 288 79 564 979 85 246 170 51 191 100 186 33 757 820 631 10 206 27 1257 15 998 18 13 10 45 1809 3692 729 53
internal_value=0 -4.90066e-06 9.71902e-07 2.86636e-06 4.8609e-06 -8.9223e-06 -1.09719e-05 0 -3.45106e-06 -5.96964e-06 -8.51611e-06 3.27863e-06 -1.30394e-05 6.61424e-06 7.41535e-06 -1.86698e-06 -1.39209e-05 5.82551e-06 7.96065e-06 -1.02002e-05 7.17389e-06 8.62849e-06 -4.89188e-06 -1.43561e-05 -6.322e-06 -7.3358e-06 -1.46144e-05 9.02268e-06 -8.18059e-06 -8.70787e-06
internal_weight=0 2810 11828 10263 6525 2484 2196 3738 2163 1599 1408 1575 1950 5546 4789 1565 1865 1389 4539 1308 1219 1013 934 1832 855 837 1822 3719 827 782
internal_count=14638 2810 11828 10263 6525 2484 2196 3738 2163 1599 1408 1575 1950 5546 4789 1565 1865 1389 4539 1308 1219 1013 934 1832 855 837 1822 3719 827 782
is_linear=0
shrinkage=0.03


Tree=11
num_leaves=27
num_cat=0
split_feature=56 40 48 40 2 32 10 36 28 24 0 42 9 2 8 22 48 36 42 10 9 41 9 44 41 10
split_gain=7.36636e-05 0.000209272 0.00018839 0.000140669 0.000175443 0.000110297 0.000100395 9.74593e-05 7.27761e-05 6.73849e-05 6.04708e-05 6.53881e-05 5.84261e-05 4.23096e-05 3.35493e-05 3.23479e-05 2.92202e-05 2.77613e-05 2.3006e-05 2.30059e-05 2.50466e-05 2.16912e-05 2.14701e-05 1.69495e-05 1.67264e-05 8.41558e-06
threshold=42.87714304795545 0.0015793541690491051 0.00081823162500739273 0.0011871795749401769 144.89544999715889 0.0012683833900127423 3172.1250000000005 0.023637013769305566 0.067824424600388525 0.62349015947825726 26.00890464704398 1.5081053286691846 0.0011795359568091777 158.32223301104582 0.88649999999999818 -0.00066741117724994348 0.00030359794020134198 0.0014894822866650486 0.65784779242503855 1822.8000000000002 0.00069430281830983715 0.31701071428571498 0.00063914966306281471 -1.3460000000000176 0.16786249999999994 5408.5000000000009
decision_type=2 2 2 2 2 2 2 2 2 2 2 2 2 2 2 2 2 2 2 2 2 2 2 2 2 2
left_child=1 2 15 -2 -5 8 -4 9 10 13 -3 17 14 22 21 -1 -17 -12 -19 -18 25 24 -6 -24 -8 -21
right_child=3 5 6 4 7 -7 12 -9 -10 -11 11 -13 -14 -15 -16 16 19 18 -20 20 -22 -23 23 -25 -26 -27
leaf_value=0 0 0 0 0 0 0 0 0 0 0 0 0 0 0 0 0 0 0 2.3353059313799726e-05 7.0058158766663662e-06 0 0 0 -1.9754291924462113e-05 -1.431183280147714e-05 0
leaf_weight=1586 2254 128 293 410 12.999999999999998 479 81 35 131 108 61 76 182 26 67 566 218 11.999999999999998 997 2929 816 18 47 1383 1658 76
leaf_count=1586 2254 128 293 410 13 479 81 35 131 108 61 76 182 26 67 566 218 12 997 2929 816 18 47 1383 1658 76
internal_value=0 1.75429e-06 0 -2.83493e-06 -8.92134e-06 1.08114e-05 -7.5765e-06 -1.40623e-05 1.50781e-05 -1.60543e-05 1.73813e-05 1.95782e-05 -1.0527e-05 -1.78312e-05 -1.22757e-05 2.46272e-06 3.8046e-06 2.15753e-05 2.27678e-05 4.79723e-06 5.45384e-06 -1.31764e-05 -1.87098e-05 -1.91506e-05 -1.36615e-05 6.73203e-06
internal_weight=0 10374 8490 4276 2022 1884 2299 1612 1405 1577 1274 1146 2006 1469 1824 6191 4605 1070 1009 4039 3821 1757 1443 1430 1739 3005
internal_count=14650 10374 8490 4276 2022 1884 2299 1612 1405 1577 1274 1146 2006 1469 1824 6191 4605 1070 1009 4039 3821 1757 1443 1430 1739 3005
is_linear=0
shrinkage=0.03


Tree=12
num_leaves=34
num_cat=0
split_feature=4 41 4 48 44 61 10 40 48 9 53 40 1 48 48 2 9 9 41 60 56 1 2 44 48 44 48 9 36 41 60 60 9
split_gain=0.000110579 0.000209859 0.000255169 0.000100922 8.78179e-05 7.67111e-05 6.13262e-05 8.67103e-05 5.65406e-05 9.36408e-05 0.000117406 0.000130285 1.28617e-05 4.40277e-05 8.16539e-05 0.000101193 7.60436e-05 6.33843e-05 1.65795e-05 1.87846e-05 1.19215e-05 1.00995e-05 8.59646e-06 1.01925e-05 1.24879e-05 9.32877e-06 7.86773e-06 4.61495e-06 2.62411e-06 1.28422e-05 7.61834e-08 1.57072e-06 2.48607e-06
threshold=146.82677858586018 0.26138392857142717 153.62577578867004 0.001035916630253132 -1.021500000000003 0.0039508730257146402 5585.2750000000005 0.0015413927498717902 0.0014728388604640073 0.0039645658957739496 82.681477512878402 0.0016290176264995451 149.72627315582019 0.0006651503398872171 0.0010836385767743185 156.33378158029404 0.0010241560690226832 0.00049132815258183624 0.13115000000000152 157.54492000000002 12.274478437332677 149.81229313816652 146.85952096313784 -0.52999999999998681 0.0011004437225161257 0.24549999999999275 0.00050014207673681663 0.0002797209327371402 0.0020009266638113181 0.27485714285714286 155.94923000000003 158.63795000000002 0.00020235988270947785
decision_type=2 2 2 2 2 2 2 2 2 2 2 2 2 2 2 2 2 2 2 2 2 2 2 2 2 2 2 2 2 2 2 2 2
left_child=5 12 3 -3 -5 8 -6 -8 28 10 11 -10 22 18 15 16 17 -15 30 21 -9 -20 -2 -24 25 27 -23 -25 29 -1 -14 32 -32
right_child=1 2 -4 4 6 -7 7 20 9 -11 -12 -13 13 14 -16 -17 -18 -19 19 -21 -22 26 23 24 -26 -27 -28 -29 -30 -31 31 -33 -34
leaf_value=5.0284639828086744e-06 0 0 0 0 0 0 0 0 0 0 0 4.5209070770871341e-05 0 0 0 0 0 -1.35570097897331e-05 0 0 -3.9660913877073615e-05 0 0 0 0 0 7.0217355434329625e-06 5.2696028246385786e-06 0 0 0 0 -1.9467386904078742e-06
leaf_weight=550 206 27 548 53 74 376 45 12.999999999999998 32 11.999999999999998 29 248 2103 109 443 615 443 1805 10.999999999999998 204 477 95 107 29 183 421 973 1804 995 43 23 504 981
leaf_count=550 206 27 548 53 74 376 45 13 32 12 29 248 2103 109 443 615 443 1805 11 204 477 95 107 29 183 421 973 1804 995 43 23 504 981
internal_value=0 -1.23478e-06 -1.29528e-05 -2.51831e-05 -2.82336e-05 5.94488e-06 -3.15615e-05 -3.51689e-05 8.85759e-06 2.49852e-05 3.03441e-05 3.73184e-05 0 -5.10483e-07 -3.49793e-06 -6.2275e-06 -9.35576e-06 -1.19805e-05 0 3.40964e-06 -3.88513e-05 5.42989e-06 1.84966e-06 2.59593e-06 3.28604e-06 4.08163e-06 6.18822e-06 5.00641e-06 0 1.99481e-06 0 -2.13196e-07 -1.21473e-06
internal_weight=0 12296 1237 689 662 2285 609 535 1909 321 309 280 11059 8309 3415 2972 2357 1914 4894 1283 490 1079 2750 2544 2437 2254 1068 1833 1588 593 3611 1508 1004
internal_count=14581 12296 1237 689 662 2285 609 535 1909 321 309 280 11059 8309 3415 2972 2357 1914 4894 1283 490 1079 2750 2544 2437 2254 1068 1833 1588 593 3611 1508 1004
is_linear=0
shrinkage=0.03


Tree=13
num_leaves=28
num_cat=0
split_feature=4 41 4 28 24 48 42 10 48 52 60 48 60 41 4 60 48 48 41 4 60 5 1 48 1 53 24
split_gain=0.000153342 0.000184912 0.000172866 0.000139262 7.74175e-05 6.80074e-05 6.70894e-05 4.7685e-05 3.68286e-05 0.000170056 2.90713e-05 4.36399e-05 7.86285e-05 1.12064e-05 1.08361e-05 1.10426e-05 7.51129e-06 7.07836e-06 7.91811e-06 6.87475e-06 4.71476e-06 5.10157e-06 1.33613e-06 4.46188e-05 5.20497e-06 1.13063e-06 1.08068e-08
threshold=146.82677858586018 0.26625000000000082 153.62577578867004 0.11151352630879786 -0.37934494839660865 0.0010035507993265845 0.68861692086106585 5585.2750000000005 0.0014308415506213616 85.41917550780903 155.94923000000003 0.00067249631843103129 151.65495000000001 0.18238571428571407 151.82096935034903 155.84354000000005 0.0013527105072818066 0.00022802580192235681 0.24952857142856905 147.14827321699929 158.63795000000002 154.82425750332456 149.77035168520925 0.00097684533521734482 156.14787140026246 4.8643166291914968 0.043301517147213107
decision_type=2 2 2 2 2 2 2 2 2 2 2 2 2 2 2 2 2 2 2 2 2 2 2 2 2 2 2
left_child=3 10 5 4 -1 -3 -6 -7 26 -10 11 12 -2 14 -14 -16 17 -12 20 -9 21 -19 -13 24 -24 -21 -8
right_child=1 2 -4 -5 6 7 8 19 9 -11 16 22 13 -15 15 -17 -18 18 -20 25 -22 -23 23 -25 -26 -27 -28
leaf_value=0 0 0 0 0 0 0 0 0 5.0021545102936213e-05 0 0 0 0 0 1.0198260911866127e-05 0 0 0 0 0 0 -4.5620257835060926e-06 -5.2065901832718323e-06 0 0 -2.9480770707357982e-05 1.4257026257232993e-07
leaf_weight=326 2700 19 517 517 176 70 600 33 227 19 21 1627 63 37 1450 35 36 12.999999999999998 38 10.999999999999998 625 2124 1698 706 12.999999999999998 510 478
leaf_count=326 2700 19 517 517 176 70 600 33 227 19 21 1627 63 37 1450 35 36 13 38 11 625 2124 1698 706 13 510 478
internal_value=0 -9.1582e-07 -1.23421e-05 7.38043e-06 1.1769e-05 -2.27262e-05 1.46641e-05 -2.51039e-05 1.70058e-05 4.10901e-05 0 1.15129e-06 3.42653e-06 8.7389e-06 9.20361e-06 9.73981e-06 -2.30056e-06 -2.78497e-06 -3.17632e-06 -2.80563e-05 -3.57875e-06 -4.30552e-06 0 -7.05281e-07 -4.91585e-06 -2.91347e-05 0
internal_weight=0 12346 1160 2343 1826 643 1500 624 1324 246 11186 8329 4285 1585 1548 1485 2857 2821 2800 554 2762 2137 4044 2417 1711 521 1078
internal_count=14689 12346 1160 2343 1826 643 1500 624 1324 246 11186 8329 4285 1585 1548 1485 2857 2821 2800 554 2762 2137 4044 2417 1711 521 1078
is_linear=0
shrinkage=0.03


Tree=14
num_leaves=31
num_cat=0
split_feature=44 1 1 41 9 10 3 40 48 21 41 48 48 35 61 48 22 6 10 10 53 52 9 6 2 48 48 49 9 49
split_gain=9.85841e-05 0.000159386 9.62908e-05 0.000113989 7.17301e-05 6.53693e-05 3.92045e-05 3.47063e-05 5.48345e-05 2.84112e-05 2.73837e-05 2.65636e-05 2.63212e-05 2.36455e-05 2.17092e-05 3.86955e-05 8.69482e-05 2.12014e-05 2.01581e-05 1.65643e-05 1.56231e-05 1.5179e-05 1.39232e-05 1.35883e-05 1.29789e-05 1.26391e-05 9.41717e-06 5.57701e-06 3.22493e-06 2.68866e-06
threshold=0.28249999999999892 143.34086589734756 157.22577352751713 0.20023571428571421 0.00056640534440617477 5802.7250000000013 156.24790000000004 0.0015793541690491051 0.0013176862845218711 -0.0047633161191275577 0.07551249999999661 0.0011105006670672202 0.00053206330013166609 -1.1796970271647462 0.0019267139175735205 0.0011564241533446348 -0.0095561303850263939 0.15292857142856878 3042.5750000000003 1531.3500000000001 95.907152367216938 99.424734283104257 0.0010025796044633314 0.063250000000000542 143.77399154581533 0.00022802580192235681 0.00081823162500739273 1.5312445662825438 0.00021840407433531794 0.51091516395532244
decision_type=2 2 2 2 2 2 2 2 2 2 2 2 2 2 2 2 2 2 2 2 2 2 2 2 2 2 2 2 2 2
left_child=2 -2 3 5 -3 10 12 8 9 -5 -1 19 -6 -14 15 -9 -17 -11 23 -12 -21 24 -18 -4 -15 -25 -19 28 -27 -30
right_child=1 4 18 7 6 -7 -8 14 -10 17 11 -13 13 21 -16 16 22 26 -20 20 -22 -23 -24 25 -26 27 -28 -29 29 -31
leaf_value=0 0 0 0 0 0 0 0 0 0 0 0 0 0 0 0 0 0 0 0 7.5091798554735138e-06 0 0 2.0615405790752696e-05 0 -1.4291153372916456e-05 0 -1.1570662147140743e-05 0 0 -8.2045636347518758e-06
leaf_weight=683 334 229 73 65 24 230 263 425 248 162 47 67 35 45 572 46 26 113 632 6160 114 9.9999999999999982 343 18 1854 21 992 18 13.999999999999998 800
leaf_count=683 334 229 73 65 24 230 263 425 248 162 47 67 35 45 572 46 26 113 632 6160 114 10 343 18 1854 21 992 18 14 800
internal_value=0 -4.82867e-06 1.40914e-06 3.24564e-06 -9.20768e-06 5.376e-06 -1.1064e-05 0 -4.38558e-06 -7.73624e-06 6.17746e-06 6.7896e-06 -1.25176e-05 -1.30693e-05 7.69956e-07 4.92364e-06 1.15263e-05 -9.1155e-06 -1.06767e-06 7.09712e-06 7.28851e-06 -1.36045e-05 1.90047e-05 -4.59467e-06 -1.39014e-05 -6.07553e-06 -1.0608e-05 -7.1427e-06 -7.62397e-06 -7.94902e-06
internal_weight=0 2794 11869 10293 2460 7301 2231 2992 1580 1332 7071 6388 1968 1944 1412 840 415 1267 1576 6321 6274 1909 369 944 1899 871 1105 853 835 814
internal_count=14663 2794 11869 10293 2460 7301 2231 2992 1580 1332 7071 6388 1968 1944 1412 840 415 1267 1576 6321 6274 1909 369 944 1899 871 1105 853 835 814
is_linear=0
shrinkage=0.03


Tree=15
num_leaves=27
num_cat=0
split_feature=56 9 48 42 60 3 10 29 49 9 53 60 36 10 60 21 10 1 41 0 10 41 29 9 9 29
split_gain=6.37222e-05 9.23424e-05 9.68174e-05 0.000123752 0.000108067 0.000100855 8.57849e-05 8.57021e-05 0.000102102 7.10126e-05 6.91463e-05 0.000110903 9.43152e-05 6.03405e-05 5.8015e-05 5.14198e-05 4.88079e-05 4.34361e-05 4.31293e-05 4.0319e-05 2.41687e-05 1.37661e-05 1.3487e-05 4.90514e-06 2.37023e-06 2.72323e-06
threshold=45.92457101716488 0.0013754272458595333 0.00082552522760961531 1.0589639074130177 142.82845000000003 155.95577500000002 3323.3250000000003 0.0020068642248157955 0.81263130198450828 0.0039645658957739496 68.343814102300271 147.32286000000002 0.023637013769305566 9302.6750000000011 157.80886000000004 0.010345022746303225 2409.1000000000004 157.75736036310909 0.16786249999999994 25.098344590874408 5620.4000000000005 0.072887500000000424 0.00095446452801288767 0.00024121382148174056 0.0012270692211709391 -0.001529538447220327
decision_type=2 2 2 2 2 2 2 2 2 2 2 2 2 2 2 2 2 2 2 2 2 2 2 2 2 2
left_child=1 2 5 4 -4 20 -6 8 -3 15 11 -2 14 18 16 17 -13 19 -8 -10 22 -18 24 -23 25 -1
right_child=10 7 3 -5 6 -7 13 -9 9 -11 -12 12 -14 -15 -16 -17 21 -19 -20 -21 -22 23 -24 -25 -26 -27
leaf_value=0 0 0 0 0 0 0 0 0 0 0 0 0 0 0 0 0 0 0 -1.5238165042197274e-05 2.6809951488399131e-05 0 0 0 -1.7054217979859294e-05 0 6.2678142918999969e-06
leaf_weight=19 451 74 252 859 330 1875 63 96 30 11.999999999999998 1373 145 30 21 126 22 31 24 1814 638 346 10.999999999999998 261 1361 9.9999999999999982 4429
leaf_count=19 451 74 252 859 330 1875 63 96 30 12 1373 145 30 21 126 22 31 24 1814 638 346 11 261 1361 10 4429
internal_value=0 1.37848e-06 0 -3.56171e-06 -7.87272e-06 2.53983e-06 -1.06128e-05 1.07884e-05 1.50567e-05 1.9398e-05 -3.19922e-06 -6.75467e-06 -1.07822e-05 -1.31483e-05 -1.30012e-05 2.17267e-05 -1.47141e-05 2.35345e-05 -1.42736e-05 2.51443e-05 5.17278e-06 -1.64368e-05 5.77306e-06 -1.68908e-05 6.16456e-06 6.21021e-06
internal_weight=0 11175 10279 3339 2480 6940 2228 896 800 726 3528 2155 1704 1898 1674 714 1548 692 1877 668 5065 1403 4719 1372 4458 4448
internal_count=14703 11175 10279 3339 2480 6940 2228 896 800 726 3528 2155 1704 1898 1674 714 1548 692 1877 668 5065 1403 4719 1372 4458 4448
is_linear=0
shrinkage=0.03


Tree=16
num_leaves=29
num_cat=0
split_feature=44 1 56 1 41 3 48 22 34 41 41 44 41 9 28 61 61 6 61 6 48 9 60 48 6 28 53 53
split_gain=0.000101692 0.000152059 0.000105971 9.46959e-05 8.74421e-05 8.02444e-05 0.000127658 4.50696e-05 2.37918e-05 2.10205e-05 1.69077e-05 1.80395e-05 1.3653e-05 1.23647e-05 4.79684e-05 0.000101918 3.13725e-05 2.16718e-05 5.30585e-05 1.40488e-05 1.12519e-05 8.07801e-06 6.26054e-06 5.78199e-06 7.30337e-06 8.20621e-06 8.32657e-06 7.20982e-06
threshold=0.28249999999999892 143.34086589734756 20.621525368647813 157.22577352751713 0.20023571428571421 156.19725000000003 0.00060126679520665284 -0.00089779236912768113 1.0706831488935242 0.61033928571428797 0.07551249999999661 0.12749999999999775 0.19135357142856899 0.0014128759840445024 0.2752509892926725 -0.0064655004243049747 -0.000854538678375175 0.29914285714285943 0.004037249889795938 0.15292857142856878 0.0010763591047332347 0.00048499645373862281 156.79477000000003 0.00022802580192235681 0.063250000000000542 -0.34186438434853977 13.187049520402093 91.12266353498832
decision_type=2 2 2 2 2 2 2 2 2 2 2 2 2 2 2 2 2 2 2 2 2 2 2 2 2 2 2 2
left_child=3 -2 -3 4 7 6 -4 -1 9 21 -9 12 20 16 15 -15 -6 -17 -19 -18 -12 -8 -5 -24 -25 -26 -27 -28
right_child=1 2 5 22 13 -7 8 10 -10 -11 11 -13 -14 14 -16 17 19 18 -20 -21 -22 -23 23 24 25 26 27 -29
leaf_value=0 0 0 0 0 0 0 0 0 0 0 8.1207084725765256e-06 0 0 0 0 0 0 3.3412921530113094e-05 0 -6.2166930659429059e-06 0 -1.7600530843209018e-05 0 0 0 0 -5.7314437666393358e-06 0
leaf_weight=1705 333 215 165 37 899 340 11.999999999999998 589 17 12.999999999999998 4234 468 312 91 214 127 145 182 39 1304 40 1729 22 74 17 48 1235 143
leaf_count=1705 333 215 165 37 899 340 12 589 17 13 4234 468 312 91 214 127 145 182 39 1304 40 1729 22 74 17 48 1235 143
internal_value=0 -4.93621e-06 -9.08574e-06 1.37967e-06 3.20214e-06 -1.14997e-05 -1.38836e-05 5.01503e-06 -1.66001e-05 -1.70422e-05 6.31953e-06 6.89933e-06 7.48316e-06 0 1.56085e-06 1.00921e-05 -2.01508e-06 1.97901e-05 2.6538e-05 -5.10473e-06 7.93471e-06 -1.74204e-05 -1.07026e-06 -2.1984e-06 -2.88655e-06 -3.64868e-06 -4.31844e-06 -4.97339e-06
internal_weight=0 2824 2491 11925 10349 2276 1936 7348 1771 1754 5643 5054 4586 3001 653 439 2348 348 221 1449 4274 1741 1576 1539 1517 1443 1426 1378
internal_count=14749 2824 2491 11925 10349 2276 1936 7348 1771 1754 5643 5054 4586 3001 653 439 2348 348 221 1449 4274 1741 1576 1539 1517 1443 1426 1378
is_linear=0
shrinkage=0.03


Tree=17
num_leaves=30
num_cat=0
split_feature=4 41 4 28 40 48 10 44 41 52 48 41 60 48 60 44 41 4 60 2 44 44 48 5 48 48 1 4 4
split_gain=9.10179e-05 0.000165539 0.000191528 0.00015053 7.87134e-05 5.84879e-05 6.18967e-05 6.73372e-05 3.81336e-05 6.30831e-05 7.23626e-05 1.75739e-05 1.72108e-05 4.3107e-05 4.71441e-05 1.69933e-05 1.05102e-05 9.97753e-06 8.19225e-06 6.15813e-06 7.3124e-06 6.02456e-06 5.86109e-06 6.37646e-06 5.22958e-06 4.93893e-06 6.72313e-05 2.28023e-05 1.4071e-07
threshold=146.82677858586018 0.26138392857142717 153.62577578867004 0.11151352630879786 0.0015413927498717902 0.001035916630253132 5585.2750000000005 -1.1400000000000003 0.3854392857142856 88.46153617374037 0.0033304571156235903 0.23250714285714119 155.94923000000003 0.00067249631843103129 151.65495000000001 -0.61750000000000671 0.11375178571428672 151.79108164962483 155.84354000000005 158.50817120706958 -0.76800000000000057 -0.68549999999999034 0.00029907087669661404 154.82425750332456 0.0014308415506213616 0.0009336277005171287 149.61549873688861 156.34556432348552 149.94458810949877
decision_type=2 2 2 2 2 2 2 2 2 2 2 2 2 2 2 2 2 2 2 2 2 2 2 2 2 2 2 2 2
left_child=3 12 4 8 -3 -6 -7 -8 11 10 -10 16 13 14 -2 -16 -1 -17 -19 20 -14 -18 -22 -24 -25 26 -15 28 -28
right_child=1 2 -4 -5 5 6 7 -9 9 -11 -12 -13 19 25 15 17 21 18 -20 -21 22 -23 23 24 -26 -27 27 -29 -30
leaf_value=0 0 0 0 0 0 0 0 -3.405672062319059e-05 5.2779834423463082e-05 0 0 0 0 0 0 0 0 9.1009840622127211e-06 0 0 0 5.6154610348173959e-06 0 -4.3386419581615074e-06 0 0 0 0 -7.3993367676775134e-06
leaf_weight=56 2698 123 562 509 12.999999999999998 29 43 492 130 14.999999999999998 11.999999999999998 596 27 907 28 47 11.999999999999998 1451 34 647 193 973 17 1911 11.999999999999998 1476 21 46 1563
leaf_count=56 2698 123 562 509 13 29 43 492 130 15 12 596 27 907 28 47 12 1451 34 647 193 973 17 1911 12 1476 21 46 1563
internal_value=0 -9.0375e-07 -1.12246e-05 5.58444e-06 -2.17519e-05 -2.6393e-05 -2.83881e-05 -3.08797e-05 1.07484e-05 3.91687e-05 4.57613e-05 0 0 9.42777e-07 3.29192e-06 7.53409e-06 3.89696e-06 8.23282e-06 8.71601e-06 -1.70253e-06 -2.51633e-06 5.06434e-06 -3.08168e-06 -3.62762e-06 -4.0323e-06 0 -1.32353e-06 -6.3116e-06 -7.3447e-06
internal_weight=0 12340 1262 2303 700 577 564 535 1794 157 142 1637 11078 8271 4258 1560 1041 1532 1485 2807 2160 985 2133 1940 1923 4013 2537 1630 1584
internal_count=14643 12340 1262 2303 700 577 564 535 1794 157 142 1637 11078 8271 4258 1560 1041 1532 1485 2807 2160 985 2133 1940 1923 4013 2537 1630 1584
is_linear=0
shrinkage=0.03


Tree=18
num_leaves=27
num_cat=0
split_feature=4 41 60 28 10 48 44 9 56 48 56 1 48 48 2 60 60 4 4 48 2 4 56 3 48 1
split_gain=0.000101287 0.000146241 0.00019073 0.000119157 5.28259e-05 5.03614e-05 3.57825e-05 2.8633e-05 1.86614e-05 1.70597e-05 3.12443e-05 8.30064e-06 3.43932e-05 7.86951e-05 9.82012e-05 1.02407e-05 7.94055e-05 7.91336e-06 7.82137e-06 6.19986e-06 8.47237e-06 6.79207e-06 2.18052e-06 1.73515e-06 3.55054e-07 1.07759e-07
threshold=146.82677858586018 0.26625000000000082 150.03321000000003 0.10934405899631373 5647.0250000000005 0.00041228351762360912 -1.1400000000000003 0.0039645658957739496 15.677788498062736 0.0010572323019015343 13.5897781364792 149.72627315582019 0.0006651503398872171 0.0011275522326343833 156.33378158029404 155.84354000000005 151.65495000000001 156.9248617876392 151.79108164962483 0.0011004437225161257 146.85952096313784 150.47016741052275 79.079867583216085 155.95577500000002 0.00022802580192235681 149.69314391778059
decision_type=2 2 2 2 2 2 2 2 2 2 2 2 2 2 2 2 2 2 2 2 2 2 2 2 2 2
left_child=3 11 4 5 -3 -1 -6 8 -7 -8 -11 19 15 14 17 16 -13 -14 -18 20 -2 24 -10 -20 -22 -26
right_child=1 2 -4 -5 6 7 9 -9 22 10 -12 12 13 -15 -16 -17 18 -19 23 -21 21 -23 -24 -25 25 -27
leaf_value=0 0 0 0 0 0 0 0 0 1.3036515690711489e-05 0 -3.3754336433495106e-05 0 -9.0564197457311023e-06 0 0 0 0 0 7.9140593839459155e-06 0 0 0 0 0 3.3296527263294703e-06 0
leaf_weight=44 178 40 651 537 52 124 12.999999999999998 9.9999999999999982 1614 25 386 1449 2428 369 646 1943 48 11.999999999999998 1425 257 9.9999999999999982 30 12.999999999999998 15.999999999999998 2282 44
leaf_count=44 178 40 651 537 52 124 13 10 1614 25 386 1449 2428 369 646 1943 48 12 1425 257 10 30 13 16 2282 44
internal_value=0 -1.06156e-06 -1.11629e-05 5.74417e-06 -2.47794e-05 1.01097e-05 -2.76647e-05 1.14232e-05 1.20809e-05 -3.0577e-05 -3.16512e-05 0 -4.77384e-07 -3.08345e-06 -5.7958e-06 0 1.77102e-06 -8.87114e-06 7.35981e-06 1.41014e-06 2.09338e-06 2.81673e-06 1.29378e-05 7.80088e-06 3.26375e-06 3.29169e-06
internal_weight=0 12304 1167 2342 516 1805 476 1761 1751 424 411 11137 8336 3455 3086 4881 2938 2440 1489 2801 2544 2366 1627 1441 2336 2326
internal_count=14646 12304 1167 2342 516 1805 476 1761 1751 424 411 11137 8336 3455 3086 4881 2938 2440 1489 2801 2544 2366 1627 1441 2336 2326
is_linear=0
shrinkage=0.03


Tree=19
num_leaves=24
num_cat=0
split_feature=4 41 28 53 24 49 44 44 1 10 48 41 10 4 52 56 56 10 1 4 4 52 56
split_gain=0.000106442 0.000130117 0.000126341 7.28797e-05 6.93336e-05 3.82448e-05 2.94361e-05 2.78519e-05 6.69209e-05 2.39622e-05 1.83781e-05 1.86405e-05 1.76281e-05 2.23223e-05 1.51976e-05 1.91312e-05 1.0774e-05 9.64168e-06 2.23081e-06 8.92665e-06 1.24622e-06 6.96362e-07 2.12624e-07
threshold=146.82677858586018 0.1761874999999988 0.11151352630879786 78.03049152265514 -0.37934494839660865 1.5312445662825438 0.83100000000000318 0.060499999999990457 157.19055173700158 4899.9750000000013 0.00087736832099063707 0.07551249999999661 3387.6250000000005 156.8459657583393 84.567898102422149 14.964170633973565 63.516436320681564 1601.5000000000002 147.53955704876137 158.82110083542162 147.91201505769956 9.0357180502416146 79.079867583216085
decision_type=2 2 2 2 2 2 2 2 2 2 2 2 2 2 2 2 2 2 2 2 2 2 2
left_child=2 7 4 5 -1 12 16 8 9 10 11 -2 -3 14 15 -14 21 -13 -9 20 -20 -6 -22
right_child=1 3 -4 -5 6 -7 -8 18 -10 -11 -12 17 13 -15 -16 -17 -18 -19 19 -21 22 -23 -24
leaf_value=0 0 0 0 0 0 0 0 0 0 0 0 0 0 0 0 -1.0387877158424624e-05 0 6.7464577154389271e-06 0 0 -2.3566435213289315e-06 1.5300106144326705e-05 0
leaf_weight=319 506 268 519 1090 82 108 92 98 1004 284 93 41 133 306 102 2725 37 3270 29 178 2044 1275 19
leaf_count=319 506 268 519 1090 82 108 92 98 1004 284 93 41 133 306 102 2725 37 3270 29 178 2044 1275 19
internal_value=0 -9.07785e-07 6.07062e-06 -5.18521e-06 1.05083e-05 -7.27595e-06 1.32702e-05 0 2.19589e-06 4.50945e-06 5.22751e-06 5.68553e-06 -8.01844e-06 -8.62714e-06 -9.42902e-06 -9.84194e-06 1.43775e-05 6.50621e-06 0 -9.40356e-07 -2.19064e-06 1.48152e-05 -2.32592e-06
internal_weight=0 12298 2324 4732 1805 3642 1486 7566 5198 4194 3910 3817 3534 3266 2960 2858 1394 3311 2368 2270 2092 1357 2063
internal_count=14622 12298 2324 4732 1805 3642 1486 7566 5198 4194 3910 3817 3534 3266 2960 2858 1394 3311 2368 2270 2092 1357 2063
is_linear=0
shrinkage=0.03


Tree=20
num_leaves=30
num_cat=0
split_feature=4 41 60 61 10 44 5 9 41 53 41 56 48 48 53 60 44 44 3 3 2 44 5 5 44 4 41 56 2
split_gain=0.000111143 0.000175592 0.000213962 7.60237e-05 6.18306e-05 5.3987e-05 4.16915e-05 3.8137e-05 6.86994e-05 0.000118584 6.06266e-05 7.61356e-05 6.88467e-05 2.88154e-05 1.16636e-05 1.01112e-05 3.13638e-05 1.34185e-05 8.65215e-06 7.03358e-06 4.69261e-06 6.42487e-06 3.50422e-06 3.41935e-06 3.01988e-06 1.89158e-06 1.45568e-06 1.42887e-06 7.11369e-07
threshold=147.14827321699929 0.26138392857142717 150.03321000000003 0.0076552704206794909 5647.0250000000005 -1.021500000000003 146.4790389968995 0.0039645658957739496 0.3854392857142856 82.07449096705399 0.20700892857143224 15.677788498062736 0.00041228351762360912 0.001035916630253132 93.20312031800826 155.94923000000003 0.12749999999999775 -0.51500000000000046 142.37460000000002 146.32367500000001 158.50817120706958 -0.76800000000000057 154.82425750332456 155.78484239375658 1.0935000000000061 147.26119722073662 0.26625000000000082 10.304263213021613 146.80887025797855
decision_type=2 2 2 2 2 2 2 2 2 2 2 2 2 2 2 2 2 2 2 2 2 2 2 2 2 2 2 2 2
left_child=3 15 4 6 -3 -6 7 8 10 -10 11 -1 -13 -7 26 16 17 -2 -12 -20 21 -17 -23 25 27 -19 -15 -24 -27
right_child=1 2 -4 -5 5 13 -8 -9 9 -11 18 12 -14 14 -16 20 -18 23 19 -21 -22 22 24 -25 -26 28 -28 -29 -30
leaf_value=0 0 0 0 0 0 0 0 0 4.8587323054971555e-05 0 0 0 1.4492002864395722e-05 0 0 0 0 0 -4.0717515949597265e-06 0 0 0 0 0 0 0 -3.712487479346391e-05 -3.3855884600592549e-06 3.0102655471243189e-06
leaf_weight=86 526 43 694 124 54 10.999999999999998 95 17 165 24 231 35 881 22 12.999999999999998 29 2195 21 851 57 645 12.999999999999998 24 28 13.999999999999998 9.9999999999999982 370 2099 5288
leaf_count=86 526 43 694 124 54 11 95 17 165 24 231 35 881 22 13 29 2195 21 851 57 645 13 24 28 14 10 370 2099 5288
internal_value=0 -1.22199e-06 -1.20764e-05 5.65111e-06 -2.67946e-05 -3.00306e-05 7.8466e-06 8.94677e-06 9.76506e-06 3.87111e-05 1.96933e-07 7.38314e-06 1.15927e-05 -3.3696e-05 -3.50739e-05 0 5.2201e-07 2.27601e-06 0 -2.92766e-06 -1.56315e-06 -2.25927e-06 -2.80393e-06 2.81925e-06 -3.06354e-06 2.9272e-06 -3.60231e-05 -3.27522e-06 2.98727e-06
internal_weight=0 12099 1207 2566 513 470 2442 2347 2330 189 2141 1002 916 416 405 10892 8068 5873 1139 908 2824 2179 2150 5347 2137 5319 392 2123 5298
internal_count=14665 12099 1207 2566 513 470 2442 2347 2330 189 2141 1002 916 416 405 10892 8068 5873 1139 908 2824 2179 2150 5347 2137 5319 392 2123 5298
is_linear=0
shrinkage=0.03


end of trees

feature_importances:
volatility_ma=79
atr_ma=55
volume_ma=44
sma_50=42
momentum_convergence=40
bb_upper=39
volatility=38
adx=23
stoch_d=22
ema_fast=21
price_sma_50_dist=21
ema_slow=15
stoch_k=15
rsi_normalized=14
atr_normalized=14
price_bb_upper_dist=12
atr=11
ema_cross=11
return_24=10
rsi=8
bb_middle=8
bb_lower=7
bb_position=7
volatility_ratio=7
ema_cross_pct=5
atr_ratio=5
bb_position_normalized=3
return_12=2
momentum_20=1
range_pct=1
return_6=1
price_ema_fast_dist=1
price_ema_slow_dist=1

parameters:
[boosting: gbdt]
[objective: regression]
[metric: rmse]
[tree_learner: serial]
[device_type: cpu]
[data: ]
[valid: ]
[num_iterations: 800]
[learning_rate: 0.03]
[num_leaves: 50]
[num_threads: 8]
[deterministic: 0]
[force_col_wise: 0]
[force_row_wise: 0]
[histogram_pool_size: -1]
[max_depth: 8]
[min_data_in_leaf: 10]
[min_sum_hessian_in_leaf: 0.001]
[bagging_fraction: 0.9]
[pos_bagging_fraction: 1]
[neg_bagging_fraction: 1]
[bagging_freq: 1]
[bagging_seed: 400]
[feature_fraction: 0.9]
[feature_fraction_bynode: 1]
[feature_fraction_seed: 30056]
[extra_trees: 0]
[extra_seed: 12879]
[early_stopping_round: 0]
[first_metric_only: 0]
[max_delta_step: 0]
[lambda_l1: 0.5]
[lambda_l2: 0.5]
[linear_lambda: 0]
[min_gain_to_split: 0]
[drop_rate: 0.1]
[max_drop: 50]
[skip_drop: 0.5]
[xgboost_dart_mode: 0]
[uniform_drop: 0]
[drop_seed: 17869]
[top_rate: 0.2]
[other_rate: 0.1]
[min_data_per_group: 100]
[max_cat_threshold: 32]
[cat_l2: 10]
[cat_smooth: 10]
[max_cat_to_onehot: 4]
[top_k: 20]
[monotone_constraints: ]
[monotone_constraints_method: basic]
[monotone_penalty: 0]
[feature_contri: ]
[forcedsplits_filename: ]
[refit_decay_rate: 0.9]
[cegb_tradeoff: 1]
[cegb_penalty_split: 0]
[cegb_penalty_feature_lazy: ]
[cegb_penalty_feature_coupled: ]
[path_smooth: 0]
[interaction_constraints: ]
[verbosity: 1]
[saved_feature_importance_type: 0]
[linear_tree: 0]
[max_bin: 255]
[max_bin_by_feature: ]
[min_data_in_bin: 3]
[bin_construct_sample_cnt: 200000]
[data_random_seed: 175]
[is_enable_sparse: 1]
[enable_bundle: 1]
[use_missing: 1]
[zero_as_missing: 0]
[feature_pre_filter: 1]
[pre_partition: 0]
[two_round: 0]
[header: 0]
[label_column: ]
[weight_column: ]
[group_column: ]
[ignore_column: ]
[categorical_feature: ]
[forcedbins_filename: ]
[precise_float_parser: 0]
[parser_config_file: ]
[objective_seed: 16083]
[num_class: 1]
[is_unbalance: 0]
[scale_pos_weight: 1]
[sigmoid: 1]
[boost_from_average: 1]
[reg_sqrt: 0]
[alpha: 0.9]
[fair_c: 1]
[poisson_max_delta_step: 0.7]
[tweedie_variance_power: 1.5]
[lambdarank_truncation_level: 30]
[lambdarank_norm: 1]
[label_gain: ]
[lambdarank_position_bias_regularization: 0]
[eval_at: ]
[multi_error_top_k: 1]
[auc_mu_weights: ]
[num_machines: 1]
[local_listen_port: 12400]
[time_out: 120]
[machine_list_filename: ]
[machines: ]
[gpu_platform_id: -1]
[gpu_device_id: -1]
[gpu_use_dp: 0]
[num_gpu: 1]

end of parameters

pandas_categorical:[]
