tree
version=v4
num_class=1
num_tree_per_iteration=1
label_index=0
max_feature_idx=54
objective=regression
feature_names=ema_fast ema_slow macd macd_signal atr momentum_10 momentum_20 volatility volume_ma range range_pct body body_pct upper_shadow lower_shadow is_bullish return_1 return_3 return_6 return_12 return_24 log_return ema_cross ema_cross_pct ema_cross_signal price_ema_fast_dist price_ema_slow_dist macd_hist macd_hist_change macd_cross_signal macd_strength atr_normalized atr_ma atr_ratio momentum_ratio momentum_convergence volume_ratio volume_spike volume_change volatility_ma volatility_ratio high_volatility low_volatility stoch_k stoch_d stoch_overbought stoch_oversold adx strong_trend sma_20 price_sma_20_dist sma_50 price_sma_50_dist signal_convergence market_regime
feature_infos=[178.43567715091189:433.68571375795216] [179.16899978712291:431.92552352305103] [-7.5253030847692912:6.6334773479187561] [-6.6639835167633041:6.1053987507235004] [0:5.6750000000000158] [-25.279999999999973:28.700000000000045] [-31.779999999999973:25.949999999999989] [0:0.013760960557476004] [0:2115.0500000000002] [0:13.050000000000011] [0:0.03421614934772834] [0:10.25] [0:0.026920687512942638] [0:4.8700000000000045] [0:4.5] [0:1] [-0.050838840874428026:0.045717965228589952] [-0.057869419839267966:0.061171925305859576] [-0.062313273580879347:0.055282817502668058] [-0.068215417106652576:0.083728761671513885] [-0.090496047799838109:0.085476025017373169] [-0.052176674847336416:0.04470369757293631] [-7.5253030847692912:6.6334773479187561] [-0.022156052067626355:0.018822304634963066] [0:1] [-0.036308308357206574:0.036066957016052281] [-0.049417861370993924:0.049832234635270263] [-2.8136884881326614:2.9180424258626791] [-0.88796313562727192:0.77022882674520021] [0:1] [-2.6614269079758452:2.6614879927273227] [0:0.01518304181026075] [0:5.0375357142857249] [0:1.7958743291669197] [-387999999.99999952:259999999.99999943] [-28.700000000000045:25.279999999999973] [0:3.4909160086846587] [0:1] [-0.99886813808715336:944] [0:0.013272101953949508] [0:2.8686155747316899] [0:1] [0:1] [0:99.999999925373132] [0:99.128093654670806] [0:1] [0:1] [0:86.579415337112295] [0:1] [0:433.77300000000002] [-0.051861963793781926:0.050205850487540539] [0:429.52199999999999] [-0.084765493890769872:0.066042024013722056] [0:2] [0:2]
tree_sizes=1617 952 1506 1479 1468 1379 1085 1474 1329 1438 1372 1043 1384 1422 1493 1488 1264 1286 1413 970 1082 1462 1447 1476 1058 1455 1255 1290 1321 1499 1388 1449 1331 1509 1380 1388 1153 1438 1487 1160 1317 1461 1451 1414 1099 1321 1137

Tree=0
num_leaves=16
num_cat=0
split_feature=31 30 47 30 32 51 8 8 8 50 49 44 30 49 32
split_gain=0.00800179 0.00246681 0.00274517 0.00199967 0.00242491 0.00200323 0.00178204 0.00123863 0.00291379 0.00098471 0.00115403 0.000627539 0.000448546 0.000309494 0.000103815
threshold=0.007770023821093072 -0.17887306986218296 17.624447496762752 0.086493705737343135 1.5054464285714302 384.85930000000008 1072.3000000000002 1257.8500000000001 1640.4500000000003 0.01216845362762564 246.51124999999999 82.977374589803318 -0.4095109769242305 185.42750000000004 3.5154642857142848
decision_type=2 2 2 2 2 2 2 2 2 2 2 2 2 2 2
left_child=3 7 14 4 13 -6 -4 12 -9 10 -5 -11 -2 -1 -3
right_child=1 2 6 9 5 -7 -8 8 -10 11 -12 -13 -14 -15 -16
leaf_value=0.00074290972856752688 0.00074197368617833295 0.00073962329036791549 0.0006798928345640603 0.00072816705738946606 0.00076265773678063707 0.00072816705738946606 0.00072642797174045891 0.00066312787693606891 0.00072816705738946606 0.00072816705738946606 0.0007096804652734314 0.00074898937741516968 0.00072816705738946606 0.00072562182037081845 0.00072816705738946606
leaf_weight=129 281 79 538 439 746 149 267 96 36 65 421 306 178 446 18
leaf_count=129 281 79 538 439 746 149 267 96 36 65 421 306 178 446 18
internal_value=0.000728167 0.00070888 0.000698349 0.000737687 0.00074556 0.000755876 0.000691599 0.000728167 0.000698645 0.000728167 0.00072241 0.000741897 0.000732528 0.000728167 0.000728167
internal_weight=0 1493 902 2701 1470 895 805 591 132 1231 860 371 459 575 97
internal_count=4194 1493 902 2701 1470 895 805 591 132 1231 860 371 459 575 97
is_linear=0
shrinkage=1


Tree=1
num_leaves=10
num_cat=0
split_feature=39 47 7 47 8 8 2 33 47
split_gain=0.00512493 0.00437113 0.00362454 0.00189978 0.00189368 0.00208675 0.00182988 0.00163956 0.00123925
threshold=0.0084936449355245847 17.624447496762752 0.0045732397185926869 44.581824003651782 832.52500000000009 1543.0250000000003 -0.45674860727507388 0.99050560118717657 11.159223567548276
decision_type=2 2 2 2 2 2 2 2 2
left_child=1 6 7 -4 -2 -6 -1 -3 -8
right_child=4 2 3 -5 5 -7 8 -9 -10
leaf_value=0 0 1.6862993462769951e-05 -1.9541231181179026e-05 0 -0.00012283454388039132 0 0 0 5.1288779092699542e-05
leaf_weight=112 46 917 1229 646 60 13.999999999999998 67 793 279
leaf_count=112 46 917 1229 646 60 14 67 793 279
internal_value=0 9.82201e-07 -1.95791e-06 -1.2206e-05 -6.50859e-05 -9.70644e-05 3.05401e-05 7.52483e-06 4.1991e-05
internal_weight=0 4043 3585 1875 120 74 458 1710 346
internal_count=4163 4043 3585 1875 120 74 458 1710 346
is_linear=0
shrinkage=0.01


Tree=2
num_leaves=16
num_cat=0
split_feature=31 3 50 18 30 8 8 51 32 33 18 39 33 36 30
split_gain=0.0065475 0.00188759 0.00192574 0.00203554 0.00163124 0.00340746 0.00443193 0.00189672 0.00445961 0.00182226 0.00149151 0.0012457 0.00182857 0.000910388 7.38481e-07
threshold=0.007770023821093072 0.67736070676767146 0.0018547748547886309 -0.0068962272232426782 -0.2821308414042249 1246.8500000000001 1640.4500000000003 270.56450000000007 3.4683392857142903 1.066534706580647 0.027316669401817654 0.0056199256337454671 1.0104927998507571 1.0976625508195743 0.32936996204424307
decision_type=2 2 2 2 2 2 2 2 2 2 2 2 2 2 2
left_child=1 2 3 -1 5 9 -7 10 -9 -2 -6 12 -3 -4 -13
right_child=4 11 13 -5 7 6 -8 8 -10 -11 -12 14 -14 -15 -16
leaf_value=-1.679465479053455e-06 0 4.1675075191158045e-05 -1.8872897008278262e-05 2.0585970550543142e-05 -4.4417094888124564e-05 -8.3941946118106807e-05 0 1.0065748372271907e-05 -5.4104212932203441e-05 3.7538677426345276e-05 0 0 3.267880042333177e-07 0 -1.5167610624056589e-06
leaf_weight=401 201 408 430 797 474 102 40 333 142 175 30 42 362 283 32
leaf_count=401 201 408 430 797 474 102 40 333 142 175 30 42 362 283 32
internal_value=0 8.88717e-06 1.61049e-06 1.06297e-05 -1.70879e-05 0 -4.40898e-05 -2.47606e-05 -2.81058e-06 1.30974e-05 -3.94917e-05 2.18069e-05 2.61342e-05 -9.33618e-06 0
internal_weight=0 2755 1911 1198 1497 518 142 979 475 376 504 844 770 713 74
internal_count=4252 2755 1911 1198 1497 518 142 979 475 376 504 844 770 713 74
is_linear=0
shrinkage=0.01


Tree=3
num_leaves=16
num_cat=0
split_feature=31 39 3 23 30 4 34 39 27 30 1 31 47 47 39
split_gain=0.00599115 0.00224943 0.00188261 0.00453762 0.00274089 0.00329961 0.00252158 0.00249019 0.00195858 0.00120349 0.00112826 0.000564397 0.000774293 0.00043171 9.78331e-05
threshold=0.007770023821093072 0.0036746775116062269 1.8610079241368302 0.01240146261830804 -0.36897561135162282 2.5103571428571416 -0.17512886637880415 0.0047082394815870553 -0.54922392468523851 0.41080246016695504 202.89307929250302 0.0047954018696563057 43.371167380867227 47.268352972594187 0.0056874104364211435
decision_type=2 2 2 2 2 2 2 2 2 2 2 2 2 2 2
left_child=1 11 4 8 5 -2 -6 -5 -4 10 -3 13 -13 -1 -11
right_child=2 9 3 7 6 -7 -8 -9 -10 14 -12 12 -14 -15 -16
leaf_value=2.8609737321999815e-05 3.4838472249375436e-05 0 0 0 0 -2.5813730896278703e-05 -4.3859807473278781e-05 -0.00010705172980825135 3.7804643292384774e-05 8.2933011389068046e-07 2.3677722767704573e-05 -1.6747504982563876e-05 0 0 -1.4587859889005052e-05
leaf_weight=75 163 308 66 40 183 198 511 47 251 270 1433 413 179 20 45
leaf_count=75 163 308 66 40 183 198 511 47 251 270 1433 413 179 20 45
internal_value=0 1.12249e-05 -1.357e-05 0 -2.08107e-05 0 -3.24533e-05 -5.77764e-05 2.26731e-05 1.6654e-05 1.99162e-05 -6.5691e-07 -8.05702e-06 1.38717e-05 0
internal_weight=0 2743 1459 404 1055 361 694 87 317 2056 1741 687 592 95 315
internal_count=4202 2743 1459 404 1055 361 694 87 317 2056 1741 687 592 95 315
is_linear=0
shrinkage=0.01


Tree=4
num_leaves=16
num_cat=0
split_feature=31 33 52 3 47 0 39 3 47 39 50 6 36 32 32
split_gain=0.00668837 0.00278961 0.00214734 0.00436562 0.0016139 0.00138976 0.00133279 0.00128747 0.00128168 0.0012786 0.00116623 0.00103777 0.00071908 0.000402442 7.7398e-06
threshold=0.007770023821093072 1.0079133978665784 0.0053888130663461032 3.6927802399175227 54.410929452959785 197.93383707147981 0.0036746775116062269 0.67736070676767146 60.621232015820446 0.0054686908073305436 0.0015310478496775744 4.4249999999999838 1.4753154756849176 1.6296250000000012 3.3219999999999992
decision_type=2 2 2 2 2 2 2 2 2 2 2 2 2 2 2
left_child=1 7 4 11 5 -2 12 10 -5 -9 -1 -4 -3 -8 -6
right_child=2 6 3 8 14 -7 13 9 -10 -11 -12 -13 -14 -15 -16
leaf_value=1.5011358182455439e-05 0 -2.5470166416837754e-05 2.2017784527647188e-05 0 3.1084845012016658e-06 -3.8881126929776025e-05 1.0983746506028796e-05 4.0105541109335382e-05 -0.00011353997149820205 0 -3.3363054695755833e-07 0 0 0 0
leaf_weight=812 31 322 233 32 80 668 362 396 43 82 421 385 59 290 35
leaf_count=812 31 322 233 32 80 668 362 396 43 82 421 385 59 290 35
internal_value=0 7.98977e-06 -1.81232e-05 -4.00877e-07 -2.95241e-05 -3.52975e-05 -2.64165e-06 1.61614e-05 -7.54435e-05 3.26367e-05 7.33941e-06 3.86339e-06 -1.89634e-05 2.29698e-06 0
internal_weight=0 2744 1507 693 814 699 1033 1711 75 478 1233 618 381 652 115
internal_count=4251 2744 1507 693 814 699 1033 1711 75 478 1233 618 381 652 115
is_linear=0
shrinkage=0.01


Tree=5
num_leaves=15
num_cat=0
split_feature=31 3 3 30 31 33 0 8 14 4 0 35 51 35
split_gain=0.00577237 0.00319443 0.00251141 0.00281366 0.00214648 0.00186828 0.00126157 0.00157692 0.000819754 0.000233885 0.000146222 8.60019e-05 8.54707e-05 6.48842e-05
threshold=0.0072092922418748864 3.6927802399175227 1.8610079241368302 -0.012724978881174425 0.0091006864099868034 1.0287975311397868 386.03045430457848 443.52500000000003 0.85000000000000864 1.8467857142857149 318.44513638999439 -4.6249999999999991 244.09400000000002 -3.9900000000000087
decision_type=2 2 2 2 2 2 2 2 2 2 2 2 2 2
left_child=5 2 3 -2 -3 6 7 -1 -4 12 -11 -8 -7 -6
right_child=1 4 8 -5 13 9 11 -9 -10 10 -12 -13 -14 -15
leaf_value=0 0 0 2.0742869810441994e-05 -2.9347007124262228e-05 -0.00013926373655343148 0 0 2.6094366638696357e-05 0 0 -1.8439502977916889e-05 -9.7161661514692427e-06 7.3995832610376604e-06 0
leaf_weight=450 819 40 283 732 38 294 14.999999999999998 1045 104 17 112 91 156 9.9999999999999982
leaf_count=450 819 40 283 732 38 294 15 1045 104 17 112 91 156 10
internal_value=0 -1.28814e-05 -8.43347e-06 -1.50033e-05 -7.66635e-05 1.05152e-05 1.63455e-05 1.92484e-05 1.0144e-05 -4.25814e-07 -1.349e-05 0 0 -0.000123399
internal_weight=0 2026 1938 1551 88 2180 1601 1495 387 579 129 106 450 48
internal_count=4206 2026 1938 1551 88 2180 1601 1495 387 579 129 106 450 48
is_linear=0
shrinkage=0.01


Tree=6
num_leaves=11
num_cat=0
split_feature=23 47 7 32 33 27 1 32 5 2
split_gain=0.0045138 0.00319918 0.00308221 0.00285997 0.00201103 0.0019182 0.00168038 0.00204129 0.00155948 6.67705e-06
threshold=0.01339375388771287 17.624447496762752 0.004843642432538188 1.6636607142857154 0.99181631690131544 0.18429327538231635 385.04654036258114 1.5679464285714302 10.67999999999998 1.133120821406209
decision_type=2 2 2 2 2 2 2 2 2 2
left_child=1 6 4 -2 -3 -4 7 -1 -5 -8
right_child=3 2 5 8 -6 -7 9 -9 -10 -11
leaf_value=0 0 1.6592557865641357e-05 -3.8205105829371549e-07 -0.00015824702762046088 -9.3340152537238708e-07 -2.6228874686944782e-05 -3.6506762577580053e-06 5.0835094185686509e-05 0 0
leaf_weight=107 10.999999999999998 1086 1086 35 940 584 50 273 12.999999999999998 24
leaf_count=107 11 1086 1086 35 940 584 50 273 13 24
internal_value=0 1.85926e-06 -4.30601e-07 -8.59932e-05 6.98074e-06 -1.1218e-05 2.71034e-05 3.63277e-05 -0.000122604 0
internal_weight=0 4150 3696 59 2026 1670 454 380 48 74
internal_count=4209 4150 3696 59 2026 1670 454 380 48 74
is_linear=0
shrinkage=0.01


Tree=7
num_leaves=16
num_cat=0
split_feature=31 39 47 31 33 2 13 19 47 31 2 32 32 8 32
split_gain=0.0071601 0.00264347 0.00338284 0.00288775 0.00201158 0.00137046 0.0016268 0.00135982 0.000562916 0.000951917 0.000789791 0.000442705 0.00145803 0.000557943 0.000363675
threshold=0.007770023821093072 0.0051915632789374805 23.803682185284714 0.012616160577046081 1.0104927998507571 0.89968728598599068 1.0700000000000218 0.00078442753790675124 43.889554009339882 0.0085406393895636288 4.3997673481407285 1.6296250000000012 1.4283035714285734 1163.6750000000002 3.5908571428571432
decision_type=2 2 2 2 2 2 2 2 2 2 2 2 2 2 2
left_child=4 8 14 -4 5 7 -7 -1 9 -2 -10 12 -6 -13 -3
right_child=1 2 3 -5 11 6 -8 -9 10 -11 -12 13 -14 -15 -16
leaf_value=1.8559559493624224e-05 -2.287775949939993e-05 1.6705719795308074e-05 -4.0963987553635561e-05 0 0 4.5662183906634154e-05 0 0 2.6244140754279842e-05 2.2646139012523574e-07 0 -1.62160357770105e-05 2.8487812690354561e-05 0 0
leaf_weight=820 194 131 727 49 440 364 52 556 187 118 15.999999999999998 305 204 47 39
leaf_count=820 194 131 727 49 440 364 52 556 187 118 16 305 204 47 39
internal_value=0 -1.5004e-05 -2.50413e-05 -3.46413e-05 1.20492e-05 1.8388e-05 3.78617e-05 1.03182e-05 0 -4.53005e-06 1.56725e-05 0 5.54943e-06 -8.3305e-06 1.1374e-06
internal_weight=0 1461 946 776 2788 1792 416 1376 515 312 203 996 644 352 170
internal_count=4249 1461 946 776 2788 1792 416 1376 515 312 203 996 644 352 170
is_linear=0
shrinkage=0.01


Tree=8
num_leaves=14
num_cat=0
split_feature=31 47 47 23 49 32 30 31 40 3 35 20 50
split_gain=0.00664071 0.00324794 0.00315716 0.0038593 0.00202675 0.00224531 0.00278466 0.00187684 0.000896114 0.000716632 0.00052357 0.000479193 0.00118847
threshold=0.007770023821093072 22.978886608433395 44.581824003651782 0.01240146261830804 385.67950000000002 1.4283035714285734 0.047493878257412615 0.010678498962197207 0.97382121975009606 1.5497489990142135 -3.4500000000000024 -0.0080171615093148612 0.010904622195334482
decision_type=2 2 2 2 2 2 2 2 2 2 2 2 2
left_child=4 11 7 -4 5 8 -7 -3 -1 10 -6 -2 -13
right_child=1 2 3 -5 9 6 -8 -9 -10 -11 -12 12 -14
leaf_value=1.0456760924077784e-05 0 -4.6086002335031866e-05 3.636811393948478e-06 -7.0703117108892208e-05 0 3.2643495474264704e-05 2.1130558253411996e-06 0 -9.568424458205348e-06 0 -3.7589888314128489e-05 3.5314250992865829e-05 0
leaf_weight=394 79 598 475 76 28 808 849 76 508 47 125 141 58
leaf_count=394 79 598 475 76 28 808 849 76 508 47 125 141 58
internal_value=0 -1.73429e-05 -2.50327e-05 -1.18428e-06 8.76515e-06 1.1892e-05 1.8812e-05 -4.00754e-05 0 -1.62357e-05 -2.85062e-05 5.75136e-06 1.69376e-05
internal_weight=0 1503 1225 551 2759 2559 1657 674 902 200 153 278 199
internal_count=4262 1503 1225 551 2759 2559 1657 674 902 200 153 278 199
is_linear=0
shrinkage=0.01


Tree=9
num_leaves=15
num_cat=0
split_feature=31 32 33 47 47 23 20 30 40 32 32 32 47 33
split_gain=0.00696169 0.00223594 0.00203467 0.00174976 0.00306325 0.00168079 0.00163585 0.00102278 0.000809045 0.000507043 0.000296874 0.00138531 0.000471563 3.19293e-05
threshold=0.007770023821093072 3.5520892857142869 1.0079133978665784 44.581824003651782 22.978886608433395 0.01240146261830804 -0.055045423557730781 0.31093512754214797 0.57380883037539154 4.5663928571428647 1.6296250000000012 1.4218749999999973 18.626204795710766 0.88461114438741129
decision_type=2 2 2 2 2 2 2 2 2 2 2 2 2 2
left_child=2 3 7 4 -2 -5 -3 8 -1 -8 11 -4 -12 -9
right_child=1 6 10 5 -6 -7 9 13 -10 -11 12 -13 -14 -15
leaf_value=0 2.3733354829446984e-06 0 -1.6713111922044263e-06 1.6257489934170823e-05 -3.1050768287077237e-05 -3.3661865020842731e-05 -6.8675029524698091e-05 -5.1690555343714646e-06 2.2219392039532848e-05 0 0 2.5805726936124801e-05 -1.5172964784166067e-05 2.0696536909094396e-06
leaf_weight=45 234 26 421 373 594 63 158 87 1378 17 31 214 311 202
leaf_count=45 234 26 421 373 594 63 158 87 1378 17 31 214 311 202
internal_value=0 -1.65771e-05 1.04511e-05 -8.66234e-06 -1.79829e-05 2.15915e-06 -5.14025e-05 1.7041e-05 2.05241e-05 -6.29984e-05 0 2.86761e-06 -8.45657e-06 0
internal_weight=0 1465 2689 1264 828 436 201 1712 1423 175 977 635 342 289
internal_count=4154 1465 2689 1264 828 436 201 1712 1423 175 977 635 342 289
is_linear=0
shrinkage=0.01


Tree=10
num_leaves=14
num_cat=0
split_feature=31 47 31 1 8 47 39 51 35 20 40 11 11
split_gain=0.0094794 0.00252523 0.00245456 0.0019966 0.00213128 0.0025657 0.00190199 0.00161716 0.000897676 0.000597611 0.000200794 0.000126514 0.00019913
threshold=0.007770023821093072 17.624447496762752 0.012616160577046081 385.04654036258114 503.42500000000007 26.62105032831386 0.0049493790917386126 249.05900000000005 -2.0499999999999683 0.019420497127906947 1.110759761270488 2.7400000000000095 0.67500000000001148
decision_type=2 2 2 2 2 2 2 2 2 2 2 2 2
left_child=3 11 6 4 7 -6 -3 -1 -5 -10 -4 12 -2
right_child=1 2 10 8 5 -7 -8 -9 9 -11 -12 -13 -14
leaf_value=7.0075826290626915e-06 0 -1.5517170404490588e-06 0 0 4.2457367333531699e-05 6.6663946291926239e-06 -3.9420619102665996e-05 -2.3837163618656895e-05 -3.7950441920241321e-05 0 2.3170483031480479e-05 0 2.3601701117925811e-05
leaf_weight=1024 35 358 10.999999999999998 72 432 895 928 196 138 15.999999999999998 42 15.999999999999998 63
leaf_count=1024 35 358 11 72 432 895 928 196 138 16 42 16 63
internal_value=0 -2.28703e-05 -2.74632e-05 8.46488e-06 1.17054e-05 2.05809e-05 -3.12122e-05 0 -1.47765e-05 -3.00481e-05 6.8929e-06 4.75964e-06 1.24625e-05
internal_weight=0 1453 1339 2773 2547 1327 1286 1220 226 154 53 114 98
internal_count=4226 1453 1339 2773 2547 1327 1286 1220 226 154 53 114 98
is_linear=0
shrinkage=0.01


Tree=11
num_leaves=11
num_cat=0
split_feature=32 47 33 51 2 32 32 20 32 20
split_gain=0.00595397 0.00470878 0.00317433 0.00244674 0.00203859 0.00166321 0.00159324 0.00154338 0.00174834 0.000874167
threshold=3.5520892857142869 17.624447496762752 1.0104927998507571 327.72910000000007 0.89968728598599068 1.6296250000000012 1.2876785714285734 -0.066878866358267661 4.4076964285714295 -0.01553101657072403
decision_type=2 2 2 2 2 2 2 2 2 2
left_child=1 6 4 -2 -3 -4 -1 -5 -9 -8
right_child=3 2 5 7 -6 -7 9 8 -10 -11
leaf_value=0 0 0 0 0 2.592520100682116e-05 -1.8774147634531892e-05 0 -8.5985231198485159e-05 0 4.7029785291299896e-05
leaf_weight=76 9.9999999999999982 1395 671 12.999999999999998 463 1071 22 155 35 334
leaf_count=76 10 1395 671 13 463 1071 22 155 35 334
internal_value=0 2.36313e-06 -5.7095e-07 -5.1849e-05 7.60263e-06 -1.10108e-05 3.37511e-05 -6.34458e-05 -7.15019e-05 4.27747e-05
internal_weight=0 4032 3600 213 1858 1742 432 203 190 356
internal_count=4245 4032 3600 213 1858 1742 432 203 190 356
is_linear=0
shrinkage=0.01


Tree=12
num_leaves=15
num_cat=0
split_feature=31 3 3 3 50 28 18 35 8 4 44 19 28 8
split_gain=0.00585508 0.00249555 0.00301195 0.00225518 0.00185831 0.0017196 0.0014341 0.00141465 0.00133373 0.00257171 0.00124474 0.000895421 0.000868979 0.00049331
threshold=0.007770023821093072 3.5748839402208104 1.8610079241368302 0.70353772380153889 0.0015310478496775744 0.050995768692259753 -0.0041372133463353769 -6.5100000000000042 1036.8750000000002 1.5035714285714306 93.395728034320655 0.021583960030571506 0.021323851657213667 471.62500000000006
decision_type=2 2 2 2 2 2 2 2 2 2 2 2 2 2
left_child=3 2 5 4 6 -2 -1 12 9 -5 -10 -4 -3 -6
right_child=1 7 11 8 13 -7 -8 -9 10 -11 -12 -13 -14 -15
leaf_value=0 -2.9580839179515585e-05 -0.00011571167322526272 2.618486358850464e-05 4.1800692551888334e-05 -1.7894334606190647e-05 0 2.1152418006656527e-05 0 5.7672423814054841e-05 0 0 0 0 0
leaf_weight=575 640 53 198 174 347 416 605 26 196 424 18 109 10.999999999999998 388
leaf_count=575 640 53 198 174 347 416 605 26 196 424 18 109 11 388
internal_value=0 -1.58767e-05 -9.88651e-06 8.96593e-06 1.31437e-06 -1.9171e-05 1.03872e-05 -7.31868e-05 2.33147e-05 8.86782e-06 4.96497e-05 1.22766e-05 -9.86704e-05 -9.16994e-06
internal_weight=0 1453 1363 2727 1915 1056 1180 90 812 598 214 307 64 735
internal_count=4180 1453 1363 2727 1915 1056 1180 90 812 598 214 307 64 735
is_linear=0
shrinkage=0.01


Tree=13
num_leaves=15
num_cat=0
split_feature=7 51 51 49 52 51 8 0 39 33 32 34 52 3
split_gain=0.00503658 0.00339044 0.00321159 0.00286202 0.00477285 0.0027815 0.00555509 0.00238267 0.00221442 0.00178383 0.00126464 0.000545165 0.000752565 0.000209761
threshold=0.0051818420693698465 230.14300000000003 343.18980000000005 224.90625000000003 0.02789717871909456 384.05610000000007 680.22500000000014 372.09745241409507 0.0052446691759818883 0.91890616067902864 3.4683392857142903 0.19458195759143124 -0.039346837603937236 1.9440094140185058
decision_type=2 2 2 2 2 2 2 2 2 2 2 2 2 2
left_child=5 3 8 13 -5 6 9 -8 -3 -1 -4 -7 -13 -2
right_child=1 2 10 4 -6 11 7 -9 -10 -11 -12 12 -14 -15
leaf_value=1.750948374709409e-05 -1.1028591255440807e-05 0 1.0343370761414614e-05 8.3748327166721949e-05 0 0 4.7292513098302521e-05 0 -5.0226688356852235e-05 -3.2780690876018235e-06 -2.3836168233441657e-05 0 -3.5462765480461983e-05 0
leaf_weight=556 239 182 268 109 37 103 536 146 462 1178 172 13.999999999999998 165 28
leaf_count=556 239 182 268 109 37 103 536 146 462 1178 172 14 165 28
internal_value=0 -1.40118e-05 -2.39751e-05 4.87621e-06 4.43926e-05 8.81663e-06 1.30271e-05 3.75305e-05 -3.82895e-05 1.658e-06 0 -1.66131e-05 -2.71866e-05 -5.50876e-06
internal_weight=0 1497 1084 413 146 2698 2416 682 644 1734 440 282 179 267
internal_count=4195 1497 1084 413 146 2698 2416 682 644 1734 440 282 179 267
is_linear=0
shrinkage=0.01


Tree=14
num_leaves=16
num_cat=0
split_feature=31 28 33 27 47 8 39 47 30 39 32 39 8 32 8
split_gain=0.00709096 0.00218663 0.00182593 0.00172796 0.00209466 0.00157431 0.00155324 0.00160245 0.00111753 0.0014082 0.000893791 0.00059333 0.000854103 0.000509409 4.46038e-05
threshold=0.007770023821093072 -0.017027492189729428 1.0104927998507571 0.12207670452848425 44.837815319965877 1257.8500000000001 0.0048718405089298814 26.371091404995209 0.089302268552331934 0.0051331419990917259 1.4924107142857157 0.0036746775116062269 341.62500000000006 1.6296250000000012 755.27500000000009
decision_type=2 2 2 2 2 2 2 2 2 2 2 2 2 2 2
left_child=2 6 8 5 -5 -3 14 -8 10 -10 -1 12 -4 -13 -2
right_child=1 3 11 4 -6 -7 7 -9 9 -11 -12 13 -14 -15 -16
leaf_value=0 -6.9216759782884724e-06 1.8190125506210436e-05 0 -4.1291750869500564e-05 0 -2.0928356426519416e-05 0 -5.1901487296134897e-05 1.3416581705488459e-05 -1.5460583058616681e-05 2.8378488079030834e-05 1.3115069357060884e-05 -2.0876840317140268e-05 0 0
leaf_weight=343 93 385 63 223 115 90 129 386 486 223 720 329 319 263 73
leaf_count=343 93 385 63 223 115 90 129 386 486 223 720 329 319 263 73
internal_value=0 -1.85371e-05 8.45276e-06 -3.05314e-06 -2.24841e-05 4.4609e-06 -3.26146e-05 -4.13286e-05 1.46204e-05 1.02305e-07 2.14809e-05 0 -1.18513e-05 3.09343e-06 0
internal_weight=0 1494 2746 813 338 475 681 515 1772 709 1063 974 382 592 166
internal_count=4240 1494 2746 813 338 475 681 515 1772 709 1063 974 382 592 166
is_linear=0
shrinkage=0.01


Tree=15
num_leaves=16
num_cat=0
split_feature=31 47 39 3 36 30 8 21 50 0 33 43 27 47 32
split_gain=0.00618918 0.00269471 0.00201202 0.00156379 0.00131177 0.00165791 0.0012803 0.00148115 0.000832464 0.000832066 0.000663982 0.000641045 0.000517362 0.000390095 4.17982e-05
threshold=0.0072401977105527116 23.660574771258982 0.0036746775116062269 -0.21026185614248524 1.198939984353725 -0.065837050423104407 427.05000000000007 0.0028949984099464507 0.010904622195334482 381.48979829521858 1.0104927998507571 72.549019524862018 -0.14368653169539372 48.256843246841477 1.1534821428571445
decision_type=2 2 2 2 2 2 2 2 2 2 2 2 2 2 2
left_child=2 3 10 9 5 -3 14 -8 -5 -2 12 -12 -1 -6 -4
right_child=1 4 6 8 13 -7 7 -9 -10 -11 11 -13 -14 -15 -16
leaf_value=0 0 -5.5404251265802762e-06 0 3.5479852739801498e-05 -1.1162536915050644e-05 -3.8946316291521168e-05 2.7616873102366235e-05 0 0 -3.7251031636947497e-05 0 -2.9915194273986706e-05 1.6274236377318378e-05 5.54725682484348e-06 -5.8993918858389064e-06
leaf_weight=75 136 543 92 188 268 567 1021 329 63 67 204 131 245 182 120
leaf_count=75 136 543 92 188 268 567 1021 329 63 67 204 131 245 182 120
internal_value=0 -1.2555e-05 1.16602e-05 3.94375e-06 -1.92795e-05 -2.53089e-05 1.7938e-05 2.16131e-05 2.47277e-05 -6.98312e-06 0 -1.26022e-05 6.41645e-06 0 0
internal_weight=0 2014 2217 454 1560 1110 1562 1350 251 203 655 335 320 450 212
internal_count=4231 2014 2217 454 1560 1110 1562 1350 251 203 655 335 320 450 212
is_linear=0
shrinkage=0.01


Tree=16
num_leaves=13
num_cat=0
split_feature=32 33 40 47 47 8 18 27 49 52 20 47
split_gain=0.00497667 0.00357205 0.00220954 0.00199541 0.00243696 0.00168335 0.001574 0.00157127 0.00106293 0.000812985 0.000285468 3.0819e-06
threshold=3.355928571428572 0.99415284121759562 1.1478669617939141 20.839556206158566 48.790878520623941 1522.6500000000003 -0.0084784055078603298 0.077110835887690646 333.70075000000008 0.00021872958319880121 -0.031129039932593857 52.235989200577364
decision_type=2 2 2 2 2 2 2 2 2 2 2 2
left_child=1 6 5 9 -5 8 10 -8 -2 -3 -1 -4
right_child=2 3 11 4 -6 -7 7 -9 -10 -11 -12 -13
leaf_value=1.1359861787709701e-06 0 0 3.0062966358703197e-06 -1.7038780988605206e-05 5.7834488732254134e-06 0 2.8742850882514638e-05 3.3084029806205793e-06 -7.5381787128623771e-05 3.2329627314713733e-05 -1.1074410455019219e-05 0
leaf_weight=63 26 116 34 1299 484 65 834 783 164 159 232 12.999999999999998
leaf_count=63 26 116 34 1299 484 65 834 783 164 159 232 13
internal_value=0 3.92098e-06 -3.80292e-05 -4.12995e-06 -9.16119e-06 -5.07821e-05 1.41554e-05 1.82829e-05 -6.59249e-05 1.75771e-05 0 0
internal_weight=0 3970 302 2058 1783 255 1912 1617 190 275 295 47
internal_count=4272 3970 302 2058 1783 255 1912 1617 190 275 295 47
is_linear=0
shrinkage=0.01


Tree=17
num_leaves=14
num_cat=0
split_feature=7 30 51 36 32 9 34 27 0 47 7 47 2
split_gain=0.00591556 0.00293371 0.00248636 0.00192731 0.00143192 0.00142662 0.00154681 0.00079313 0.000902031 0.000751578 0.000737652 0.000847006 0.000623164
threshold=0.0065291522537873417 -0.361959972675927 384.51160000000004 0.91781952426200764 1.2981250000000022 5.7450000000000054 -1.1553639840981018 -0.73718641980412059 235.4746361176544 27.196518329196525 0.0060122786370918014 17.939539432544304 -1.2954819671039386
decision_type=2 2 2 2 2 2 2 2 2 2 2 2 2
left_child=2 7 3 9 -5 6 -3 8 -2 -1 11 -4 -9
right_child=1 5 10 4 -6 -7 -8 12 -10 -11 -12 -13 -14
leaf_value=8.7660618568183333e-06 0 0 0 0 1.9353528357907731e-05 0 -6.6010480049334837e-05 0 -3.7450591075086427e-05 -5.8245447478027785e-06 0 -2.8152724942092966e-05 3.978846740500939e-05
leaf_weight=551 15.999999999999998 28 55 340 1421 19 257 51 103 967 51 344 55
leaf_count=551 16 28 55 340 1421 19 257 51 103 967 51 344 55
internal_value=0 -3.16368e-05 4.07703e-06 7.7384e-06 1.4864e-05 -5.20207e-05 -5.8197e-05 0 -2.13718e-05 0 -1.59328e-05 -2.17053e-05 1.53236e-05
internal_weight=0 529 3729 3279 1761 304 285 225 119 1518 450 399 106
internal_count=4258 529 3729 3279 1761 304 285 225 119 1518 450 399 106
is_linear=0
shrinkage=0.01


Tree=18
num_leaves=15
num_cat=0
split_feature=7 33 18 30 51 51 38 39 39 10 25 51 7 39
split_gain=0.00482781 0.00296831 0.00218843 0.00163185 0.0013848 0.00161224 0.00136545 0.00128045 0.0016751 0.000937354 0.000481951 0.000236761 0.000279167 0.000103148
threshold=0.006665063496656215 1.0104927998507571 -0.0084784055078603298 0.39459919173031799 230.14300000000003 421.40390000000008 -0.51433256329199406 0.0052061193384196252 0.0055922205634624505 0.0076456468150576488 -0.014602729432417057 220.73250000000004 0.0069230587023333592 0.007893452942143794
decision_type=2 2 2 2 2 2 2 2 2 2 2 2 2 2
left_child=1 2 10 -4 11 6 -6 9 -9 -3 -1 13 -13 -2
right_child=4 7 3 -5 5 -7 -8 8 -10 -11 -12 12 -14 -15
leaf_value=0 -2.5196671052843888e-05 -7.3687608672621949e-06 2.1556429704829866e-05 0 0 0 -4.9909047492357878e-05 -4.8548600261083579e-05 0 9.4975613978770001e-06 -1.4070184883366196e-05 0 3.2119452936747369e-05 0
leaf_weight=30 29 814 1468 238 15.999999999999998 24 348 142 182 549 290 17 42 9.9999999999999982
leaf_count=30 29 814 1468 238 16 24 348 142 182 549 290 17 42 10
internal_value=0 3.74021e-06 1.23576e-05 1.74416e-05 -2.9771e-05 -3.83006e-05 -4.47932e-05 -4.83071e-06 -2.27278e-05 0 -5.37155e-06 0 1.62031e-05 -1.44463e-05
internal_weight=0 3713 2026 1706 486 388 364 1687 324 1363 320 98 59 39
internal_count=4199 3713 2026 1706 486 388 364 1687 324 1363 320 98 59 39
is_linear=0
shrinkage=0.01


Tree=19
num_leaves=10
num_cat=0
split_feature=32 47 8 33 22 1 30 32 20
split_gain=0.00586446 0.00390479 0.00287644 0.00245661 0.00352012 0.00214839 0.00158906 0.00135165 0.00066678
threshold=3.5520892857142869 17.624447496762752 1522.6500000000003 1.0191172683170666 0.89968728598599068 331.46754116340742 -0.34904067917493914 1.5633928571428566 -0.020888178912852381
decision_type=2 2 2 2 2 2 2 2 2
left_child=1 7 5 4 -3 -2 -5 -1 -9
right_child=2 3 -4 6 -6 -7 -8 8 -10
leaf_value=0 0 0 0 5.0613781883748261e-06 3.1787406490113866e-05 -9.4328055984821456e-05 -1.4227755755747966e-05 0 4.5109762683033337e-05
leaf_weight=106 17 1452 70 355 479 115 1301 9.9999999999999982 324
leaf_count=106 17 1452 70 355 479 115 1301 10 324
internal_value=0 4.08455e-06 -5.08051e-05 0 8.27049e-06 -7.82713e-05 -8.28117e-06 3.22477e-05 4.21237e-05
internal_weight=0 4027 202 3587 1931 132 1656 440 334
internal_count=4229 4027 202 3587 1931 132 1656 440 334
is_linear=0
shrinkage=0.01


Tree=20
num_leaves=11
num_cat=0
split_feature=39 47 40 8 33 32 39 20 20 10
split_gain=0.00507495 0.00344975 0.00293992 0.00244337 0.00183394 0.00168911 0.00157062 0.000993015 0.000898376 0.000822588
threshold=0.0083385779117740744 17.624447496762752 0.98167604776992079 832.52500000000009 0.98920784132879491 4.5663928571428647 0.0052304504336295916 -0.014450982599365557 -0.055045423557730781 0.011745332287419577
decision_type=2 2 2 2 2 2 2 2 2 2
left_child=1 7 4 -2 -3 8 -4 -1 -5 -9
right_child=3 2 6 5 -6 -7 -8 9 -10 -11
leaf_value=0 0 1.6987230957290407e-05 -6.0756659047414495e-07 0 -1.5442684734910539e-06 0 -2.3190551367101203e-05 3.8410898874133966e-05 -0.00011311587565537218 0
leaf_weight=46 43 1158 1417 9.9999999999999982 504 10.999999999999998 555 382 76 26
leaf_count=46 43 1158 1417 10 504 11 555 382 76 26
internal_value=0 3.01712e-06 0 -5.79589e-05 9.56287e-06 -8.58091e-05 -8.4854e-06 2.9011e-05 -0.00010132 3.43487e-05
internal_weight=0 4088 3634 140 1662 97 1972 454 86 408
internal_count=4228 4088 3634 140 1662 97 1972 454 86 408
is_linear=0
shrinkage=0.01


Tree=21
num_leaves=15
num_cat=0
split_feature=31 18 27 8 28 20 0 51 8 0 3 16 20 39
split_gain=0.00484205 0.00270514 0.00385813 0.00279402 0.00189867 0.00165851 0.00150375 0.00652271 0.00212538 0.00231025 0.00194315 0.0010754 0.000804515 0.000173385
threshold=0.0073558674315603945 -0.011774007772481164 0.0085052601764406838 1072.3000000000002 -0.12303424150261609 -0.043424004582628732 225.58807626895978 198.12750000000003 680.22500000000014 371.33388327820001 -0.69412589681791848 0.0069542392551612551 -0.028465647717893335 0.0048449501965105776
decision_type=2 2 2 2 2 2 2 2 2 2 2 2 2 2
left_child=6 5 4 -4 -3 -2 7 13 10 -10 -8 -7 -9 -1
right_child=1 2 3 -5 -6 11 8 12 9 -11 -12 -13 -14 -15
leaf_value=6.2280812973384472e-06 0 -1.3707499779663742e-05 -3.0917835258993835e-05 0 2.4020372833801162e-05 -4.6440202491965987e-05 1.4837678049112243e-05 0 3.225084645040636e-05 0 -1.5269486367116543e-05 0 7.9246614284002578e-05 -2.2758630901045974e-06
leaf_weight=437 78 68 562 290 538 352 233 10.999999999999998 424 278 691 11.999999999999998 180 74
leaf_count=437 78 68 562 290 538 352 233 11 424 278 691 12 180 74
internal_value=0 -1.0784e-05 -1.94278e-06 -1.73978e-05 1.48356e-05 -3.3155e-05 1.06412e-05 2.38183e-05 3.10622e-06 1.72983e-05 -4.43034e-06 -4.23114e-05 7.41454e-05 0
internal_weight=0 1900 1458 852 606 442 2328 702 1626 702 924 364 191 511
internal_count=4228 1900 1458 852 606 442 2328 702 1626 702 924 364 191 511
is_linear=0
shrinkage=0.01


Tree=22
num_leaves=16
num_cat=0
split_feature=31 39 47 31 39 8 1 49 30 31 31 51 32 39 3
split_gain=0.00498095 0.00196389 0.00191329 0.0021892 0.0014528 0.00114527 0.00103259 0.000946848 0.000706003 0.000824227 0.000704195 0.000515021 0.000482268 0.000154126 6.16636e-05
threshold=0.007770023821093072 0.005004299821030977 24.090517957194105 0.012616160577046081 0.0036849010874084646 424.55000000000007 385.04654036258114 227.58625000000004 -0.13743499897946679 0.0081686790224872637 0.0048928868490581119 185.20400000000004 2.0269642857142895 0.0043020011691673726 -1.3063306902526435
decision_type=2 2 2 2 2 2 2 2 2 2 2 2 2 2 2
left_child=4 8 14 -4 7 13 -7 11 9 -2 -9 -1 -10 -6 -3
right_child=1 2 3 -5 5 6 -8 10 12 -11 -12 -13 -14 -15 -16
leaf_value=0 0 0 -3.3769659524800741e-05 0 0 1.8587445895255862e-05 0 0 -2.0846547944453228e-05 3.7985336635296898e-05 -2.0466424975066406e-05 2.0700648693640706e-05 0 -1.0760904847346717e-05 6.3463911384643398e-06
leaf_weight=114 48 58 785 43 95 1657 171 66 124 102 343 170 156 133 153
leaf_count=114 48 58 785 43 95 1657 171 66 124 102 343 170 156 133 153
internal_value=0 -1.4018e-05 -2.1606e-05 -2.85799e-05 8.72862e-06 1.31349e-05 1.60216e-05 -1.56562e-08 0 2.07931e-05 -1.33853e-05 8.67672e-06 -4.51281e-06 0 0
internal_weight=0 1469 1039 828 2749 2056 1828 693 430 150 409 284 280 228 211
internal_count=4218 1469 1039 828 2749 2056 1828 693 430 150 409 284 280 228 211
is_linear=0
shrinkage=0.01


Tree=23
num_leaves=16
num_cat=0
split_feature=31 30 8 8 39 8 18 30 52 50 9 40 33 32 27
split_gain=0.00611227 0.00225846 0.00238334 0.00374817 0.00204017 0.00186985 0.00182315 0.00179832 0.0015034 0.00302202 0.00161683 0.000496218 0.000652497 0.00038992 6.86327e-05
threshold=0.007770023821093072 -0.36897561135162282 1257.8500000000001 1684.7500000000002 0.0036477653014961166 424.55000000000007 -0.011774007772481164 0.41080246016695504 0.0058286693545270508 0.011118160557417036 4.7599999999999918 1.0054486789722887 1.0161158625461051 1.1678571428571403 -0.12624930272133186
decision_type=2 2 2 2 2 2 2 2 2 2 2 2 2 2 2
left_child=4 2 6 -4 11 13 -2 -7 10 -10 -3 14 -13 -6 -1
right_child=1 8 3 -5 5 7 -8 -9 9 -11 -12 12 -14 -15 -16
leaf_value=0 0 -4.5542947052231164e-05 -7.4872864301359849e-05 0 0 2.3189922500351262e-05 3.9082782746077268e-05 0 1.3151442058931964e-05 -2.8015927543443994e-05 0 0 -2.1304653024530593e-05 -1.8765224972306644e-05 5.7847256213017923e-06
leaf_weight=55 121 416 90 31 115 1535 190 346 245 364 31 103 261 116 205
leaf_count=55 121 416 90 31 115 1535 190 346 245 364 31 103 261 116 205
internal_value=0 -1.53616e-05 0 -3.27993e-05 9.75241e-06 1.47675e-05 1.86369e-05 1.85272e-05 -2.33742e-05 -6.5296e-06 -3.96071e-05 -2.41463e-06 -1.20946e-05 -2.86029e-06 0
internal_weight=0 1488 432 121 2736 2112 311 1881 1056 609 447 624 364 231 260
internal_count=4224 1488 432 121 2736 2112 311 1881 1056 609 447 624 364 231 260
is_linear=0
shrinkage=0.01


Tree=24
num_leaves=11
num_cat=0
split_feature=39 18 30 8 4 39 40 4 26 30
split_gain=0.00616444 0.00267751 0.00454237 0.00240686 0.00240123 0.00201718 0.00209261 0.00170697 0.00116328 0.000210991
threshold=0.0084936449355245847 -0.0041372133463353769 -1.0000000180025095e-35 832.52500000000009 4.431071428571431 0.0048582564496653146 0.94866722451170415 1.6821428571428594 0.018667538781770691 -0.44703423286966765
decision_type=2 2 2 2 2 2 2 2 2 2
left_child=1 5 8 -2 -5 9 -7 -4 -3 -1
right_child=3 2 7 4 -6 6 -8 -9 -10 -11
leaf_value=1.2833864849915396e-05 0 2.7933731622076343e-05 9.3728680156888752e-06 -0.00012086808828853182 0 0 -3.5169178613734339e-05 -1.0242969093002256e-05 0 0
leaf_weight=128 46 965 776 74 9.9999999999999982 251 413 977 25 557
leaf_count=128 46 965 776 74 10 251 413 977 25 557
internal_value=0 1.89652e-06 8.15655e-06 -6.80081e-05 -0.000100084 -8.60831e-06 -2.1314e-05 0 2.53594e-05 0
internal_weight=0 4092 2743 130 84 1349 664 1753 990 685
internal_count=4222 4092 2743 130 84 1349 664 1753 990 685
is_linear=0
shrinkage=0.01


Tree=25
num_leaves=16
num_cat=0
split_feature=31 3 23 9 44 18 28 33 0 8 35 20 39 0 20
split_gain=0.00477497 0.00208884 0.00313585 0.00206133 0.00165792 0.00135086 0.00127145 0.00122816 0.00110875 0.00103741 0.000594209 0.000304286 0.000378538 3.40694e-05 2.62502e-05
threshold=0.007770023821093072 1.8610079241368302 0.01240146261830804 3.4250000000000118 43.219449742720535 0.022165078256354723 0.11379986940513027 1.0700745776512226 386.03045430457848 685.37500000000011 -3.2999999999999967 0.029352549851974889 0.0036746775116062269 373.92960075083761 0.046890340354657785
decision_type=2 2 2 2 2 2 2 2 2 2 2 2 2 2 2
left_child=7 3 4 6 -3 -4 -2 8 9 -1 -10 12 -9 -5 -13
right_child=1 2 5 13 -6 -7 -8 11 10 -11 -12 14 -14 -15 -16
leaf_value=5.8411819423802221e-06 -3.5938346582212704e-05 0 -7.5130784523983721e-05 5.4405698327229925e-06 3.3998595627168466e-05 0 0 -1.9415344694252057e-05 0 2.6280603151044408e-05 -2.2969568484491076e-05 5.0705299046493524e-06 0 0 0
leaf_weight=1437 680 85 60 115 238 17 199 189 42 615 116 102 238 92 19
leaf_count=1437 680 85 60 115 238 17 199 189 42 615 116 102 238 92 19
internal_value=0 -1.50416e-05 0 -2.24032e-05 1.84034e-05 -5.14582e-05 -2.9233e-05 7.15669e-06 1.08688e-05 1.34299e-05 -3.40552e-06 -2.3395e-06 -8.84695e-06 0 0
internal_weight=0 1486 400 1086 323 77 879 2758 2210 2052 158 548 427 207 121
internal_count=4244 1486 400 1086 323 77 879 2758 2210 2052 158 548 427 207 121
is_linear=0
shrinkage=0.01


Tree=26
num_leaves=14
num_cat=0
split_feature=7 51 4 47 33 2 32 31 20 32 51 2 49
split_gain=0.00450928 0.00339805 0.00376829 0.00299851 0.00254212 0.00267717 0.00214122 0.00210277 0.000815072 0.000689753 0.000163653 0.00056516 4.08664e-06
threshold=0.0069765430546388446 233.51900000000001 3.9667857142857224 16.779197883311568 1.0161158625461051 0.89968728598599068 1.6435714285714316 0.0082319430876688967 -0.014450982599365557 0.95651785714285975 220.73250000000004 -0.82314335378285353 337.84550000000007
decision_type=2 2 2 2 2 2 2 2 2 2 2 2 2
left_child=3 10 7 8 5 -5 -6 -3 -1 -10 -2 -12 -4
right_child=1 2 12 4 6 -7 -8 -9 9 -11 11 -13 -14
leaf_value=0 0 0 3.7474587296265378e-06 0 3.3778988095112901e-07 2.8477351615282624e-05 -1.9591443162321004e-05 -7.9575384020290132e-05 0 4.0682699979459643e-05 0 4.4322199645675622e-05 0
leaf_weight=31 31 24 29 1394 675 480 903 212 29 293 19 37 47
leaf_count=31 31 24 29 1394 675 480 903 212 29 293 19 37 47
internal_value=0 -3.22915e-05 -4.92156e-05 3.02292e-06 0 8.05591e-06 -9.16608e-06 -6.92671e-05 3.07842e-05 3.59434e-05 0 1.70797e-05 0
internal_weight=0 399 312 3805 3452 1874 1578 236 353 322 87 56 76
internal_count=4204 399 312 3805 3452 1874 1578 236 353 322 87 56 76
is_linear=0
shrinkage=0.01


Tree=27
num_leaves=14
num_cat=0
split_feature=31 30 33 18 1 18 7 8 0 30 35 51 8
split_gain=0.0048544 0.00346311 0.00249212 0.00230545 0.00207789 0.00196868 0.00237427 0.00176132 0.00249315 0.00166311 0.000776008 0.000749003 0.00051317
threshold=0.0080058530367996383 -0.023271757080067155 1.0647317391003532 -0.0046653880173055376 385.04654036258114 0.022784642604731346 0.0052093019383810954 685.37500000000011 225.58807626895978 0.51767038180731173 -3.4500000000000024 363.98870000000005 787.6500000000002
decision_type=2 2 2 2 2 2 2 2 2 2 2 2 2
left_child=4 2 3 -2 7 6 -3 8 -1 -9 -6 -4 -12
right_child=1 5 11 -5 10 -7 -8 9 -10 -11 12 -13 -14
leaf_value=1.7025515874407567e-05 -4.415358654845783e-05 0 2.6588549484958064e-05 0 0 0 -5.1885014052232267e-05 3.0683750273449533e-05 -5.2615964367358005e-06 0 0 0 -3.5085909533853161e-05
leaf_weight=812 189 133 263 129 63 76 424 624 1049 124 21 80 163
leaf_count=812 189 133 263 129 63 76 424 624 1049 124 21 80 163
internal_value=0 -1.67042e-05 0 -2.0837e-05 6.59822e-06 -3.34271e-05 -4.02887e-05 9.98777e-06 2.85126e-06 2.37303e-05 -1.70535e-05 1.79947e-05 -2.84931e-05
internal_weight=0 1294 661 318 2856 633 557 2609 1861 748 247 343 184
internal_count=4150 1294 661 318 2856 633 557 2609 1861 748 247 343 184
is_linear=0
shrinkage=0.01


Tree=28
num_leaves=14
num_cat=0
split_feature=31 47 47 0 49 31 39 8 49 1 5 28 30
split_gain=0.0055979 0.00181296 0.00174027 0.00193693 0.0035468 0.00168591 0.00216734 0.00126533 0.00120865 0.00074859 0.00040397 0.000386605 3.09832e-05
threshold=0.007770023821093072 19.743122718307543 17.780465069240645 225.58807626895978 204.94500000000002 0.012966393541161877 0.0049493790917386126 418.10000000000008 231.33125000000004 385.04654036258114 -1.8149999999999975 0.19797087252588266 -0.38386165199707722
decision_type=2 2 2 2 2 2 2 2 2 2 2 2 2
left_child=2 10 7 4 -4 6 -3 -1 -5 -9 -2 -12 -7
right_child=1 5 3 8 -6 12 -8 9 -10 -11 11 -13 -14
leaf_value=0 0 0 0 -2.8434574174230777e-05 5.6351707662197236e-05 1.878561604934842e-05 -3.2293659834708286e-05 4.5936072004736892e-05 5.2775522126000665e-07 0 2.6239059197376175e-05 0 0
leaf_weight=60 64 358 522 149 184 20.000000000000004 889 253 1529 36 115 21 10.999999999999998
leaf_count=60 64 358 522 149 184 20 889 253 1529 36 115 21 11
internal_value=0 -1.57097e-05 8.44682e-06 3.90472e-06 1.80454e-05 -2.06667e-05 -2.38687e-05 3.08701e-05 -2.57794e-07 3.9855e-05 9.67992e-07 1.72684e-05 1.13338e-05
internal_weight=0 1478 2733 2384 706 1278 1247 349 1678 289 200 136 31
internal_count=4211 1478 2733 2384 706 1278 1247 349 1678 289 200 136 31
is_linear=0
shrinkage=0.01


Tree=29
num_leaves=16
num_cat=0
split_feature=31 0 0 8 39 23 3 8 8 32 8 3 52 7 3
split_gain=0.00519181 0.00188987 0.00521991 0.0022798 0.00182088 0.00171711 0.0014659 0.00140322 0.00348566 0.00249096 0.00169195 0.0012834 0.000946006 0.000448057 2.24294e-05
threshold=0.007770023821093072 225.58807626895978 205.21683931789275 1045.1750000000004 0.0065797668153950795 -0.0027248976197586411 -0.35349897077233999 1330.575 1522.6500000000003 3.1292500000000065 601.95000000000016 1.6495087988177717 0.038777342018640672 0.0034303205600344729 2.4930392867680484
decision_type=2 2 2 2 2 2 2 2 2 2 2 2 2 2 2
left_child=1 2 13 5 -4 -3 -5 10 9 -9 11 -2 -12 -1 -10
right_child=7 3 4 6 -6 -7 -8 8 14 -11 12 -13 -14 -15 -16
leaf_value=1.493063052833626e-05 -3.4888594927190006e-05 1.4837960977308412e-05 7.3174274829530472e-05 0 0 -8.6489923486528399e-06 3.8018326064905363e-05 0 0 -0.00010336772101576462 2.6173198368423318e-06 0 -3.4202719188252323e-05 0 -6.3801867806140568e-06
leaf_weight=203 302 358 200 56 9.9999999999999982 1317 257 12.999999999999998 79 94 814 17 76 391 55
leaf_count=203 302 358 200 56 10 1317 257 13 79 94 814 17 76 391 55
internal_value=0 8.06325e-06 2.13877e-05 1.16472e-06 6.50611e-05 -1.83757e-06 2.68083e-05 -1.52593e-05 -4.11261e-05 -8.40364e-05 -7.61888e-06 -2.73893e-05 0 8.89564e-07 0
internal_weight=0 2792 804 1988 210 1675 313 1450 241 107 1209 319 890 594 134
internal_count=4242 2792 804 1988 210 1675 313 1450 241 107 1209 319 890 594 134
is_linear=0
shrinkage=0.01


Tree=30
num_leaves=15
num_cat=0
split_feature=31 23 32 3 30 27 33 2 3 39 5 36 17 35
split_gain=0.00471095 0.0022757 0.00409747 0.00362405 0.00205952 0.00174239 0.0015431 0.00143987 0.00153109 0.00120103 0.00054831 0.00023677 0.000346533 0.000287694
threshold=0.0077307245809896692 0.01339375388771287 1.7075000000000007 1.8610079241368302 -0.3344171267611275 -0.48231400969065857 1.0202051397270389 0.89968728598599068 -0.69412589681791848 0.005569453578327715 12.004999999999997 1.0042136909249011 0.0066596275750281384 0.89999999999999158
decision_type=2 2 2 2 2 2 2 2 2 2 2 2 2 2
left_child=6 3 -3 4 -2 -5 7 8 -1 -9 -4 13 -13 -8
right_child=1 2 10 5 -6 -7 11 9 -10 -11 -12 12 -14 -15
leaf_value=2.2147138623062034e-05 0 0 -0.00015363741112380205 0 -2.833569062559516e-05 3.1012489744319738e-05 -1.2830482198845788e-05 3.8971412704383828e-05 0 0 0 1.1190192508163683e-05 0 0
leaf_weight=431 375 14.999999999999998 36 83 722 269 303 379 987 57 9.9999999999999982 297 142 127
leaf_count=431 375 15 36 83 722 269 303 379 987 57 10 297 142 127
internal_value=0 -1.30195e-05 -7.96415e-05 -8.13929e-06 -1.84592e-05 1.54984e-05 8.90024e-06 1.41269e-05 6.41421e-06 3.23243e-05 -0.00013151 0 2.40969e-06 -7.0087e-06
internal_weight=0 1510 61 1449 1097 352 2723 1854 1418 436 46 869 439 430
internal_count=4233 1510 61 1449 1097 352 2723 1854 1418 436 46 869 439 430
is_linear=0
shrinkage=0.01


Tree=31
num_leaves=15
num_cat=0
split_feature=31 23 3 4 47 49 0 49 8 49 23 20 5 7
split_gain=0.00555163 0.00187073 0.00366266 0.0033669 0.00226957 0.00216517 0.00122901 0.00649096 0.00214955 0.00313699 0.0015614 0.00137371 0.000400102 0.000224514
threshold=0.007770023821093072 0.01339375388771287 1.8148265037669444 2.4210714285714259 38.042888611407584 322.54300000000006 225.58807626895978 204.94500000000002 680.22500000000014 370.39675000000005 -0.0025793910349610262 -0.028465647717893335 12.004999999999997 0.003544705403222092
decision_type=2 2 2 2 2 2 2 2 2 2 2 2 2 2
left_child=6 2 4 -3 -2 -4 7 13 10 -10 -8 -9 -5 -1
right_child=1 3 5 12 -6 -7 8 11 9 -11 -12 -13 -14 -15
leaf_value=8.652757807680388e-06 -3.381837136884775e-05 0 3.8038473122905441e-05 -0.00016978860802680418 0 0 8.5546715390825999e-06 0 3.0274802614899633e-05 -9.1821669149769807e-07 -1.5471855299664082e-05 7.2865584036661387e-05 0 -4.038033758401148e-06
leaf_weight=222 658 26 177 27 405 185 237 13.999999999999998 524 410 791 197 9.9999999999999982 357
leaf_count=222 658 26 177 27 405 185 237 14 524 410 791 197 10 357
internal_value=0 -1.67326e-05 -1.18219e-05 -8.00696e-05 -2.22373e-05 1.04753e-05 7.12622e-06 1.81408e-05 1.16151e-06 1.33717e-05 -7.01437e-06 6.56242e-05 -0.000141348 0
internal_weight=0 1488 1425 63 1063 362 2752 790 1962 934 1028 211 37 579
internal_count=4240 1488 1425 63 1063 362 2752 790 1962 934 1028 211 37 579
is_linear=0
shrinkage=0.01


Tree=32
num_leaves=14
num_cat=0
split_feature=31 47 1 32 47 23 30 34 31 40 20 43 4
split_gain=0.00518157 0.00229107 0.00199181 0.00219587 0.00195481 0.00278131 0.00155056 0.00124789 0.000694638 0.000689964 0.000578555 0.00100295 0.000505533
threshold=0.007770023821093072 22.978886608433395 385.04654036258114 1.4146428571428578 43.889554009339882 0.01339375388771287 0.0089209836355225915 -2.4731402926927459 0.007635647313649639 0.78192495254571492 -0.01077068197408476 77.740625619105245 1.1500000000000028
decision_type=2 2 2 2 2 2 2 2 2 2 2 2 2
left_child=2 10 3 12 7 -6 -5 -3 9 -4 -2 -12 -1
right_child=1 4 8 6 5 -7 -8 -9 -10 -11 11 -13 -14
leaf_value=7.2016384447802164e-06 0 0 0 3.0265360200226206e-05 1.5161383987497783e-08 -7.0610561194570662e-05 5.2439786589101517e-06 -3.7696068734995166e-05 0 -3.5040900018313861e-05 3.3731362536336725e-05 0 -7.9770176577041648e-06
leaf_weight=377 70 42 33 757 521 56 918 609 21 155 142 58 487
leaf_count=377 70 42 33 757 521 56 918 609 21 155 142 58 487
internal_value=0 -1.46438e-05 8.46464e-06 1.16413e-05 -2.11013e-05 -1.65197e-06 1.83442e-05 -3.37294e-05 -1.5767e-05 -2.54095e-05 3.61572e-06 1.75151e-05 0
internal_weight=0 1498 2748 2539 1228 577 1675 651 209 188 270 200 864
internal_count=4246 1498 2748 2539 1228 577 1675 651 209 188 270 200 864
is_linear=0
shrinkage=0.01


Tree=33
num_leaves=16
num_cat=0
split_feature=31 52 0 0 8 0 3 20 4 47 31 50 31 27 3
split_gain=0.00367294 0.00215071 0.00194276 0.00463898 0.00205051 0.00213934 0.00180183 0.00162379 0.0015554 0.00146604 0.0013736 0.00134348 0.000388332 0.000199293 2.06786e-06
threshold=0.007770023821093072 0.0058286693545270508 225.58807626895978 205.21683931789275 680.22500000000014 371.33388327820001 3.9948158646053273 -0.028465647717893335 3.9667857142857224 51.925142047775779 0.0060998469317368248 0.014423287542017887 0.0060998469317368248 0.61354896825119687 -4.3249385353216239
decision_type=2 2 2 2 2 2 2 2 2 2 2 2 2 2 2
left_child=2 8 3 12 10 -6 11 -5 9 -2 -4 -3 -1 -8 -10
right_child=1 6 4 7 5 -7 13 -9 14 -11 -12 -13 -14 -15 -16
leaf_value=1.0572870421468143e-05 -3.5152119876469169e-05 1.8885103886301511e-05 0 0 2.5603569477184314e-05 0 -6.6502463973858419e-05 6.8415769200224648e-05 0 0 -1.9426913716439668e-05 -5.8880542551178157e-06 -2.5374770169369717e-06 0 2.2430540064753142e-06
leaf_weight=333 618 392 487 13.999999999999998 529 400 42 201 15.999999999999998 114 555 243 248 10.999999999999998 41
leaf_count=333 618 392 487 14 529 400 42 201 16 114 555 243 248 11 41
internal_value=0 -1.29197e-05 6.60562e-06 1.98922e-05 0 1.19606e-05 0 6.01762e-05 -2.41868e-05 -2.90346e-05 -8.32008e-06 4.68188e-06 0 -5.59562e-05 0
internal_weight=0 1477 2767 796 1971 929 688 215 789 732 1042 635 581 53 57
internal_count=4244 1477 2767 796 1971 929 688 215 789 732 1042 635 581 53 57
is_linear=0
shrinkage=0.01


Tree=34
num_leaves=15
num_cat=0
split_feature=7 1 4 33 3 47 47 44 49 3 38 8 2 49
split_gain=0.00447765 0.00282304 0.00451884 0.00240524 0.00289843 0.00134589 0.00177334 0.00125793 0.00120124 0.000892385 0.000882797 4.54652e-05 7.57934e-05 3.93841e-05
threshold=0.0069765430546388446 239.34637014629504 3.9667857142857224 1.0104927998507571 0.65694775289499996 20.312529618780378 46.093528197295313 18.963236753516608 373.5795 -0.21026185614248524 0.41806952582724161 654.6500000000002 1.6779538557221658 337.84550000000007
decision_type=2 2 2 2 2 2 2 2 2 2 2 2 2 2
left_child=3 11 10 4 8 9 -7 -6 -1 -5 -3 -2 -13 -4
right_child=1 2 13 5 7 6 -8 -9 -10 -11 -12 12 -14 -15
leaf_value=6.7149038335074165e-06 0 -8.2326626629596855e-05 1.1633593098802936e-05 0 0 -1.6819211999582585e-05 2.5986802561546701e-06 3.3618549671959651e-05 -1.6820697732671761e-05 2.9937352858175501e-05 0 1.8327473256468695e-05 0 0
leaf_weight=1267 50 181 29 82 46 1049 440 589 229 148 33 36 9.9999999999999982 48
leaf_count=1267 50 181 29 82 46 1049 440 589 229 148 33 36 10 48
internal_value=0 -3.23444e-05 -4.85896e-05 3.33401e-06 1.08742e-05 -4.26838e-06 -9.06679e-06 2.91595e-05 1.1061e-06 1.37488e-05 -7.2943e-05 0 9.93091e-06 0
internal_weight=0 387 291 3850 2131 1719 1489 635 1496 230 214 96 46 77
internal_count=4237 387 291 3850 2131 1719 1489 635 1496 230 214 96 46 77
is_linear=0
shrinkage=0.01


Tree=35
num_leaves=15
num_cat=0
split_feature=31 39 47 31 47 3 6 32 39 35 32 0 30 6
split_gain=0.00508221 0.00254141 0.00253469 0.00288155 0.00221915 0.0015721 0.00170947 0.00138525 0.000904855 0.000581761 0.000152998 0.00199581 0.000360199 6.01742e-06
threshold=0.0082319430876688967 0.0052304504336295916 24.090517957194105 0.012616160577046081 17.624447496762752 0.77668970505846768 -1.5499999999999969 1.5633928571428566 0.0054686908073305436 5.0600000000000032 1.8941071428571419 320.04856257551899 -0.2821308414042249 -1.5499999999999969
decision_type=2 2 2 2 2 2 2 2 2 2 2 2 2 2
left_child=4 10 13 -4 7 6 -6 -1 -7 -9 12 -12 -2 -3
right_child=1 2 3 -5 5 8 -8 9 -10 -11 11 -13 -14 -15
leaf_value=0 0 0 -4.5184483575941727e-05 0 7.5045571454473697e-06 1.9302546770310474e-05 -1.0798615147902896e-05 4.7438984432370042e-05 0 0 5.2453234044726315e-05 0 -1.7846182885402313e-05 2.6284289975617478e-06
leaf_weight=107 39 60 568 41 864 707 1067 242 138 11.999999999999998 78 107 113 87
leaf_count=107 39 60 568 41 864 707 1067 242 138 12 78 107 113 87
internal_value=0 -1.82505e-05 -2.85947e-05 -3.78302e-05 6.77824e-06 2.54022e-06 -1.05562e-06 3.10499e-05 1.43065e-05 4.37633e-05 0 9.09132e-06 -7.84179e-08 0
internal_weight=0 1093 756 609 3137 2776 1931 361 845 254 337 185 152 147
internal_count=4230 1093 756 609 3137 2776 1931 361 845 254 337 185 152 147
is_linear=0
shrinkage=0.01


Tree=36
num_leaves=12
num_cat=0
split_feature=47 7 0 49 47 2 3 3 18 47 3
split_gain=0.00526674 0.00454986 0.00237126 0.00248521 0.00208602 0.00151066 0.00132394 0.00129386 0.00111841 0.00072411 0.000488385
threshold=17.624447496762752 0.004843642432538188 229.90106997205396 224.90625000000003 25.903214575417419 -0.27910629404132686 0.81633894863962075 -1.339189427581486 -0.00026277886980285986 8.3871358773648907 -0.56875189661303105
decision_type=2 2 2 2 2 2 2 2 2 2 2
left_child=5 6 3 -3 -4 -1 7 -2 -8 -7 -11
right_child=1 2 4 -5 -6 9 8 -9 -10 10 -12
leaf_value=0 2.0418092990806661e-05 -1.2651931842666948e-05 0 3.8807785273928297e-05 -3.1233265764232748e-05 0 0 -5.7932043611187395e-06 2.5325755917961641e-05 0 5.0323214161922746e-05
leaf_weight=143 213 319 291 131 1010 30 200 1208 421 9.9999999999999982 273
leaf_count=143 213 319 291 131 1010 30 200 1208 421 10 273
internal_value=0 -5.39766e-06 -1.75548e-05 0 -2.44337e-05 3.03199e-05 3.55831e-06 0 1.59622e-05 4.26807e-05 4.76493e-05
internal_weight=0 3793 1751 450 1301 456 2042 1421 621 313 283
internal_count=4249 3793 1751 450 1301 456 2042 1421 621 313 283
is_linear=0
shrinkage=0.01


Tree=37
num_leaves=15
num_cat=0
split_feature=31 3 47 47 39 49 0 38 31 49 33 9 33 39
split_gain=0.00514825 0.00297949 0.00216548 0.00347223 0.00175099 0.00153492 0.00281736 0.00107438 0.000855094 0.000801977 0.00100042 0.000703806 0.000512419 0.00015245
threshold=0.007770023821093072 3.6927802399175227 44.581824003651782 23.660574771258982 0.0037586307634162215 204.94500000000002 225.58807626895978 -0.30463194498710627 0.0090593682276848241 227.58625000000004 0.9683949441013755 5.3999999999999924 1.1097477854195306 0.0043020011691673726
decision_type=2 2 2 2 2 2 2 2 2 2 2 2 2 2
left_child=4 2 3 -2 9 13 -7 -3 -4 12 -11 -9 -1 -6
right_child=1 7 8 -5 5 6 -8 11 -10 10 -12 -13 -14 -15
leaf_value=1.5963806851840219e-05 1.4043141484839719e-06 0 1.9202459013157704e-05 -3.1811985379159864e-05 0 5.8579421141782901e-05 1.0404267483681291e-05 -0.0001010927550709894 0 0 -2.2741686899294007e-05 0 0 -8.5182640119587357e-06
leaf_weight=245 303 9.9999999999999982 253 656 104 186 1446 68 228 149 329 14.999999999999998 54 210
leaf_count=245 303 10 253 656 104 186 1446 68 228 149 329 15 54 210
internal_value=0 -1.46451e-05 -8.68474e-06 -1.81902e-05 8.26485e-06 1.35995e-05 1.77362e-05 -7.46022e-05 4.03098e-06 -1.23522e-06 -1.21142e-05 -8.67645e-05 6.12478e-06 0
internal_weight=0 1533 1440 959 2723 1946 1632 93 481 777 478 83 299 314
internal_count=4256 1533 1440 959 2723 1946 1632 93 481 777 478 83 299 314
is_linear=0
shrinkage=0.01


Tree=38
num_leaves=16
num_cat=0
split_feature=18 30 39 39 20 40 51 17 25 35 32 32 27 27 35
split_gain=0.00278741 0.00415715 0.00389267 0.00210432 0.00190403 0.00175275 0.00167316 0.00162353 0.00159806 0.00145595 0.000329566 0.000103395 7.5056e-05 5.1015e-05 1.39413e-05
threshold=-0.0095611181617971646 -0.012724978881174425 0.0052061193384196252 0.0047377656198072668 -0.045791627206415712 1.04872218537635 230.32250000000002 0.011660316610811685 -0.005785540570009043 5.5100000000000202 2.658303571428569 1.4218749999999973 -0.25865226606942576 -0.54922392468523851 7.0099999999999918
decision_type=2 2 2 2 2 2 2 2 2 2 2 2 2 2 2
left_child=3 7 5 11 14 -3 -6 8 -2 -4 -9 13 -13 -1 -5
right_child=1 2 9 4 6 -7 -8 10 -10 -11 -12 12 -14 -15 -16
leaf_value=0 0 1.2036521893328725e-05 -3.3910854218076203e-05 5.5598551918548084e-06 0 -9.0258569026785589e-06 -5.0631664963347735e-05 -2.0773053488382861e-05 2.6108845954573449e-05 0 0 9.6937403512734345e-06 0 -9.6933576764584807e-06 0
leaf_weight=9.9999999999999982 190 914 507 45 89 586 321 77 1040 100 36 167 46 77 32
leaf_count=10 190 914 507 45 89 586 321 77 1040 100 36 167 46 77 32
internal_value=0 2.67173e-06 -5.02383e-06 -1.79997e-05 -3.09118e-05 1.80823e-06 -3.99904e-05 1.69782e-05 2.11298e-05 -2.6846e-05 -1.6652e-06 0 6.20189e-06 -4.96013e-06 0
internal_weight=0 3450 2107 787 487 1500 410 1343 1230 607 113 300 213 87 77
internal_count=4237 3450 2107 787 487 1500 410 1343 1230 607 113 300 213 87 77
is_linear=0
shrinkage=0.01


Tree=39
num_leaves=12
num_cat=0
split_feature=47 4 23 3 6 20 20 47 52 5 4
split_gain=0.00437873 0.00281081 0.00462664 0.00170316 0.0012843 0.00157931 0.00127836 0.000926775 0.000758324 0.000721352 0.000633126
threshold=17.624447496762752 2.452500000000005 0.01339375388771287 -0.32858894002851724 -5.900000000000019 0.032338989964207039 -0.018713422299425516 11.159223567548276 0.022008237153159815 9.9900000000000109 1.6964285714285705
decision_type=2 2 2 2 2 2 2 2 2 2 2
left_child=3 4 6 -1 10 -6 -3 -5 -9 -4 -2
right_child=1 2 9 7 5 -7 -8 8 -10 -11 -12
leaf_value=0 0 -3.1206376226301041e-05 -0.00018087440803324505 0 -5.1103676108310531e-06 1.8312561210378967e-05 0 5.7504949006987703e-05 0 0 3.2780600955182889e-05
leaf_weight=164 101 253 23 59 2106 312 742 217 15.999999999999998 10.999999999999998 177
leaf_count=164 101 253 23 59 2106 312 742 217 16 11 177
internal_value=0 -3.97265e-06 -1.81651e-05 2.88295e-05 3.32036e-07 -8.46778e-07 -1.09191e-05 4.33689e-05 5.24835e-05 -0.000141587 2.13693e-05
internal_weight=0 3725 1029 456 2696 2418 995 292 233 34 278
internal_count=4181 3725 1029 456 2696 2418 995 292 233 34 278
is_linear=0
shrinkage=0.01


Tree=40
num_leaves=14
num_cat=0
split_feature=7 1 33 33 0 8 47 32 30 3 2 52 2
split_gain=0.00409054 0.0032932 0.00319115 0.00218062 0.00157825 0.00436588 0.00145257 0.0013102 0.00117083 0.000899892 0.000542874 0.000152596 0.000244739
threshold=0.0069765430546388446 239.34637014629504 1.0191172683170666 1.1583781552497265 374.31323546799888 685.37500000000011 20.312529618780378 4.5663928571428647 -0.19186488124209924 0.45673452729369018 -0.3813710857503167 -0.0060523178618960656 1.5816105310196067
decision_type=2 2 2 2 2 2 2 2 2 2 2 2 2
left_child=2 11 4 7 5 -1 10 -3 -8 -6 -4 -2 -13
right_child=1 3 6 -5 9 -7 8 -9 -10 -11 -12 12 -14
leaf_value=3.5368143610963115e-06 0 -7.251453007380457e-05 0 0 -2.1343926479258199e-05 4.1234245556987665e-05 0 0 -1.7086967932940764e-05 3.7242507325042621e-06 2.4443413514795349e-05 3.3645360031433175e-05 0
leaf_weight=1354 46 200 63 74 192 507 398 17 1029 201 143 35 9.9999999999999982
leaf_count=1354 46 200 63 74 192 507 398 17 1029 201 143 35 10
internal_value=0 -3.12772e-05 3.01178e-06 -4.91465e-05 1.12452e-05 1.54205e-05 -6.51569e-06 -6.51391e-05 -1.13356e-05 -8.93466e-07 1.23061e-05 0 1.83943e-05
internal_weight=0 382 3887 291 2254 1861 1633 217 1427 393 206 91 45
internal_count=4269 382 3887 291 2254 1861 1633 217 1427 393 206 91 45
is_linear=0
shrinkage=0.01


Tree=41
num_leaves=16
num_cat=0
split_feature=7 51 51 47 28 30 3 19 51 18 51 27 7 27 47
split_gain=0.00268378 0.00306162 0.00320769 0.00294353 0.00224 0.00218776 0.00211443 0.00126647 0.00124492 0.00114083 0.00066169 0.000577632 0.000577448 0.000505969 1.98187e-05
threshold=0.0051818420693698465 230.14300000000003 224.9795 26.160714407310198 0.16050858520344871 0.27268640052158216 0.67736070676767146 -0.0012334446165944144 386.47060000000005 -0.0086695988189874878 189.60800000000003 0.037012537960202659 0.0032818682868861232 0.2337983353402778 16.779197883311568
decision_type=2 2 2 2 2 2 2 2 2 2 2 2 2 2 2
left_child=6 2 11 13 -5 -4 7 9 10 -1 -8 -2 -9 -3 -10
right_child=1 3 5 4 -6 -7 8 12 14 -11 -12 -13 -14 -15 -16
leaf_value=0 0 1.4008477864459685e-05 7.7418117162748521e-05 -3.9178855953749519e-05 0 0 0 0 0 1.7654946960677184e-05 2.4159724523714268e-05 -2.4692670570499919e-05 -1.3230869145583807e-05 -9.8338554138572989e-06 -6.0525576992032738e-06
leaf_weight=285 172 202 93 641 130 49 17 216 11.999999999999998 548 838 100 729 113 54
leaf_count=285 172 202 93 641 130 49 17 216 12 548 838 100 729 113 54
internal_value=0 -1.09932e-05 7.24352e-06 -2.07076e-05 -3.1396e-05 4.88593e-05 5.68029e-06 0 1.80029e-05 8.25404e-06 2.2242e-05 -3.46696e-06 -8.59931e-06 0 0
internal_weight=0 1500 414 1086 771 142 2699 1778 921 833 855 272 945 315 66
internal_count=4199 1500 414 1086 771 142 2699 1778 921 833 855 272 945 315 66
is_linear=0
shrinkage=0.01


Tree=42
num_leaves=16
num_cat=0
split_feature=30 39 18 51 35 51 0 39 17 44 2 8 32 8 30
split_gain=0.00315212 0.00517698 0.00373884 0.00245782 0.00147383 0.00146539 0.00192615 0.00144345 0.00110939 0.00145997 0.00098239 0.000937453 0.000330413 0.000242937 1.41326e-06
threshold=0.09764573116812035 0.005257109878684379 -0.0086695988189874878 343.18980000000005 8.3349999999999813 320.65720000000005 283.4751389764445 0.0047601716976208488 0.012826168466639533 21.391186790468065 -0.87860203535440451 741.05000000000007 3.4683392857142903 513.75000000000011 -0.072422814157396098
decision_type=2 2 2 2 2 2 2 2 2 2 2 2 2 2 2
left_child=2 5 7 4 -3 6 -2 13 9 -4 -7 -9 -5 -1 -10
right_child=1 3 8 12 -6 10 -8 11 14 -11 -12 -13 -14 -15 -16
leaf_value=0 0 -5.7164596955658811e-05 0 7.7927222033944149e-08 0 0 4.2153972512073287e-05 0 -1.3041001789073408e-06 2.3387398539608272e-05 -2.6224264716962318e-05 -3.7962234151636746e-05 -1.9149660534916923e-05 1.2435365486807825e-05 0
leaf_weight=148 811 345 344 125 21 42 133 186 83 1195 292 218 90 157 40
leaf_count=148 811 345 344 125 21 42 133 186 83 1195 292 218 90 157 40
internal_value=0 -1.08002e-05 6.46441e-06 -3.55537e-05 -5.17472e-05 0 6.81886e-06 -1.03677e-05 1.545e-05 1.81621e-05 -1.75276e-05 -2.33628e-05 0 0 0
internal_weight=0 1859 2371 581 366 1278 944 709 1662 1539 334 404 215 305 123
internal_count=4230 1859 2371 581 366 1278 944 709 1662 1539 334 404 215 305 123
is_linear=0
shrinkage=0.01


Tree=43
num_leaves=15
num_cat=0
split_feature=39 30 3 40 40 51 34 6 6 2 31 51 32 0
split_gain=0.00267508 0.00363741 0.00294588 0.00203909 0.00183655 0.00175357 0.00163086 0.00184367 0.00146255 0.00140273 0.00153401 0.00144758 0.000847358 5.66557e-05
threshold=0.005257109878684379 0.1171718826362704 0.77668970505846768 0.85812959670505262 1.2867516859544839 230.14300000000003 1.00000001254902 -0.89999999999999136 14.985000000000015 -0.70183984355462303 0.0060998469317368248 381.92660000000006 1.6906250000000007 227.65672529759698
decision_type=2 2 2 2 2 2 2 2 2 2 2 2 2 2
left_child=2 3 9 12 8 -5 7 -3 -4 11 -11 -1 -2 -6
right_child=1 6 4 5 13 -7 -8 -9 -10 10 -12 -13 -14 -15
leaf_value=2.2864553809946341e-05 0 0 3.0173314137364512e-05 1.4476851465480401e-05 0 -1.7782084292831524e-05 0 -5.6072732674326138e-05 0 8.7776382399629534e-07 -1.7321252495848684e-05 -2.5001717909725669e-07 4.1695145931432567e-05 -9.1211200608337177e-06
leaf_weight=441 15.999999999999998 124 822 169 41 497 126 272 45 615 691 138 156 68
leaf_count=441 16 124 822 169 41 497 126 272 45 615 691 138 156 68
internal_value=0 -1.03013e-05 6.58238e-06 0 2.07075e-05 -5.09149e-06 -3.1195e-05 -4.11632e-05 2.63535e-05 0 -6.45495e-06 1.21758e-05 3.29317e-05 0
internal_weight=0 1360 2861 838 976 666 522 396 867 1885 1306 579 172 109
internal_count=4221 1360 2861 838 976 666 522 396 867 1885 1306 579 172 109
is_linear=0
shrinkage=0.01


Tree=44
num_leaves=11
num_cat=0
split_feature=39 51 8 30 31 8 8 8 4 7
split_gain=0.00295575 0.0019763 0.00280229 0.00358289 0.00196667 0.00164134 0.00112104 0.00111316 0.000534616 2.14687e-05
threshold=0.0086813722412234281 384.51160000000004 1045.1750000000004 -0.79807810683420388 0.0063141213673956181 832.52500000000009 1505.2750000000003 1171.7750000000003 3.4407142857142956 0.0057288751647135341
decision_type=2 2 2 2 2 2 2 2 2 2
left_child=1 2 4 -4 -1 -2 -7 8 -3 -9
right_child=5 7 3 -5 -6 6 -8 9 -10 -11
leaf_value=1.1907463228713778e-05 0 -3.5034276371400778e-05 -1.9531224553797709e-05 4.1470839608990197e-05 -4.1972892218902318e-06 -0.00010247065444527765 0 -2.6195015364344133e-06 0 3.4575051197081864e-06
leaf_weight=1148 40 231 51 413 2012 53 17 168 15.999999999999998 83
leaf_count=1148 40 231 51 413 2012 53 17 168 16 83
internal_value=0 1.85931e-06 5.06585e-06 2.8299e-05 7.04279e-07 -5.05487e-05 -7.97158e-05 -1.54485e-05 -3.05216e-05 0
internal_weight=0 4122 3624 464 3160 110 70 498 247 251
internal_count=4232 4122 3624 464 3160 110 70 498 247 251
is_linear=0
shrinkage=0.01


Tree=45
num_leaves=14
num_cat=0
split_feature=31 3 3 8 3 6 8 52 44 31 31 32 16
split_gain=0.00540098 0.00248802 0.00266561 0.00147531 0.00139943 0.00168526 0.00132947 0.00151935 0.00150973 0.00126633 0.00105577 0.00070581 0.000191144
threshold=0.0080058530367996383 3.6927802399175227 1.8610079241368302 1522.6500000000003 0.67736070676767146 0.31000000000000233 1036.8750000000002 0.035767680990707665 82.977374589803318 0.0095081439818657295 0.006159048222172169 1.3152678571428538 0.0074235024574695893
decision_type=2 2 2 2 2 2 2 2 2 2 2 2 2
left_child=4 2 3 -2 5 11 8 -8 -6 -4 -7 -1 -3
right_child=1 12 9 -5 6 10 7 -9 -10 -11 -12 -13 -14
leaf_value=0 -2.5335115875269663e-05 -8.9447265632666158e-05 2.8117406882795619e-05 0 -1.2957782266940443e-06 0 4.9398234222767406e-05 0 2.4818162492270743e-05 0 -2.2059547063424658e-05 1.2887307026463112e-05 0
leaf_weight=291 875 66 186 64 447 341 215 30 264 95 386 944 10.999999999999998
leaf_count=291 875 66 186 64 447 341 215 30 264 95 386 944 11
internal_value=0 -1.81871e-05 -1.17379e-05 -2.10006e-05 6.20925e-06 0 1.62493e-05 3.9008e-05 4.18385e-06 8.53893e-06 -1.06396e-05 8.35501e-06 -8.13106e-05
internal_weight=0 1297 1220 939 2918 1962 956 245 711 281 727 1235 77
internal_count=4215 1297 1220 939 2918 1962 956 245 711 281 727 1235 77
is_linear=0
shrinkage=0.01


Tree=46
num_leaves=12
num_cat=0
split_feature=39 33 30 8 32 18 27 19 40 38 39
split_gain=0.00319121 0.00221985 0.00224972 0.00159461 0.00170687 0.00140347 0.00211285 0.00130287 0.00115517 0.000605716 0.000328596
threshold=0.0084936449355245847 0.8940497459876402 0.31093512754214797 832.52500000000009 4.4076964285714295 -0.0046653880173055376 -0.13126426323962764 -0.037310003309825084 0.60292105183289368 0.35692455537207984 0.0046872500284578589
decision_type=2 2 2 2 2 2 2 2 2 2 2
left_child=1 2 8 -2 9 7 -7 -3 -1 -5 -4
right_child=3 5 10 4 -6 6 -8 -9 -10 -11 -12
leaf_value=0 0 1.6197593047305861e-05 0 -0.00010661671573986406 0 2.4768518381925998e-05 0 -1.4615105229411641e-05 2.9640635743409719e-05 0 -2.1447918741394845e-05
leaf_weight=44 48 71 23 59 18 403 1831 1011 680 9.9999999999999982 86
leaf_count=44 48 71 23 59 18 403 1831 1011 680 10 86
internal_value=0 3.17356e-06 1.77937e-05 -4.56127e-05 -7.11185e-05 0 4.01467e-06 -9.8195e-06 2.58002e-05 -9.40506e-05 -7.86429e-06
internal_weight=0 4149 833 135 87 3316 2234 1082 724 69 109
internal_count=4284 4149 833 135 87 3316 2234 1082 724 69 109
is_linear=0
shrinkage=0.01


end of trees

feature_importances:
adx=52
volume_ma=48
atr_normalized=46
atr_ma=44
volatility_ma=42
macd_signal=37
macd_strength=34
atr_ratio=28
sma_50=27
ema_fast=24
return_24=20
volatility=17
sma_20=17
return_6=16
macd=15
macd_hist=15
atr=13
momentum_convergence=12
volatility_ratio=12
ema_cross_pct=11
ema_slow=10
price_sma_50_dist=10
price_sma_20_dist=8
momentum_20=7
macd_hist_change=7
stoch_d=6
momentum_10=5
momentum_ratio=5
volume_ratio=5
range=4
return_12=4
volume_change=4
return_3=3
range_pct=2
body=2
return_1=2
price_ema_fast_dist=2
stoch_k=2
upper_shadow=1
lower_shadow=1
log_return=1
ema_cross=1
price_ema_slow_dist=1

parameters:
[boosting: gbdt]
[objective: regression]
[metric: rmse]
[tree_learner: serial]
[device_type: cpu]
[data: ]
[valid: ]
[num_iterations: 500]
[learning_rate: 0.01]
[num_leaves: 16]
[num_threads: 8]
[deterministic: 0]
[force_col_wise: 0]
[force_row_wise: 0]
[histogram_pool_size: -1]
[max_depth: 4]
[min_data_in_leaf: 10]
[min_sum_hessian_in_leaf: 0.001]
[bagging_fraction: 0.7]
[pos_bagging_fraction: 1]
[neg_bagging_fraction: 1]
[bagging_freq: 1]
[bagging_seed: 400]
[feature_fraction: 0.8]
[feature_fraction_bynode: 1]
[feature_fraction_seed: 30056]
[extra_trees: 0]
[extra_seed: 12879]
[early_stopping_round: 0]
[first_metric_only: 0]
[max_delta_step: 0]
[lambda_l1: 0.3]
[lambda_l2: 0.1]
[linear_lambda: 0]
[min_gain_to_split: 0]
[drop_rate: 0.1]
[max_drop: 50]
[skip_drop: 0.5]
[xgboost_dart_mode: 0]
[uniform_drop: 0]
[drop_seed: 17869]
[top_rate: 0.2]
[other_rate: 0.1]
[min_data_per_group: 100]
[max_cat_threshold: 32]
[cat_l2: 10]
[cat_smooth: 10]
[max_cat_to_onehot: 4]
[top_k: 20]
[monotone_constraints: ]
[monotone_constraints_method: basic]
[monotone_penalty: 0]
[feature_contri: ]
[forcedsplits_filename: ]
[refit_decay_rate: 0.9]
[cegb_tradeoff: 1]
[cegb_penalty_split: 0]
[cegb_penalty_feature_lazy: ]
[cegb_penalty_feature_coupled: ]
[path_smooth: 0]
[interaction_constraints: ]
[verbosity: 1]
[saved_feature_importance_type: 0]
[linear_tree: 0]
[max_bin: 255]
[max_bin_by_feature: ]
[min_data_in_bin: 3]
[bin_construct_sample_cnt: 200000]
[data_random_seed: 175]
[is_enable_sparse: 1]
[enable_bundle: 1]
[use_missing: 1]
[zero_as_missing: 0]
[feature_pre_filter: 1]
[pre_partition: 0]
[two_round: 0]
[header: 0]
[label_column: ]
[weight_column: ]
[group_column: ]
[ignore_column: ]
[categorical_feature: ]
[forcedbins_filename: ]
[precise_float_parser: 0]
[parser_config_file: ]
[objective_seed: 16083]
[num_class: 1]
[is_unbalance: 0]
[scale_pos_weight: 1]
[sigmoid: 1]
[boost_from_average: 1]
[reg_sqrt: 0]
[alpha: 0.9]
[fair_c: 1]
[poisson_max_delta_step: 0.7]
[tweedie_variance_power: 1.5]
[lambdarank_truncation_level: 30]
[lambdarank_norm: 1]
[label_gain: ]
[lambdarank_position_bias_regularization: 0]
[eval_at: ]
[multi_error_top_k: 1]
[auc_mu_weights: ]
[num_machines: 1]
[local_listen_port: 12400]
[time_out: 120]
[machine_list_filename: ]
[machines: ]
[gpu_platform_id: -1]
[gpu_device_id: -1]
[gpu_use_dp: 0]
[num_gpu: 1]

end of parameters

pandas_categorical:[]
