tree
version=v4
num_class=1
num_tree_per_iteration=1
label_index=0
max_feature_idx=55
objective=regression
feature_names=rsi ema_fast ema_slow macd macd_signal momentum_10 momentum_20 volatility volume_ma range range_pct body body_pct upper_shadow lower_shadow is_bullish return_1 return_3 return_6 return_12 return_24 log_return rsi_normalized rsi_overbought rsi_oversold rsi_divergence ema_cross ema_cross_pct ema_cross_signal price_ema_fast_dist price_ema_slow_dist macd_hist macd_hist_change macd_cross_signal macd_strength momentum_ratio momentum_convergence volume_ratio volume_spike volume_change volatility_ma volatility_ratio high_volatility low_volatility stoch_k stoch_d stoch_overbought stoch_oversold adx strong_trend sma_20 price_sma_20_dist sma_50 price_sma_50_dist signal_convergence market_regime
feature_infos=[0:99.99999802816906] [393.78039597925124:516.19050637889245] [394.23095608416145:515.56941879713395] [-3.7843608113351479:4.9124877890472476] [-3.4421243135740478:4.2997943675253758] [-17.25:18.550000000000011] [-18.950000000000045:18.300000000000011] [0:0.010936378070948268] [0:1295.8499999999999] [0:28.199999999999989] [0:0.067407673001075627] [0:20.449999999999989] [0:0.04888251464085093] [0:7.4000000000000341] [0:6.1500000000000341] [0:1] [-0.046712999886065809:0.037101048507892642] [-0.043627227044312544:0.037151702786377694] [-0.038395807223424949:0.042290850426365489] [-0.040701673927998172:0.04109116022099446] [-0.04466218525692156:0.042651296829971264] [-0.047839266296518912:0.036429367612840491] [-1:0.99999996056338114] [0:1] [0:1] [-50.422589203230672:57.142847619048588] [-3.7843608113351479:4.9124877890472476] [-0.0088258630886247341:0.010264287064453087] [0:1] [-0.035676378944641852:0.029123986701014376] [-0.038063384774058365:0.03410996193567073] [-1.7856090633421566:1.9741201889542976] [-1.2287011414126909:0.97834973995522934] [0:1] [-1.5995113318141976:1.8043205953337147] [-414999999.99999774:269999999.99999887] [-18.550000000000011:17.25] [0:10.328947367741517] [0:1] [-0.99641577060931896:611] [0:0.01086280726866261] [0:7.028555025285689] [0:1] [0:1] [0:99.999999918699174] [0:99.999999828387146] [0:1] [0:1] [0:96.569188193361313] [0:1] [0:515.995] [-0.038998446277040882:0.036075179657269328] [0:515.072] [-0.039361778415202678:0.038076285240464407] [0:3] [0:2]
tree_sizes=1676 1397 1459 1585 1521 1431 1550 1456

Tree=0
num_leaves=16
num_cat=0
split_feature=1 34 43 53 51 20 48 31 34 53 2 27 7 48 14
split_gain=0.000631061 0.000375621 0.000651723 0.000414219 0.00034458 0.000488334 0.000513414 0.00043773 0.000324248 0.000245652 0.00022799 0.000218233 0.000234173 0.000133956 7.85717e-06
threshold=466.66764560800669 -0.037136038384601645 1.0000000180025095e-35 -0.0015436399407446207 -0.0072447901169462011 -0.016100340029330747 30.130327749815887 -0.1607588445047535 -0.28526148147830704 0.0062462070147040515 483.94904671027297 -0.0013671131390724947 0.0013887664269605731 38.744800164165248 0.88499999999999102
decision_type=2 2 2 2 2 2 2 2 2 2 2 2 2 2 2
left_child=4 11 3 -3 5 14 -7 8 -6 -9 -4 13 -13 -2 -1
right_child=1 2 10 -5 7 6 -8 9 -10 -11 -12 12 -14 -15 -16
leaf_value=-6.9268519866807305e-06 6.0692537469246112e-06 -0.00010524296861362341 6.0692537469246112e-06 -2.2490616687361661e-05 7.7380161410956295e-06 6.0692537469246112e-06 0.00013758156142547494 2.0431954647102802e-05 -3.35190891395163e-05 -2.8151866198700371e-06 0.00013651644386391187 -3.3298411330985903e-06 4.4621611712367099e-05 -4.8985051700973505e-05 6.0692537469246112e-06
leaf_weight=116 96 323 64 807 536 91 206 4761 941 1211 50 326 448 254 46
leaf_count=116 96 323 64 807 536 91 206 4761 941 1211 50 326 448 254 46
internal_value=6.06925e-06 -1.77737e-05 -3.67875e-05 -5.05915e-05 1.15517e-05 5.4193e-05 9.3729e-05 8.25118e-06 -1.51651e-05 1.48805e-05 5.6087e-05 6.06925e-06 1.79717e-05 -2.92058e-05 6.06925e-06
internal_weight=0 2368 1244 1130 7908 459 297 7449 1477 5972 114 1124 774 350 162
internal_count=10276 2368 1244 1130 7908 459 297 7449 1477 5972 114 1124 774 350 162
is_linear=0
shrinkage=1


Tree=1
num_leaves=14
num_cat=0
split_feature=40 40 52 31 1 8 52 9 1 40 3 52 8
split_gain=0.000498342 0.000738402 0.000799031 0.000623935 0.000533979 0.000826502 0.00046223 0.000509802 0.000341177 0.000314515 0.000313952 0.000303023 8.18918e-05
threshold=0.0014248480804786674 0.00080496136284983707 459.76900000000006 -0.47547312691718335 458.52201195807714 298.17500000000001 471.09400000000005 1.3550000000000184 442.88299622923478 0.0016405781748752922 0.87989223341395484 404.33150000000006 77.075000000000003
decision_type=2 2 2 2 2 2 2 2 2 2 2 2 2
left_child=1 2 12 6 11 -6 7 -2 10 -10 -5 -3 -1
right_child=3 4 -4 8 5 -7 -8 -9 9 -11 -12 -13 -14
leaf_value=0 0 6.3321863966846984e-05 0.00048474950639830147 2.587753763194732e-05 -9.7627205715124357e-05 0 0 0.00016634899363572185 -3.2908362433066114e-05 1.5305440501458586e-06 -1.2943668861274197e-05 -1.2895176447100396e-05 4.6110143987132808e-05
leaf_weight=34 83 122 12.999999999999998 2403 489 270 128 159 794 2763 476 2384 109
leaf_count=34 83 122 13 2403 489 270 128 159 794 2763 476 2384 109
internal_value=0 -1.4314e-05 8.59757e-05 8.98888e-06 -2.06445e-05 -5.84863e-05 7.30876e-05 0.000113723 4.52382e-06 -4.75354e-06 1.77218e-05 -7.18258e-06 1.38928e-05
internal_weight=0 3421 156 6806 3265 759 370 242 6436 3557 2879 2506 143
internal_count=10227 3421 156 6806 3265 759 370 242 6436 3557 2879 2506 143
is_linear=0
shrinkage=0.05


Tree=2
num_leaves=15
num_cat=0
split_feature=40 31 37 26 40 37 50 1 40 37 37 26 31 20
split_gain=0.000518234 0.000606242 0.000688346 0.00076776 0.000598905 0.000664848 0.000440923 0.000348408 0.000444024 0.000400415 0.000315572 0.000490445 0.000127672 8.21639e-06
threshold=0.001401774337577253 -0.46096504831425417 1.5704679967280295 -1.3633532176956462 0.00080496136284983707 1.4459143166908992 451.96250000000009 443.27773825036309 0.0016405781748752922 1.0133366787880096 1.7281355838796697 0.24702842958828344 -0.1607588445047535 0.0016334155599541102
decision_type=2 2 2 2 2 2 2 2 2 2 2 2 2 2
left_child=4 2 13 -4 10 12 -7 9 -9 -3 -1 -12 -6 -2
right_child=1 7 3 -5 5 6 -8 8 -10 -11 11 -13 -14 -15
leaf_value=0 9.3847692726844939e-06 0 0 0.00021826356775399714 -2.5021895424676649e-05 -2.258520925225866e-05 -9.8718910767101845e-05 -3.7782102972304164e-05 1.6570972384569534e-06 3.9833848781264623e-05 0 0.00033400992678910663 4.309899609820817e-06 0
leaf_weight=99 235 1940 32 115 470 866 401 881 2745 1119 28 25 1356 46
leaf_count=99 235 1940 32 115 470 866 401 881 2745 1119 28 25 1356 46
internal_value=0 7.46679e-06 6.577e-05 0.000155754 -1.66438e-05 -2.26631e-05 -5.06443e-05 2.98329e-06 -6.54886e-06 1.59162e-05 7.28147e-05 0.000173065 -5.04999e-07 8.06177e-07
internal_weight=0 7113 428 147 3245 3093 1267 6685 3626 3059 152 53 1826 281
internal_count=10358 7113 428 147 3245 3093 1267 6685 3626 3059 152 53 1826 281
is_linear=0
shrinkage=0.05


Tree=3
num_leaves=16
num_cat=0
split_feature=50 8 37 53 37 34 41 0 2 1 52 10 41 37 41
split_gain=0.000362358 0.000506843 0.000470748 0.000568016 0.000442722 0.000944846 0.000937321 0.000437955 0.000203162 0.00036374 7.60052e-05 6.65107e-05 6.10253e-05 8.3993e-05 6.54103e-05
threshold=466.01500000000004 108.27500000000002 0.84548850008808885 0.0055343448404432567 1.4589134747611363 -0.2123535686253904 0.51491760071568271 29.113923276718115 417.01756737179295 421.00787674757595 415.14450000000011 0.0032401101638622472 1.2636950998017704 1.2010913869410154 1.5088203563918168
decision_type=2 2 2 2 2 2 2 2 2 2 2 2 2 2 2
left_child=1 8 10 -4 12 7 -7 -6 11 -10 -3 -1 13 -2 -14
right_child=4 2 3 -5 5 6 -8 -9 9 -11 -12 -13 14 -15 -16
leaf_value=4.6153649714758235e-05 0 -1.7503562823823603e-05 3.8342272246911694e-05 -9.1242146982918778e-06 -1.7778637954398375e-05 5.6564802788241403e-05 -0.00011656575459695223 0.00010651674325131827 -0.00015218139159199907 -1.8457788529330491e-05 2.2264042169953078e-06 0 -3.0647445017303979e-05 3.5842441373322128e-05 0
leaf_weight=92 1129 571 2293 657 76 52 457 106 71 1097 3022 56 334 166 188
leaf_count=92 1129 571 2293 657 76 52 457 106 71 1097 3022 56 334 166 188
internal_value=0 5.04865e-06 1.12576e-05 2.60763e-05 -1.67718e-05 -5.11803e-05 -8.90382e-05 2.7242e-05 -2.20187e-05 -3.09032e-05 0 1.43026e-05 -9.28761e-07 1.68094e-06 -1.69733e-05
internal_weight=0 7859 6543 2950 2508 691 509 182 1316 1168 3593 148 1817 1295 522
internal_count=10367 7859 6543 2950 2508 691 509 182 1316 1168 3593 148 1817 1295 522
is_linear=0
shrinkage=0.05


Tree=4
num_leaves=15
num_cat=0
split_feature=40 40 52 51 52 53 52 1 50 8 1 40 8 36
split_gain=0.00047281 0.000731945 0.000646881 0.000578378 0.000776125 0.000697628 0.000461485 0.0002791 0.000397394 0.000270612 0.000252352 0.000199532 9.42225e-05 7.78857e-06
threshold=0.0014248480804786674 0.00080496136284983707 459.76900000000006 -0.0072447901169462011 462.47200000000004 -0.0089540203783143677 403.84950000000003 441.73972013410759 449.86750000000001 319.02500000000003 458.87830136875414 0.0010272557866120417 77.075000000000003 -1.2000000000000168
decision_type=2 2 2 2 2 2 2 2 2 2 2 2 2 2
left_child=1 2 12 4 5 -2 11 9 -9 -5 -8 -3 -1 -6
right_child=3 6 -4 7 13 -7 10 8 -10 -11 -12 -13 -14 -15
leaf_value=0 4.8428113395277947e-05 0 0.0004313055222588013 2.5922428358658854e-05 0 0.00031980265339973389 -1.6257993070087768e-05 -3.8744607444243913e-05 5.6162113806336407e-07 -3.7564196557498147e-06 -5.6076356440885044e-05 9.8534311835833064e-05 4.8481767087850182e-05 -1.1021282993425333e-05
leaf_weight=37 199 12.999999999999998 13.999999999999998 1859 50 48 2429 752 2947 867 734 100 112 160
leaf_count=37 199 13 14 1859 50 48 2429 752 2947 867 734 100 112 160
internal_value=0 -1.60235e-05 8.09977e-05 6.61351e-06 6.13795e-05 0.000121707 -2.23839e-05 1.93724e-06 -6.08015e-06 1.46498e-05 -2.70832e-05 6.47478e-05 1.37928e-05 0
internal_weight=0 3439 163 6882 457 247 3276 6425 3699 2726 3163 113 149 210
internal_count=10321 3439 163 6882 457 247 3276 6425 3699 2726 3163 113 149 210
is_linear=0
shrinkage=0.05


Tree=5
num_leaves=15
num_cat=0
split_feature=40 40 37 2 31 37 53 8 31 50 37 40 31 20
split_gain=0.000381606 0.000512672 0.000672369 0.000699086 0.000494711 0.000560604 0.000616893 0.000357427 0.000281348 0.000267341 0.000491317 0.000396012 0.000143902 5.00116e-06
threshold=0.0014248480804786674 0.00080496136284983707 1.4997869922244795 434.47788449619185 -0.46096504831425417 1.5704679967280295 -0.013730862060871299 77.075000000000003 0.065833348349985901 442.88375000000002 1.029567254219903 0.0016531833769699779 -0.1607588445047535 0.0057521911342319773
decision_type=2 2 2 2 2 2 2 2 2 2 2 2 2 2
left_child=1 7 12 -4 5 13 -7 -1 -9 10 -6 -11 -3 -2
right_child=4 2 3 -5 9 6 -8 8 -10 11 -12 -13 -14 -15
leaf_value=0 7.3206228390302334e-06 -2.4701756519377978e-05 0 -7.6492466882592251e-05 0 0 0.00020740849821957461 0.00019276977494019385 0 -3.733307190533776e-05 4.0647941087435863e-05 2.4025366738055783e-07 5.0455070237602163e-06 0
leaf_weight=36 233 527 423 822 1878 31 101 61 63 846 1037 2703 1497 38
leaf_count=36 233 527 423 822 1878 31 101 61 63 846 1037 2703 1497 38
internal_value=0 -1.51021e-05 -2.05663e-05 -4.96e-05 5.17815e-06 5.92123e-05 0.000145881 6.51779e-05 0.000112549 1.0333e-06 1.29061e-05 -7.31003e-06 -2.32475e-07 0
internal_weight=0 3429 3269 1245 6867 403 132 160 124 6464 2915 3549 2024 271
internal_count=10296 3429 3269 1245 6867 403 132 160 124 6464 2915 3549 2024 271
is_linear=0
shrinkage=0.05


Tree=6
num_leaves=16
num_cat=0
split_feature=40 10 37 40 48 34 6 1 50 1 37 31 8 13 40
split_gain=0.00039451 0.000685377 0.00042177 0.000668073 0.000536125 0.000420595 0.000357876 0.000326538 0.000194867 0.00038327 0.000273951 9.82454e-05 0.000169537 4.01886e-05 7.54833e-06
threshold=0.0014248480804786674 0.0057254634487940133 1.4997869922244795 0.00076306794385264641 58.386465509207021 0.053119601768708676 0.67500000000001148 460.05017461272359 442.88375000000002 454.07383096636914 1.0031704203258709 -0.17266143800308972 117.60000000000001 0.45000000000001711 0.0016298838874970803
decision_type=2 2 2 2 2 2 2 2 2 2 2 2 2 2 2
left_child=2 8 11 6 -5 7 -4 -3 10 -10 -2 13 -13 -1 -7
right_child=1 5 3 4 -6 14 -8 -9 9 -11 -12 12 -14 -15 -16
leaf_value=-2.6177274615001919e-05 0 0.00014889264875550003 0 -6.5180366877006147e-05 0 -6.2891376084350316e-06 0.00031348493829922342 0 -3.7332564774176659e-05 1.0121456538221083e-06 3.3179563123715961e-05 -1.8158762463320069e-05 1.6370807131001297e-05 0 1.1222243057196498e-05
leaf_weight=448 1884 172 27 965 285 46 15.999999999999998 96 773 2829 959 399 1235 73 135
leaf_count=448 1884 172 27 965 285 46 16 96 773 2829 959 399 1235 73 135
internal_value=0 5.96082e-06 -1.46818e-05 -3.72831e-05 -4.69901e-05 6.59112e-05 0.000127795 0.000105802 1.00566e-06 -5.83117e-06 1.1426e-05 0 4.87797e-06 -1.99138e-05 0
internal_weight=0 6894 3448 1293 1250 449 43 268 6445 3602 2843 2155 1634 521 181
internal_count=10342 6894 3448 1293 1250 449 43 268 6445 3602 2843 2155 1634 521 181
is_linear=0
shrinkage=0.05


Tree=7
num_leaves=15
num_cat=0
split_feature=31 3 37 50 37 34 8 53 48 1 29 41 8 30
split_gain=0.000340681 0.000426811 0.000399845 0.000246066 0.000332417 0.000652013 0.000314743 0.000240706 0.000229897 0.000162008 0.000119625 1.5835e-05 5.32733e-05 3.03157e-06
threshold=-0.47547312691718335 -1.3633532176956462 1.5880362831642716 466.01500000000004 1.4589134747611363 -0.15561443907203212 108.27500000000002 0.0055343448404432567 64.680459525756888 400.53777543940788 -0.00051748518024108305 1.351070805273715 610.50000000000011 -0.00181146292266651
decision_type=2 2 2 2 2 2 2 2 2 2 2 2 2 2
left_child=1 11 13 6 10 -6 9 -8 -4 -2 -5 -1 -13 -3
right_child=3 2 8 4 5 -7 7 -9 -10 -11 -12 12 -14 -15
leaf_value=0 4.3310605603435323e-05 7.3497931162046054e-06 0.00015595885347346734 -2.1621444801709712e-05 1.4279046616324916e-05 -8.3357449302185594e-05 1.2551334424643809e-05 -9.2553912528707562e-06 0 -2.5831780680756332e-05 4.5432752319631762e-06 -3.6554083173924233e-05 0 0
leaf_weight=50 40 140 141 611 154 443 4762 1460 19 1282 1022 129 19 44
leaf_count=50 40 140 141 611 154 443 4762 1460 19 1282 1022 129 19 44
internal_value=0 3.82996e-05 7.35496e-05 -2.39841e-06 -1.71823e-05 -4.9806e-05 1.30945e-06 6.6306e-06 0.000133622 -1.99491e-05 -2.18735e-06 0 -1.63384e-05 0
internal_weight=0 542 344 9774 2230 597 7544 6222 160 1322 1633 198 148 184
internal_count=10316 542 344 9774 2230 597 7544 6222 160 1322 1633 198 148 184
is_linear=0
shrinkage=0.05


end of trees

feature_importances:
volatility_ma=15
volume_ratio=14
ema_fast=10
volume_ma=9
macd_hist=9
sma_50=7
sma_20=6
price_sma_50_dist=6
macd_strength=5
volatility_ratio=4
adx=4
ema_slow=3
return_24=3
macd=2
range_pct=2
ema_cross=2
price_sma_20_dist=2
rsi=1
momentum_20=1
volatility=1
range=1
upper_shadow=1
lower_shadow=1
ema_cross_pct=1
price_ema_fast_dist=1
price_ema_slow_dist=1
momentum_convergence=1
low_volatility=1

parameters:
[boosting: gbdt]
[objective: regression]
[metric: rmse]
[tree_learner: serial]
[device_type: cpu]
[data: ]
[valid: ]
[num_iterations: 800]
[learning_rate: 0.05]
[num_leaves: 16]
[num_threads: 8]
[deterministic: 0]
[force_col_wise: 0]
[force_row_wise: 0]
[histogram_pool_size: -1]
[max_depth: 4]
[min_data_in_leaf: 10]
[min_sum_hessian_in_leaf: 0.001]
[bagging_fraction: 0.9]
[pos_bagging_fraction: 1]
[neg_bagging_fraction: 1]
[bagging_freq: 1]
[bagging_seed: 400]
[feature_fraction: 0.7]
[feature_fraction_bynode: 1]
[feature_fraction_seed: 30056]
[extra_trees: 0]
[extra_seed: 12879]
[early_stopping_round: 0]
[first_metric_only: 0]
[max_delta_step: 0]
[lambda_l1: 0.1]
[lambda_l2: 0.3]
[linear_lambda: 0]
[min_gain_to_split: 0]
[drop_rate: 0.1]
[max_drop: 50]
[skip_drop: 0.5]
[xgboost_dart_mode: 0]
[uniform_drop: 0]
[drop_seed: 17869]
[top_rate: 0.2]
[other_rate: 0.1]
[min_data_per_group: 100]
[max_cat_threshold: 32]
[cat_l2: 10]
[cat_smooth: 10]
[max_cat_to_onehot: 4]
[top_k: 20]
[monotone_constraints: ]
[monotone_constraints_method: basic]
[monotone_penalty: 0]
[feature_contri: ]
[forcedsplits_filename: ]
[refit_decay_rate: 0.9]
[cegb_tradeoff: 1]
[cegb_penalty_split: 0]
[cegb_penalty_feature_lazy: ]
[cegb_penalty_feature_coupled: ]
[path_smooth: 0]
[interaction_constraints: ]
[verbosity: 1]
[saved_feature_importance_type: 0]
[linear_tree: 0]
[max_bin: 255]
[max_bin_by_feature: ]
[min_data_in_bin: 3]
[bin_construct_sample_cnt: 200000]
[data_random_seed: 175]
[is_enable_sparse: 1]
[enable_bundle: 1]
[use_missing: 1]
[zero_as_missing: 0]
[feature_pre_filter: 1]
[pre_partition: 0]
[two_round: 0]
[header: 0]
[label_column: ]
[weight_column: ]
[group_column: ]
[ignore_column: ]
[categorical_feature: ]
[forcedbins_filename: ]
[precise_float_parser: 0]
[parser_config_file: ]
[objective_seed: 16083]
[num_class: 1]
[is_unbalance: 0]
[scale_pos_weight: 1]
[sigmoid: 1]
[boost_from_average: 1]
[reg_sqrt: 0]
[alpha: 0.9]
[fair_c: 1]
[poisson_max_delta_step: 0.7]
[tweedie_variance_power: 1.5]
[lambdarank_truncation_level: 30]
[lambdarank_norm: 1]
[label_gain: ]
[lambdarank_position_bias_regularization: 0]
[eval_at: ]
[multi_error_top_k: 1]
[auc_mu_weights: ]
[num_machines: 1]
[local_listen_port: 12400]
[time_out: 120]
[machine_list_filename: ]
[machines: ]
[gpu_platform_id: -1]
[gpu_device_id: -1]
[gpu_use_dp: 0]
[num_gpu: 1]

end of parameters

pandas_categorical:[]
