tree
version=v4
num_class=1
num_tree_per_iteration=1
label_index=0
max_feature_idx=56
objective=regression
feature_names=rsi bb_middle bb_upper bb_lower atr momentum_10 momentum_20 volatility volume_ma range range_pct body body_pct upper_shadow lower_shadow is_bullish return_1 return_3 return_6 return_12 return_24 log_return rsi_normalized rsi_overbought rsi_oversold rsi_divergence bb_width bb_position bb_position_normalized price_bb_upper_dist price_bb_lower_dist bb_breakout_upper bb_breakout_lower atr_normalized atr_ma atr_ratio momentum_ratio momentum_convergence volume_ratio volume_spike volume_change volatility_ma volatility_ratio high_volatility low_volatility stoch_k stoch_d stoch_overbought stoch_oversold adx strong_trend sma_20 price_sma_20_dist sma_50 price_sma_50_dist signal_convergence market_regime
feature_infos=[0:99.145297958945207] [0:433.77300000000002] [0:445.7902884830076] [0:429.47706752940064] [0:5.6750000000000158] [-25.279999999999973:28.700000000000045] [-31.779999999999973:25.949999999999989] [0:0.013760960557476004] [0:2115.0500000000002] [0:13.050000000000011] [0:0.03421614934772834] [0:10.25] [0:0.026920687512942638] [0:4.8700000000000045] [0:4.5] [0:1] [-0.050838840874428026:0.045717965228589952] [-0.057869419839267966:0.061171925305859576] [-0.062313273580879347:0.055282817502668058] [-0.068215417106652576:0.083728761671513885] [-0.090496047799838109:0.085476025017373169] [-0.052176674847336416:0.04470369757293631] [-0.94594594696859302:0.98290595917890411] [0:1] [0:1] [-30.685579898938528:30.655894189272409] [0:0.1185808689057089] [-0.39000481601162978:1.4312802625283376] [-1.7800096320232597:1.8625605250566752] [-0.014907105856414044:0.10111453388061334] [-0.013692039624379688:0.095935693106670827] [0:1] [0:1] [0:0.01518304181026075] [0:5.0375357142857249] [0:1.7958743291669197] [-387999999.99999952:259999999.99999943] [-28.700000000000045:25.279999999999973] [0:3.4909160086846587] [0:1] [-0.99886813808715336:944] [0:0.013272101953949508] [0:2.8686155747316899] [0:1] none [0:99.999999925373132] [0:99.128093654670806] [0:1] [0:1] [0:86.579415337112295] [0:1] [0:433.77300000000002] [-0.051861963793781926:0.050205850487540539] [0:429.52199999999999] [-0.084765493890769872:0.066042024013722056] [0:1] [0:2]
tree_sizes=1544 1285 1504 1532

Tree=0
num_leaves=15
num_cat=0
split_feature=33 49 41 49 33 8 3 37 1 20 20 17 37 35
split_gain=0.0115202 0.00269542 0.0026682 0.00252213 0.00250321 0.00194547 0.00181556 0.0025311 0.00106611 0.000812592 0.000614698 0.000921885 0.000595995 0.000379571
threshold=0.007770023821093072 23.660574771258982 0.0048718405089298814 17.780465069240645 0.012616160577046081 427.05000000000007 365.42862251126201 5.299999999999998 385.02050000000003 -0.019629751519739887 -0.0082098309057900814 0.0065263671285787925 -3.2999999999999967 1.0532619839670601
decision_type=2 2 2 2 2 2 2 2 2 2 2 2 2 2
left_child=3 10 9 5 -4 -1 7 -5 -7 -3 13 -12 -8 -2
right_child=1 2 4 6 -6 8 12 -9 -10 -11 11 -13 -14 -15
leaf_value=0.00072816705738946606 0.00063188515570449238 0.00082692066317903174 0.00061231371306828591 0.00074438944056641509 0.00072816705738946606 0.00088269436689743957 0.00072816705738946606 0.00087365641437258767 0.00072816705738946606 0.00070090770619260089 0.00080942726622921623 0.00072816705738946606 0.00067155404719598929 0.00072816705738946606
leaf_weight=81 63 48 1060 2513 57 305 117 176 49 350 172 101 300 44
leaf_count=81 63 48 1060 2513 57 305 117 176 49 350 172 101 300 44
internal_value=0.000728167 0.000666741 0.000648667 0.000758308 0.000624625 0.000830738 0.000745257 0.000756212 0.000861839 0.000728167 0.000728167 0.000761739 0.000696213 0.000680364
internal_weight=0 1895 1515 3541 1117 435 3106 2689 354 398 380 273 417 107
internal_count=5436 1895 1515 3541 1117 435 3106 2689 354 398 380 273 417 107
is_linear=0
shrinkage=1


Tree=1
num_leaves=14
num_cat=0
split_feature=33 41 8 8 49 49 49 3 37 8 1 20 8
split_gain=0.00973273 0.00313065 0.00351752 0.00250819 0.00246053 0.00220771 0.00358696 0.00204895 0.00202558 0.00150922 0.0012708 0.00067844 0.000597864
threshold=0.007770023821093072 0.0084936449355245847 832.52500000000009 1522.6500000000003 17.780465069240645 23.660574771258982 44.581824003651782 365.42862251126201 5.299999999999998 427.05000000000007 385.02050000000003 -0.0093275228738635679 1191.4250000000004
decision_type=2 2 2 2 2 2 2 2 2 2 2 2 2
left_child=4 5 -3 -4 9 11 -7 8 -6 -1 -11 -2 -9
right_child=1 2 3 -5 7 6 -8 12 -10 10 -12 -13 -14
leaf_value=0 0 0 -0.00038140942328752258 0 1.8082484905192199e-05 -9.745242676054139e-05 0 -5.697288633288304e-05 0.00013657575880249019 0.00015152126239367897 0 5.0027157432896561e-05 0
leaf_weight=81 88 42 78 22 2466 781 599 325 177 309 47 266 84
leaf_count=81 88 42 78 22 2466 781 599 325 177 309 47 266 84
internal_value=0 -5.36991e-05 -0.000204781 -0.000301759 3.09804e-05 -3.6104e-05 -5.51073e-05 1.77746e-05 2.94373e-05 0.000102553 0.000129307 1.25583e-05 -3.55686e-05
internal_weight=0 1876 142 100 3489 1734 1380 3052 2643 437 356 354 409
internal_count=5365 1876 142 100 3489 1734 1380 3052 2643 437 356 354 409
is_linear=0
shrinkage=0.03


Tree=2
num_leaves=16
num_cat=0
split_feature=33 35 49 33 41 2 8 37 41 26 54 52 38 25 41
split_gain=0.00930078 0.00287853 0.00278798 0.0021774 0.00197481 0.00146063 0.00308709 0.00125309 0.00122144 0.000967986 0.000724632 0.00158779 0.000679706 0.000563798 0.000423844
threshold=0.007770023821093072 1.0287975311397868 23.660574771258982 0.012616160577046081 0.0048718405089298814 389.43443905888978 770.77500000000009 -2.5899999999999888 0.0036746775116062269 0.032277067036721584 -0.0030783195237336328 0.010904622195334482 0.7432421461219042 2.2762268615546764 0.0042906769498828922
decision_type=2 2 2 2 2 2 2 2 2 2 2 2 2 2 2
left_child=1 5 10 4 -4 6 -1 -7 9 -3 12 -12 -2 -5 -10
right_child=2 8 3 13 -6 7 -8 -9 14 -11 11 -13 -14 -15 -16
leaf_value=2.9753820799332268e-05 0 -8.3041194565962645e-05 0 0.00011534531083981747 -0.00010252974617738371 5.9659696344471701e-05 0.00012665096719832839 -7.7134447600471495e-05 3.7184092422363892e-05 0 0.00011902865434427654 0 -7.6332038149089831e-05 0 0
leaf_weight=1742 62 276 377 40 1084 72 518 146 335 133 144 66 111 22 318
leaf_count=1742 62 276 377 40 1084 72 518 146 335 133 144 66 111 22 318
internal_value=0 3.00155e-05 -5.21335e-05 -7.10525e-05 -8.11419e-05 4.82233e-05 5.59586e-05 0 -3.99876e-06 -5.02652e-05 0 5.40955e-05 -1.45648e-05 2.14838e-05 1.12133e-05
internal_weight=0 3540 1906 1523 1461 2478 2260 218 1062 409 383 210 173 62 653
internal_count=5446 3540 1906 1523 1461 2478 2260 218 1062 409 383 210 173 62 653
is_linear=0
shrinkage=0.03


Tree=3
num_leaves=16
num_cat=0
split_feature=33 35 54 52 18 35 49 41 41 1 8 26 34 37 49
split_gain=0.00768255 0.00252024 0.00223756 0.0037857 0.0035016 0.00304807 0.002787 0.00231895 0.00159935 0.00154084 0.00235344 0.00124549 0.000746509 0.000718725 0.000505044
threshold=0.007770023821093072 1.0104927998507571 0.0058286693545270508 0.012933044043915804 -0.0052955636109229811 1.0797985187311341 64.552956425546128 0.0052151911979724961 0.0036746775116062269 385.67950000000002 710.0250000000002 0.032277067036721584 1.6296250000000012 -2.5899999999999888 38.042888611407584
decision_type=2 2 2 2 2 2 2 2 2 2 2 2 2 2 2
left_child=1 9 5 4 -4 6 -2 -5 11 10 -1 -3 -10 -11 -7
right_child=2 8 3 7 -6 14 -8 -9 12 13 -12 -13 -14 -15 -16
leaf_value=2.8060652313287996e-05 -0.0001382246818451574 -8.3493426400434962e-05 -3.3619602867553192e-05 0 0.00010906883937633021 -3.3817288543811814e-05 0 -0.00015030313106521791 4.7282548502075139e-05 2.1842436570403335e-05 0.00011486939749877516 0 0 -6.4458731510658388e-05 3.7841993108285324e-05
leaf_weight=1532 596 326 160 194 329 234 50 201 428 64 557 144 354 148 130
leaf_count=1532 596 326 160 194 329 234 50 201 428 64 557 144 354 148 130
internal_value=0 2.80062e-05 -4.6682e-05 -7.46472e-07 4.39958e-05 -7.79665e-05 -0.000117247 -7.88951e-05 0 4.68689e-05 5.55277e-05 -4.95299e-05 1.91092e-05 0 0
internal_weight=0 3553 1894 884 489 1010 646 395 1252 2301 2089 470 782 212 364
internal_count=5447 3553 1894 884 489 1010 646 395 1252 2301 2089 470 782 212 364
is_linear=0
shrinkage=0.03


end of trees

feature_importances:
adx=8
volume_ma=7
volatility_ma=7
atr_normalized=6
momentum_convergence=5
atr_ratio=4
bb_middle=3
return_24=3
bb_lower=2
bb_width=2
price_sma_20_dist=2
price_sma_50_dist=2
bb_upper=1
return_3=1
return_6=1
rsi_divergence=1
atr_ma=1
volume_ratio=1

parameters:
[boosting: gbdt]
[objective: regression]
[metric: rmse]
[tree_learner: serial]
[device_type: cpu]
[data: ]
[valid: ]
[num_iterations: 300]
[learning_rate: 0.03]
[num_leaves: 16]
[num_threads: 8]
[deterministic: 0]
[force_col_wise: 0]
[force_row_wise: 0]
[histogram_pool_size: -1]
[max_depth: 4]
[min_data_in_leaf: 20]
[min_sum_hessian_in_leaf: 0.001]
[bagging_fraction: 0.9]
[pos_bagging_fraction: 1]
[neg_bagging_fraction: 1]
[bagging_freq: 1]
[bagging_seed: 400]
[feature_fraction: 0.9]
[feature_fraction_bynode: 1]
[feature_fraction_seed: 30056]
[extra_trees: 0]
[extra_seed: 12879]
[early_stopping_round: 0]
[first_metric_only: 0]
[max_delta_step: 0]
[lambda_l1: 0.3]
[lambda_l2: 0.3]
[linear_lambda: 0]
[min_gain_to_split: 0]
[drop_rate: 0.1]
[max_drop: 50]
[skip_drop: 0.5]
[xgboost_dart_mode: 0]
[uniform_drop: 0]
[drop_seed: 17869]
[top_rate: 0.2]
[other_rate: 0.1]
[min_data_per_group: 100]
[max_cat_threshold: 32]
[cat_l2: 10]
[cat_smooth: 10]
[max_cat_to_onehot: 4]
[top_k: 20]
[monotone_constraints: ]
[monotone_constraints_method: basic]
[monotone_penalty: 0]
[feature_contri: ]
[forcedsplits_filename: ]
[refit_decay_rate: 0.9]
[cegb_tradeoff: 1]
[cegb_penalty_split: 0]
[cegb_penalty_feature_lazy: ]
[cegb_penalty_feature_coupled: ]
[path_smooth: 0]
[interaction_constraints: ]
[verbosity: 1]
[saved_feature_importance_type: 0]
[linear_tree: 0]
[max_bin: 255]
[max_bin_by_feature: ]
[min_data_in_bin: 3]
[bin_construct_sample_cnt: 200000]
[data_random_seed: 175]
[is_enable_sparse: 1]
[enable_bundle: 1]
[use_missing: 1]
[zero_as_missing: 0]
[feature_pre_filter: 1]
[pre_partition: 0]
[two_round: 0]
[header: 0]
[label_column: ]
[weight_column: ]
[group_column: ]
[ignore_column: ]
[categorical_feature: ]
[forcedbins_filename: ]
[precise_float_parser: 0]
[parser_config_file: ]
[objective_seed: 16083]
[num_class: 1]
[is_unbalance: 0]
[scale_pos_weight: 1]
[sigmoid: 1]
[boost_from_average: 1]
[reg_sqrt: 0]
[alpha: 0.9]
[fair_c: 1]
[poisson_max_delta_step: 0.7]
[tweedie_variance_power: 1.5]
[lambdarank_truncation_level: 30]
[lambdarank_norm: 1]
[label_gain: ]
[lambdarank_position_bias_regularization: 0]
[eval_at: ]
[multi_error_top_k: 1]
[auc_mu_weights: ]
[num_machines: 1]
[local_listen_port: 12400]
[time_out: 120]
[machine_list_filename: ]
[machines: ]
[gpu_platform_id: -1]
[gpu_device_id: -1]
[gpu_use_dp: 0]
[num_gpu: 1]

end of parameters

pandas_categorical:[]
