tree
version=v4
num_class=1
num_tree_per_iteration=1
label_index=0
max_feature_idx=69
objective=regression
feature_names=rsi ema_fast ema_slow bb_middle bb_upper bb_lower macd macd_signal atr momentum_10 momentum_20 volatility volume_ma range range_pct body body_pct upper_shadow lower_shadow is_bullish return_1 return_3 return_6 return_12 return_24 log_return rsi_normalized rsi_overbought rsi_oversold rsi_divergence ema_cross ema_cross_pct ema_cross_signal price_ema_fast_dist price_ema_slow_dist bb_width bb_position bb_position_normalized price_bb_upper_dist price_bb_lower_dist bb_breakout_upper bb_breakout_lower macd_hist macd_hist_change macd_cross_signal macd_strength atr_normalized atr_ma atr_ratio momentum_ratio momentum_convergence volume_ratio volume_spike volume_change volatility_ma volatility_ratio high_volatility low_volatility stoch_k stoch_d stoch_overbought stoch_oversold adx strong_trend sma_20 price_sma_20_dist sma_50 price_sma_50_dist signal_convergence market_regime
feature_infos=[0:99.145297958945207] [178.43567715091189:433.68571375795216] [179.16899978712291:431.92552352305103] [0:433.77300000000002] [0:445.7902884830076] [0:429.47706752940064] [-7.5253030847692912:6.6334773479187561] [-6.6639835167633041:6.1053987507235004] [0:5.6750000000000158] [-25.279999999999973:28.700000000000045] [-31.779999999999973:25.949999999999989] [0:0.013760960557476004] [0:2115.0500000000002] [0:13.050000000000011] [0:0.03421614934772834] [0:10.25] [0:0.026920687512942638] [0:4.8700000000000045] [0:4.5] [0:1] [-0.050838840874428026:0.045717965228589952] [-0.057869419839267966:0.061171925305859576] [-0.062313273580879347:0.055282817502668058] [-0.068215417106652576:0.083728761671513885] [-0.090496047799838109:0.085476025017373169] [-0.052176674847336416:0.04470369757293631] [-0.94594594696859302:0.98290595917890411] [0:1] [0:1] [-30.685579898938528:30.655894189272409] [-7.5253030847692912:6.6334773479187561] [-0.022156052067626355:0.018822304634963066] [0:1] [-0.036308308357206574:0.036066957016052281] [-0.049417861370993924:0.049832234635270263] [0:0.1185808689057089] [-0.39000481601162978:1.4312802625283376] [-1.7800096320232597:1.8625605250566752] [-0.014907105856414044:0.10111453388061334] [-0.013692039624379688:0.095935693106670827] [0:1] [0:1] [-2.8136884881326614:2.9180424258626791] [-0.88796313562727192:0.77022882674520021] [0:1] [-2.6614269079758452:2.6614879927273227] [0:0.01518304181026075] [0:5.0375357142857249] [0:1.7958743291669197] [-387999999.99999952:259999999.99999943] [-28.700000000000045:25.279999999999973] [0:3.4909160086846587] [0:1] [-0.99886813808715336:944] [0:0.013272101953949508] [0:2.8686155747316899] [0:1] [0:1] [0:99.999999925373132] [0:99.128093654670806] [0:1] [0:1] [0:86.579415337112295] [0:1] [0:433.77300000000002] [-0.051861963793781926:0.050205850487540539] [0:429.52199999999999] [-0.084765493890769872:0.066042024013722056] [0:3] [0:2]
tree_sizes=4809 3595 3881 2770 2639 3034 2281 3741 3463 4547 4460 2844 2794

Tree=0
num_leaves=50
num_cat=0
split_feature=46 6 7 38 45 12 12 2 66 45 47 5 12 50 47 22 65 45 65 5 12 1 47 5 24 64 50 24 7 38 48 4 11 4 46 45 12 50 7 50 6 7 8 11 6 6 46 49 7
split_gain=0.00918531 0.00456059 0.00476513 0.00467582 0.00303031 0.0036961 0.0051672 0.00334134 0.00342171 0.00232702 0.00285501 0.00414605 0.00279921 0.00420388 0.00217206 0.00213864 0.00209215 0.00195114 0.00191851 0.00190571 0.00242919 0.00189911 0.00177539 0.00168312 0.0014539 0.00140051 0.00137451 0.00125824 0.00124569 0.00113874 0.00106624 0.000983008 0.000978576 0.000959049 0.00142181 0.000932948 0.000929667 0.000929627 0.00140308 0.000738166 0.000665357 0.000651646 0.000343437 0.00024583 0.000221665 0.000470785 0.000166611 8.29535e-05 5.61172e-06
threshold=0.007770023821093072 4.0699147667675115 1.8148265037669444 0.014317206207852928 -0.17887306986218296 1257.8500000000001 1522.6500000000003 254.84823913556065 230.14300000000003 0.086493705737343135 1.5054464285714302 223.75320722100847 1052.8250000000003 2.3600000000000141 3.5520892857142869 -0.0051777903497834945 0.022169274051776076 -0.2821308414042249 0.01216845362762564 244.2248990406151 624.42500000000007 373.92960075083761 2.1013749999999987 202.51626703846799 -0.027895627022901933 185.42750000000004 5.299999999999998 -0.012415105476927034 3.1363238785899266 0.022992826029667922 1.1889459586148285 249.06893371663384 0.0048229756420799588 188.87600853266375 0.0073401768945616916 0.0040806467349458258 1113.8250000000003 -4.9900000000000082 0.75672439979458261 -0.54999999999999705 0.16817310959028478 0.04021334435925137 1.8857142857142832 0.004843642432538188 2.3978129819900578 1.3055897706620956 0.0085662128631445282 -0.48702170522823102 0.18505250198809317
decision_type=2 2 2 2 2 2 2 2 2 2 2 2 2 2 2 2 2 2 2 2 2 2 2 2 2 2 2 2 2 2 2 2 2 2 2 2 2 2 2 2 2 2 2 2 2 2 2 2 2
left_child=9 2 4 46 5 24 -7 8 -6 10 25 17 26 -14 -9 28 22 48 19 33 27 -22 -17 -19 -2 40 -13 -21 47 -30 -18 35 37 43 -35 -27 -5 42 -39 -33 41 -1 -20 -11 45 -34 -3 -4 -12
right_child=1 3 15 36 7 6 -8 14 -10 18 11 12 13 -15 -16 16 30 23 32 20 21 -23 -24 -25 -26 31 -28 -29 29 -31 -32 39 44 34 -36 -37 -38 38 -40 -41 -42 -43 -44 -45 -46 -47 -48 -49 -50
leaf_value=0.00079928955575526528 0.00089460930654791822 0.00072816705738946606 0.00069770069676416459 -0.00085501495541136902 0.00053628163418435347 7.5238646879475049e-05 0.00075420307238652034 0.00072816705738946606 7.9723819316694969e-05 0.00058822493259558435 0.00075681014660584174 0.00072816705738946606 0.0011670529504717189 0.00069702318574330513 0.00043354949156603845 0.00072816705738946606 0.00038787192284441338 0.00072816705738946606 0.00050839219403628181 0.00072816705738946606 0.00081866412942369581 0.00056524317871874141 0.0010713537155870006 0.0013855885522094517 0.00070218238050973253 0.0005947937427978518 0.0009488264032847675 0.00035623118120499636 0.00072816705738946606 0.00011872390911555318 0.00075872502709314936 0.00072816705738946606 0.00072816705738946606 0.00083774000731795702 0.00054308097054107658 0.00074543534640741157 0.0004057205432008814 0.00072816705738946606 0.0010069768378188552 0.00094037705797210373 0.00072816705738946606 0.001281729986414337 0.00075783039679606944 0.00072816705738946606 0.00075545621328099264 0.00050693595293828484 0.0006040185532708213 0.00079317317022928758 0.00072816705738946606
leaf_weight=77 134 10.999999999999998 18 12.000000000000002 198 52 33 247 80 82 17.000000000000004 513 125 47 87 49 24 19 17 17 138 140 137 74 270 263 88 109 12.000000000000002 18 21 45 30 326 36 83 18 82 150 55 33 19 37 11.999999999999998 20 35 27 45 11.999999999999998
leaf_count=77 134 11 18 12 198 52 33 247 80 82 17 513 125 47 87 49 24 19 17 17 138 140 137 74 270 263 88 109 12 18 21 45 30 326 36 83 18 82 150 55 33 19 37 12 20 35 27 45 12
internal_value=0.000728167 0.000625036 0.000648326 0.000211235 0.000596949 0.000701885 0.000397312 0.00052129 0.000386733 0.000779468 0.000821937 0.000877884 0.000826584 0.00100962 0.00064832 0.000807472 0.000897459 0.00116162 0.000728167 0.000687754 0.000606559 0.000709009 0.000978999 0.00127479 0.000753659 0.000728167 0.000765846 0.000420366 0.000637718 0.000369327 0.000671485 0.000693024 0.000823766 0.000748738 0.000794586 0.000645372 -0.000268271 0.000870993 0.000915673 0.000807871 0.00087934 0.000947278 0.000728167 0.000625428 0.000723634 0.000637011 0.000722648 0.000728167 0.000728167
internal_weight=0 1493 1425 68 1101 489 85 612 278 2701 1470 895 773 172 334 324 231 122 1231 860 404 278 186 93 404 575 601 126 93 30 45 446 371 456 362 346 30 286 232 100 129 96 54 94 85 65 38 63 29
internal_count=4194 1493 1425 68 1101 489 85 612 278 2701 1470 895 773 172 334 324 231 122 1231 860 404 278 186 93 404 575 601 126 93 30 45 446 371 456 362 346 30 286 232 100 129 96 54 94 85 65 38 63 29
is_linear=0
shrinkage=1


Tree=1
num_leaves=39
num_cat=0
split_feature=46 7 35 7 62 59 22 17 3 50 12 35 3 66 35 66 46 54 47 42 48 3 38 11 54 50 10 7 55 55 62 11 59 12 54 50 20 8
split_gain=0.00839383 0.0046541 0.00544395 0.00307325 0.00248184 0.00271085 0.00269561 0.00242727 0.00218119 0.00266845 0.00284448 0.00255847 0.00244666 0.0058768 0.00218972 0.00202378 0.00188952 0.00176578 0.00199967 0.00173237 0.00168251 0.00227404 0.00143934 0.00111481 0.00107425 0.00103667 0.000985228 0.000950476 0.000585873 0.000496287 0.000413224 0.00039115 0.000387001 0.000333023 0.000329236 7.02228e-05 6.09314e-05 1.09252e-05
threshold=0.0073558674315603945 3.6927802399175227 0.064016076470229402 1.8610079241368302 17.624447496762752 41.129098508570245 -0.011774007772481164 1.6499999999999917 385.67950000000002 5.299999999999998 1045.1750000000004 0.029971434341024547 226.08500000000006 201.51850000000005 0.021841624764957258 384.05610000000007 0.0095081439818657295 0.0044825324034257199 3.4274642857142932 0.64611364579690089 1.1583781552497265 244.24625000000006 0.0083115734315910173 0.0035202608622688174 0.0063884239160812203 -1.7399999999999805 4.4249999999999838 -0.33938452747321385 0.7765772119163169 0.9093491258167774 63.686008408534242 0.0034874287903623041 80.070182294257066 1163.6750000000002 0.0044044831135909585 -3.5400000000000058 0.0022582500741772375 2.4210714285714259
decision_type=2 2 2 2 2 2 2 2 2 2 2 2 2 2 2 2 2 2 2 2 2 2 2 2 2 2 2 2 2 2 2 2 2 2 2 2 2 2
left_child=8 3 32 4 15 6 -6 -7 9 10 12 23 13 -1 -14 26 17 34 -19 -4 21 -18 28 -12 30 35 -2 -17 -10 -27 31 -11 33 -3 -5 -24 -22 -13
right_child=1 2 19 16 5 7 -8 -9 22 24 11 37 14 -15 -16 27 20 18 -20 -21 36 -23 25 -25 -26 29 -28 -29 -30 -31 -32 -33 -34 -35 -36 -37 -38 -39
leaf_value=2.3819750554633506e-05 0.00025458325235291115 0 -0.0012140321649641911 0 -0.00015647328619799081 -0.00023639599001644627 4.0328026314561767e-05 0.00011034983276516237 0 0 0 9.8292744785488816e-06 8.565845958552289e-05 0.00038143387511848243 -5.6677765504186583e-05 -0.0003512267439093973 0 0.0003036900359597731 -1.6059532327917352e-05 0 7.64291958138079e-05 -0.00060669011900517042 0.00023897913441673445 0.00052562445642241899 0 0 0 0 -0.00040262468627020893 -0.0002854042594769851 0 0.00044612069440162316 0.00010906452662311493 -0.00026871721775299215 -0.00018876331003616639 0 0 -4.2732848913785591e-05
leaf_weight=558 106 11.999999999999998 24 70 305 541 343 35 9.9999999999999982 15.999999999999998 10.999999999999998 35 407 158 779 30 13.999999999999998 153 31 12.999999999999998 26 30 30 72 27 29 14.999999999999998 11.999999999999998 43 28 15.999999999999998 84 10.999999999999998 23 23 9.9999999999999982 20 12.999999999999998
leaf_count=558 106 12 24 70 305 541 343 35 10 16 11 35 407 158 779 30 14 153 31 13 26 30 30 72 27 29 15 12 43 28 16 84 11 23 23 10 20 13
internal_value=0 -8.4236e-05 -0.000459943 -6.35817e-05 -9.90034e-05 -0.000124944 -4.45972e-05 -0.000206632 5.86164e-05 7.27634e-05 5.50047e-05 0.000286176 3.64399e-05 0.000109759 -3.6136e-06 6.50917e-05 5.66573e-05 0.000130436 0.000222681 -0.000916889 -0.000114816 -0.000349729 -0.000113211 0.000454061 0.00029008 0 0.000190907 -0.000178204 -0.000322482 -0.000135488 0.000356156 0.000396791 0 -0.000154281 0 0.000196191 1.69602e-06 0
internal_weight=0 1837 83 1754 1387 1224 648 576 2326 2176 2033 131 1902 716 1186 163 367 277 184 37 90 44 150 83 143 97 121 42 53 57 116 100 46 35 93 40 46 48
internal_count=4163 1837 83 1754 1387 1224 648 576 2326 2176 2033 131 1902 716 1186 163 367 277 184 37 90 44 150 83 143 97 121 42 53 57 116 100 46 35 93 40 46 48
is_linear=0
shrinkage=0.05


Tree=2
num_leaves=43
num_cat=0
split_feature=46 7 62 67 48 62 38 17 11 5 4 24 7 7 4 7 6 8 24 7 65 65 11 44 38 50 3 24 62 3 50 46 5 34 22 46 49 5 11 48 11 29
split_gain=0.00652151 0.00351228 0.00343616 0.00279366 0.00284696 0.00310337 0.00274248 0.00232293 0.00228172 0.00215248 0.0021366 0.00169768 0.00168242 0.00241966 0.00243918 0.00166655 0.00151463 0.0014354 0.00141719 0.00140528 0.00129074 0.00298579 0.00144533 0.00117397 0.00116489 0.00107113 0.001074 0.00106289 0.00101406 0.00146167 0.000733658 0.000604195 0.000438985 0.000350952 0.000338619 0.000196525 0.000132783 6.6256e-05 0.000219088 1.56326e-05 1.48703e-05 1.17249e-09
threshold=0.007770023821093072 3.8918291926349018 17.780465069240645 0.0058286693545270508 1.0797985187311341 39.492346608873056 0.0093670359083094391 0.34999999999998016 0.0069765430546388446 380.73454888596626 247.97726469774071 0.018289345952236084 -0.9273835678547574 0.67736070676767146 227.67473669018514 -4.3249385353216239 -0.29146633994842824 1.5035714285714306 -0.041786896763966901 2.1481216352293195 0.012933044043915804 0.0023685913127001489 0.0054006283498748628 1.0000000180025095e-35 0.011083661810652908 -4.6249999999999991 385.67950000000002 -0.022332192608999098 11.159223567548276 385.02050000000003 -6.3600000000000128 0.0091006864099868034 344.70141923112823 0.0075067340588338268 -0.0061485899905051591 0.006159048222172169 0.10052115019061388 228.04514687489714 0.0045576684666283115 0.93915414089532334 0.0041514304782543322 5.3229154896670439
decision_type=2 2 2 2 2 2 2 2 2 2 2 2 2 2 2 2 2 2 2 2 2 2 2 2 2 2 2 2 2 2 2 2 2 2 2 2 2 2 2 2 2 2
left_child=2 3 16 4 8 23 -3 11 10 12 -2 34 24 14 -14 -7 37 -15 -10 -13 21 -9 -22 -6 35 36 -27 -26 39 32 31 -8 -30 -28 -5 -4 -11 -1 -39 40 -18 -31
right_child=1 6 9 7 5 15 30 20 18 25 -12 19 13 17 -16 -17 28 -19 -20 -21 22 -23 -24 -25 27 26 33 -29 29 41 -32 -33 -34 -35 -36 -37 -38 38 -40 -41 -42 -43
leaf_value=-1.1716516326982371e-05 -0.00029959356861825905 0 6.4709839642669215e-05 -5.7632363110538063e-05 0 0 -0.00011662141627693825 0 -7.4115368639689823e-05 0.00014826956865013826 -1.0655747598139406e-05 -0.00039631713504608779 5.8535936487694922e-05 0.00021413751672250895 -8.4117050820439878e-05 0.00036417645454758655 0 3.3216031048625905e-05 -0.00052324349867248856 0 0.00016456478925876364 0.00034556730442352618 -0.00012270430881064558 -0.00029689127371294703 7.2259222309084892e-05 0 -0.00035023019025715561 0.00033610748055084688 0.00025456506037783701 3.3512281323514417e-07 0 -0.0010358439228493233 0.00066558744286256653 0 0.00010600807275585477 -7.7597089074566837e-05 0 0.0001267300370167826 0 0 6.6779437406827289e-05 0
leaf_weight=37 108 17 38 26 130 15.999999999999998 18 104 59 15.000000000000002 259 67 459 187 757 72 17 498 89 71 71 115 112 60 175 18 81 100 125 26 12.999999999999998 22 36 17 68 55 9.9999999999999982 44 18 13.999999999999998 17 10.999999999999998
leaf_count=37 108 17 38 26 130 16 18 104 59 15 259 67 459 187 757 72 17 498 89 71 71 115 112 60 175 18 81 100 125 26 13 22 36 17 68 55 10 44 18 14 17 11
internal_value=0 -8.48221e-05 4.48115e-05 -6.37179e-05 -0.000126765 0 -0.000443016 7.26345e-06 -0.000196366 2.13324e-05 -0.000109362 -0.000109585 3.49415e-05 1.30445e-05 -2.61584e-05 0.000247481 0.000194283 8.99285e-05 -0.000378131 -0.000225558 8.71433e-05 0.000169306 0 -0.000111481 0.000134438 -0.0001621 -0.00023452 0.000186467 0.000261374 0.000312517 -0.000623069 -0.000748204 0.000377863 -0.000304074 7.59772e-06 0 0 0 5.08458e-05 0 3.38539e-05 0
internal_weight=0 1497 2755 1427 793 278 70 634 515 2410 367 232 2269 1901 1216 88 345 685 148 138 402 219 183 190 368 141 116 275 246 198 53 40 161 98 94 93 25 99 62 48 34 37
internal_count=4252 1497 2755 1427 793 278 70 634 515 2410 367 232 2269 1901 1216 88 345 685 148 138 402 219 183 190 368 141 116 275 246 198 53 40 161 98 94 93 25 99 62 48 34 37
is_linear=0
shrinkage=0.05


Tree=3
num_leaves=29
num_cat=0
split_feature=54 48 54 21 54 31 64 12 8 66 31 5 46 67 0 47 24 54 1 8 46 54 46 67 67 13 8 20
split_gain=0.00611574 0.004335 0.00341511 0.00357495 0.00357391 0.00315472 0.00288784 0.00655843 0.00329561 0.00262029 0.00256183 0.00228729 0.00220618 0.00199465 0.0019386 0.00208826 0.00180747 0.00151719 0.00181549 0.00163853 0.00147936 0.00145513 0.00142761 0.00133504 0.00123069 0.000900542 0.000460468 4.71205e-05
threshold=0.0084936449355245847 1.0104927998507571 0.0073859709873658527 0.0030990774969533734 0.0052304504336295916 0.014126828288323311 373.5795 685.37500000000011 1.6000000000000039 230.32250000000002 0.0041260956917752905 227.22167140076942 0.0099418030553948631 -0.0064840482957342635 54.895629382330796 2.6423928571428585 -0.037389701736452834 0.0036220369516182759 213.27093061649626 1.0249999999999988 0.0068018243714955988 0.007893452942143794 0.0060998469317368248 0.02904835424662389 0.02904835424662389 4.8849999999999918 4.0203571428571392 -0.0026693362998562726
decision_type=2 2 2 2 2 2 2 2 2 2 2 2 2 2 2 2 2 2 2 2 2 2 2 2 2 2 2 2
left_child=1 6 4 27 17 9 7 8 10 -6 -1 -2 23 20 15 -15 -13 19 -19 -3 -8 -5 -10 -9 -16 -22 -18 -4
right_child=11 2 3 21 5 -7 13 12 22 -11 -12 16 -14 14 24 -17 26 18 -20 -21 25 -23 -24 -25 -26 -27 -28 -29
leaf_value=5.0157136835864811e-05 0 0.00024344151906640916 0 0.0011703237309946234 2.1532690261584483e-05 -0.0011108766094375733 0 0.00031444826394092814 0.00020601731930280852 -0.00021198541583532064 0.00031620837808208263 0 -0.00013516588049412468 -0.00011560722554674471 -0.0001775325951030625 0.00029256808357697975 -0.00074641045652476534 -0.00010758912855603092 5.9691567166479765e-05 -0.00013451364606278663 -0.00036907729783261051 0 -0.00012030259812382105 0 0.00012603226257405274 0 0 -0.00010301810375289982
leaf_weight=795 25 23 15.000000000000002 14.000000000000002 135 9.9999999999999982 37 415 27 320 118 25 17 24 114 104 45 184 875 321 84 10.999999999999998 342 55 28 12.999999999999998 14.999999999999998 10.999999999999998
leaf_count=795 25 23 15 14 135 10 37 415 27 320 118 25 17 24 114 104 45 184 875 321 84 11 342 55 28 13 15 11
internal_value=0 2.28508e-05 -3.00938e-05 0.000363096 -4.3524e-05 -0.000163765 7.19069e-05 0.000100322 3.63869e-05 -0.000131724 9.00494e-05 -0.000353244 0.000258319 -4.01334e-05 2.20483e-05 0.000176973 -0.000478156 -9.97084e-08 2.58983e-05 -9.46493e-05 -0.000202634 0.000790238 -8.28297e-05 0.000283213 -8.24417e-05 -0.000307888 -0.000631604 0
internal_weight=0 4092 1919 51 1868 465 2173 1769 1282 455 913 110 487 404 270 128 85 1403 1059 344 134 25 369 470 142 97 60 26
internal_count=4202 4092 1919 51 1868 465 2173 1769 1282 455 913 110 487 404 270 128 85 1403 1059 344 134 25 369 470 142 97 60 26
is_linear=0
shrinkage=0.05


Tree=4
num_leaves=29
num_cat=0
split_feature=47 62 55 59 2 42 47 43 48 31 47 51 31 48 42 49 6 48 36 6 13 1 62 36 7 33 34 42
split_gain=0.00647618 0.00584624 0.00361621 0.00287226 0.00220751 0.0021811 0.00195522 0.0039723 0.00225334 0.00190182 0.00155792 0.00144237 0.00143131 0.00125238 0.000908741 0.00079174 0.000784825 0.000733946 0.000612668 0.000490988 0.000480885 0.000122299 0.000112067 2.67263e-05 0.000143411 2.44226e-05 3.13223e-06 2.46563e-06
threshold=3.5154642857142848 17.624447496762752 1.2939507483303148 10.643238981633079 331.46754116340742 -1.2658276739090379 3.2192857142857143 0.16050858520344871 1.0104927998507571 0.0070487292393629011 1.5633928571428566 0.7432421461219042 0.0019352327568578867 1.105697200979072 0.88148784735829 -0.32070299231457772 -5.8470072208932029 1.0319336929811873 0.034095819097046988 1.9473087381369967 4.8350000000000373 330.57637017703917 30.294374299901175 0.50264960072252862 -0.438007225800158 -0.00085030544995288039 0.0056741649220006943 0.61354896825119687
decision_type=2 2 2 2 2 2 2 2 2 2 2 2 2 2 2 2 2 2 2 2 2 2 2 2 2 2 2 2
left_child=1 10 5 21 17 13 8 -8 -7 11 23 27 16 -3 15 -5 -13 -2 -12 20 -20 22 -4 24 -1 -26 -25 -6
right_child=4 2 3 14 9 6 7 -9 -10 -11 18 12 -14 -15 -16 -17 -18 -19 19 -21 -22 -23 -24 26 25 -27 -28 -29
leaf_value=0 0 -0.00060417040274377703 0 0 1.3444888058304232e-05 3.8845415279256124e-05 0 0.00078830126155152364 -4.520580781315812e-05 -0.0007466694142449974 0 0 0 0 0 -0.00035023138341519337 -0.00045150241896296632 0.00043056154062298343 0.00027496969300048367 0 0 0 0.00021786676571920727 -2.7932409237012241e-05 0.0001298596772037569 0 0 0
leaf_weight=19 13.000000000000002 23 13.999999999999998 33 34 1749 64 24 1465 33 13.999999999999998 11.999999999999998 31 10.999999999999998 11.999999999999998 167 83 9.9999999999999982 295 9.9999999999999982 10.999999999999998 9.9999999999999982 21 26 28 13.999999999999998 13.999999999999998 10.999999999999998
leaf_count=19 13 23 14 33 34 1749 64 24 1465 33 14 12 31 11 12 167 83 10 295 10 11 10 21 26 28 14 14 11
internal_value=0 8.43015e-06 -1.11377e-05 -0.000192029 -0.00026553 1.30446e-06 6.9037e-06 0.00023931 0 -0.000324511 0.000183119 -0.00021343 -0.000300673 -0.000394279 -0.000276756 -0.000304206 -0.000396863 4.02938e-05 0.000235778 0.000250796 0.00026261 9.59968e-05 0.000143358 0 2.98064e-05 9.90224e-05 -1.7679e-05 0
internal_weight=0 4024 3593 257 227 3336 3302 88 3214 204 431 171 126 34 212 200 95 23 330 316 306 45 35 101 61 42 40 45
internal_count=4251 4024 3593 257 227 3336 3302 88 3214 204 431 171 126 34 212 200 95 23 330 316 306 45 35 101 61 42 40 45
is_linear=0
shrinkage=0.05


Tree=5
num_leaves=33
num_cat=0
split_feature=31 42 62 46 47 45 24 22 47 12 6 47 48 3 7 65 31 42 7 7 62 35 39 51 49 29 2 47 7 5 26 47
split_gain=0.00579663 0.00646789 0.00403302 0.00383555 0.00353148 0.00249363 0.00348129 0.00302291 0.00315161 0.00294495 0.00244278 0.00191707 0.0016415 0.00160248 0.00189547 0.00148192 0.00137287 0.00121438 0.0010311 0.000548778 0.000489456 0.000345096 0.000341441 0.000285536 0.000240854 0.000206556 0.000198084 0.000193475 0.000151603 0.000130598 8.04326e-05 2.44085e-05
threshold=0.01339375388771287 0.52436864243050285 17.624447496762752 0.0063468742156050093 1.8874107142857144 -0.0625917881642543 0.034189987628538206 -0.0073362103762912847 2.9617321428571444 1072.3000000000002 -0.29146633994842824 3.4683392857142903 1.1342604695936147 385.02050000000003 1.2615762704063298 0.014423287542017887 0.0070487292393629011 -0.31383637844970996 -0.69412589681791848 1.147661094722183 56.650483096452014 0.028414205987433407 0.01453866657163211 0.77144679839870778 1.2320134615425278 -4.9818744528923764 228.07977332211252 0.97553571428571584 -0.63769247748493896 326.88571433767856 -0.13980773638165464 1.6978571428571438
decision_type=2 2 2 2 2 2 2 2 2 2 2 2 2 2 2 2 2 2 2 2 2 2 2 2 2 2 2 2 2 2 2 2
left_child=2 4 10 12 -2 7 9 8 -5 -7 23 -8 16 14 17 -9 18 -12 -4 22 -18 -21 -15 26 30 -14 -1 -27 -28 -16 -25 -3
right_child=1 31 3 5 -6 6 11 15 -10 -11 13 -13 25 19 29 -17 20 -19 -20 21 -22 -23 -24 24 -26 27 28 -29 -30 -31 -32 -33
leaf_value=0 0 6.8250356974321893e-05 0.00015381541711633395 0 -0.0012536217643952636 -0.00017491202937981851 9.5614864150110962e-05 0.00010414715493568215 -0.00028526985809006926 1.0546320631030409e-05 0 -0.00044651855652942169 0 0 -0.00013817865013455348 -0.00024605819512751821 0.00055626086869594302 0.0003699091636454162 2.4315144294759342e-05 0 6.3831122312095779e-06 0.00029311137727233553 -0.00035639875518911064 0 0 0 0.00019503688744447413 -0.00027274833609178468 0 0 -0.00021491674169650228 0
leaf_weight=17 11.999999999999998 13.000000000000002 248 398 25 889 274 595 138 217 23 14.999999999999998 9.9999999999999982 12.000000000000002 17 24 25 201 781 11.000000000000002 31 14.999999999999998 13.999999999999998 20 23 12.999999999999998 25 36 15.999999999999998 19 31 18
leaf_count=17 12 13 248 398 25 889 274 595 138 217 23 15 10 12 17 24 25 201 781 11 31 15 14 20 23 13 25 36 16 19 31 18
internal_value=0 -0.000460606 4.00651e-06 -1.18607e-05 -0.000908446 -4.71154e-05 -9.22938e-05 3.12541e-06 -7.91603e-05 -0.000134007 0.000147251 5.00367e-05 6.23497e-05 0.000224545 0.000275506 8.24551e-05 7.95455e-05 0.000330518 6.03966e-05 0 0.000341545 0.000129035 -0.000189512 0 -9.24452e-05 -0.000168875 3.72395e-05 -0.000211764 0.000118361 0 -0.000155487 0
internal_weight=0 68 4138 3694 37 2550 1395 1155 536 1106 444 289 1144 312 260 619 1085 224 1029 52 56 26 26 132 74 59 58 49 41 36 51 31
internal_count=4206 68 4138 3694 37 2550 1395 1155 536 1106 444 289 1144 312 260 619 1085 224 1029 52 56 26 26 132 74 59 58 49 41 36 51 31
is_linear=0
shrinkage=0.05


Tree=6
num_leaves=25
num_cat=0
split_feature=31 8 9 46 46 11 4 13 62 55 62 59 55 25 7 7 3 47 21 45 35 6 7 17
split_gain=0.00645025 0.00364435 0.00440836 0.0034178 0.00280502 0.00376574 0.00244181 0.00373931 0.00228992 0.00308293 0.00273865 0.00145154 0.00110934 0.00111461 0.00101402 0.000746562 0.000673181 0.000758283 0.000636115 0.000445486 0.000393565 0.00039772 0.000302675 0.000113683
threshold=0.01339375388771287 2.4946428571428663 8.0250000000000359 0.0063141213673956181 0.012966393541161877 0.0069765430546388446 249.06893371663384 3.0449999999999595 47.916609286064904 0.81834366918934509 17.780465069240645 29.047560517585278 0.53070158270569945 0.0056272638631383485 -1.5638749462913515 -3.2362910289930142 185.73250000000002 1.4146428571428578 -0.0042267545308433121 -0.028584339907296381 0.022745478474474858 -0.84059257663230358 -0.67377840172774039 0.29999999999999721
decision_type=2 2 2 2 2 2 2 2 2 2 2 2 2 2 2 2 2 2 2 2 2 2 2 2
left_child=3 -2 -3 11 5 8 14 -8 10 -10 -5 16 -13 18 -7 -6 20 19 -14 -18 -1 -22 -19 -15
right_child=1 2 -4 4 15 6 7 -9 9 -11 -12 12 13 23 -16 -17 17 22 -20 -21 21 -23 -24 -25
leaf_value=0 0 -0.0014065659558657783 0 0.00010717346417634826 0 -0.0001375485590431272 -0.00044273183909549776 0 -0.00024084206565939053 0.00012972153209265156 -5.6645085862217154e-05 -0.00020813896962200963 0 0 0.00019728171724818435 0.00058921866816391945 -0.00017210541012338334 0.00012248648936452922 0.00015904559118802596 0 0 0.00038895200500325451 -2.7283639836485908e-07 -8.1373629526690564e-05
leaf_weight=28 22 18 19 285 9.9999999999999982 37 136 104 55 504 1665 14.999999999999998 116 37 47 23 117 51 718 18 19 21 101 43
leaf_count=28 22 18 19 285 10 37 136 104 55 504 1665 15 116 37 47 23 117 51 718 18 19 21 101 43
internal_value=0 -0.000515049 -0.000817409 1.05851e-05 -1.83821e-05 -2.53986e-05 -0.000186098 -0.000268651 -2.6473e-06 8.42823e-05 -3.01341e-05 7.91327e-05 0.000112073 0.00012282 0 0.000431166 0 -4.04211e-05 0.000140965 -0.000132023 0.00013351 0.00023411 8.09649e-06 -3.85054e-06
internal_weight=0 59 37 4150 2866 2833 324 240 2509 559 1950 1284 929 914 84 33 355 287 834 135 68 40 152 80
internal_count=4209 59 37 4150 2866 2833 324 240 2509 559 1950 1284 929 914 84 33 355 287 834 135 68 40 152 80
is_linear=0
shrinkage=0.05


Tree=7
num_leaves=41
num_cat=0
split_feature=46 46 11 35 4 54 62 22 4 42 55 62 1 5 5 35 62 38 47 54 13 62 47 35 35 46 11 45 62 42 11 62 24 15 1 13 13 49 5 42
split_gain=0.00567129 0.00252354 0.00377039 0.00385231 0.00291478 0.00416946 0.00391637 0.00259224 0.00247335 0.00230841 0.00175276 0.0014656 0.00242014 0.00696939 0.00278531 0.00238901 0.00270252 0.0023636 0.00216548 0.00173274 0.00140983 0.00134408 0.00123005 0.00117063 0.00130363 0.00114588 0.00108075 0.00107943 0.00138096 0.00120911 0.000944103 0.000931817 0.000868394 0.000743291 0.000594949 0.000498915 0.000381829 9.28444e-05 9.21211e-05 0.000239112
threshold=0.007770023821093072 0.012616160577046081 0.0068178098183777182 0.062178734208676638 415.93826827554795 0.0060149102580811754 43.889554009339882 0.0083006421650757573 237.10151341979636 -0.34590254114255964 1.0803861036599109 17.780465069240645 225.58807626895978 201.86375510666252 227.50281345271023 0.029469164651699381 53.752627184351958 0.025948687565525392 1.5633928571428566 0.0036477653014961166 4.5600000000000032 29.679164377061387 0.98964285714285716 0.01505557535322596 0.021505988162369347 0.0062795156547914227 0.0037377026518524603 -0.3344171267611275 50.401441649685623 -0.45042823723323128 0.0032580425224063556 27.816755082779881 -0.011006465544681486 2.8999999999999919 191.70077983854881 1.5099999999999911 4.1399999999999872 0.76763258022881786 228.04514687489714 -0.026755190868103514
decision_type=2 2 2 2 2 2 2 2 2 2 2 2 2 2 2 2 2 2 2 2 2 2 2 2 2 2 2 2 2 2 2 2 2 2 2 2 2 2 2 2
left_child=11 2 4 27 6 33 7 -2 -5 36 -8 18 13 22 17 21 -17 31 38 30 -10 -15 26 -20 32 -21 -13 29 -29 -4 -16 -14 -25 -6 -24 -26 -3 -19 39 -1
right_child=1 9 3 8 5 -7 10 -9 20 -11 -12 12 14 15 19 16 -18 37 23 25 -22 -23 34 24 35 -27 -28 28 -30 -31 -32 -33 -34 -35 -36 -37 -38 -39 -40 -41
leaf_value=0 -1.1510527998850469e-05 0.00070728015627211593 0 0 -0.00061798464272718476 0.00012475400341021434 0.00022863173389255916 -0.00025704421809350121 -0.00060521879316649215 0 0 0.00036318299699524031 -1.4381132506424746e-05 0.00028939042859086478 1.4477113703889523e-06 0.00074757849705143478 0 0.00010679811710283219 0 0.00012281663732509446 0 0 -5.4163549296355501e-05 0 0 1.320856566071928e-05 0 -0.00023530266445776312 0.00011884576259830439 0.0004311004505330718 -0.00013783276888256266 -0.00048579023707872682 0.00052666062688951131 0 6.6203498202252039e-05 0.00018704728339098968 0 0 4.5704194448593852e-05 -0.00011491953438537023
leaf_weight=27 496 20.000000000000004 50 13.999999999999998 53 21 194 158 99 22 146 44 42 73 139 66 13.999999999999998 21 19 431 15.999999999999998 37 319 12.999999999999998 39 820 23 120 14.999999999999998 17 207 60 74 9.9999999999999982 132 81 9.9999999999999982 20 29 58
leaf_count=27 496 20 50 14 53 21 194 158 99 22 146 44 42 73 139 66 14 21 19 431 16 37 319 13 39 820 23 120 15 17 207 60 74 10 132 81 10 20 29 58
internal_value=0 -6.65203e-05 -8.18701e-05 -0.000232043 -3.11045e-05 -0.000314639 -2.08498e-06 -7.85034e-05 -0.000453845 0.00025279 0.000130186 5.45597e-05 3.82968e-05 0.000116549 3.57809e-06 0.000376691 0.000613877 -0.000204113 0.000156905 2.53176e-05 -0.00053362 0.000158378 1.1425e-05 0.000246934 0.00028408 5.49745e-05 0.00021546 -6.55027e-05 -0.000158884 4.80951e-05 -6.74481e-05 -0.000340856 0.000459399 -0.000540308 -7.84329e-06 0.000115065 0.000549852 1.4425e-05 0 -4.46315e-05
internal_weight=0 1461 1409 331 1078 84 994 654 129 52 340 2788 2448 708 1740 190 80 143 340 1597 115 110 518 226 207 1251 67 202 135 67 346 102 87 63 451 120 30 41 114 85
internal_count=4249 1461 1409 331 1078 84 994 654 129 52 340 2788 2448 708 1740 190 80 143 340 1597 115 110 518 226 207 1251 67 202 135 67 346 102 87 63 451 120 30 41 114 85
is_linear=0
shrinkage=0.05


Tree=8
num_leaves=38
num_cat=0
split_feature=46 31 7 8 22 23 62 62 3 50 55 39 48 7 69 46 1 3 42 7 7 7 54 58 48 50 50 15 54 55 7 11 11 51 1 43 23
split_gain=0.00498707 0.00341328 0.00434586 0.00306929 0.00267994 0.00243724 0.00299395 0.00247634 0.00223032 0.00228428 0.00153816 0.00189537 0.00153708 0.00147757 0.00179921 0.00156463 0.00138685 0.00395458 0.00136208 0.0013473 0.00124966 0.0010576 0.000949249 0.000829779 0.000803941 0.000798179 0.000740725 0.00071264 0.000650937 0.00047461 0.000635653 0.000343022 0.000236329 0.000218337 0.000148204 0.000127222 9.26519e-06
threshold=0.007770023821093072 0.01339375388771287 1.8610079241368302 2.4210714285714259 -0.0080050799370693908 -0.039100143499861621 23.350559344074323 40.070874383954575 385.67950000000002 4.9500000000000037 1.165840194989036 0.046955749452644226 1.0412258463356856 0.67736070676767146 1.5000000000000002 0.0072590710442436432 225.79650090961806 212.16250000000002 0.56387044560659139 2.9690593090704884 -0.75146112993336445 1.5497489990142135 0.0043814099145562261 77.740625619105245 0.74706666007552414 -2.9399999999999973 6.2500000000000151 2.4250000000000118 0.0052446691759818883 0.77029777594718241 -2.8203293882026981 0.0039117826054710656 0.0073133740157791654 0.75800396012870386 257.80962059597215 0.048603253810864284 -0.00728253474647128
decision_type=2 2 2 2 2 2 2 2 2 2 2 2 2 2 2 2 2 2 2 2 2 2 2 2 2 2 2 2 2 2 2 2 2 2 2 2 2
left_child=8 2 5 -3 19 12 23 -8 9 13 11 -6 32 16 15 -15 17 -1 24 33 -18 25 -16 -7 -11 36 -14 -26 -21 -27 -31 -23 -2 -4 -12 -33 -10
right_child=1 3 4 -5 10 6 7 -9 21 18 34 -13 26 14 22 -17 20 -19 -20 28 -22 31 -24 -25 27 29 -28 -29 -30 30 -32 35 -34 -35 -36 -37 -38
leaf_value=0 0 0 0.00018342830228434167 -0.00076819760424475523 0.00034600012318446508 7.0438641841232905e-05 -0.00025671994062840875 -5.0210932793129137e-05 3.7930121321573845e-05 0 -0.00010440307346996349 0 0.00050367238014535414 0.00026853870804487335 8.7494651473437655e-05 0 5.5328700554642423e-05 0.0002818686985513556 0 0 -6.8917888943800166e-05 0 -4.7468669322405958e-05 -0.00013955721691556969 0.000341399495255214 0 0 0 -0.00048802218192981351 0 -0.00034078831210069258 0.00023630107461940491 -0.00015992729151540825 -1.0568595946655976e-05 4.1199258177963935e-05 0 0
leaf_weight=525 9.9999999999999982 21 15.999999999999998 34 140 190 462 313 15.999999999999998 23 25 41 28 204 287 66 244 157 17 10.999999999999998 692 15.999999999999998 191 58 143 12.999999999999998 10.999999999999998 9.9999999999999982 26 20 87 21.000000000000004 23 37 57 9.9999999999999982 17
leaf_count=525 10 21 16 34 140 190 462 313 16 23 25 41 28 204 287 66 244 157 17 11 692 16 191 58 143 13 11 10 26 20 87 21 23 37 57 10 17
internal_value=0 -7.59523e-05 -5.72974e-05 -0.000475347 8.75913e-05 -0.000108575 -0.000131042 -0.000179785 3.71461e-05 5.10907e-05 0.000176416 0.000257776 0.000141032 3.50602e-05 9.36709e-05 0.000200025 4.87041e-06 6.16818e-05 0.000221597 -0.000116389 -3.11851e-05 -0.000116224 2.31091e-05 1.13709e-06 0.000270522 -0.000186837 0.000367363 0.000311936 -0.000351691 -0.000247213 -0.000282155 7.39258e-06 0 0 0 0.000166304 0
internal_weight=0 1503 1448 55 353 1095 1023 775 2759 2559 263 181 72 2366 748 270 1618 682 193 90 936 200 478 248 176 153 39 153 37 120 107 47 33 53 82 31 33
internal_count=4262 1503 1448 55 353 1095 1023 775 2759 2559 263 181 72 2366 748 270 1618 682 193 90 936 200 478 248 176 153 39 153 37 120 107 47 33 53 82 31 33
is_linear=0
shrinkage=0.05


Tree=9
num_leaves=50
num_cat=0
split_feature=46 42 46 33 24 48 12 4 62 1 35 48 11 39 39 31 7 23 46 35 54 62 67 4 46 38 59 12 62 35 31 35 48 59 46 12 11 54 35 42 42 43 7 33 62 24 12 7 67
split_gain=0.00487751 0.00224904 0.00314283 0.00356823 0.00300841 0.00303262 0.00263758 0.00191573 0.0034278 0.00243367 0.00173106 0.0016311 0.00151971 0.00144187 0.00138208 0.00117884 0.00249565 0.00180613 0.00133074 0.00143985 0.00118576 0.00111285 0.001957 0.00107115 0.0014683 0.00107074 0.000987871 0.000976457 0.00096157 0.000930192 0.00243081 0.000926648 0.000972614 0.000881179 0.00128239 0.000879861 0.000968839 0.000912672 0.000842226 0.000836398 0.000818378 0.000706334 0.000615582 0.000699433 0.00044255 0.000401113 0.000382607 0.000327917 0.000262417
threshold=0.007770023821093072 0.16504207266963764 0.012966393541161877 -0.0037702807986750198 -0.032061372254149949 1.0571148451801646 1330.575 259.21717807703783 39.235441800837172 229.31544213321288 0.061254857387741148 0.99050560118717657 0.0059436703623997767 0.048823283510164996 0.026444496551755649 0.0037044114880497594 1.2877616783403381 0.00061919718305525351 0.006159048222172169 0.018908497577707375 0.0057380883575032264 23.660574771258982 -0.0010749798517858929 434.42439162347387 0.0087630571525802777 -0.00042903052526002862 67.419561498948141 531.47500000000014 30.720010277390347 0.031996209044822262 0.0016793689530394302 0.034365568964129574 1.138920199657075 30.811852128098142 0.0073221094484025905 1072.3000000000002 0.0039117826054710656 0.0050326097185729671 0.041796713982997426 -0.32200336307693705 0.67210225994692596 -0.090097592062880136 -0.22282208383522034 0.01054099978954169 22.432912009099873 0.014257912640530003 534.30000000000007 0.29972978261531369 0.035767680990707665
decision_type=2 2 2 2 2 2 2 2 2 2 2 2 2 2 2 2 2 2 2 2 2 2 2 2 2 2 2 2 2 2 2 2 2 2 2 2 2 2 2 2 2 2 2 2 2 2 2 2 2
left_child=11 2 3 4 6 -6 -2 9 12 13 14 15 44 28 -10 17 20 33 27 -20 26 22 46 24 -5 -14 -17 -19 -3 30 47 32 -31 34 -1 37 -37 -18 -33 -32 41 -11 -24 -44 -9 -35 -13 -23 -12
right_child=1 7 -4 23 5 -7 -8 8 10 40 48 21 25 -15 -16 16 35 18 19 -21 -22 29 42 -25 -26 -27 -28 -29 -30 31 39 38 -34 45 -36 36 -38 -39 -40 -41 -42 -43 43 -45 -46 -47 -48 -49 -50
leaf_value=1.9260513055938738e-06 0.00015398100534679644 0 0.00058749808480416368 0 -0.00038513198647579643 -4.8427639164018305e-05 -0.0003265467015482708 5.4089023357629019e-06 0 0 0 0 0 6.7140140388591158e-05 0.00035998029046139846 0 1.8873114264889031e-05 0 5.0820764990862389e-05 -0.00019096669067044086 0 -3.8007598682355804e-06 0 -0.00029259049226298717 0.00019613883588170887 -0.00043760279225110255 0.00045544856246236228 0.00016857071470260105 -0.00034628624305114872 0.00028796898415604718 0 -0.00011720227470405911 0 0.00019447216828998078 0.00029302394309727725 0 0.00032640486686077758 -0.00024541197727253309 3.5434348796523544e-05 -0.00027053774043280979 0 -0.00075688602700192068 0.00029601192901976617 0 -0.00014830777888460761 0 -0.00018075582565097248 0.00014640412339703864 -0.00017264450492595861
leaf_weight=410 128 26 20 227 155 189 34 53 18 11.999999999999998 18 69 9.9999999999999982 38 71 11.999999999999998 70 189 53 172 9.9999999999999982 218 12.999999999999998 13.999999999999998 178 76 99 107 59 58 33 132 11.999999999999998 263 47 20 43 39 240 152 14.999999999999998 43 115 21 53 20 34 38 28
leaf_count=410 128 26 20 227 155 189 34 53 18 12 18 69 10 38 71 12 70 189 53 172 10 218 13 14 178 76 99 107 59 58 33 132 12 263 47 20 43 39 240 152 15 43 115 21 53 20 34 38 28
internal_value=0 -6.97687e-05 -1.76937e-05 -3.62458e-05 -0.00012903 -0.000214739 2.21451e-05 -0.00015477 -6.06341e-05 -0.000288257 0.00010924 4.34847e-05 -0.0002061 -0.000100772 0.00025422 7.6784e-05 0.000174761 5.00415e-05 -1.30747e-05 -0.000111803 0.000353379 0 9.04614e-05 6.38771e-05 8.86112e-05 -0.000371706 0.000403484 4.50981e-05 -0.000234583 -2.85363e-05 -8.19767e-05 1.348e-05 0.00018451 0.00010123 4.286e-05 1.99209e-05 0.000185436 -2.99964e-05 -5.30673e-06 -0.00022101 -0.000545755 -0.00064503 0.000213525 0.000247498 -2.43914e-05 0.000177779 -3.90999e-05 0 -6.27478e-05
internal_weight=0 1465 945 925 506 344 162 520 327 193 135 2689 192 123 89 1554 293 1261 521 225 121 1135 252 419 405 86 111 296 85 883 441 442 70 740 457 172 63 109 372 185 70 55 149 136 106 283 103 256 46
internal_count=4154 1465 945 925 506 344 162 520 327 193 135 2689 192 123 89 1554 293 1261 521 225 121 1135 252 419 405 86 111 296 85 883 441 442 70 740 457 172 63 109 372 185 70 55 149 136 106 283 103 256 46
is_linear=0
shrinkage=0.05


Tree=10
num_leaves=50
num_cat=0
split_feature=54 45 55 66 8 22 62 8 54 55 5 7 7 45 7 8 8 66 42 35 10 42 62 8 62 67 42 54 9 20 22 66 0 49 54 36 9 43 5 55 49 51 49 62 14 51 49 45 38
split_gain=0.00545342 0.00398144 0.00470367 0.00350262 0.00284271 0.00233113 0.00227084 0.00226157 0.00223364 0.0021841 0.001987 0.00294518 0.0024801 0.00166933 0.00291371 0.00161403 0.00157739 0.00148334 0.00168752 0.00143695 0.0012076 0.00114622 0.00106786 0.00103963 0.00111253 0.00103839 0.000995701 0.000994108 0.000762842 0.000675716 0.000674169 0.000637576 0.00095777 0.000532457 0.000526033 0.000492574 0.000435582 0.000387018 0.000747007 0.000275928 0.000212504 0.000101519 0.00018945 7.83787e-05 3.7923e-05 2.87169e-05 1.94432e-05 3.34547e-06 2.77033e-08
threshold=0.005257109878684379 0.1171718826362704 0.95377402705639824 230.14300000000003 4.11785714285715 -0.0084784055078603298 26.371091404995209 3.1128571428571443 0.0048582564496653146 1.2939507483303148 365.42862251126201 -1.4831560017754308 0.75672439979458261 -0.1751535485556148 0.25743835598606712 3.4985714285714242 2.30285714285715 223.98600000000002 0.062445570410489946 0.067059582098201856 -2.7999999999999967 0.16504207266963764 16.176119490819037 1.5607142857142866 23.803682185284714 -0.010271888156851891 0.71929347735216409 0.0037144149587797124 -4.450000000000002 0.0055213228722492689 0.0035134874228303086 399.37520000000006 56.704980321486772 0.62175608499205959 0.0043713043039770912 -0.077081875164634217 -5.4850000000000128 -0.096905298806203508 223.39575439032669 1.0640661006718866 -0.40000000559998866 1.1781553348038429 0.21359641153727812 30.445896140992556 0.0054824229846188793 1.0237373310051157 0.43744736081412439 -0.53200118147663533 0.016304464490854501
decision_type=2 2 2 2 2 2 2 2 2 2 2 2 2 2 2 2 2 2 2 2 2 2 2 2 2 2 2 2 2 2 2 2 2 2 2 2 2 2 2 2 2 2 2 2 2 2 2 2 2
left_child=5 2 7 16 6 8 -5 17 28 10 11 29 -13 14 -12 22 40 46 -19 31 35 41 -3 43 -25 -15 27 -23 34 -7 -6 32 -17 -9 47 -10 -36 44 -39 -21 -4 -11 -43 -24 -30 -22 -2 -1 -33
right_child=1 15 3 4 30 9 -8 33 20 21 13 12 -14 25 -16 19 -18 18 -20 39 45 26 23 24 -26 -27 -28 -29 37 -31 -32 48 -34 -35 36 -37 -38 38 -40 -41 -42 42 -44 -45 -46 -47 -48 -49 -50
leaf_value=-1.3381331585432779e-05 0 0 -0.00016009636455575424 0 0.00025786524649763364 0.00043860305385594664 -0.0003411716710780302 0 0 -2.3689982181261333e-05 -0.00011568701915057559 1.6640630127482572e-05 0.00014512223264110549 1.9105315877396411e-05 0.00038082402753301681 0 0.00043862245086178617 0.00030589377540740366 0 -0.00048527237744539539 -5.3216381856067545e-05 0 -9.8734961380134904e-05 -6.3282436459671825e-05 -0.00035102072536432358 -0.00018355749807292407 0 -0.00059681148260281366 6.1458882697638988e-05 0 0 -1.8117343565510782e-06 0.00059251545248090805 -0.00030641497182369972 0.00026968434302733458 -0.00040354739270569238 0 0 -0.00022111411597126908 0 2.227006459334039e-05 0 0.00021700691292987555 0 0 2.3202036845227836e-05 -3.7755228535004526e-05 7.9215730564789745e-06 0
leaf_weight=28 26 13.999999999999998 19 78 31 75 241 33 10.999999999999998 29 45 1175 639 34 53 12.000000000000002 24 183 49 14.000000000000002 22 27 20 91 271 188 15.999999999999998 29 25 22 12.999999999999998 21 13.999999999999998 24 47 74 14.999999999999998 65 76 9.9999999999999982 84 11.000000000000002 14.999999999999998 45 70 17 34 53 13.999999999999998
leaf_count=28 26 14 19 78 31 75 241 33 11 29 45 1175 639 34 53 12 24 183 49 14 22 27 20 91 271 188 16 29 25 22 13 21 14 24 47 74 15 65 76 10 84 11 15 45 70 17 34 53 14
internal_value=0 -9.39644e-05 -1.96212e-05 -0.000124518 -0.000207689 2.69819e-05 -0.000264868 0.000113326 -6.66172e-05 4.90705e-05 6.2134e-05 8.24125e-05 6.46613e-05 -4.33346e-05 0.00010198 -0.000203016 7.38464e-05 0.000177526 0.000235881 0 -0.000250974 -0.000140944 -0.000241465 -0.000257812 -0.000292535 -0.000130012 -0.000273429 -0.000374777 0 0.000362477 9.31384e-05 0.000125464 0.000312923 -0.000127732 8.44899e-05 -0.000356833 0.000193976 -6.12443e-05 -0.000114601 -0.000330383 0 0 9.53849e-05 0 0 0 0 0 0
internal_weight=0 1365 839 490 363 2861 319 349 503 2358 2231 1911 1814 320 98 526 127 292 232 85 124 127 441 427 362 222 72 56 379 97 44 61 26 57 143 85 62 236 141 24 103 55 26 65 95 39 60 81 35
internal_count=4226 1365 839 490 363 2861 319 349 503 2358 2231 1911 1814 320 98 526 127 292 232 85 124 127 441 427 362 222 72 56 379 97 44 61 26 57 143 85 62 236 141 24 103 55 26 65 95 39 60 81 35
is_linear=0
shrinkage=0.05


Tree=11
num_leaves=31
num_cat=0
split_feature=7 66 35 12 42 66 6 45 22 5 12 12 46 22 66 31 35 12 21 24 42 13 22 5 2 7 13 5 7 13
split_gain=0.0036998 0.00307595 0.00292688 0.00287482 0.00196726 0.00189495 0.00225292 0.00153964 0.00337329 0.00150098 0.00129152 0.00125944 0.00122926 0.00207711 0.00139641 0.00124602 0.00179675 0.00132444 0.0011156 0.00120847 0.000859286 0.00129039 0.00084126 0.00078035 0.000705914 0.000432173 0.000318613 0.000293945 2.22368e-05 1.07513e-05
threshold=3.6927802399175227 384.05610000000007 0.061254857387741148 1522.6500000000003 0.46250133101159457 399.37520000000006 0.96145706002991471 0.065329911579176156 -0.0052955636109229811 372.74440305345337 1221.95 1171.7750000000003 0.010031025564663907 0.021272337242364995 231.21550000000005 0.0092035161877094731 0.052975463487764891 794.00000000000011 0.0098269604997499611 0.029352549851974889 0.68762455735508721 5.4850000000000145 0.010098375944785022 386.42400306374537 393.78670748096744 -0.21026185614248524 2.6499999999999919 388.23703751027637 2.5897468401491843 3.659999999999997
decision_type=2 2 2 2 2 2 2 2 2 2 2 2 2 2 2 2 2 2 2 2 2 2 2 2 2 2 2 2 2 2
left_child=1 7 27 5 -4 11 24 8 9 10 -1 23 15 14 -14 17 -17 -9 19 -10 21 22 -5 -3 -7 -13 -20 29 -8 -2
right_child=2 3 4 20 -6 6 28 12 18 -11 -12 25 13 -15 -16 16 -18 -19 26 -21 -22 -23 -24 -25 -26 -27 -28 -29 -30 -31
leaf_value=-1.4696886973100408e-05 6.0064579449567524e-05 -0.00020080239100902627 -0.00087202857662774496 0.00052376624709909666 0 0 0 -4.6241004044690371e-05 0.00010633581544825866 0.00031591318379703567 -0.00029090505434100717 0 0 4.1734526202846186e-05 -0.00056679063941655818 0.00030404817379279375 0 6.8901246136729891e-05 -6.4069890274758725e-05 0.00037189370923666304 0 0 0 0 -0.00056624140245286096 0.00022758851237282622 7.0978598919546265e-05 -0.00018025994470775549 -6.0676051477596321e-05 0
leaf_weight=745 21 170 28 33 18 10.999999999999998 22 1113 919 29 50 71 10.999999999999998 15.999999999999998 37 77 118 297 103 65 14.999999999999998 9.9999999999999982 11.999999999999998 42 68 23 74 21 14.999999999999998 10.999999999999998
leaf_count=745 21 170 28 33 18 11 22 1113 919 29 50 71 11 16 37 77 118 297 103 65 15 10 12 42 68 23 74 21 15 11
internal_value=0 5.34957e-06 -0.000303575 -0.000110344 -0.000597356 -0.000165602 -0.000352642 2.22982e-05 5.25241e-05 -1.98179e-05 -3.83914e-05 -7.82716e-05 -1.06558e-05 -0.00022561 -0.000418576 0 0.000116229 -1.84386e-05 0.000108171 0.000128995 0.000151221 0.000260923 0.000393326 -0.000152116 -0.000503717 3.51203e-05 0 0 0 3.91679e-05
internal_weight=0 4146 99 492 46 422 116 3654 1985 824 795 306 1669 64 48 1605 195 1410 1161 984 70 55 45 212 79 94 177 53 37 32
internal_count=4245 4146 99 492 46 422 116 3654 1985 824 795 306 1669 64 48 1605 195 1410 1161 984 70 55 45 212 79 94 177 53 37 32
is_linear=0
shrinkage=0.05


Tree=12
num_leaves=30
num_cat=0
split_feature=7 35 45 66 12 12 35 45 46 31 11 45 24 1 12 12 59 10 5 12 37 22 46 23 5 7 12 11 46
split_gain=0.0040113 0.00373469 0.00316509 0.00233464 0.00272107 0.0025324 0.0052315 0.00281424 0.00303599 0.00252067 0.00350766 0.00250174 0.00199584 0.00191654 0.00159416 0.00132242 0.00120109 0.00113778 0.000999808 0.000993487 0.000948036 0.000902378 0.000789482 0.000559727 0.000373487 0.000301006 0.0001179 0.000101476 9.38499e-05
threshold=3.5748839402208104 0.061254857387741148 0.81250385421371518 381.2949000000001 1606.8250000000003 1045.1750000000004 0.067059582098201856 -0.45366869104703911 0.0072401977105527116 -0.0097569001394935562 0.0056220450927338961 -0.60143453022324123 0.034189987628538206 225.79650090961806 1455.8000000000002 1257.8500000000001 94.497158834338691 -24.624999999999996 242.07569377111852 1889.6500000000003 0.03468375517731815 0.0087084859585636627 0.007973453051101774 0.027077351188824376 390.39802118785769 -1.0456559048853731 1203.7 0.0049577305187742159 0.0092716437721140511
decision_type=2 2 2 2 2 2 2 2 2 2 2 2 2 2 2 2 2 2 2 2 2 2 2 2 2 2 2 2 2
left_child=3 24 28 5 11 7 14 9 13 10 -1 15 -10 -9 16 25 -7 -8 -11 21 22 -6 -13 -22 26 -5 -2 -17 -3
right_child=1 2 -4 4 19 6 17 8 12 18 -12 20 -14 -15 -16 27 -18 -19 -20 -21 23 -23 -24 -25 -26 -27 -28 -29 -30
leaf_value=0.001205123378399839 0.00012087109532684114 0 0 -0.00019469316490191644 0.00056175943879464732 0.00029178039307452654 0 9.6026206233894442e-05 -0.00011266539546595258 0 6.622750075228274e-05 9.8450047479430172e-05 5.9408863009127673e-05 -7.4121605570690483e-06 0 0 0 -0.00042284996434001078 0.00015260759107635041 0 -0.00016868307453232501 0 -9.9338512603068733e-05 0 -0.00022337386292052563 0 0 -0.00071173014664261628 -0.0010841945427655366
leaf_weight=13.999999999999998 29 9.9999999999999982 14.999999999999998 25 24 283 9.9999999999999982 685 831 155 36 123 170 1075 59 12.999999999999998 11.999999999999998 40 173 9.9999999999999982 176 9.9999999999999982 79 17 15.999999999999998 25 9.9999999999999982 32 23
leaf_count=14 29 10 15 25 24 283 10 685 831 155 36 123 170 1075 59 13 12 40 173 10 176 10 79 17 16 25 10 32 23
internal_value=0 -0.000306247 -0.000628601 9.39021e-06 -8.59945e-05 2.51798e-05 0.000143838 8.31116e-06 -7.50137e-06 0.000137005 0.000486688 -0.000126854 -7.84445e-05 3.00089e-05 0.000219842 -0.000368299 0.000267392 -0.000293833 6.83283e-05 0.000254914 -5.60521e-05 0.000396072 0 -0.000136757 0 -6.30101e-05 5.77487e-05 -0.000595751 -0.000901809
internal_weight=0 103 48 4077 534 3543 404 3139 2761 378 50 490 1001 1760 354 95 295 50 328 44 395 34 202 193 55 50 39 45 33
internal_count=4180 103 48 4077 534 3543 404 3139 2761 378 50 490 1001 1760 354 95 295 50 328 44 395 34 202 193 55 50 39 45 33
is_linear=0
shrinkage=0.05


end of trees

feature_importances:
macd_signal=38
atr_normalized=28
adx=27
volume_ma=23
bb_width=19
bb_lower=18
volatility=18
macd_hist=18
volatility_ma=18
atr_ma=16
macd_strength=14
atr_ratio=14
atr=13
return_6=12
return_24=12
ema_cross_pct=12
momentum_convergence=12
volatility_ratio=11
sma_50=11
macd=10
ema_fast=9
bb_middle=9
bb_upper=9
range=9
momentum_ratio=9
price_bb_upper_dist=8
stoch_d=7
price_sma_50_dist=7
volume_ratio=5
price_sma_20_dist=5
ema_slow=4
return_12=4
price_bb_lower_dist=4
macd_hist_change=4
momentum_10=3
momentum_20=3
upper_shadow=3
return_1=3
return_3=3
price_ema_fast_dist=3
bb_position=3
rsi=2
body=2
rsi_divergence=2
price_ema_slow_dist=2
sma_20=2
range_pct=1
log_return=1
rsi_normalized=1
bb_position_normalized=1
macd_cross_signal=1
stoch_k=1
market_regime=1

parameters:
[boosting: gbdt]
[objective: regression]
[metric: rmse]
[tree_learner: serial]
[device_type: cpu]
[data: ]
[valid: ]
[num_iterations: 500]
[learning_rate: 0.05]
[num_leaves: 50]
[num_threads: 8]
[deterministic: 0]
[force_col_wise: 0]
[force_row_wise: 0]
[histogram_pool_size: -1]
[max_depth: 6]
[min_data_in_leaf: 10]
[min_sum_hessian_in_leaf: 0.001]
[bagging_fraction: 0.7]
[pos_bagging_fraction: 1]
[neg_bagging_fraction: 1]
[bagging_freq: 1]
[bagging_seed: 400]
[feature_fraction: 0.7]
[feature_fraction_bynode: 1]
[feature_fraction_seed: 30056]
[extra_trees: 0]
[extra_seed: 12879]
[early_stopping_round: 0]
[first_metric_only: 0]
[max_delta_step: 0]
[lambda_l1: 0.1]
[lambda_l2: 0.1]
[linear_lambda: 0]
[min_gain_to_split: 0]
[drop_rate: 0.1]
[max_drop: 50]
[skip_drop: 0.5]
[xgboost_dart_mode: 0]
[uniform_drop: 0]
[drop_seed: 17869]
[top_rate: 0.2]
[other_rate: 0.1]
[min_data_per_group: 100]
[max_cat_threshold: 32]
[cat_l2: 10]
[cat_smooth: 10]
[max_cat_to_onehot: 4]
[top_k: 20]
[monotone_constraints: ]
[monotone_constraints_method: basic]
[monotone_penalty: 0]
[feature_contri: ]
[forcedsplits_filename: ]
[refit_decay_rate: 0.9]
[cegb_tradeoff: 1]
[cegb_penalty_split: 0]
[cegb_penalty_feature_lazy: ]
[cegb_penalty_feature_coupled: ]
[path_smooth: 0]
[interaction_constraints: ]
[verbosity: 1]
[saved_feature_importance_type: 0]
[linear_tree: 0]
[max_bin: 255]
[max_bin_by_feature: ]
[min_data_in_bin: 3]
[bin_construct_sample_cnt: 200000]
[data_random_seed: 175]
[is_enable_sparse: 1]
[enable_bundle: 1]
[use_missing: 1]
[zero_as_missing: 0]
[feature_pre_filter: 1]
[pre_partition: 0]
[two_round: 0]
[header: 0]
[label_column: ]
[weight_column: ]
[group_column: ]
[ignore_column: ]
[categorical_feature: ]
[forcedbins_filename: ]
[precise_float_parser: 0]
[parser_config_file: ]
[objective_seed: 16083]
[num_class: 1]
[is_unbalance: 0]
[scale_pos_weight: 1]
[sigmoid: 1]
[boost_from_average: 1]
[reg_sqrt: 0]
[alpha: 0.9]
[fair_c: 1]
[poisson_max_delta_step: 0.7]
[tweedie_variance_power: 1.5]
[lambdarank_truncation_level: 30]
[lambdarank_norm: 1]
[label_gain: ]
[lambdarank_position_bias_regularization: 0]
[eval_at: ]
[multi_error_top_k: 1]
[auc_mu_weights: ]
[num_machines: 1]
[local_listen_port: 12400]
[time_out: 120]
[machine_list_filename: ]
[machines: ]
[gpu_platform_id: -1]
[gpu_device_id: -1]
[gpu_use_dp: 0]
[num_gpu: 1]

end of parameters

pandas_categorical:[]
