tree
version=v4
num_class=1
num_tree_per_iteration=1
label_index=0
max_feature_idx=56
objective=regression
feature_names=rsi bb_middle bb_upper bb_lower atr momentum_10 momentum_20 volatility volume_ma range range_pct body body_pct upper_shadow lower_shadow is_bullish return_1 return_3 return_6 return_12 return_24 log_return rsi_normalized rsi_overbought rsi_oversold rsi_divergence bb_width bb_position bb_position_normalized price_bb_upper_dist price_bb_lower_dist bb_breakout_upper bb_breakout_lower atr_normalized atr_ma atr_ratio momentum_ratio momentum_convergence volume_ratio volume_spike volume_change volatility_ma volatility_ratio high_volatility low_volatility stoch_k stoch_d stoch_overbought stoch_oversold adx strong_trend sma_20 price_sma_20_dist sma_50 price_sma_50_dist signal_convergence market_regime
feature_infos=[0:99.145297958945207] [0:433.77300000000002] [0:445.7902884830076] [0:429.47706752940064] [0:5.6750000000000158] [-25.279999999999973:28.700000000000045] [-31.779999999999973:25.949999999999989] [0:0.013760960557476004] [0:2115.0500000000002] [0:13.050000000000011] [0:0.03421614934772834] [0:10.25] [0:0.026920687512942638] [0:4.8700000000000045] [0:4.5] [0:1] [-0.050838840874428026:0.045717965228589952] [-0.057869419839267966:0.061171925305859576] [-0.062313273580879347:0.055282817502668058] [-0.068215417106652576:0.083728761671513885] [-0.090496047799838109:0.085476025017373169] [-0.052176674847336416:0.04470369757293631] [-0.94594594696859302:0.98290595917890411] [0:1] [0:1] [-30.685579898938528:30.655894189272409] [0:0.1185808689057089] [-0.39000481601162978:1.4312802625283376] [-1.7800096320232597:1.8625605250566752] [-0.014907105856414044:0.10111453388061334] [-0.013692039624379688:0.095935693106670827] [0:1] [0:1] [0:0.01518304181026075] [0:5.0375357142857249] [0:1.7958743291669197] [-387999999.99999952:259999999.99999943] [-28.700000000000045:25.279999999999973] [0:3.4909160086846587] [0:1] [-0.99886813808715336:944] [0:0.013272101953949508] [0:2.8686155747316899] [0:1] none [0:99.999999925373132] [0:99.128093654670806] [0:1] [0:1] [0:86.579415337112295] [0:1] [0:433.77300000000002] [-0.051861963793781926:0.050205850487540539] [0:429.52199999999999] [-0.084765493890769872:0.066042024013722056] [0:1] [0:2]
tree_sizes=1320 1371 1270 1127 1242 1108 1394

Tree=0
num_leaves=13
num_cat=0
split_feature=33 54 34 49 2 35 33 53 42 34 26 42
split_gain=0.0252088 0.00938172 0.00803958 0.00839363 0.00612461 0.00561574 0.00554604 0.00529006 0.00525183 0.00306066 0.00269147 0.00146962
threshold=0.0077724759551764337 0.043014863518814249 3.4683392857142903 53.438292788644127 389.43443905888978 1.0214470991628208 0.0097281561557455605 281.98710000000005 1.0947945666876655 2.4461785714285744 0.044401044666252852 1.008586158371551
decision_type=2 2 2 2 2 2 2 2 2 2 2 2
left_child=4 2 3 -2 5 7 -3 -1 -4 -6 -7 -11
right_child=1 6 8 -5 9 10 -8 -9 -10 11 -12 -13
leaf_value=0.0012431232302493583 0.0011936904102052236 0.0011732745129171501 0.0011129332675350219 0.0012603789629311039 0.0011184141028451459 0.001214558321066517 0.00097353552400737176 0.0012857524674251756 0.0012233620026263334 0.0011960076684480127 0.0012627343056394664 0.0012532266506722009
leaf_weight=1209 959 54 171 223 46 662 33 446 50 145 140 53
leaf_count=1209 959 54 171 223 46 662 33 446 50 145 140 53
internal_value=0.00122336 0.00118853 0.0011957 0.00120713 0.00123972 0.00124471 0.00108509 0.00125523 0.00113927 0.00119366 0.00122336 0.0012164
internal_weight=0 1490 1403 1182 2701 2457 87 1655 221 244 802 198
internal_count=4191 1490 1403 1182 2701 2457 87 1655 221 244 802 198
is_linear=0
shrinkage=1


Tree=1
num_leaves=14
num_cat=0
split_feature=33 41 8 1 8 41 6 19 4 33 46 3 5
split_gain=0.0198092 0.00938716 0.0102952 0.00700913 0.0105895 0.00546016 0.00544042 0.00468053 0.00850965 0.00675611 0.00372521 0.00210717 0.00214055
threshold=0.0077724759551764337 0.0084936449355245847 832.95000000000016 385.72125000000011 1045.1750000000004 0.0064832084999756328 -7.9900000000000082 0.033782378180133417 2.4210714285714259 0.012616160577046081 88.190084723405064 380.26212416130971 -0.57499999999998852
decision_type=2 2 2 2 2 2 2 2 2 2 2 2 2
left_child=3 7 -3 4 5 -1 -4 9 -9 -2 -6 -5 -13
right_child=1 2 6 11 10 -7 -8 8 -10 -11 -12 12 -14
leaf_value=1.790411877525218e-05 -1.9418153696161917e-05 0 -4.3948146743729479e-05 1.0035857807028375e-05 0.0001124539876182543 -6.0018208950605394e-05 -0.00026975614859119936 0 -0.00018314099918364201 0.00012553167465837703 0 -2.0343432966863204e-06 -9.0420269069267103e-05
leaf_weight=2216 1210 32 31 36 163 88 42 58 49 31 41 76 88
leaf_count=2216 1210 32 31 36 163 88 42 58 49 31 41 76 88
internal_value=0 -2.94388e-05 -0.000122375 1.63189e-05 2.11247e-05 1.44816e-05 -0.000188422 -2.14155e-05 -8.6766e-05 -1.49428e-05 9.10435e-05 -3.88604e-05 -5.56706e-05
internal_weight=0 1453 105 2708 2508 2304 73 1348 107 1241 204 200 164
internal_count=4161 1453 105 2708 2508 2304 73 1348 107 1241 204 200 164
is_linear=0
shrinkage=0.01


Tree=2
num_leaves=13
num_cat=0
split_feature=33 41 49 1 33 1 30 35 1 35 42 20
split_gain=0.021792 0.00904622 0.00741045 0.00801097 0.00595814 0.00511346 0.0047986 0.00431157 0.00380177 0.00181353 0.000697595 0.000113853
threshold=0.0080338756736951875 0.0084936449355245847 17.780465069240645 395.37475000000001 0.012616160577046081 239.88375000000005 0.0066044458880225023 1.02908184474342 204.94500000000002 1.0599236097296576 0.9427923015926658 -1.0000000180025095e-35
decision_type=2 2 2 2 2 2 2 2 2 2 2 2
left_child=2 4 8 7 6 -3 -2 -4 11 -10 -7 -1
right_child=1 5 3 -5 -6 10 -8 -9 9 -11 -12 -13
leaf_value=-1.871673142394194e-05 -7.6136320385039629e-05 0 1.9670296449978128e-05 -0.00011940631164531959 8.7688498273721821e-05 -7.4537760526393823e-05 -1.936711240275375e-05 -7.4952756692868331e-06 8.1383857333328818e-05 0 -0.00020307144808979463 0
leaf_weight=32 203 30 1699 47 40 42 948 825 261 36 50 34
leaf_count=32 203 30 1699 47 40 42 948 825 261 36 50 34
internal_value=0 -3.49459e-05 1.4039e-05 7.61055e-06 -2.54403e-05 -0.000119097 -3.02765e-05 1.03951e-05 5.67451e-05 7.2196e-05 -0.000155924 0
internal_weight=0 1313 2934 2571 1191 122 1151 2524 363 297 92 66
internal_count=4247 1313 2934 2571 1191 122 1151 2524 363 297 92 66
is_linear=0
shrinkage=0.01


Tree=3
num_leaves=11
num_cat=0
split_feature=41 53 35 8 35 8 8 35 54 20
split_gain=0.0189708 0.0136005 0.0126051 0.012678 0.00845336 0.00534031 0.00525216 0.0044619 0.00400856 0.00234027
threshold=0.0084936449355245847 384.05610000000007 1.02908184474342 685.37500000000011 1.3580749602263098 1543.0250000000003 832.95000000000016 0.8792117669415106 0.021046187473432072 -0.0068162920582651712
decision_type=2 2 2 2 2 2 2 2 2 2
left_child=1 2 3 -1 -4 7 -2 -3 -7 -8
right_child=6 5 4 -5 -6 8 9 -9 -10 -11
leaf_value=9.7738291396359518e-06 0 2.3251954360422506e-06 -4.9875601669539429e-06 6.3515216879755763e-05 -0.00014075143372678419 0.00010257312566148047 -8.0722480990107732e-05 -7.2474074934652583e-05 -3.2382924187307557e-05 -0.00025003508632135107
leaf_weight=1418 37 70 1442 676 48 39 44 359 34 36
leaf_count=1418 37 70 1442 676 48 39 44 359 34 36
internal_value=0 4.61401e-06 1.16644e-05 2.76115e-05 -1.00778e-05 -4.36937e-05 -0.000124203 -5.79523e-05 2.63187e-05 -0.000170415
internal_weight=0 4086 3584 2094 1490 502 117 429 73 80
internal_count=4203 4086 3584 2094 1490 502 117 429 73 80
is_linear=0
shrinkage=0.01


Tree=4
num_leaves=12
num_cat=0
split_feature=34 49 2 8 8 20 20 49 34 54 19
split_gain=0.0199864 0.0129848 0.00903982 0.00909506 0.00818297 0.00771334 0.00761 0.00466516 0.00366772 0.0028282 0.00182996
threshold=3.355928571428572 17.624447496762752 348.51615184457694 1522.6500000000003 1036.8750000000002 0.053492933131359839 0.030094700549246015 58.68886233191872 2.0444464285714292 0.049803702701127016 -0.0060013241293418442
decision_type=2 2 2 2 2 2 2 2 2 2 2
left_child=1 4 -2 7 8 6 -3 -4 -1 -7 -5
right_child=2 5 3 10 -6 9 -8 -9 -10 -11 -12
leaf_value=5.8708282132175987e-05 4.5612794129395641e-05 -4.8337502121208424e-06 -0.00010864834978005066 2.9580207812269008e-05 0.00014792440363106774 -3.1740183699013132e-05 3.9920279219726757e-05 -0.00028259256445482128 -1.1958660423726639e-06 -0.00017204629718812543 -5.7015510143271541e-05
leaf_weight=202 38 2981 143 39 84 71 434 30 144 33 46
leaf_count=202 38 2981 143 39 84 71 434 30 144 33 46
internal_value=0 4.33366e-06 -8.07313e-05 -0.000103261 5.62491e-05 -1.73304e-06 5.66106e-07 -0.000145303 3.09253e-05 -8.64399e-05 -5.64682e-06
internal_weight=0 3949 296 258 430 3519 3415 173 346 104 85
internal_count=4245 3949 296 258 430 3519 3415 173 346 104 85
is_linear=0
shrinkage=0.01


Tree=5
num_leaves=11
num_cat=0
split_feature=41 49 1 8 8 42 6 34 2 54
split_gain=0.0227888 0.0109172 0.0107925 0.0106893 0.0091334 0.0089588 0.0059129 0.00346636 0.00422344 0.000157012
threshold=0.0084936449355245847 17.624447496762752 394.17950000000002 853.12500000000011 1522.6500000000003 1.204023918461419 -7.9900000000000082 1.5633928571428566 234.05837835207555 -0.0093116239176147999
decision_type=2 2 2 2 2 2 2 2 2 2
left_child=1 7 5 -2 -4 -3 -5 9 -9 -1
right_child=3 2 4 6 -6 -7 -8 8 -10 -11
leaf_value=-2.0300076596276273e-05 0 8.5904646650492332e-06 -0.0001318617851029081 -5.9818411485331373e-05 5.2519010802020626e-07 -3.8291304473881982e-05 -0.00028126462548481003 0.00018093368903615738 4.9122307938736544e-05 6.4444170699575695e-06
leaf_weight=31 48 2986 114 35 69 469 47 35 307 65
leaf_count=31 48 2986 114 35 69 469 47 35 307 65
internal_value=0 3.66169e-06 -1.75457e-06 -0.000130561 -7.66304e-05 1.93247e-06 -0.000199801 5.08801e-05 6.57759e-05 0
internal_weight=0 4076 3638 130 183 3455 82 438 342 96
internal_count=4206 4076 3638 130 183 3455 82 438 342 96
is_linear=0
shrinkage=0.01


Tree=6
num_leaves=14
num_cat=0
split_feature=33 30 20 49 33 3 17 4 8 35 13 1 34
split_gain=0.0188021 0.00895945 0.0107495 0.00785126 0.00654155 0.00612698 0.00579154 0.00734086 0.00532432 0.00453108 0.00303244 0.00271332 0.00171234
threshold=0.0077724759551764337 0.044715747323488257 0.033669184833068362 18.120117786792104 0.012616160577046081 382.04653370096111 0.016767850532589005 2.4946428571428663 1018.8750000000001 1.1850884339761147 0.38499999999999096 204.94500000000002 2.602357142857143
decision_type=2 2 2 2 2 2 2 2 2 2 2 2 2
left_child=3 2 4 8 -2 9 7 -3 11 -5 -4 -1 -7
right_child=1 6 10 5 -6 12 -8 -9 -10 -11 -12 -13 -14
leaf_value=-6.6743935661010991e-06 -3.3223456248102155e-05 -2.3535304496788397e-05 0 1.6152952597903716e-05 9.5121782670418438e-05 -0.00011894640451954569 0 -0.00018081240085254615 0.00014802663380915457 -4.7078913872440652e-05 0.00010102350719113786 5.429959738640654e-05 -1.0504524406307369e-05
leaf_weight=67 1103 69 45 2163 37 42 38 90 64 112 85 231 60
leaf_count=67 1103 69 45 2163 37 42 38 90 64 112 85 231 60
internal_value=0 -2.8424e-05 -1.76901e-05 1.59253e-05 -2.81412e-05 8.81589e-06 -9.23391e-05 -0.000119117 5.97726e-05 1.25909e-05 6.60516e-05 3.72524e-05 -6.52756e-05
internal_weight=0 1467 1270 2739 1140 2377 197 159 362 2275 130 298 102
internal_count=4206 1467 1270 2739 1140 2377 197 159 362 2275 130 298 102
is_linear=0
shrinkage=0.01


end of trees

feature_importances:
volume_ma=10
atr_normalized=8
atr_ratio=7
bb_middle=6
atr_ma=6
adx=6
return_24=5
volatility_ma=5
volatility_ratio=4
price_sma_50_dist=4
bb_upper=3
bb_lower=2
atr=2
momentum_20=2
return_12=2
price_bb_lower_dist=2
sma_50=2
momentum_10=1
upper_shadow=1
return_3=1
bb_width=1
stoch_d=1

parameters:
[boosting: gbdt]
[objective: regression]
[metric: rmse]
[tree_learner: serial]
[device_type: cpu]
[data: ]
[valid: ]
[num_iterations: 300]
[learning_rate: 0.01]
[num_leaves: 16]
[num_threads: 8]
[deterministic: 0]
[force_col_wise: 0]
[force_row_wise: 0]
[histogram_pool_size: -1]
[max_depth: 4]
[min_data_in_leaf: 30]
[min_sum_hessian_in_leaf: 0.001]
[bagging_fraction: 0.7]
[pos_bagging_fraction: 1]
[neg_bagging_fraction: 1]
[bagging_freq: 1]
[bagging_seed: 400]
[feature_fraction: 0.7]
[feature_fraction_bynode: 1]
[feature_fraction_seed: 30056]
[extra_trees: 0]
[extra_seed: 12879]
[early_stopping_round: 0]
[first_metric_only: 0]
[max_delta_step: 0]
[lambda_l1: 0.1]
[lambda_l2: 0.5]
[linear_lambda: 0]
[min_gain_to_split: 0]
[drop_rate: 0.1]
[max_drop: 50]
[skip_drop: 0.5]
[xgboost_dart_mode: 0]
[uniform_drop: 0]
[drop_seed: 17869]
[top_rate: 0.2]
[other_rate: 0.1]
[min_data_per_group: 100]
[max_cat_threshold: 32]
[cat_l2: 10]
[cat_smooth: 10]
[max_cat_to_onehot: 4]
[top_k: 20]
[monotone_constraints: ]
[monotone_constraints_method: basic]
[monotone_penalty: 0]
[feature_contri: ]
[forcedsplits_filename: ]
[refit_decay_rate: 0.9]
[cegb_tradeoff: 1]
[cegb_penalty_split: 0]
[cegb_penalty_feature_lazy: ]
[cegb_penalty_feature_coupled: ]
[path_smooth: 0]
[interaction_constraints: ]
[verbosity: 1]
[saved_feature_importance_type: 0]
[linear_tree: 0]
[max_bin: 255]
[max_bin_by_feature: ]
[min_data_in_bin: 3]
[bin_construct_sample_cnt: 200000]
[data_random_seed: 175]
[is_enable_sparse: 1]
[enable_bundle: 1]
[use_missing: 1]
[zero_as_missing: 0]
[feature_pre_filter: 1]
[pre_partition: 0]
[two_round: 0]
[header: 0]
[label_column: ]
[weight_column: ]
[group_column: ]
[ignore_column: ]
[categorical_feature: ]
[forcedbins_filename: ]
[precise_float_parser: 0]
[parser_config_file: ]
[objective_seed: 16083]
[num_class: 1]
[is_unbalance: 0]
[scale_pos_weight: 1]
[sigmoid: 1]
[boost_from_average: 1]
[reg_sqrt: 0]
[alpha: 0.9]
[fair_c: 1]
[poisson_max_delta_step: 0.7]
[tweedie_variance_power: 1.5]
[lambdarank_truncation_level: 30]
[lambdarank_norm: 1]
[label_gain: ]
[lambdarank_position_bias_regularization: 0]
[eval_at: ]
[multi_error_top_k: 1]
[auc_mu_weights: ]
[num_machines: 1]
[local_listen_port: 12400]
[time_out: 120]
[machine_list_filename: ]
[machines: ]
[gpu_platform_id: -1]
[gpu_device_id: -1]
[gpu_use_dp: 0]
[num_gpu: 1]

end of parameters

pandas_categorical:[]
